3.336388411889571089e-03 -6.056033994829407817e-03 2.222830621510937799e-02 -4.700437495891503226e-03 -1.623107804009687669e-02 -1.378284188521934281e-02 -3.816622911124849596e-03 -1.073031280238474772e-02 -2.094873021187668074e-03 -1.222996270429863724e-02 -1.806151509265701421e-02 1.227987873953712179e-02 7.061667159434309449e-02 -1.922440278003956530e-03 -1.038518952454316885e-02 -6.168758532719930548e-03 -1.230874081519018649e-02 -1.145638242869175850e-02 1.825215170053840277e-02 3.199203916476819898e-02 6.327947551923607077e-03 -2.246924475295319131e-03 5.299556754238318311e-05 1.791532341023196638e-03 1.563157865286465440e-03 -7.077138257219020567e-03 4.256108350266461435e-03 -7.739235279002053790e-03 3.488995544542956677e-03 -1.120702343462812514e-02 -3.734591466093983500e-03 -3.045598318835042624e-03 -2.425263661550399949e-03 1.320929283064994214e-02 -1.014458165052030403e-02 -1.275549179765083675e-02 7.864303284993613566e-04 -6.651574472372434599e-02 3.946360395931525732e-03 -7.001899234020002305e-02 5.199786622152072560e-03 -2.217723923087161139e-02 -7.174852206870581221e-03 -3.400227678659790281e-03 -1.196093442699795728e-02 -3.468222035925686442e-03 -8.362566709900036421e-03 3.586179917701836067e-03 -7.980003766497104772e-03 -3.172225021599060519e-03 -1.166152963994133811e-02 -4.583159954581052069e-03 -1.395511070638933045e-02 -8.063400175250447915e-03 -5.590595630474578213e-03 1.242753355957693512e-01 -4.480127676929156200e-02 -9.239381927421698101e-03 -8.609624354921067979e-03 1.363955254308827497e-03 -4.649052188390972833e-03 4.478929002920690149e-03 -2.234599420097346453e-02 -2.201659343893362999e-02 -1.046537880689482961e-02 -1.929984902498755109e-02 1.685949219275778913e-02 -3.849896875337453783e-03 4.283704020676664531e-02 -6.635821842146873151e-03 -9.150924713631774718e-03 -2.505351482452931877e-02 -1.251789450812760829e-01 -4.254624367360811295e-03 5.629953302686716010e-02 -1.860441639427458035e-02 -8.221010245201984534e-02 8.538217412073334511e-03 -6.805242889553182739e-02 -1.165200039290438441e-03 -3.024821318079926134e-03 -8.851304470687877679e-02 -6.726517531678215776e-03 -2.086206938047549184e-02 -6.494818868540429974e-03 -7.105348098483761990e-03 -4.928643894059901547e-03 -1.901544037203028222e-03 -8.492774471285374901e-04 -4.175787244132878225e-03 -7.718336747049702601e-03 -9.009753163927662623e-02 -8.468409228007223871e-03 -3.297631829413303316e-03 2.019428653687142371e-03 -3.892546827641671110e-03 -1.143945294028277104e-02 -9.347617826069919839e-03 -6.329819528373366311e-02 -1.196715173541697125e-01 2.972345005119371442e-03 2.137037727224307473e-02 -3.539130914834704572e-02 -5.739166470667661502e-03 -1.908981025375209445e-02 -9.275566088325850819e-03 -2.972741195067857365e-03 5.361872045734274173e-02 -5.941295594759156938e-03 1.513047432832193562e-01 -1.902537413829009233e-02 -8.149239592823973033e-03 -4.026909377587650773e-02 2.341230333806037199e-03 -3.797964609664039592e-02 -3.535753506926020244e-03 7.684688486736988844e-02 -8.991379090304224900e-03 -7.945430339132680125e-03 -1.315414204929581804e-02 -3.451191432620785010e-02 -8.726352475283671514e-03 -7.505890772183436421e-02 -3.717546897979427754e-03 -8.524295813486343354e-02 -1.618148241657314801e-02 -1.005519068105492110e-02 4.539525196593181822e-03 -5.315412212591307667e-02 -1.072789108273020445e-02 1.790729432741948197e-03 -4.756657007565830847e-03 6.232810522857825525e-02 -4.619050159972582469e-03 -1.006751697491924851e-03 1.752206865382718469e-03 -8.171852467318005409e-02 -1.285521111326346335e-03 -5.322691283214186532e-03 -2.075565615003841392e-03 -5.433812962861545026e-02 -6.720015197722556399e-03 1.133856589577549034e-03 -4.284438115566508408e-03 -9.345360611826355676e-03 -7.325517885257500257e-03 -4.837963670400654073e-03 -9.000901097558121344e-02 1.421711662363514929e-03 -1.167289769962519697e-03 -1.023354199848966646e-02 -1.019931208122807666e-02 -3.563525704426021099e-03 -5.239375390031923534e-03 -1.406227510202982985e-02 -2.012623635232591718e-02 -6.246301785751954064e-03 -1.978741310059955322e-02 3.637314144383279528e-04 -4.927728460170779229e-03 -1.582443485978546035e-03 -4.831653629453391309e-03 -1.552827794141452798e-02 -3.633703410417762208e-02 -6.826394185928033771e-03 -4.421638078133167775e-03 -1.815753143311169687e-02 -1.225991319691813741e-01 -1.382618539212433252e-02 -4.448289223381823691e-03 -1.032521276981174414e-02 -1.027955935099426205e-02 -1.747487633058910457e-03 3.071033831503088094e-03 -5.437755205822001649e-03 -1.249313201040806384e-02 -6.527464007301811248e-03 -7.020317365070456381e-03 1.501191502620201068e-01 -4.965354363816456423e-02 -2.521992139505855463e-03 -6.937162147520099797e-02 8.947036205018238722e-03 1.456277682950501019e-03 -2.674862624880221425e-04 -4.647845150692438837e-02 3.741146517360227890e-03 -1.007763818184356092e-02 -9.572173298665381715e-04 -1.104090117655178761e-02 1.029721175944438424e-03 -8.007873565836856090e-04 1.949770379223260191e-03 4.099042127076535716e-03 -4.491296921598873261e-03 -1.529800425285157001e-02 -2.386472092404863434e-03 -7.092297021583727872e-03 -1.122329973262008694e-02 -1.748570544828805667e-02 -1.509061590101834771e-01 -6.606884650950468896e-02 -9.180450750215276776e-03 -1.157801106715650868e-02 -9.987423218128657978e-03 -5.003674449810646251e-04 -9.736798483460120529e-03 4.352901086465383955e-04 -7.540585925397429515e-03 -1.185318766615115968e-02 -6.784836456689893880e-02 -1.076027251679200457e-02 -1.378599195483642091e-02 -7.797860298606212881e-03 -3.742682349727962654e-01 -3.489199868050271540e-03 -1.807512987477494920e-02 -2.395861740801418904e-03 1.686981623487485431e-04 -4.714419556188714951e-03 -3.237996444783768774e-02 -1.758980990028063919e-03 -6.114052734205299884e-03 -9.883764379149706167e-03 -1.201835570942106149e-03 -4.530038997080799122e-03 -1.820485943151142066e-02 -3.626839285354066522e-03 3.605155671012568071e-03 -1.005512058821291937e-01 -6.466417510448319375e-03 -1.105554047717642943e-02 -4.593742722626841662e-03 -9.221372549480985050e-04 1.375427185143355754e-03 -4.270027000899346420e-02 -4.448716262330814318e-03 -8.406223715708437821e-03 5.747062809693443850e-05 2.798916811425442019e-02 -4.914096474040328434e-03 -1.112535258096749718e-01 1.380236869049955746e-02 4.758243998625854426e-03 6.531287224967703524e-03 -5.880495263454113899e-03 -2.419243243572159145e-05 -2.256676648571355470e-02 -1.156430347734489598e-02 -8.626974404821298806e-04 7.822747459280538634e-03 -1.031828926708291527e-03 -1.844091994792345507e-02 1.056644901276929810e-02 2.043624889380071721e-03 -7.676830824910182635e-03
2.491512894576289674e-02 2.511059360328342371e-02 5.132806239387019062e-03 3.164438492098291256e-02 3.562298688020512638e-02 3.989784696462777419e-02 2.348390199727249522e-02 2.393150828396389124e-02 2.874062789691132075e-02 3.735453862520417279e-02 4.835501723796396117e-02 3.382561718131245343e-02 1.250992446398045410e-01 3.100498954491816631e-02 2.234337336180708400e-02 2.876075985634432564e-02 3.822900817382104965e-02 2.832386623345072366e-02 1.449697139026153922e-02 2.685389454985358249e-02 2.583258297913133827e-02 3.045215146166477260e-02 3.076437497735543328e-02 2.481087606403023851e-02 2.532586301837303627e-02 3.511068265147798684e-02 3.181710498853445451e-02 2.561947322856074696e-02 2.762682963758540666e-02 4.382226378069797867e-02 3.383421932510773805e-02 3.102999034030840680e-02 2.717120635793453601e-02 2.209995256717817158e-02 3.639118369933014296e-02 2.962517720120514189e-02 3.946773300184908129e-02 1.711256432959667312e-02 3.792170390673377245e-02 -4.781501290498355039e-03 2.321512668192350290e-02 4.721176257625524925e-02 2.822034891700615084e-02 2.168744937846564177e-02 3.615592985679462468e-02 2.792710292354480886e-02 3.856225799893581857e-02 2.837000070950270597e-02 3.276900746581683926e-02 1.981828426549235578e-02 2.985591239970558988e-02 2.751459477644115081e-02 3.222073766096462261e-02 3.614802309865609853e-02 3.529819656978707559e-02 2.185636400171751467e-02 7.599118994767535031e-03 2.720756824870136301e-02 2.877952000989847034e-02 3.171948679332420307e-02 2.604409921070299436e-02 2.250956716506325242e-02 4.649367360829717577e-02 3.727416620390264917e-02 3.870055399859419903e-02 2.458116623574920639e-02 1.913296729598750953e-02 2.498259008919836641e-02 1.508567313962589328e-02 3.206111744523348211e-02 3.242470196959758300e-02 2.527929474466053539e-02 -4.084732764577446440e-02 3.871633982722538780e-02 2.568565569806378901e-02 3.705439417858102935e-02 4.314779746629047140e-03 2.929348181054737196e-02 -1.305707284134278480e-02 2.885649471321605555e-02 2.636555780887242517e-02 -1.372436348290788539e-02 3.571311374722841575e-02 4.702005301037093937e-02 2.661005344149973764e-02 2.077465350758563728e-02 2.949151273106836654e-02 1.057260563967444590e-02 3.268111439029420390e-02 2.572202339727826595e-02 3.160453389535593932e-02 8.556795784681552443e-04 3.213044509976899221e-02 3.419945375186446423e-02 3.062347233048779566e-02 3.216013742961300326e-02 3.066924848445922239e-02 2.013240114612169923e-02 2.104783404912390771e-02 -2.035166868913355076e-01 3.319730789767613016e-02 -3.875239232657481329e-03 9.605971013768802025e-02 3.995552222876458393e-02 2.198006262169032322e-03 1.539225830635375207e-02 3.768388032472651944e-02 2.877737216373604801e-02 3.379388469790634009e-02 1.969157038234385371e-01 4.860413206365920419e-02 3.067058729268664491e-02 5.989235479839005206e-03 3.495850153537626015e-02 2.006232323265290385e-02 3.420855376734479453e-02 -4.487519527127322577e-02 2.608249656915909848e-02 2.651539407233410514e-02 4.046207555165334119e-02 3.112505112681733868e-02 2.390407340753817125e-02 6.298801263437880590e-03 3.573195255930380898e-02 -8.719574859204309164e-03 5.727202082814347034e-02 2.891136943002052886e-02 2.370914851081055291e-02 6.564087997266159977e-03 3.252143375229606809e-02 2.937304082461035873e-02 2.966708864880110083e-02 8.065021809116902640e-02 2.358182375667168193e-02 4.032588928338439599e-02 4.256532174266060981e-02 2.774157382397320071e-02 3.093122890598580185e-02 3.351351342587436527e-02 2.363581336009775227e-02 7.727138452678715408e-03 2.386741350447408108e-02 2.476038754950110263e-02 4.029124135298426529e-02 3.478041932571637046e-02 2.914725896519735834e-02 2.654800728673634841e-02 2.766573845547210322e-02 3.084450724060259011e-02 3.497096067652111229e-02 2.931184428842717807e-02 4.143809326948320881e-02 2.953281779617992348e-02 4.092816668053027990e-02 3.505230698592121802e-02 2.071340536722074063e-02 3.532090488728151234e-02 5.434182037466418758e-02 1.815859251524154852e-02 3.206046110143665612e-02 2.308317645945642815e-02 3.877908031627023272e-02 2.387730484097468769e-02 2.464988837055208035e-02 3.356490069311221514e-02 3.251310210849885779e-02 1.372332145775343251e-02 -2.351209320189137988e-02 4.410065895518404389e-02 2.753482890923879267e-02 2.816737656763012437e-02 3.770469417737478540e-02 2.959750380865648969e-02 2.784569117342326067e-02 3.267098274201014896e-02 1.646361648638299327e-02 3.062519450321571357e-02 3.017226335189903894e-02 1.971824304046569318e-02 3.094916801323870439e-02 2.348366295507359897e-02 -3.378226255852986859e-02 2.699510425712622549e-02 2.827436368595422425e-02 2.146761016562620875e-02 5.733453124425640784e-02 3.806710271061041623e-02 3.216271360324739897e-02 3.402963341718704543e-02 2.463719504125484044e-02 2.505066062284624223e-02 3.126583926040056582e-02 1.882750894083595056e-02 5.212574159879952707e-02 4.162076471590809429e-02 3.625913705191586428e-02 2.812818927925626183e-02 -1.605084552866755526e-02 3.326144113468014474e-02 2.799409501021401028e-02 -2.432410398509168153e-02 1.792654257959431022e-02 4.001863170390949215e-02 4.030410185652170268e-02 3.916056167167160373e-02 2.486595625366729706e-02 2.556731581678569482e-02 2.759172940217148942e-02 3.744157333903563173e-02 2.462243771491694558e-02 9.510198641076371764e-03 3.274065997827575736e-02 4.983286178943535649e-02 2.924181859331866778e-02 -7.801012491720717146e-02 2.718973180505109694e-02 4.999130061270221775e-02 2.323502753581723618e-02 2.461425738465439564e-02 2.337251089267351756e-02 5.739429467635626808e-02 3.114888583234395880e-02 3.207561651538937131e-02 2.685820345700448003e-02 5.144428324759572901e-02 3.791914227144707605e-02 4.225795185096874879e-02 2.949074146991612771e-02 3.243863570638273047e-02 -1.971691305278070253e-02 3.087349552471659389e-02 3.740803307098513469e-02 2.219781618834117121e-02 2.898538746279580997e-02 3.498697609811297210e-02 2.003710314444303101e-02 3.834297674749820306e-02 3.519495587057153846e-02 3.201468900919775956e-02 1.250627910195025241e-02 3.478362454855990493e-02 9.205570529222066589e-02 2.264123068246672379e-02 3.281289370969749791e-02 2.781571265577276186e-02 2.718005423223823422e-02 3.725382329108303109e-02 2.388229413714783658e-02 3.207145701766443008e-02 3.023336234760162777e-02 3.355224887988008525e-02 3.310332103900080064e-02 4.298310104313221580e-02 2.036616815195178842e-02 2.903205045181837460e-02 2.697867813108028798e-02
-1.690420729358089319e-02 -1.569485869716038748e-02 9.716662756104910495e-03 -1.689538910963208143e-02 -1.888071375694178738e-02 -2.384023073317933627e-03 -1.392695521297932990e-02 -1.605381439302935864e-02 -1.263939699033144251e-02 -2.363552870136656492e-02 -3.645957126656062391e-02 -8.607636171771959610e-03 1.224879168901006621e-01 -2.162839994323239104e-02 -1.700630876380617232e-02 -1.299598158152337132e-02 -2.037944148009830994e-02 -8.796278253970337205e-03 2.742721425643226407e-01 -1.544790336625721100e-02 -9.306163868321937899e-03 -1.799597705249098359e-02 -1.336375004489804771e-02 -1.445611504279566140e-02 -1.816553382047941465e-02 -3.034166119164040387e-02 -9.371259145543535396e-03 -7.594746539163218721e-03 -1.501612140562058606e-02 -2.169184420182976303e-02 -2.936409471568142068e-02 -1.765017549103922723e-02 -1.761866611789842871e-02 -1.886703192072164414e-02 -2.260154675729159068e-02 -1.509409420635105317e-02 -1.047606752060072088e-02 -1.555956665272681567e-02 -1.334875485665895471e-02 -5.081118775022648408e-03 -1.677946105281415481e-02 -2.575990354303994354e-02 -2.670382562936069598e-02 -1.511839269562892211e-02 -1.831499844855197234e-02 -2.266637408400113893e-02 -1.856850425856348963e-02 -1.441180581115821153e-02 -1.765875833712748574e-02 -1.907583768864310608e-02 -1.703220621692906958e-02 -1.805843210237218638e-02 -1.283879255688340389e-02 -2.082590194061921876e-02 -1.342544670266981703e-02 5.947678090655405397e-02 -1.489042790217716232e-02 -1.718666790103504094e-02 -1.743766536714853183e-02 -1.773313937624558523e-02 -2.276377826859211223e-02 -1.568671458822259654e-02 -2.488099960088908241e-02 -3.082332928531695410e-02 -2.433237887979505451e-02 -1.194893735405074160e-02 -3.692768224478616603e-03 -1.901667627596674570e-02 2.672246005889859083e-02 -1.560108387510248523e-02 -1.973221813456964638e-02 -1.092531270431494790e-02 8.242914791873938440e-02 -1.127590061540323027e-02 1.326423917404133922e-02 -2.894889038703370512e-02 5.735285163957651398e-04 -1.513532580037695204e-02 1.512491343441560443e-02 -1.655382567068919633e-02 -2.336306507953287911e-02 5.412420693602928295e-02 -1.332173466182099211e-02 -3.742581217080130640e-02 -2.169728846853042487e-02 -1.155130877157476386e-02 -2.089666042651976835e-02 -2.058843513238496972e-02 -1.401725067888080246e-02 -9.818473417549425028e-03 -1.686727807657030856e-02 -9.542130006982793913e-03 -2.018398694449853245e-02 -1.620202404621153697e-02 -2.092053573342008560e-02 -2.152673870552885421e-02 -1.985013755334400290e-02 -1.947758983772035490e-02 -9.132194749338594375e-03 1.798763300909161089e-01 -1.401181227950646334e-02 9.182795948237674685e-03 8.371865152163848744e-02 -2.166011795128743728e-02 3.412444501610197717e-02 1.307264929941954514e-02 -1.701126676983003710e-02 -3.052529402113311058e-02 -2.027101662277875152e-02 2.767221724160923157e-01 -1.071025599596674149e-02 -2.401935625541362987e-02 -1.641119023703686841e-02 -1.337257320910386661e-02 -2.806435046371472466e-02 -2.084649961154211306e-02 -2.280665557401588828e-01 1.124233733064903401e-02 -1.832290972521619099e-02 -1.790807787856969757e-02 -1.738796238629263316e-02 -2.305479788979710939e-02 1.266997027981096521e-02 -1.906199669814591033e-02 -1.153362968739525237e-03 -4.709580583119363228e-02 -2.001470054319262268e-02 -1.323745764913169219e-02 8.638927311838537348e-02 -2.010720425904233624e-02 -1.644510460387038631e-02 -2.210885322170323339e-02 1.684864781100828268e-01 -1.639418964531842021e-02 -1.109660962219394427e-02 -2.958107536463445639e-02 -2.270388786075021662e-02 -2.326472381965504627e-02 -1.986014061069662356e-02 -2.054592719300484330e-02 -4.920995881581653048e-02 -2.028883442046476929e-02 -1.715029918233379469e-02 -1.771468440157325172e-02 -2.629982268865832182e-02 -1.490914738861767383e-02 -1.827214366943145929e-02 -1.938439114861121096e-02 -1.661215385872048117e-02 -1.467483773704145351e-02 -8.302353056552348037e-03 -2.299814953872585110e-02 -2.392214880218686279e-02 -1.360883026071275058e-02 -2.393310677478380569e-02 -2.250206149866535235e-02 -1.354834242509016240e-02 -2.110099954026911986e-02 -1.147164538257858073e-02 -1.229590260978999199e-02 -1.765605082843773807e-02 -1.859462077419900966e-02 1.923948507512633459e-03 -3.488259901867423601e-02 -2.759290534545484619e-02 -2.135957562669292195e-02 -1.461434924005986305e-02 -2.813563218660745935e-02 -3.908155936232216021e-02 -1.441538542753772328e-02 -2.009151773985639114e-02 -1.584287834398687145e-02 -2.208113874753446851e-02 -9.405148564568038480e-03 -1.642532224922861519e-03 1.658601279408711965e-02 -1.925296464167568569e-02 -2.166655344458364579e-02 1.652135222908367729e-01 -2.960674888819841890e-03 -2.333810650070742773e-02 -6.365945998988396803e-03 -1.179508319879300077e-02 -1.835570594087125584e-02 -1.418576389725090432e-02 -4.981302950652571199e-02 -1.405271679677597314e-02 -1.775195671539397599e-02 -2.005898424468098573e-02 -1.848352710162774054e-02 -8.755551151210325816e-03 -1.355786924286406063e-02 -1.317117296292502453e-02 -3.215244996624640889e-02 1.866516211002199610e-01 -2.167888853952569181e-02 -2.985845047053868172e-03 -3.849875692780091452e-02 -1.330686648394412835e-02 -1.184318952383217084e-02 5.349420199248308000e-02 9.323244235902267835e-03 -2.006313141352688081e-02 -2.175770233966004344e-02 -2.139691032919627950e-02 -1.592612737585228852e-02 -1.733154939504197994e-02 -1.812693252478080053e-02 -1.163290840804177655e-02 -2.108232305954125738e-02 4.501944463642388173e-04 -2.149118828896971756e-02 -3.210413136000342393e-02 -2.167277254913494919e-02 1.271059688878515836e-01 -2.233181835914030758e-02 -1.499912487285195821e-02 -1.958776780854344646e-02 -1.255494951365813960e-02 -1.708924599600438257e-02 -3.855789768144841229e-02 -9.910546404157765527e-03 -1.557984642981290017e-02 -2.549338126276461114e-02 -2.709946925588218453e-02 -1.925146943137402353e-02 -1.935494949396186770e-02 -1.348920791622817278e-02 -1.333092187550277870e-02 6.612071872689055316e-03 -1.885317257309401112e-02 -1.688102070672816216e-02 -1.506867121036978979e-02 -1.812737298964919863e-02 -1.587015104857250961e-02 -9.287522247824144331e-03 -2.583179626967818665e-02 -2.204782438811513437e-02 -2.167331361408639939e-02 7.395493212189173382e-02 -1.577749920721493657e-02 4.356391804903994623e-04 -7.259971805672909943e-03 -2.355199091045095255e-02 -1.716880059598639707e-02 -2.598532048748640466e-02 -1.559579104771767477e-02 -1.735292388044733930e-02 -1.483531772218804091e-02 -2.395792745477554747e-02 -1.541617324399016664e-02 -1.784130880685233511e-02 -6.132039306732166295e-03 -1.208578817189313696e-02 -1.020520692168839713e-02 -1.709071352629196877e-02
-3.871729487253717378e-03 4.277088706470682372e-03 1.062498182592411418e-02 5.614063024276964636e-04 -1.177137352583914470e-02 6.266003239152841651e-03 -8.381852225119410275e-04 1.910056457462754563e-03 4.511775707909874804e-03 6.658461142013271002e-03 8.485071543754848719e-03 -5.088750545289369605e-03 -3.740310147279894692e-02 -1.840499010113135154e-03 -1.960480655837101247e-05 4.986162627561855493e-03 4.184727408632931377e-03 1.036823580750719821e-02 5.204842391476293545e-02 1.134403351798696485e-03 -3.488713988365372675e-03 1.413231862494885877e-03 -3.856336537752855405e-03 -3.026296018638464404e-03 6.687026129185488256e-03 2.154331140099299564e-03 1.124959694154567015e-02 -1.707820524422097195e-03 -3.616023796142739735e-03 3.130415580554131352e-03 1.073633249121102706e-03 -4.289920671443730495e-03 9.338155951533873506e-04 -3.364577120632143703e-03 -2.622296327775715079e-03 -1.362171396009212313e-03 -1.197186302025491028e-03 -1.083988052172557039e-02 -3.549884569288360055e-03 -2.537998665285147448e-02 -4.071692345696877068e-04 -9.571171059479934712e-03 -1.142139848286249752e-03 3.047955541880476883e-03 -1.442377565476020396e-04 -1.496650838828494272e-03 -4.340726923422545507e-03 -7.277981861525950613e-03 -3.958615850848324486e-03 5.602441045252378772e-03 -9.509491932002089561e-04 6.437451472858961472e-03 -4.116341760994718553e-03 -1.148147519164434936e-02 5.808857884522609406e-03 9.762092185593107541e-02 -2.438826798757345177e-02 4.487061718397870359e-03 -2.185953048634623592e-04 1.040462110867520530e-02 5.877148275314911935e-03 1.270919337201809355e-03 2.834448955433472445e-02 2.185440293782536098e-02 -3.915254732006649696e-03 6.938674623930970835e-03 -3.109409794403751592e-03 -2.974444129565034182e-04 1.144048785071453966e-02 2.778519582239359718e-03 -1.243222380105199910e-03 -1.859267160499909538e-03 -2.017804773466978178e-03 6.796648903979398033e-04 8.405256729667848550e-03 2.316055417387239551e-02 -3.233680447562306548e-02 -2.798454635014249649e-03 -4.378710369347799808e-02 -2.032848022801675338e-03 1.062755557255708238e-03 -9.085888080845393178e-03 -6.186703826693311890e-03 1.152133190185559292e-02 4.342047656711194893e-03 -1.515265041280961086e-03 3.610949795909944304e-03 -1.966374941155858008e-02 -8.615428413152804348e-04 8.440681318247291592e-03 1.410768280528010721e-03 -3.462360339630853046e-02 4.764712701134047462e-03 -5.272132990733358754e-04 8.276924013629250246e-03 -1.307709991243881245e-03 1.951012515009232975e-03 3.135202920967140351e-03 -1.972346818065154328e-02 -1.521362545526212529e-01 8.506081994268003404e-03 8.484114054124584220e-03 2.945156062658318627e-02 3.673642632279740250e-03 1.642516727451731259e-02 -1.100639423620952163e-02 -1.235521999918114133e-04 2.382092152346482888e-02 3.640013566231813276e-03 3.855259296345323050e-01 -1.881785539519187107e-03 6.181590034976729674e-03 -1.428535476668138168e-02 -4.908743983154949080e-03 1.310988846185549318e-02 4.849786540914341124e-03 3.090212895425122411e-02 -6.936157250525925612e-03 -1.819524415998528474e-03 -1.639882701213301675e-03 -1.899994577726193262e-02 7.408007194006333875e-03 -3.453896794355845734e-02 -2.024064890745290793e-03 -2.767235069574127890e-02 3.836918268793997056e-02 1.610701865435812613e-03 1.205598194498608625e-03 -1.893539802508686920e-01 -6.248633991651078926e-04 -3.457277302879999212e-03 -5.048187013647672389e-04 8.151064948259258147e-02 6.257211197145348160e-03 1.074432175592392701e-02 4.343209069452722698e-02 -1.790027765159813572e-02 -1.796315142862415408e-03 4.875846648932276491e-03 6.026571771968145539e-04 9.669641976809164458e-03 2.693101657502039187e-03 -8.931837956111058144e-03 -7.536590329648661362e-04 1.653009079245342265e-03 6.038121612135389712e-03 1.277353756781412066e-04 -6.400786210415665249e-03 -1.271438730420612184e-03 7.106705645648711198e-03 3.319690742830099656e-02 4.403957194100433653e-04 1.691408694276775758e-03 7.126655909672756362e-03 -3.362785220302971691e-03 2.971007335337193245e-02 -2.905513086282670004e-03 1.258688310710726413e-02 3.395643431863216901e-03 -7.932573621981357098e-03 5.522787909544066287e-03 9.416205214645818888e-03 -6.567752204665843786e-03 3.482290593132242318e-02 -5.826053038087744204e-03 6.837601155960590371e-03 2.182647844028376416e-02 -4.209605704723541619e-02 -4.198198747774892561e-03 1.166808649900209771e-02 1.097528191768006164e-03 6.343447727968550345e-03 3.370397204178575759e-03 2.052101781865034273e-03 -1.089512151018112197e-02 -9.321976056289914617e-03 7.445478775381821415e-03 1.159895240505394096e-02 2.711801568377714133e-02 -2.953089814606851479e-02 2.578132774752473887e-04 -4.067813857082615975e-02 -2.774390997876850003e-03 7.177217389027027231e-03 -2.084615609608573422e-03 2.159271439968415279e-02 4.388887501141733316e-03 3.285740710464237890e-03 1.427280348351203090e-03 2.257195100636385978e-03 -3.341784155985955910e-03 8.550424565140350361e-03 -7.395916185821339211e-04 1.588678989403142019e-02 8.240329047598737855e-02 -1.998737141624078346e-03 9.646148295713972629e-03 3.366511944195080264e-02 -1.367118078324806559e-03 -1.422946581427188099e-03 -5.239808215819993092e-02 -1.318768734717611253e-02 -6.830039438654056209e-03 6.327858345589866193e-03 2.270681425275182454e-04 -7.100740271911018357e-03 4.368307693234982532e-03 8.250048283655735462e-03 -3.454371311963259829e-03 -2.168662916211754055e-03 -2.548553574162820343e-02 4.136504303199391858e-03 2.071384993028141733e-02 -1.382021199887599298e-03 -1.217790633486039338e-02 1.079169738488055044e-02 4.994242577725727800e-03 3.627760670365562487e-04 -3.671005931264732184e-03 1.307449192192126387e-03 2.639524849935224668e-02 2.313422697875912315e-03 1.204255675020867323e-03 5.039848461937248419e-03 -3.768803454936177529e-03 -1.536866191991652537e-02 2.002328214511297361e-02 -3.254868715982341186e-04 4.941402917978825020e-03 -3.552053485978207137e-02 4.588367765511892904e-03 1.363672593004352238e-03 -4.755515559457633087e-03 -5.318082553998850284e-03 8.503248707552793842e-03 -8.018756572468964091e-04 1.601807687740005584e-03 -4.162362697098566551e-03 7.492623587055063754e-03 2.733320026227212957e-02 1.293133131593999889e-02 -3.339856998724029941e-02 3.760427219390017652e-03 7.855896009183502282e-03 -1.327838871101508006e-03 2.565874039386929154e-03 6.803472435071418641e-03 -5.313833912807830635e-03 -1.266105754331758523e-03 1.904579804075556783e-03 1.354656727761354221e-02 1.130746824507778206e-02 2.253751478591919585e-02 -1.074531751598146664e-03 -4.063129679325145141e-03 3.573138638363080721e-03
6.941931027812904033e-03 4.955007264505454853e-03 8.552456263865406902e-03 -4.091653958189144132e-03 -8.023482792594800739e-03 -1.763575023086338912e-03 5.040541604860797678e-03 8.464633206305138824e-03 6.987429474884919445e-03 8.067028621157483481e-03 -8.450024969296301633e-03 7.579389936058072812e-03 -9.424019232876283680e-02 1.219364037543053080e-02 8.232862132288801954e-03 6.410138424790998504e-03 6.908019954846690916e-03 1.438786902203831493e-02 6.219290911992103599e-02 9.103676879503184907e-04 4.138504014018285111e-03 6.909058624780487802e-03 6.735562390450278505e-03 1.500459952519698527e-03 1.102161709168994518e-03 8.703369793047144309e-03 1.053353522359229801e-03 9.345103534909700305e-03 7.881605485830094765e-03 -2.152087870311318249e-03 -1.037010893693090120e-03 -2.082048316195712380e-03 4.302212189439027536e-03 7.389737414297885450e-03 4.831057992399668231e-03 3.900560344397499633e-03 -3.664120049840443065e-04 -7.783106048604784832e-03 3.307232047135597302e-03 3.205487152359031994e-03 3.353632042756487207e-03 9.886907830031708630e-03 1.235061839740372522e-02 5.525376139924210485e-03 2.084197669150019121e-03 1.233030633124526827e-02 5.171995489856241052e-03 6.654389106324023508e-03 1.760200716429829917e-03 6.769138314401907351e-03 -2.396525656080336370e-03 6.501422860532862606e-03 4.145955015557593187e-03 -6.785218826075811033e-03 6.761928626342882456e-03 2.692339496342851038e-02 -7.169322797107059719e-03 7.154270334120293832e-03 4.523738837170066147e-03 7.341590450448233669e-03 5.264683761791058222e-03 2.085481612143466699e-03 -1.325796914786076322e-02 -2.308013679059328291e-02 8.762678543163890041e-03 -2.417396928161424062e-03 -8.009804428639367849e-04 1.123829292059225216e-02 2.503560068975152833e-02 9.245551865031724492e-03 1.194768993504730613e-02 2.655167653400816469e-03 1.238358737197245690e-03 9.605464720641037485e-03 1.891582039587449970e-02 -1.212437042319649584e-02 -1.380785268496753952e-03 9.134762111307873772e-03 1.781764047158528952e-03 1.092533842072378365e-02 7.412796788443289965e-03 -4.202806104787844971e-03 1.602189734591679326e-03 -1.035185250863207909e-02 1.165004010939884281e-02 2.433787385672385277e-03 9.467382181599337879e-03 2.860256767473081871e-02 1.131358779936062452e-02 3.540898500387474734e-03 4.717394151964596043e-03 1.157199215157064424e-04 5.473656512615390594e-03 1.923515412542194407e-03 2.605483933117878990e-03 7.364809099560919343e-03 -3.936028171953364144e-04 9.619975881028416248e-03 -7.717861539421186010e-03 -1.137818947495299743e-01 5.267506727077745157e-03 1.279090103508871527e-02 1.315239459677825483e-02 1.128421561646358699e-02 -1.573228498989175453e-02 9.109202465180288658e-03 1.497300407679027058e-03 8.672739630813809664e-03 1.606321938883381161e-03 1.703521546314703816e-01 -5.468039369697791537e-03 8.417250334900362035e-03 1.354007759643663465e-03 7.007473201663576637e-03 -1.707384558203904265e-03 8.550119917786832766e-03 2.674043338148843207e-02 2.404746403629415188e-03 1.305250878121985269e-03 2.258344802687751139e-03 -6.791589006266332725e-03 7.808974499834162118e-04 -4.468703802545680170e-03 3.617915686817704899e-03 -2.873211619377872856e-03 -1.986348503714747624e-02 8.509431458730671097e-03 5.907183478754534105e-05 3.069398296339228421e-02 3.252320099314345327e-03 5.532360713195051682e-03 5.748537115745564786e-03 -2.067082007414519987e-02 8.737301575477697882e-03 1.163632052039487337e-02 -2.795668941127148893e-02 -7.640912136410560503e-03 6.922474131756055360e-03 -5.625672798025691717e-04 8.511583501665602805e-03 -1.593814296298023958e-02 3.767317064108344129e-03 2.356782708188146988e-03 9.132066304676052931e-03 7.003684006476167297e-03 2.862994614734243760e-03 8.874359549639092987e-03 -1.048221620084736037e-02 5.600859375028991935e-03 4.554392251903092124e-03 -1.231492257571107675e-02 3.810777755263279436e-03 4.834198304498584821e-03 4.352567249137999188e-03 4.741542611872071739e-03 -1.506385013433045837e-02 9.957195159985292657e-03 -2.756847456814083726e-03 9.378236243360342159e-03 5.990024520761674277e-03 -1.609573563978906972e-03 1.170049920217848538e-02 -5.122460151504126639e-04 -1.163315763955713282e-02 2.647554712312587266e-03 8.915998919448475321e-03 -1.501937325065237812e-02 -4.461923586158550101e-03 -1.159146918850674501e-02 2.741875113905980956e-03 3.563799970126168941e-03 1.127089322453894531e-02 8.286949168558049514e-03 -4.753283806565519742e-03 9.357322676723395585e-03 3.010025981163229163e-03 1.148260906477694895e-02 6.143466330826824473e-03 7.036535539109296800e-02 -7.663399202546192050e-03 3.949932123323726630e-04 -6.064022623760244486e-03 -2.543098865507333918e-03 1.177444526477873510e-02 4.061215648651152720e-03 -2.281802983471088730e-02 8.406728198541159672e-03 1.085549040296638831e-02 8.609495553662417991e-03 1.171252624204380949e-02 6.220737664531115520e-03 3.864479688142616332e-03 -2.979023465996929326e-03 -1.081022079230794207e-02 6.754302554388494362e-02 7.264577848579567218e-03 -2.379928273256951693e-03 4.284080670162823028e-04 2.468955098984053700e-03 7.189515900035215248e-04 5.770053811614531038e-04 -3.361648876492184888e-03 1.120935166301535203e-02 1.067567227961379282e-02 9.421134835774003236e-03 7.567314410005017249e-03 2.580166822615913378e-03 9.442199767389898232e-03 2.443910600048631102e-03 5.865978169416529407e-03 -7.930207291573558581e-03 1.104774803930022066e-02 -1.582616459669926312e-02 9.916220935881330661e-03 -6.719732815735436626e-02 -1.158995813527515222e-03 -6.223044191165471098e-03 3.732938268909887728e-03 -3.964685649473530856e-04 7.072656248516921533e-03 -3.010927309619958192e-02 1.158947016831035279e-02 3.982086500182689670e-03 3.875414325390795240e-03 -1.024796095840020509e-02 3.451920581489928072e-03 -3.436808632999340668e-02 3.958936180100889853e-04 2.205520941010139912e-03 -6.347308484061908035e-03 3.612548700618236752e-03 3.858484318537908422e-03 -5.542764492423772268e-03 7.095469679231068173e-03 4.419673229180027217e-03 2.280313862405784330e-03 5.185007420276394573e-03 9.805178961854789724e-03 1.094477770610483881e-02 1.448909757804798561e-02 8.545077443497967398e-03 -2.677506205863234429e-02 -3.662247411818754864e-03 4.472201535936725855e-03 3.991968521910022397e-03 8.925141512031534510e-03 4.921949348509668289e-03 -6.095235839733362119e-04 7.595362206131297395e-03 4.096788630787231988e-03 1.089254920162543300e-02 5.108763259788782173e-03 -1.512540877444873595e-02 3.680766588503060332e-03 5.164374173767791176e-03 1.305002623499135032e-02
1.543083509959802986e-02 2.251263097330133758e-02 -3.362844063442727016e-02 3.187221699953854404e-02 2.835275608778366208e-02 3.728635030756639185e-02 2.006225042587389540e-02 1.036160457628357116e-02 3.070534254359417667e-02 3.481947180636971867e-02 4.681606300290776235e-02 3.266664383075790212e-02 -1.433819328918478075e-01 3.053701861104944626e-02 1.668629521671833107e-02 2.375735650126323956e-02 9.770294541994505380e-03 1.758797285597137050e-02 -2.078737393676517026e-02 8.794256685538483914e-03 7.438143931285385972e-04 3.106322804065613299e-02 4.150838699496018844e-03 2.098026152856041424e-02 3.413541919168849859e-02 3.027292125604756287e-02 1.145516587032440435e-02 -4.531427621182376568e-03 2.512118097097808776e-04 3.284492446762189710e-02 4.155367348662793170e-02 5.440659116057683896e-03 5.843095941587837620e-03 5.817586948415117733e-03 2.254073135486520454e-02 2.419345920880424175e-02 1.379576651821467700e-02 2.364346713773241362e-02 4.333284792585344325e-02 -3.772440224295195270e-05 1.751144559941109763e-02 7.803937363576964048e-02 1.694918908074166675e-02 3.015363297687829666e-02 2.039731551514388161e-02 5.079166812296057737e-02 2.873836338992421732e-02 -2.533241692830789579e-03 6.088298017323691760e-03 2.420858888377711016e-02 2.913093902026752530e-02 4.885519658526256415e-02 5.452385035663515241e-03 3.975067915668000634e-02 2.648087599750312965e-02 -5.397780470107613887e-02 2.548369835032216531e-03 2.280613430244497405e-02 8.056213331722543100e-03 2.309231557283372704e-02 3.026458459033224899e-02 2.576428157992484425e-02 5.176170826548034259e-02 5.762038392541120324e-02 8.716234751456320567e-03 -8.125152045586073180e-03 -9.578735922268103581e-03 1.500530167089813259e-02 2.603052073869653593e-02 2.903696223808313950e-02 4.719471261405033119e-02 3.114651396153177501e-02 1.173829542486439122e-02 1.062277658335977065e-02 8.574972018258401885e-03 5.079983787176811649e-02 -2.342283796965886206e-02 3.116593146766334643e-02 -3.401800903764465138e-03 1.968691600072043982e-02 2.198551115790539981e-02 -2.745890753741063103e-02 2.269953559161669993e-03 5.887649159953102507e-02 2.446058746001178799e-02 4.467079193359999555e-03 4.014580338810543741e-02 1.791566845987638268e-02 3.547454854087957882e-02 2.035090735366907808e-02 -2.100315795907223108e-03 -5.176214466169174605e-03 3.092094970581563823e-02 1.045549359914389395e-02 3.229463394659157910e-02 3.922727176782490888e-02 1.564329576175929604e-02 2.511689005257983567e-02 3.197045198345911665e-02 -1.632747359572905010e-01 4.444285216536596195e-02 -2.697141737444866058e-02 -8.172168083582972975e-02 4.027460469339892712e-02 4.508740344085405971e-02 2.870066563570362536e-02 1.284339791012896817e-02 -2.423948485269002487e-02 4.793611667846765095e-02 5.688070292770909531e-02 2.888617024278162734e-02 4.966345034041026035e-02 2.010684907647298722e-02 1.290672156606315459e-03 3.757501426931250665e-02 4.642587547411407972e-02 2.873070550049376670e-02 3.058822032406182181e-02 1.450405045696966100e-02 8.435235471007667893e-03 2.573005466381693418e-02 3.072017851830816798e-02 1.651912028537723398e-02 2.945683613185573826e-02 1.365493789402604310e-02 1.005543926495733181e-01 3.001606820614755380e-02 2.097744369201325759e-02 2.357886351667156932e-01 1.230387483496450315e-02 1.418235172456685546e-02 3.667660951692453680e-02 -3.206915918977198965e-02 4.187181241752729183e-02 1.936479572282359674e-02 5.186309944322944898e-02 -6.286446081211067823e-04 3.057992082708207993e-02 1.981023715649873201e-02 2.126913958327091708e-02 2.143504890354028941e-02 4.505455516648850661e-02 -5.169584276247063924e-03 2.736431574239616554e-02 4.462300677614201849e-02 2.048377525493791027e-02 9.172940785666010635e-03 2.371550025127534128e-02 2.833680893186057634e-02 4.637168435124909560e-02 5.035319906390964273e-02 3.103393464185352779e-02 4.705764516437472428e-02 4.529447773609177746e-02 -9.614029052068570440e-04 5.711413772416169127e-02 1.740016496842888838e-02 4.701121867277604366e-02 2.084992858169993149e-02 -4.987133304261202535e-03 1.197131371075614743e-02 2.870298992884364603e-02 3.008431618498033991e-02 5.422972977552868723e-02 3.816754253786817843e-03 5.054973241293753139e-02 2.290446718269624829e-02 -2.205689737906858707e-03 4.215740598923717330e-02 3.723067673809989792e-02 8.983419841184643942e-03 1.647786709879056968e-02 3.595002056754404568e-02 2.601827842976047606e-02 1.445905650696365299e-02 3.258920832542280127e-02 4.300772360792592258e-02 4.338126554619686770e-02 -1.105807551601373784e-01 1.632635778232734841e-02 2.814233259919922403e-02 -3.548458104541174322e-03 2.312731002125532984e-03 4.811679555428862581e-02 1.042211487662378019e-02 8.360305976668298833e-02 2.698950968654388605e-02 2.353889784981414227e-02 5.463484218845723883e-02 3.826026331081892190e-02 2.627314707539085692e-02 1.335977651472170652e-02 5.071284368000830017e-04 4.538205437084791294e-02 -2.542921840385968801e-01 9.073475076236410530e-03 2.605995765613151188e-02 1.115573964390550836e-02 1.843707127300789686e-02 3.017012752982132714e-02 -6.138507363725476812e-02 3.351428789853808099e-02 -4.069499548147778763e-03 1.601426829713811784e-02 1.724346604234598332e-02 5.674486990499968790e-03 2.361622512142067670e-02 3.185006792907773415e-02 3.372282030422912857e-02 1.819726486452470648e-02 4.403182412754012669e-03 8.608804471745548290e-03 3.966467986982701727e-02 4.418515980930243225e-02 -8.602417018096820273e-03 1.485820760177055527e-02 2.809331161785559236e-02 2.584386869751956542e-02 4.148454512726105700e-03 1.328118386206621725e-02 1.016017959816238464e-01 1.643518372684637380e-02 9.439775102962478029e-03 2.506807467820346483e-02 3.514981603776674152e-02 3.963189030825185755e-02 6.451580280802242384e-02 1.942563482478001924e-02 4.076502843501347839e-02 -2.586618580008804777e-02 2.574448296281104873e-02 1.505220148755122452e-02 4.104892856479509106e-02 5.011662719375490661e-03 5.023622441913612457e-02 3.551238287664215676e-02 1.671271762472481201e-02 1.079527901371642520e-02 4.190675732485184268e-02 2.376905258642387705e-02 4.082241760152913873e-02 -7.281414564635336692e-03 -6.775695692865714437e-03 4.430061863622208884e-02 7.746754570973336113e-03 4.507985990973335105e-02 3.134181870388524221e-02 3.660674982046759063e-02 2.367883756597008883e-03 4.125563272374993540e-02 3.631048448095505754e-02 3.366552667406095406e-02 5.009526583038181879e-02 1.677901624128703278e-02 6.388778926459691421e-03 2.270764560585302599e-02
2.971466929722946237e-02 2.051721042506720813e-02 -5.598608525179721296e-02 4.265194380922748829e-02 6.135239591812916699e-02 5.432729045200548890e-02 3.655868077160805835e-02 3.194072968963070774e-02 5.088317688253014837e-02 6.149757896840904459e-02 5.991473633610192029e-02 4.143918021897591980e-02 -3.135048097616352503e-01 4.339066987864641234e-02 3.117078791140270519e-02 2.886947486236279489e-02 3.200385545741199489e-02 1.991520496292134568e-02 -5.723813120347234218e-01 4.294070210923904563e-02 3.344733384116575781e-02 3.744002389291801319e-02 3.290838791666549773e-02 5.231593206148556219e-02 2.415906546725306650e-02 5.670053074392350512e-02 2.163033720375169208e-02 1.119333656248060888e-02 2.111130686720083180e-02 5.813666577608921776e-02 4.572355156917422281e-02 3.465444253172614980e-02 3.783072675173779903e-02 3.228062638752957764e-02 4.813613497333914248e-02 3.209157719770645845e-02 2.085008535786072800e-02 8.477157473796344961e-03 5.704049204262017642e-02 -3.355647536076422632e-02 4.182026014761145577e-02 2.341965731610583940e-02 5.771828102065726385e-02 4.653217475468921643e-02 3.800152442493260480e-02 3.767633592734574016e-02 5.432698687723997583e-02 1.917585761719925452e-02 2.667825188167398734e-02 4.026865413251747017e-02 3.219464928449361496e-02 4.780703052333944332e-03 2.327355287953390695e-02 5.910828778871090455e-02 3.362952471402541610e-02 1.186210339011620624e-01 -6.049457428484746740e-02 3.290327417061446325e-02 3.212492190127756719e-02 3.143974535954519728e-02 5.354545896591784981e-02 4.159269698017035305e-02 7.636285899167161162e-02 5.805809893887717982e-02 3.361345274220581963e-02 2.899893970129801754e-02 1.832939597776115856e-02 3.830012147917166709e-02 -1.102317700985584875e-01 3.807046641278493543e-02 3.658736606978769262e-02 1.968585964404431440e-02 4.214643547853461764e-02 2.886812279398172018e-02 -8.927329657076667202e-02 5.639799607124978964e-02 2.060863581285824614e-02 4.662669876994720436e-02 -4.136974759506123478e-02 2.841901034091067618e-02 3.963021286062670678e-02 -2.924624801896249376e-02 3.047039497029951569e-02 7.756340223997366945e-02 3.611599177090687313e-02 2.595965885427295450e-02 3.667285201955776397e-02 -3.325232628768842041e-02 2.302282183141371799e-02 1.522511396422247636e-02 2.678114232468424213e-02 -8.195972736705131947e-03 5.296638832209964870e-02 3.105602620081541684e-02 2.317488865086702460e-02 4.815892988073347536e-02 3.798605979800739885e-02 3.698701953808739701e-02 -9.260892684508553740e-03 -7.117608726515053941e-02 2.119150246436661555e-02 -6.507592923000940499e-02 -2.489281908133700594e-01 2.912993136914120498e-02 1.048032049272474599e-02 9.297563518057744281e-03 2.614771490140595581e-02 -2.337104863464757945e-02 2.244851851610149551e-02 -3.857838118882432887e-01 6.516970978585379104e-02 2.597312806626022458e-02 -5.496096617333337542e-02 3.671866014891369406e-02 2.726880075897759534e-02 2.824892533685410823e-02 -1.000351362467316596e-01 3.055209729587361062e-02 3.676655273284074044e-02 2.767729173547725172e-02 2.288415522701096189e-03 2.517286068470434013e-02 -2.389932352669937865e-02 4.950365006922546190e-02 -8.211141513834173053e-03 6.758360308462975363e-02 3.214029596592020421e-02 3.832594572108451170e-02 4.182305507506591802e-01 2.948905054931564781e-02 5.488141782289041731e-02 3.777973209454334874e-02 -1.720877489532450511e-01 4.594366186681977937e-02 1.663932029864098605e-02 5.073231721603542466e-02 2.890244141056787230e-02 4.680709429120737120e-02 4.449374338241075116e-02 3.590901197521496890e-02 2.763480829903272248e-02 3.287060355579826676e-02 1.996407819532773631e-02 5.681145692650800549e-02 4.129540359576627795e-02 3.352911658425065944e-02 2.944209170073657997e-02 2.253976394475167358e-02 5.892809185565360541e-02 2.046953626412479146e-02 1.214986317446480751e-02 5.635618918432459823e-02 2.845658989407694531e-02 2.951683250146884194e-02 1.616590657699702033e-02 2.062581799855666559e-02 3.280359340354391251e-02 6.738658947470856087e-02 3.161605033365718492e-02 1.031605381684838965e-02 3.915460179562076787e-02 2.639472260510493037e-02 1.748751208087230904e-02 3.300561816442276752e-02 3.064344373177007794e-02 2.956083526255399996e-02 7.284160662888615467e-02 -2.152535509312305043e-02 7.918467709545938538e-02 2.658052059588120533e-02 3.168235212608192658e-02 3.191058013039176772e-02 3.730501994083912365e-02 4.414455217527141900e-02 4.778545674981168889e-02 1.381428839911824462e-02 3.053891355001792443e-02 2.823281621174447351e-02 -2.616237182848328291e-01 4.583823597957938090e-02 4.908783983559123626e-02 -3.556996192627590730e-02 3.276498378241944620e-02 2.856309350753681586e-02 2.618305038654406003e-02 5.843561381139934785e-02 1.638772561409365322e-02 2.658406133235028182e-02 2.605007661068726652e-02 3.958198283816746765e-02 3.186358836608620126e-02 2.578002968434743580e-02 3.216908890040375696e-02 7.139012056089061309e-02 -3.048571575909546638e-01 2.753871137072981881e-02 5.800760627389488222e-02 4.982889247249712439e-02 3.087888466505371229e-02 5.329163843954640850e-02 6.583744314955064514e-02 -2.527758923543565323e-02 1.896426939538456424e-02 3.320900430925242952e-02 3.838690681677490307e-02 3.019705347866721498e-02 3.668388919908134593e-02 3.364518373256297074e-02 7.167906291811715347e-02 3.048209503483184993e-02 -1.946564203610497146e-02 3.145494684788938816e-02 5.116588686650967721e-02 3.524197443506497940e-02 3.871248068773199685e-02 3.313833436816865374e-02 6.772303548740861434e-02 4.598203025748079376e-02 3.045091550519284096e-02 3.711729292659886326e-02 1.030028466350297323e-01 2.596080163255425413e-02 2.715726174421751252e-02 4.320065639718134037e-02 7.279561087975382205e-02 7.215071742109359365e-02 5.814084898919893996e-02 2.952968941972881553e-02 2.257962608910124222e-02 1.685102674040502620e-03 5.213558634621983517e-02 2.334184507433472583e-02 3.152136761194855585e-02 2.734145765794383440e-02 3.623752654023126157e-02 3.091317152458078824e-02 6.823906580381181031e-02 2.841071385735991980e-02 3.250987409950326784e-02 -1.908807022748455762e-01 3.045903727853869689e-02 1.323073066511379625e-01 2.220789958371425024e-02 2.090602509923371322e-02 3.628538841868109155e-02 4.754099584589067257e-02 2.754585652344127000e-02 5.118617585087434363e-02 2.436827014571167280e-02 3.595594051340780112e-02 9.428216272766959741e-03 2.429707488531925030e-02 6.482954954340325315e-02 4.702144867410668061e-02 3.332476458233619293e-02 3.171396255921695578e-02
2.196874979240188985e-02 1.461890174953508342e-02 9.484782575369780228e-03 -3.781271683864900063e-02 -6.671175967738365853e-02 -1.919376537423148760e-02 1.060472414792729828e-02 9.317930820625666688e-03 7.778634880502842928e-03 7.602799391462654321e-03 -6.382886723454897493e-02 5.462240829900127069e-03 -4.241213519943672766e-02 5.147297088798272018e-03 1.785276817780377320e-02 6.005578084735983986e-03 1.438919138735934855e-02 1.024739090541399410e-02 7.562880992802790969e-02 2.538985520018275516e-02 2.398334280078811415e-02 1.038202869165732838e-02 2.254059255723874985e-02 1.484816783705691402e-03 7.317611558898583571e-03 -8.369561547581514174e-03 9.695543120895372749e-03 1.112088222488254001e-02 1.782189524279991291e-02 -6.536803067311542509e-03 -4.779164113173259287e-02 1.791310110287399476e-02 1.363724669242408032e-02 1.459393512598504070e-02 8.415141239701828813e-04 8.998527875565464837e-03 1.126942993828792400e-02 -1.641509307349054564e-02 5.093377117736953494e-03 -2.832698475336004398e-02 1.870113879424134887e-02 -1.587216816977095324e-02 -1.311604081949122253e-03 5.824870064425518093e-03 9.016943238586904927e-03 6.815385594160615216e-04 -7.153042600388361070e-04 1.919440688342700929e-02 6.838904292728143625e-03 1.079000860480920816e-02 -2.759684306301588008e-02 4.961870656314598324e-03 -8.256574781542215524e-03 -5.065991915682390573e-02 1.211037014073466922e-02 7.878856176388560062e-02 -4.358605497137667262e-02 1.126118661370168438e-02 1.217059046754654511e-02 7.265309589582788150e-03 1.293404955710172020e-02 4.872046116536817191e-03 -6.823896978595456186e-02 -7.251179649119262639e-03 8.901618787826042281e-03 -7.264800491924567130e-03 1.046708025143288853e-02 1.399988815911495758e-02 4.330134625735470449e-02 3.079156675078524759e-03 9.613827294328556455e-03 -4.566205783555517261e-02 -4.269276334319622307e-02 1.188756781567777351e-02 2.433729253291587111e-02 -6.839053925656642108e-02 -5.851268786583831150e-02 5.031026837707890977e-03 -7.465800468504213416e-02 5.067255984210771586e-03 1.657924034036238267e-02 -4.193783043183835907e-02 1.350693561055937159e-02 -8.000303078326231887e-02 5.978270627453161415e-03 1.592439562470073650e-02 7.914983186746091248e-03 -1.368964268586538718e-02 7.089830822477299031e-03 1.121406908242665590e-02 1.408258438510528142e-02 -2.489669025427561702e-02 8.691108743805410833e-03 1.784615793321857324e-02 7.685456531367720022e-03 7.304814180892262726e-03 1.024865812335077828e-02 1.669565730615181227e-03 -1.165239563543584182e-03 -1.795619046337232072e-01 7.488765827526492301e-03 6.844625484732400067e-03 -2.494524494542072965e-02 7.275270111063109578e-03 -2.655018290127188901e-02 -3.506500720472287280e-02 1.035166974745166217e-02 2.588591844420085053e-02 7.021970144685182880e-03 1.892342727115895185e-01 -6.989504619833457333e-02 9.742294895329454973e-03 -6.775470840025386854e-02 2.458624362364770360e-02 -3.606168352167487406e-02 2.544962031924120037e-03 1.417690420728976580e-02 -2.543229321597417075e-02 1.121102252483194110e-02 2.024147677993279673e-02 -8.350412253373910854e-02 1.397345839952352300e-02 3.787522138790718699e-03 -5.002898563302291511e-03 -1.643209185405940936e-02 -7.581477598460856226e-02 8.326394028329299826e-03 4.986807244030879056e-03 1.203840115011975756e-02 1.355591436727663496e-02 8.618390958516724404e-03 1.183240016166491222e-02 2.005823264426446345e-02 1.077237175513201702e-02 7.027604528229609154e-03 -2.217846870979677670e-02 -3.745341487831854721e-02 -8.671519787181094108e-04 1.429667519310562351e-02 1.086966519904250701e-02 -2.617716771963842642e-02 7.932548676100817028e-03 2.141683106168219830e-02 1.034224193378308846e-04 9.989395820774195009e-03 6.268713006388710283e-03 1.779775254149467897e-02 -3.937388198084404434e-02 9.841895227435164262e-03 1.064939255213393811e-03 -4.883631393211470412e-02 -7.105249651687082016e-03 9.681457173706562239e-03 5.607401270662343805e-03 1.615807001783438682e-02 -5.248462784737700781e-02 1.314991410279248325e-02 -6.263032476550163541e-02 4.373300100055101461e-03 1.764172339820626809e-02 9.695813018621175089e-03 7.411164552606538253e-03 -3.924300014286320748e-02 -5.886783615858193902e-02 1.746750121603075218e-02 3.700427998103779370e-03 1.315946606929650764e-03 -4.625793648682107601e-02 -7.009009642333979828e-02 3.198066693840139699e-03 1.161778912737979237e-02 7.311550430083005661e-03 4.151863449017472937e-03 1.946726865304139464e-02 -1.634751650098598260e-03 -3.951954521707200935e-02 5.203761812615483040e-03 1.042447969759379041e-02 1.827410226346913927e-02 -4.305527974877036701e-03 9.454247673864164814e-03 -5.437424661267605680e-02 2.086093975634974521e-02 5.905052251912284479e-03 2.067715989505132870e-02 -3.526116018098778698e-02 -9.341087759678198474e-04 9.649629895853294170e-03 1.038456038964698756e-02 8.746058592440628804e-03 1.028290392707300292e-02 5.608836495556862763e-03 1.934682525672737352e-02 -5.436764492940878574e-02 -8.854712740402415419e-03 1.480290177693086885e-02 -3.161673906120967409e-02 -5.132393035827303995e-02 1.784226750403202985e-02 -5.305453240235864787e-02 -3.241366602728657648e-02 4.185961935995457552e-03 1.652164085689217243e-02 7.810620422348987270e-03 1.291432015842096208e-02 1.845467739530621751e-02 1.188632776903879307e-02 2.804451456260485896e-03 -2.055762222689194382e-02 1.266743729548078755e-02 -3.627178389384801138e-02 1.148443583256249234e-02 -6.294402282572529594e-02 3.076776849827062271e-03 -1.280406700438859458e-01 1.869217031345058594e-02 -7.119706317615451252e-02 1.092777664870805444e-02 1.338920067831445015e-02 1.348475922429652647e-02 -3.066230008074087229e-02 3.706106267381278387e-03 1.735186001252742721e-02 1.257831759039364575e-02 -6.215275208645251043e-02 -4.972345929036613155e-02 -2.568521668573686689e-02 1.662453564860165434e-02 7.085408966886567843e-03 -5.787997620194280934e-02 -8.385252339145587638e-03 1.110949831683985707e-02 -3.972451141052942697e-02 1.459287919212934152e-02 2.344073942648804403e-03 -5.019753087718417661e-02 9.392939394516999253e-04 1.831024101289947456e-02 2.632808786826507964e-03 6.887888940755376721e-02 9.214971434978805331e-03 5.026443913925766199e-02 2.480522745123591583e-02 2.474023248022330645e-03 2.117600135571495387e-02 3.633396850314219318e-03 4.209194425725436978e-03 -4.484439308800362844e-02 1.214265285956545905e-02 5.754969789222708423e-03 -4.180657790328033870e-03 1.258585905629319886e-02 -6.336698152532645179e-02 1.847897637740647525e-02 2.301346006269791925e-02 4.616442557330674781e-03
9.039019474120051079e-03 4.604728163511582519e-03 7.630996226950882699e-03 -6.201728734244949665e-03 1.395319232156728420e-03 3.486412611897300989e-03 6.928884498053143604e-03 1.321664757002980611e-02 1.204136743704590541e-02 6.490745709789020983e-04 -1.346920956570086094e-03 4.855675760227234732e-03 -3.943459920080917558e-02 5.772415179123501112e-03 7.812367360709899199e-03 8.420906746922788080e-03 6.199755594785982121e-03 6.841277488894336248e-03 -9.732351471966542433e-03 -1.146222689270213341e-02 -5.029236387933942211e-04 2.257358019585635305e-03 4.056672764513292832e-03 7.716192033961349547e-03 1.053418492797553174e-02 5.275160706002098888e-03 5.954478048685173108e-03 2.857722960670799894e-03 6.637441744879606781e-03 5.766604023580626862e-03 -3.395870897297276897e-03 3.794579554763305787e-03 6.528670029190029173e-03 7.914126856299011359e-03 7.298456711335317947e-03 7.528567616329671225e-03 5.855894713448068362e-03 -1.213259448927179497e-02 1.454625474224535697e-03 -6.617692979815350922e-03 3.939666392525106148e-04 1.743978900019371031e-02 9.051009495824487855e-03 4.258114634548270175e-03 1.149211107128825932e-02 1.291680329766934331e-02 1.231628719146654269e-02 7.031080872045850777e-03 1.354391831422514618e-02 3.864454457414349692e-03 -4.768677152733367215e-04 1.112757209493161169e-02 9.214398782900930229e-03 -5.311090662398484181e-05 1.042485211318024303e-02 3.719234659964162221e-02 5.070559518551354290e-03 1.022462035611393719e-02 8.106583287774160942e-03 5.621970923939963172e-03 2.857427921868563314e-03 8.937851211619906189e-04 -3.833193392962544813e-03 -2.105833808479338695e-02 7.130490739194686976e-03 -6.789292346642634458e-03 -4.739344322913698754e-03 8.029208817834804571e-03 2.551645225471429329e-02 1.197299793372391327e-02 7.902395691782432979e-03 -4.416174631649977256e-03 -2.799386125507279804e-02 5.972076500298446541e-03 1.392106176009727872e-02 -1.215473817048770772e-03 -3.025752134446408476e-02 4.915857136717344082e-03 -2.628614254082074428e-02 1.436932535301400395e-02 6.909606446684345323e-04 -9.895276175971259858e-03 3.098605315227204518e-03 -3.040291995418792619e-03 1.339689755807601038e-02 2.407724555828706387e-03 1.098946778323995829e-02 8.108286139160199996e-03 8.731313992823090328e-03 1.057022139867584178e-02 1.178754522843680590e-02 -1.307156099813107895e-02 1.052719664512771769e-02 5.700051131304345467e-04 3.277554014736274064e-03 1.074112936476483322e-02 5.477028399723920735e-03 4.981993483962067135e-03 -6.879929174148546184e-03 -7.201099570981994713e-02 7.362845454032805083e-03 1.492804451490082479e-02 7.047493543912363226e-03 1.125815114659928055e-02 2.165197989461103631e-02 4.028489895713824841e-03 8.373248709003624710e-03 -2.129076185336370441e-02 9.114085599427473872e-03 1.877707008253768073e-01 5.355393950410331123e-03 1.428738660648095488e-02 6.087290757399408357e-03 9.849278253818309625e-03 -1.273445217534248733e-02 1.591573435605850295e-02 -4.211158958194531968e-03 -5.926394372066867526e-03 4.172026432585427234e-03 1.222443437229230392e-02 -1.022153947982663326e-03 3.783710830689770901e-03 -1.350091494497251098e-02 4.809201410613675801e-03 -1.847829923518776174e-02 -9.562845797128589204e-03 8.966508160800037985e-03 2.461927473736102469e-03 -4.300573152407251992e-02 1.216349886318981305e-02 9.046635896746847705e-03 1.040326531118518881e-02 -3.726383422572754778e-03 2.900709233309922610e-03 1.218698048213396647e-02 -1.738670548001927316e-02 -1.915426258572997323e-02 3.953994944402862075e-03 4.647357429975089785e-03 1.377627990047540019e-03 -1.867555607142733221e-02 9.785743401824619978e-03 2.891646118054292357e-03 9.402863302772030557e-03 1.114915735478599554e-02 7.577639079056152846e-03 5.349041537308022419e-03 -1.036665514071756500e-02 3.162835966893666820e-03 7.577878130089461470e-03 6.667273074673035586e-03 6.011421516510645751e-04 1.301516408074762307e-02 1.537525276086546683e-02 9.300911339329153565e-03 -1.624770744735849152e-03 7.329815496956788162e-03 -1.664295179479101600e-03 1.132205889713952529e-02 5.338417374941144787e-03 3.639331894980566643e-03 1.372483547639030341e-02 2.834879465171022146e-03 -3.762617520392689662e-03 9.846723385811604820e-03 1.028888934430917390e-02 -2.134363370001259030e-02 -1.208077627805630161e-02 -7.800847402145125002e-03 7.472219145305292534e-03 7.562552539336410765e-03 1.319532585614924779e-02 1.547225274393498017e-02 -6.221788408184326415e-03 1.821886376484087647e-02 -3.132838461518703231e-03 1.431195458120109940e-02 1.224482383091909585e-02 3.554814170620466951e-02 -2.318770077690465725e-02 1.971876159766774474e-03 -2.321158402641304921e-02 -9.363541264910440337e-03 1.030275931402377214e-02 1.208236892919050016e-02 -1.535596203434801132e-02 7.811243683037913388e-03 1.190761825987446572e-02 9.298679955007242356e-03 8.544001517068256987e-03 6.275245511638831604e-03 1.124043418946356863e-02 -1.846512138514508263e-03 -1.162795267850822139e-03 4.481840693579822871e-02 5.629731527595622370e-03 4.315556709659650503e-04 2.286849012948889009e-02 9.439480079872639845e-03 -1.671142623498063752e-03 -6.698765898252830031e-02 -1.216407943788102783e-02 9.388729482354599143e-03 9.727026951209524069e-03 9.675053677656553566e-03 6.920647249975552667e-03 5.988344335588383083e-03 1.202037252605427098e-02 2.150877202855549456e-03 9.591638974474623811e-03 -2.210063087258972228e-02 9.729878063207067149e-03 4.474500078330117744e-03 4.881178378697873313e-03 -3.153464487181888848e-02 -1.547381334228323203e-03 4.997624603808072975e-03 5.414499148771074154e-03 5.160073228989119597e-03 3.289175469060461564e-03 -2.551483876377352508e-02 5.312810649984774612e-03 1.331962560751126512e-02 5.213905455818279404e-03 6.530683635959028295e-03 -7.633064183867419722e-03 -1.626762411720676649e-02 4.488937499152745314e-03 1.264563173534800043e-02 -2.835907421785489879e-02 5.390110426274059494e-03 1.276942223786982009e-02 -2.455018736512046447e-03 2.427763031574080906e-03 1.534375358578394383e-02 -6.514751639132944534e-03 -8.150944270418098044e-06 2.919122508772014225e-03 1.308847134789532275e-02 1.319829013467826995e-02 9.077871118564957709e-03 -5.502304478447035685e-02 7.043280171483161725e-03 1.663280588712009664e-02 9.849918286375065196e-03 1.172091331238724228e-02 1.482660554524845020e-02 -4.713589660384129125e-03 7.765540234663330030e-03 1.640849923525584259e-02 1.091324461500216107e-02 1.107945929099091349e-02 4.493993742684079980e-04 -1.033823251548024805e-02 -2.300216171615012458e-03 9.655958267137203926e-03
3.557045608928293551e-02 4.696090991803018866e-02 5.978498612858427347e-02 -5.692844742165751671e-04 3.072323136441327054e-03 2.233368857218587245e-03 4.087221125185961507e-02 3.551927649899763728e-02 2.649516924583349749e-03 1.268961445649217055e-02 -2.159855683679588983e-05 2.676407243274391522e-03 -1.956631988117011611e-01 4.418093184088967007e-02 3.910211948061392828e-02 4.290420079153502847e-02 4.129185675724879323e-02 4.976262578406675380e-02 3.786602640396621311e-01 4.486846621493711940e-02 3.297501540845847873e-02 4.783688268578063785e-02 2.868878120869942233e-02 7.682986255581096373e-03 4.428947224328074611e-02 3.424242023756464762e-03 4.403103919888007312e-02 3.222187526287580150e-02 3.261701752787198733e-02 1.161677627947498535e-02 -4.077289628315780047e-03 4.067860435425773441e-02 3.076590229105529914e-02 3.184634715066456817e-02 8.912844742461218869e-03 4.264485308684606152e-02 5.043896466396968065e-02 2.409260971267257120e-02 2.950599940970370996e-03 2.068394050012783286e-02 3.569315240469245198e-02 5.978373830749780793e-02 1.585734058250364356e-02 4.552210498250669479e-02 4.408667943883384094e-02 4.860600878437470324e-02 -9.247087709873644430e-04 3.516310314025321293e-02 3.608489075118059830e-02 6.866823057536159194e-03 5.392916345460735741e-03 6.642214838222045004e-02 3.144195736727477958e-02 -6.629490038992259110e-03 5.317302340244844938e-02 6.663572995718849978e-02 4.575692641979419405e-03 3.857186676992112317e-02 3.339622668792447541e-02 5.157190272004376352e-02 1.213225843917442072e-02 4.258585778530152993e-02 -1.154816553459900655e-02 2.409739905269080162e-02 3.852235758948053396e-02 5.636939700143983600e-02 4.105580177909227968e-02 3.594534801733923618e-02 1.077264917146433937e-01 4.744675687637014277e-02 4.496570907602144562e-02 1.596011881748686870e-02 8.819055419314344654e-03 5.500028811320328836e-02 1.091242786170241452e-01 -1.122384885128658964e-02 -1.087652785046920069e-02 2.162184264949814413e-03 3.556037326592729336e-02 4.604844367998695703e-02 6.972135192838091813e-03 -1.307853984147392679e-01 2.975739680039562324e-02 -1.348557589037579184e-02 4.004569723132427733e-02 3.862960650989148703e-02 4.010928665320172282e-02 -1.693413719255083827e-02 4.149880096560967790e-02 4.901817487191682116e-02 2.876886911885439060e-02 2.067623153966468078e-02 1.485413729313734763e-02 3.870037886062973470e-02 5.039902837441995187e-02 -1.250629542537397883e-03 4.199452436309920877e-02 4.188011285684238583e-02 2.352030996844040739e-02 1.093456689720935099e-01 5.299909542998106765e-02 6.157019505737237192e-02 -1.640355952639296899e-01 5.067846575077644689e-02 5.805545680688242033e-02 2.243261676064619778e-02 4.798321984948388658e-02 8.165043336629783377e-02 4.136443832516551594e-02 4.879527956070591199e-01 -2.630415318416897980e-03 5.076345034747677121e-02 -3.351752665343028098e-02 4.081431718450029972e-02 -6.844963030797806061e-03 4.753126991489029646e-02 -2.294570037533219184e-02 1.996872539866212728e-02 4.220893279036352919e-02 4.772922685284267108e-02 -1.009366449672609127e-02 4.777354262943003110e-02 2.321810122042511706e-02 -2.809962701931899157e-04 1.036428506897421088e-02 -1.162381133258939651e-02 4.617658153245292330e-02 4.014254097632096591e-02 2.209218422836086437e-01 3.753829493461621064e-02 6.210374172488925329e-03 3.773709069789307757e-02 -1.092261723368928988e-01 7.273901105373807054e-03 5.259514903835006000e-02 -3.666521949633774757e-02 -1.389493743007931548e-02 6.124631233814905110e-03 5.044105233508729830e-02 4.675954389749892304e-02 -3.725883911132587406e-02 3.746733136878140080e-02 3.088868571301363677e-02 1.888969313975483741e-03 4.867170450979680513e-02 3.800728019208149400e-02 3.498340248294189853e-02 1.956924884986471769e-02 1.593400121547578667e-03 4.568466058638815525e-02 -1.662977519143900773e-03 5.438968151337860400e-03 4.346634062540467858e-02 4.822949877719739931e-02 3.052756900456546352e-02 -2.511012794092924369e-02 5.118301561668214816e-02 -8.087131987602809435e-03 3.099911295533474762e-02 3.225093494824003704e-02 3.967521921161307891e-02 5.437594518388077364e-02 9.959024605799034549e-03 -2.792609765731261795e-02 3.031783241678624383e-02 4.763934211919985257e-02 -2.510050123647610334e-02 -2.291662295133742311e-02 4.483850753553870506e-03 4.388264806320354983e-02 3.367358216394049364e-02 3.476779166088295181e-02 4.373297902336448911e-02 1.589233845181993454e-02 7.479015167155334161e-03 1.666280039599547791e-02 4.596440076640836286e-02 4.294257998594395304e-02 2.257897033883116966e-01 3.842303300183603360e-02 7.320791832445320245e-03 -1.870701727491343863e-02 4.165634752877250130e-02 4.751712064997063584e-02 3.116045720630629401e-02 1.623394755668557815e-02 5.105496891344360466e-02 5.424761597743409103e-02 5.148826269063754013e-02 4.994475060959194246e-02 8.077709368779894400e-03 4.023143649918310000e-02 3.821665296092804226e-02 -1.699594401263291102e-02 1.233329888431093924e-01 3.710102491676446623e-02 1.199759914062629084e-03 3.879582443816512877e-02 4.096335974072618652e-02 -1.007725869869925857e-02 8.222602482619374709e-02 2.311692271356610706e-02 2.987333122323959297e-02 5.191793140391491590e-02 5.165198923866959335e-02 3.342828905989813498e-02 4.017931072166240625e-02 4.586250892890332553e-02 -2.102440215123647753e-03 3.441699412113665563e-02 7.865495327449694221e-03 3.572628757423713247e-02 -1.010668643408735821e-02 4.301897699661255681e-02 1.161976508824555526e-01 4.247278998001231126e-02 -6.857145498237445479e-03 1.343076668026814066e-02 2.540069913128447168e-02 2.952574839430173112e-02 4.999165429410985795e-03 4.333589667157773662e-02 4.197092967932213037e-02 4.290785921278015419e-02 -1.416580282751520904e-02 3.384689728063557872e-04 7.005107765645103741e-03 3.953156353728621425e-02 4.510655157832831746e-02 2.826757644658525054e-02 7.277327863507257986e-03 4.803078995810661916e-02 4.800936033795010632e-03 3.435805832030610490e-02 4.531470000454834030e-02 1.413463682054170306e-02 1.740318765409885199e-02 3.160474817850716933e-02 4.693361834116004105e-02 7.836698912469140799e-02 4.760651042165517377e-02 -1.219432452836951598e-02 3.150357472099486744e-02 4.758273290800098948e-02 3.020415122405535960e-02 4.717371289697001174e-02 4.706500772929380488e-02 1.044420842401641569e-02 4.123561086727858122e-02 4.640407439306332843e-02 4.918990526178230321e-02 3.915510271831229572e-02 -2.955428777140157309e-03 3.813646486915426431e-02 4.305478511728981494e-02 4.532463106337000086e-02
2.558650774081604878e-02 1.890574395417979683e-02 -6.076740781315233611e-03 3.461731159346354003e-02 3.571399351190445576e-02 3.597988816237300547e-02 2.620023341731498104e-02 2.263852719325933072e-02 2.623317883867216579e-02 2.767351366560506440e-02 4.014097031909689972e-02 2.402991633597122145e-02 -1.638446379401844732e-01 2.901718201722361043e-02 2.637917688345502859e-02 2.547105259082515713e-02 2.846542224087430031e-02 1.632382231479774862e-02 -9.621288406605774113e-02 2.783768520811371119e-02 2.693222828415482717e-02 1.950655890126591629e-02 2.414593093672487423e-02 2.372887252748726028e-02 2.066146232730337387e-02 3.449858502043105096e-02 1.917151754758717255e-02 1.247890216975110211e-02 2.271330205253244486e-02 4.469821025597275205e-02 3.956927777417196951e-02 2.618110185320511596e-02 2.356290296451553357e-02 2.289865185458634864e-02 3.560664368410630665e-02 2.643700971377581713e-02 2.336461871787190447e-02 3.627546996705072191e-02 2.778078042360161357e-02 1.723765897384592696e-02 2.991157042837126745e-02 2.902747988856398120e-02 2.030549998497278505e-02 3.070495239868379841e-02 2.407247837841383284e-02 2.590742492646457007e-02 3.520706434682121383e-02 2.103848613135553616e-02 2.088839208291880245e-02 3.650297606141290896e-02 2.017481036767901012e-02 1.454807131434213141e-02 2.070130236543446522e-02 3.463746502529448101e-02 2.565030291360825485e-02 -1.683751115538638099e-01 4.427324005003038798e-02 2.569957213829184711e-02 2.283825196171088145e-02 1.939854917239950544e-02 3.594556705095532101e-02 3.093839402222893845e-02 4.647935461774757582e-02 3.143441801893161885e-02 2.421548554980181012e-02 2.546278705536470302e-02 1.293402217827479932e-02 2.950015801527215362e-02 -1.304279134238239130e-02 3.294394253423742897e-02 3.086825215571871797e-02 3.088609563206786562e-02 -9.171628042256848657e-04 2.005985863602876423e-02 1.106044847318453025e-02 4.685649058731082561e-02 -1.876522003239968275e-02 2.753113237300688562e-02 -5.698684833310453668e-02 2.507683573330381915e-02 3.688259762583204204e-02 -1.318260904359992713e-01 1.957912513949055383e-02 5.490973101711584675e-02 3.116552682288304191e-02 1.763670287830940847e-02 3.975818296236399707e-02 3.377082650133231972e-03 2.395099888267888943e-02 1.876991490921902858e-02 1.663747274576780552e-02 1.083684196756752940e-02 3.716364855667365907e-02 2.817341444166298822e-02 2.191400768891494863e-02 3.750365420197743216e-02 1.558420427512085919e-02 3.203966795791256955e-02 1.044163723594665645e-02 -8.201730880616706076e-02 1.674989004134395595e-02 -6.460212176439310977e-03 -1.576136248607481471e-01 2.484774915693293770e-02 -3.581802886534327796e-02 2.059771638170308436e-02 2.130302535384243079e-02 6.492296911471569926e-03 2.711023252985390181e-02 1.965206420045400859e-01 3.784094441032129913e-02 2.612426354499598063e-02 -2.060522352824007558e-02 2.397824236177928045e-02 3.732574536301792173e-02 2.355878459000338918e-02 5.667324307757779650e-02 2.644786063818370392e-02 3.052024204727386836e-02 2.519927119317345171e-02 -2.903736243107486910e-03 2.797647681650624468e-02 5.016486774908542404e-03 3.770692248667225493e-02 2.535632150379747707e-02 4.978228906851737967e-02 2.506236821671186527e-02 2.445998980912346757e-02 6.790885488104085599e-02 2.399165937078193145e-02 2.919231497186228555e-02 3.327286811744307321e-02 -2.079095175719033461e-01 3.797036121179114820e-02 1.795032246025191069e-02 3.308302760397038161e-02 2.844768830141784430e-02 3.935615599908999507e-02 2.585166453584490306e-02 2.639813042277355457e-02 1.960906020940144170e-02 2.502202174739372523e-02 2.194042173276336202e-02 3.919509451349665469e-02 3.499000325217428709e-02 3.003843524971581622e-02 2.253506010031636891e-02 4.119049321024945837e-02 3.284773147354494438e-02 1.686911017957519118e-02 4.793937470629898445e-02 3.894335497705094656e-02 2.770402854303561507e-02 2.393894663878644302e-02 1.913898221783049899e-02 4.494790111719246251e-02 2.723108576179026491e-02 4.330060588563600793e-02 2.242585541320902057e-02 1.244877492919147476e-02 2.191118484821861362e-02 2.221413849753402572e-02 3.141455666313432843e-02 4.754909044356230019e-02 3.081449994935379216e-02 2.103907172803492695e-02 2.812139035159847908e-02 5.938249477041114555e-03 3.893211977460886430e-02 1.600983414807055638e-02 2.736927509101468731e-02 2.387747128369439517e-02 2.782728026024459608e-02 3.348313796301308209e-02 3.516505980812764665e-02 2.795465397053776418e-02 2.149979743923072228e-02 2.487286234354018147e-02 -2.418258497166987930e-01 2.373554185553583551e-02 3.623755996878381264e-02 -9.749391854735577068e-03 2.274631520430967641e-02 2.063706472327936706e-02 2.395406148619432310e-02 3.265710345655913061e-02 1.810884328034312665e-02 3.040182971746076962e-02 2.482694620770973734e-02 3.096868719765162939e-02 1.979796611813274682e-02 2.054448326595028143e-02 1.978731120292842593e-02 4.043575505213451576e-02 -1.634228728753714943e-01 1.727835052141224459e-02 2.730574469554463563e-02 -3.779538341782608807e-02 2.531008527371747530e-02 2.394192149247290069e-02 5.317697197496747824e-03 -3.031585146129830727e-03 1.799415146736184357e-02 2.423198123688543107e-02 2.382544873249396733e-02 1.864359522230295968e-02 2.600766151895213263e-02 2.651258375853156671e-02 3.332642452315836418e-02 2.361586038501577861e-02 5.816390211401800854e-03 2.315228566535098773e-02 5.380374041131158469e-02 3.360002679641362067e-02 -3.921705734641618701e-02 2.410328639052789976e-02 3.737041625389255634e-02 3.155281838882419837e-02 2.369754573454982069e-02 3.269575144082358803e-02 5.572071188642790940e-02 2.612277048441929289e-02 2.706977938542851417e-02 3.380953604023418518e-02 3.873503120816906148e-02 2.896072381977606719e-02 5.016223166589219712e-02 2.744071486529738382e-02 1.032216861995008395e-02 -2.024654569652727630e-03 3.668725847706271609e-02 2.118879780760865236e-02 2.621316348168313201e-02 2.854241852799410326e-02 2.612094316378537825e-02 3.163196461308533797e-02 2.045635482360008695e-02 2.519852809171029343e-02 2.465083402525142589e-02 -4.643467134369774763e-02 1.821670569640263665e-02 -1.006997654412069010e-01 1.935873778227671302e-02 2.095672100000445931e-02 2.825350140609930727e-02 3.350742710838449517e-02 2.604183997967897402e-02 3.082351899560296926e-02 1.798788175848992435e-02 3.127260027918361829e-02 1.471062407754827883e-02 1.680060408811240649e-02 5.616939586668016904e-02 2.970869079788008432e-02 2.519213000848471301e-02 2.029960268283703337e-02
1.234986192416485072e-02 8.178307431841799410e-03 5.581443492517718184e-04 1.986057421040675688e-03 -5.796628288757368561e-03 8.286483116485878972e-03 1.458292958674467683e-02 7.415574444805997020e-03 -1.731940732652072212e-03 -8.122617063906579571e-05 -7.177832542035113284e-03 -7.326381553556299622e-03 -5.320774548080291211e-02 1.238292048737282651e-02 6.668655133057940429e-03 7.510190718305724718e-03 1.126765065527867218e-02 6.151513895170282464e-03 2.962102115810689301e-02 1.383242993134990891e-02 1.131457981232181741e-02 9.036401239978173947e-03 8.674871762685373855e-03 -1.835832046236710383e-02 1.573024967158662135e-02 4.874078492170716946e-03 1.134714416784135538e-02 2.878019444766828291e-03 1.255957207100123242e-02 7.301707876578845263e-03 -6.470458992876912526e-04 1.084155860996802688e-02 5.545690429774347008e-03 1.082680794455934993e-03 5.972001826874880417e-03 7.517906099413500416e-03 6.779662772212004945e-03 -1.131323732806470720e-03 -6.050234764686590778e-03 -1.797895451333648628e-02 8.410943729585713610e-03 6.702365200329414574e-03 -1.236571609824699443e-02 8.558164347823962390e-03 1.357113433305990984e-02 1.332863959429696210e-02 -1.179407958137269549e-03 1.072869513694511140e-02 6.969255093049848797e-03 1.813000771044696782e-03 2.634422730254817099e-03 1.621538264459881570e-02 5.876260112504028132e-03 1.884508109118502011e-03 1.360166917287536532e-02 7.819578215117613251e-02 -1.623650271733728667e-02 9.273601006186451765e-03 1.076044736729432801e-02 1.784500692868042429e-02 -2.224390145244550462e-04 1.508580473523980260e-02 -1.727327856759622998e-02 2.182890677039692542e-02 8.298491859217290920e-03 8.889873504310552912e-03 -4.063872894023962232e-04 7.580570394000772996e-03 2.546310564739986612e-02 6.820876908190069178e-03 1.443166249902638754e-02 -6.642183572260261168e-03 -1.975870007205442896e-02 1.313233023106738853e-02 3.812146881711974029e-03 -1.371084436698135831e-02 -2.624252277424474200e-02 -6.341433736158540863e-03 -2.416184504597601243e-02 8.683182370267559028e-03 9.899872800528437475e-03 2.357896236257490605e-02 3.664221028318009887e-03 -1.309333957374403390e-02 1.157639970605311812e-02 8.287529959842526717e-03 1.079413679870705640e-02 -1.115854917486531345e-02 1.701698115114900003e-02 1.059904643005028096e-02 5.464485221538094122e-03 -1.640209672191517490e-02 -2.917246071224963502e-03 1.318393753679321032e-02 1.299023340360326920e-02 -6.919203347145482354e-04 7.399506462624398130e-03 9.694030616442672263e-03 -1.153606143256215820e-02 -1.407369467163991916e-01 1.105820811063175889e-02 2.540490372129232659e-03 -7.303690788477873452e-02 8.036485103825836279e-03 -8.466628660583334909e-03 2.723507164648345425e-04 1.224469603959967706e-02 1.799941196822468434e-02 8.293126310374987487e-03 1.836939786898453553e-01 -2.812594837199947680e-03 1.017729010759187494e-02 -1.490391558899718805e-02 3.711353396070493377e-03 5.363950100623474972e-03 1.184946641722472820e-02 3.970880872928397518e-03 4.536843016183459559e-03 1.023122361723608278e-02 9.288536502365425315e-03 -1.309661957816597245e-03 1.154895235464907001e-02 -2.132027644986471751e-02 6.761657963124658929e-03 -1.694103099087060707e-02 -6.986702028731642949e-03 1.402380013734076149e-02 5.837205789485817690e-03 -3.542574029558031440e-02 1.273084139101530315e-02 -7.372859143687670973e-03 6.285684722103124407e-03 5.637925092704351715e-02 1.026821226764971194e-03 1.249501741937529727e-02 8.307580122592809341e-03 -1.655047155517507321e-02 4.493266123113840403e-03 1.326877369026202048e-02 9.016294558170049461e-03 1.310476413381870577e-02 1.365671621306408477e-02 1.996219802330682393e-03 3.370715157573489235e-03 8.115509185910500453e-03 7.807255477527904296e-03 1.413565536588952051e-02 2.029875104138133008e-03 -2.428089597152222664e-03 5.555057476824876855e-03 -6.230894263943426419e-04 1.021887280824445264e-02 1.485568764589277266e-02 1.796915047803699164e-02 1.128397950421709817e-02 -4.182590495540844389e-03 1.122606769131916093e-02 -8.150642627698205522e-03 6.452170434971968294e-03 6.422490740848500052e-03 1.542794276732132285e-02 1.211641544001724677e-02 -4.332868794739429025e-04 -7.707265611979202159e-03 4.291851007644029679e-03 1.121630778201665284e-02 -1.413246064794666454e-02 -3.775709457642694583e-02 -1.564525512616312189e-02 1.429663613734845524e-02 9.298549227812921009e-03 9.332514239660485988e-03 5.261407118516920299e-03 8.110100917324394908e-04 -4.014626542983052923e-03 1.672822430709410653e-03 1.646738497419968084e-02 1.617542781344257982e-02 -3.962750000212158542e-03 -1.443397866857360282e-02 6.854227866968316644e-03 -2.177712243135495815e-02 1.076719698425767507e-02 1.204666148968473217e-02 1.150154087287160593e-02 2.232814623856686775e-02 1.374585564338716079e-02 1.437349577981120695e-02 1.514088817121725383e-02 8.314025579989420267e-03 -3.229871176694851069e-03 1.227973462871203257e-02 6.388617827950205004e-03 -1.059495936333119948e-02 -8.054848418515161979e-02 1.516748501497572690e-02 2.802486569057145889e-03 1.931900531569939738e-02 8.580586305554471771e-03 -4.093289473879698458e-03 -7.985997382151363566e-02 -1.094620484824927742e-02 5.622711087005348093e-03 1.072426603704854098e-02 1.440279950701584509e-02 9.540824411107694594e-03 1.139462338806594699e-02 1.315142669027588584e-02 2.737706297972127348e-03 1.173304798658897710e-02 -1.542904164960776613e-02 5.784441501684792208e-03 -4.661271100604677184e-03 7.411505138885020327e-03 -1.318816999817451763e-01 1.119506795062220200e-02 -5.272274851060754393e-03 1.425931188293056741e-02 9.901177973953954534e-03 5.218493228127390506e-03 9.057207810186566552e-03 1.307919086823838145e-02 9.822242481207900042e-03 1.281842625974009657e-02 -1.486515429898223849e-02 3.477725377973523227e-03 3.347576079286532311e-03 1.254864201841202585e-02 1.306650336594035802e-02 -3.486340081156024534e-02 -8.853860223149083268e-04 9.690954045264767516e-03 1.182952062104168298e-03 1.347591774139621050e-02 7.273203829204323047e-03 1.418835600175862716e-02 -1.816392253107432936e-02 1.323200239915993393e-02 1.371666390419317566e-02 2.671438029078645332e-02 1.461642143574765594e-02 -6.109824144703829979e-02 6.227768057176681638e-03 1.071958708111347275e-02 6.357655246654078489e-03 1.285200558732951803e-02 1.410046326356478689e-02 -2.371253990101828465e-03 1.154761755624236427e-02 7.193603894969659816e-03 6.574832087198194917e-03 1.130267157326133275e-02 -3.314636401050827241e-03 1.054603220337709153e-02 7.608046341784265205e-03 1.057448946222385409e-02
5.545664203757352632e-03 4.467348298604531184e-03 1.962260798143328905e-02 -2.389337860578401307e-02 -2.082197101602974165e-02 -1.612042669450277493e-02 9.961372563850794202e-04 -6.653319325947566233e-03 -2.634203821663246015e-03 -1.027029866343777929e-02 -1.619335121734167757e-02 -7.921991348531803867e-03 2.255088591111282896e-03 4.783503008602163833e-03 1.479914920437351263e-03 3.491259042485035484e-03 -9.990689902671967201e-03 5.489760034995985923e-03 2.086888395829769940e-02 3.942342665557489051e-03 2.545308215980006915e-03 3.542247622237826906e-03 1.652217420133597278e-03 -1.366629543955907508e-02 1.407742863768854727e-02 -7.389741941672836947e-04 5.911098189599525363e-03 -8.825360064555448636e-03 -4.966677102704982610e-03 -3.249644166212891858e-03 -1.724369171352863397e-02 -8.057826669426719490e-03 4.361119097561226348e-04 1.728229571631340641e-04 -6.798280158600610371e-03 -5.370110438880470148e-03 -2.997663255143779605e-04 -4.508972864008260056e-02 -6.630220378899107439e-03 -4.273418139458050324e-02 3.090193748935448682e-04 1.492334606479811011e-02 -1.643395589685195390e-02 8.206311887552842840e-03 -2.151580632218842541e-03 8.588396364345222272e-03 -7.390558659331577162e-04 -1.671529125783018056e-03 -7.146210865856523695e-03 -1.325758638075103185e-03 -1.112265392565669336e-02 1.783121504482726438e-02 -8.140522801213573648e-03 -2.130231045969309400e-02 4.061289612422266590e-03 4.021066902707558927e-02 -1.644989738162213472e-02 -1.959554462084377776e-03 -6.335048875080315743e-03 4.629014370338703152e-03 -2.679143234409908517e-04 1.064792859072781830e-02 -3.056352411204046882e-02 -3.042963561722558663e-02 -7.908895212560232424e-03 -1.916447865771406939e-02 -5.729651836431691805e-03 -1.525024369658116658e-03 4.034266348063091090e-02 9.558513000682026736e-03 4.762845711541171395e-03 -1.315935994236377971e-02 -8.220510863746692543e-02 -1.645156528223912305e-04 4.407050804446167869e-02 -3.469544486635915692e-02 -3.772485584397974878e-02 -2.953996707577691717e-03 -3.974208254935360923e-02 3.109646945855106676e-03 -4.309780734852037762e-03 -8.576694567504306033e-02 -3.996195694559339859e-03 -3.799333633045849645e-02 7.088322139759351860e-03 -7.418823259081577109e-03 1.043742824210824004e-02 -1.921051764484194360e-02 5.051597439778794663e-03 7.427301696654987039e-03 -1.196695450132438665e-02 -5.309000411314354628e-02 -9.917219586278789092e-03 -1.148848195739465144e-02 1.386978554975883127e-02 -1.020580842904741763e-02 -2.456386333161234784e-03 4.732873039463218572e-03 -6.150587629701168013e-02 -1.216900865454458303e-01 1.549881046928723756e-02 2.384838647150998303e-02 1.884142976081500023e-03 1.004958941149477168e-02 7.016564513866022090e-03 -1.316759317921099327e-02 6.558684501468236248e-03 3.099274160832831207e-02 1.614524930573345979e-02 1.447296116824900725e-01 -2.044884418547708582e-02 1.028009752870921376e-02 -2.492429386124364252e-02 3.428720794828565496e-03 -4.556256728479499141e-02 8.815713117645144689e-03 -5.092203897884164249e-02 -2.044326223628171318e-02 -5.298416220910176673e-03 -3.195442132433961961e-03 -2.678024665719850803e-02 -1.747717814414236764e-03 -4.837212963054200732e-02 1.552603599457393502e-03 -5.500022145611321855e-02 -3.295361766124353664e-02 9.282699454344085083e-03 8.283932056517602158e-03 -9.704569894059969504e-02 -1.836032876224956824e-05 -1.091891992698660295e-02 3.731613676533002740e-03 -6.223843459113001693e-04 -8.804463927920965979e-03 8.801603607018499559e-03 -2.055657788476093761e-02 -5.279649268933554046e-02 2.450002418737859660e-03 -5.668148574459770141e-03 -7.107076614061697689e-03 -5.466775053637484838e-02 5.863083234697727235e-03 -7.070039613553433071e-03 1.674791127378032294e-03 -7.770350685948947686e-05 1.497637378149810740e-03 -1.011416241615922980e-02 -5.450763533155742607e-02 -1.393422869629772770e-03 1.303851882376232466e-02 -2.201065470187089923e-02 5.535804745773034545e-03 1.032497113400082656e-02 1.601797554484837849e-02 -7.371354944703550731e-03 -3.945127932152192596e-02 -4.800403488336493600e-03 -2.404062282482258284e-02 6.474195160826068038e-03 -9.330163886674448098e-03 -3.501130709264963468e-03 1.351928607298835423e-03 -8.924643890528168033e-03 -4.975612623646061966e-02 -9.188679557720250135e-03 3.792199514454067024e-03 -2.625688783073418242e-02 -7.093068182078009210e-02 -1.648045028970233569e-02 1.106263059035388421e-02 -4.813697300695932157e-03 -3.976325822213409508e-03 7.023636550315032027e-03 -1.745676254613583514e-03 -3.307822263718399308e-03 -2.147562815323683302e-02 1.353308559657888203e-02 9.758308395641185004e-03 9.511604852673713473e-02 -4.109059684387750960e-02 -6.016133229207921637e-03 -4.520284157388130414e-02 5.278882002513709225e-03 1.187379878595233584e-02 5.873511785757485650e-03 -4.253641524739441154e-02 9.928669988881586202e-04 5.343011334490528966e-03 2.024022427590239925e-02 9.691231360793023733e-03 3.733473948087974730e-05 2.279044021700398024e-03 -5.609910382496411350e-03 -2.279807436520454519e-02 -5.885263314251598654e-03 -4.338669159014625111e-03 -1.741642972886606883e-02 -1.383465185227941447e-03 -2.625345465190139296e-03 -1.770068905095954423e-02 -1.388474131427923919e-01 -5.532099778439716203e-02 -9.073579614064108609e-03 -7.440424046919262915e-03 -7.326210888474447326e-03 1.709346098702843684e-03 -2.303382540570323399e-03 2.663582011569313925e-03 -1.125883555629116940e-02 -5.548732819826008092e-03 -4.906859595268930896e-02 -7.333656857705890715e-03 -1.971146252879682481e-02 1.286955613000182082e-02 -2.158223942625202008e-01 -6.779814428774681885e-03 -2.118072094689674861e-02 -3.312438509572876964e-03 4.020485202836396842e-03 -3.447118334346516936e-03 -3.771708469684540571e-02 -1.706075477354302393e-03 2.844823636149451489e-03 1.468531038844514002e-04 -2.153075822976146039e-02 -2.103558281128610138e-02 -3.360467501902146548e-02 -2.607912889284277284e-03 1.041270563786171263e-02 -4.796531334579254291e-02 2.292118915508354129e-03 -2.523001766615127258e-03 -1.328203587391111121e-02 -2.150932839806868509e-03 1.582351195461716847e-02 -3.348229439759482784e-02 -1.378837428041553535e-02 -7.143954574856142825e-03 1.102220628484540735e-02 1.433577237396171065e-02 1.492865516605540455e-02 -1.249675533591558113e-01 7.913819193992690723e-03 1.895027184271835807e-02 -1.308665124740280260e-03 3.326265316730294894e-03 5.232395388225271303e-03 -1.890508412889237502e-02 -7.174492526919132654e-03 9.659249051536188471e-03 1.733117806171990266e-02 1.075785453251879888e-02 -2.811985190429971970e-02 4.118823041161501913e-03 1.570457203494216416e-03 3.774625780281906998e-03
-2.936026611932333365e-03 -1.220363581832312368e-02 3.784044263002601938e-02 1.034617102336308526e-02 2.174884782054393312e-02 1.093103464156828234e-04 -5.721708035485783411e-03 -1.064283756337018085e-02 -2.036570486351388495e-04 -2.307525952025935891e-03 1.381643790149275804e-02 1.607389404827680305e-04 8.485712370006913419e-02 -1.212670741096061496e-02 -1.195270925642674675e-02 -8.022464660283976784e-03 -1.198475534949093417e-02 -7.679344176800143376e-03 1.515446441672069489e-01 -1.554510168822927476e-03 -3.660875780798052148e-03 -5.658424900105811506e-03 -9.458600806992753171e-03 1.208003236122813691e-02 -8.960418976957026937e-03 -9.743214247606673054e-03 -2.597344715263115791e-03 -5.043643183225795211e-03 -2.037266832739977052e-03 -7.434392034096481451e-03 -1.899218954937845639e-03 -6.883360429118487965e-03 -3.955739430224446129e-03 -8.814691438293491277e-03 -1.976402278959706396e-03 -9.954222609856868548e-03 -7.868022423568541909e-03 4.014507140731589201e-03 -8.599694877776566451e-03 1.808113646489740295e-02 -1.226708309905917213e-02 -1.594256614330894634e-02 6.961135569484607280e-03 -1.263123020081593703e-02 -9.035228468246917985e-03 -1.484543395872129322e-02 8.448162355864964612e-03 -7.757132692344890536e-03 -1.076728559073896786e-02 -5.920682677636409687e-03 9.406551240523900251e-03 -6.083162441834439292e-03 -8.676128397799720213e-03 1.300911109814811492e-02 -5.327577805665799707e-03 1.338113754977877934e-01 1.035359623782118252e-02 -4.367772093613759773e-03 -1.161842460055178411e-02 -2.508041654673281214e-03 5.043014695445031600e-03 -1.203471419638079375e-02 -1.475077701374720657e-03 -3.165724776953956002e-03 -1.364895302893128978e-02 4.717130122816523378e-03 6.332958696845296387e-03 -8.484067583126643844e-03 3.240810760711348992e-02 -1.381009292101049654e-02 -1.234762988356951328e-02 6.645733880946013208e-03 6.105684320547038330e-02 -5.577441367944080408e-03 3.636814069466650506e-02 5.035607676716027069e-03 1.874690870892684741e-02 -1.656256646367351617e-03 4.839296615032944587e-02 -9.791901034863971509e-03 -1.505375930342200399e-03 2.125925591466611975e-01 -8.059427232133877309e-03 2.859553695659864704e-03 -1.196136641065289989e-02 -2.994905099083822273e-03 -1.247657519608772608e-02 -8.585952164625007196e-03 -8.363450017146306648e-03 -5.536113592371470944e-03 -5.501039989579041209e-03 1.557070018776003477e-02 3.262216515780487405e-03 -5.626147763022944052e-03 -2.158345158003071012e-03 -8.408501791139510323e-03 -5.854199656978410944e-03 -1.506174574290342592e-02 2.192549105549231395e-02 1.182765559824274781e-01 -9.587354720979796019e-03 4.322296819688046382e-02 1.258013381494618999e-01 -1.793477841902235692e-02 -8.464543631505167323e-03 1.539295059522147006e-02 -9.104025354624959571e-03 1.878962555027844858e-02 -1.863559221443700925e-02 2.688421100604627134e-01 3.079950539772551704e-02 -1.833979035778210767e-02 -9.357830306424046868e-03 -1.062422647480781857e-02 -1.067679207323044173e-02 -1.664727092330173241e-02 -5.179880292401785324e-02 8.900971953597165351e-03 -6.332942791319465074e-03 -8.958866470301155016e-03 1.407715922021000703e-02 -7.530041631459720788e-03 1.921119486549976649e-02 -1.281152407390906585e-02 -1.299511797796585634e-02 -2.051249519939978352e-02 -8.398039279692072825e-03 -1.033013654503927604e-02 -6.293007126115959891e-04 -1.424914731483147706e-02 1.204984398193464576e-02 -1.032280184067679851e-02 1.115231698384886866e-01 -9.457085572895481546e-03 -1.034618395817592240e-02 -2.685906459176107264e-02 -4.270824744232458448e-02 -5.434061855374166909e-03 -7.142573369908664614e-03 -7.806659245563615963e-03 -6.512740631457630824e-02 -1.312223012820347770e-02 -4.038319435107396577e-03 5.731447714166710769e-03 -1.645986001978176280e-02 -1.084710382454803432e-02 -1.219571526954689629e-02 -1.255878739725884569e-02 1.040389083377836824e-03 -2.236886583760307884e-02 -1.444033393120700221e-03 -7.665657822345879960e-03 -1.982282328037005339e-02 -1.025129193272781777e-02 -1.066280546711178938e-02 -1.410141379257042610e-02 -1.447748941626666834e-02 9.834952904684503196e-05 -8.063297441123154150e-03 -3.986900588237845405e-03 -6.998601552018185630e-03 -5.841464419911573600e-03 1.684829752458975177e-02 -1.839309522751558790e-02 -1.176666228266057268e-02 -1.634724199591339189e-02 -1.811288850543428530e-02 1.489332233219874124e-02 9.835338448419574803e-03 -4.047499555579413613e-03 -1.209922909194493731e-02 -7.819515764207654596e-03 -1.385211467504166016e-02 7.508096145812465311e-04 1.229623601482730637e-02 1.141622835586662311e-02 -1.417045205673959050e-02 -1.405694732200817552e-02 5.687624941556182478e-02 5.976378760164923268e-03 3.644324822667631501e-03 -9.024930413645514127e-03 -1.418838715573275937e-03 -1.505947448599849123e-02 -5.868476478137779444e-03 -1.750613133781833697e-02 -6.576972517976769489e-03 -9.618083045810972564e-03 -2.158495043164256402e-02 -1.057159504227708768e-02 -2.354581107527259787e-03 -7.539297805358655125e-03 -7.085332596561971655e-04 1.819408254405999528e-03 4.994841803878392189e-02 -6.519095997195935126e-03 -7.517979490417834318e-04 2.504758815245561668e-02 -7.507299251697948338e-03 2.980542366081740963e-03 -5.714901509872311047e-02 3.028515795532647076e-02 -7.895962428552802045e-03 -1.205773737178893364e-02 -6.888118532996721777e-03 -7.289776828809305456e-03 -7.480621224373767628e-03 -9.494145085606586765e-03 -1.761401800177899097e-03 -1.099276198150080965e-02 -1.087013025309713915e-02 -8.565743999523452515e-03 -5.045015999359640964e-03 -1.293301156135828224e-02 -5.791679769767071190e-02 -8.431380453903134300e-03 1.972052313551382954e-02 -9.522254727876414485e-03 -8.748586330518117252e-03 -1.190376000747575894e-02 -1.323770568771327760e-02 -6.513712661350689985e-03 -5.106360215296570394e-03 -9.464862487357500812e-03 2.842424463765409748e-02 2.126886491340586327e-02 -6.463593762992301400e-03 -4.638628981412163017e-03 -6.442106912124067643e-03 3.183870577457927759e-02 -2.401842476512241076e-03 -2.911387316963018421e-03 -6.932964489470718849e-05 -1.058312747049905064e-02 -1.827794340721218200e-02 1.120050527614923838e-02 8.610360837407075169e-03 -8.710938662452719083e-03 -2.013038702675740144e-02 3.537384718318124788e-02 -6.708402502081778525e-03 -4.727394852485127669e-02 -6.645049093956135067e-04 -2.136060876797954769e-02 -8.333734176374013244e-03 -1.739333639938345569e-02 -1.000863542202186894e-02 3.920894102322513598e-03 -6.133701907689970145e-03 -1.226589002584399860e-02 -2.160736676382291402e-02 -5.863233757251395950e-03 1.543890487446760492e-04 -6.700297320376974106e-03 -6.478192662572004878e-03 -5.418283376345752606e-03
-8.204524418937321831e-03 3.388443919003203929e-03 -8.816633052534350937e-03 6.063033457610732258e-02 5.704682117068120978e-02 3.330723973293383405e-02 3.014445022992660438e-03 6.118405436381339421e-03 -3.314907321968764767e-03 -2.624982927830254650e-02 6.844832920199017678e-02 1.455866799480006954e-02 2.042530249663467024e-01 -3.657521010052823974e-03 -1.879328986076038085e-03 6.616247001154249019e-03 8.992427513847934357e-04 1.300533992330884896e-02 -1.188803087401271996e-01 7.578543471832606057e-03 2.880383452817834693e-03 7.199172315635775539e-03 -3.547788143686670271e-03 1.749214659058162882e-02 8.779542994025203717e-03 -3.185079797739959195e-02 6.308074152502804975e-03 4.983970001295286688e-03 -4.849808830713615675e-03 -1.445954755249305966e-02 5.668036916880223736e-02 1.366442896811698518e-03 9.282721729976470618e-03 3.940407508512045777e-03 -1.200817623223059474e-02 -3.784936340500453383e-03 8.296273547943867205e-03 2.738003373303674395e-02 8.495564196966683135e-03 7.096569341198809278e-02 -6.364765889497072011e-03 -4.629536357179328543e-02 -2.919254450643048952e-03 -3.395126692925087581e-03 5.020853857842061743e-03 9.609472537710628606e-03 -1.051166387343482021e-02 7.700826566570768625e-04 6.874685922929016802e-04 8.297030113354766055e-04 4.875929586507056490e-02 -6.037344402400351799e-03 2.253871388266184134e-03 3.328294426500592873e-02 1.317689050680059815e-02 -2.036300303095061603e-01 3.823980561332435135e-02 -8.172601645882857004e-04 2.314918430189780944e-03 4.352363213966122316e-03 -6.350199176513439230e-03 2.260971373980189339e-03 5.495283875111553473e-02 4.244914556836397457e-02 2.758836077753583707e-03 2.535194667630891272e-03 1.582357147078742102e-02 -1.115452215090920879e-02 -2.682932587901559751e-02 4.700012741101845630e-03 1.043565289110678397e-02 4.796906681687216484e-02 1.333050746710138235e-01 1.532798815947955876e-02 -1.507414213960725329e-02 5.467057702557295146e-02 1.129697295291147707e-01 2.869070829361085057e-03 1.447315575851537139e-01 8.585732072064772985e-03 -1.192677802884013413e-02 -2.802306738903188182e-02 1.457210878895738755e-03 6.555491144897004907e-02 -4.931609018791902055e-03 3.111016875822127797e-03 6.587235929196361660e-03 5.308340633606600106e-02 1.131336557560269282e-02 6.107331302309074172e-03 -4.992026880036411901e-03 5.598014753034301350e-02 -1.272934376775236576e-02 -6.671492904862343261e-03 3.826270875899183150e-03 5.038499695446835638e-03 9.757733326453825115e-03 4.023747526121793094e-03 7.423691933161480870e-03 1.224301602510805553e-01 -2.914467861291668641e-03 -8.121524567821577709e-03 -2.147280649723322561e-03 1.032121473832593381e-02 2.411351138601867949e-02 3.938785586232047137e-02 5.061967891781315142e-03 5.591386329726328978e-03 8.012177052423829701e-03 1.498380742946087973e-01 5.022720769184415429e-02 1.277888470987908684e-02 9.022451016933111245e-02 -2.369968584883066966e-03 2.787218858246275077e-02 7.787287894888078078e-03 1.874367072059188524e-03 3.815577733635910906e-02 3.403503602109453005e-03 5.862526034280751697e-03 9.046391185121392675e-02 -4.964218425788637264e-03 7.846103842738004486e-02 -2.658311662620625737e-02 4.720969473728654081e-02 7.041485230462908584e-02 3.314767943155635770e-03 2.980491310153285910e-03 2.024299867252792318e-01 2.200942209926181909e-03 -1.503394242134222089e-03 8.317603473321623017e-03 -7.599066741873117259e-02 -1.876862620846150940e-03 5.709499660608882525e-03 4.577987397831574656e-02 1.600825989577085370e-02 -2.292807045594546025e-02 8.950039868705818996e-03 3.194817112392114682e-03 2.913597541125332799e-02 6.400345848576597871e-03 1.126050545355684624e-03 -1.579950591817932265e-02 1.260848637854013535e-02 -3.929715499903516443e-03 -1.253052099963092650e-02 -9.943152734350231906e-03 6.575863984571802710e-04 4.871704618721222832e-03 5.315264199762538555e-02 -2.191546567390171077e-02 6.935616268730145258e-03 1.371279344405597778e-03 1.769966538031825893e-03 4.722480221140227391e-02 7.973597614737643405e-03 4.132933787674942377e-02 -1.623422320413851717e-03 5.798796546308711969e-03 9.047263926980669141e-03 4.562784991972626721e-03 4.749501254120616633e-02 5.354231036455646409e-02 -8.222055210166378039e-03 9.069101102323057564e-03 5.402083484015181292e-02 1.023309746025872630e-01 8.604139655450504520e-02 2.974827463672978685e-03 1.737247444190562293e-04 1.990687307570907969e-04 9.489490590832788675e-03 2.514511412517758324e-03 -3.309613227238657456e-03 4.626693689807715587e-02 1.056437312897980443e-03 -9.429981863405437030e-04 -1.235406538583546238e-01 4.004093813184063377e-02 -4.367193727414920949e-03 1.174938400232279218e-01 1.539765551304945286e-03 1.847294737001538116e-03 -5.855637043341938019e-03 5.374483447839430855e-02 9.821964379096981973e-03 1.434666942453287006e-02 2.122211639291196085e-03 4.252718784588992683e-03 1.263961608938858616e-04 6.091587223064812151e-03 9.196676742640747925e-04 5.379721737537259546e-02 -1.584599981211366471e-01 4.398648837330805181e-03 2.738105335740749838e-02 -1.845495105921293733e-02 -1.019988384158005421e-03 3.489091058206186813e-02 2.825817049798576633e-02 7.025207323303923890e-03 -2.477315074090932941e-03 1.413816734978794220e-03 -3.183663261747473727e-03 2.885123819377914765e-03 -8.374682338298636980e-03 8.220192027903007459e-03 1.874878501029628164e-02 3.861845660201025827e-03 7.366589076543499093e-02 -2.145540348078461054e-03 4.199780458762877866e-02 -4.777802705860313172e-03 6.385822966588954042e-02 5.147245979861934592e-03 5.002989084625367872e-02 3.433027935641606247e-03 -2.945603555791814678e-03 2.374909101317465836e-03 5.964952164038497817e-02 5.236059966597961766e-03 3.915145197848482472e-03 6.129775289890833194e-03 6.364764124547148127e-02 4.005434549259288823e-02 5.329517697533067005e-02 -2.069478525449661242e-03 2.760215477257620901e-03 9.378807745122573480e-02 -3.557683215509196278e-03 7.399047686226380149e-03 6.150753011552462235e-02 -3.798628755351798544e-03 4.314953521691879102e-04 4.954417207707267207e-02 -7.021608701062681361e-03 -5.032090345948202724e-03 1.886794593837524308e-03 -4.490289620937990001e-02 -3.408895802787984637e-04 -1.081168379502364663e-02 9.315514156515984634e-03 8.315799944591171361e-03 -4.355514852795219424e-03 1.684352669019635552e-03 1.779110760820630651e-04 5.223211645458514935e-02 2.888137506548644866e-03 5.911514317850304762e-03 6.098210884818018075e-03 -1.436304813222171470e-03 5.300046758830002924e-02 6.458367428488060152e-04 -9.287662572538315500e-04 9.140908084665475691e-03
