3.613485107384394324e-01 1.068314509031551701e-01 1.599543701457072920e-01 7.198664080777283925e-02 2.157183195634452821e-01 3.755712272218262315e-01 1.658581726111400118e-02 2.211461435598193193e-01 5.229920607493491330e-02 2.951500938117841422e-01 -2.804868163014861016e-03 2.121613369603637944e-01 -5.111750734514384185e-03 9.173687070226366203e-03 1.838268418840381668e-02 -4.536174491121104935e-01 -2.118804371796766672e-01 -4.452997496204639805e-01 -3.974507470152208351e-03 1.462159954133776252e-01 1.274831981872825704e-01 -6.380603255157622777e-03 1.083476921757168046e-02 -1.327967017350098755e-01 1.300084829890371663e-02 -9.380580508233890003e-01 9.738698832347535417e-01 7.203687512889103695e-02 8.248519042974257476e-02 1.066142033818085477e-01 9.701663147268133058e-02 1.873242733399969537e-02 3.515255933338345407e-01 1.717322417161542270e-01 3.645534139080243152e-01 -2.959396523102866133e-02 -1.050956523670814463e-01 5.450874074249646012e-02 9.011532504302008362e-02 -2.246399092544987958e-02 1.125480825693107312e-01 1.520524959070472526e-01 1.398756088168815748e-01 1.733001324219864137e-01 -1.227768984497995819e-01 1.314471937053998674e-01 1.604987398212825338e-03 5.490080863974437786e-02 -4.383998799809126212e-01 -2.444887387132438361e-02 1.346175349314001658e-02 1.848013293534675125e-02 -3.000837517954438316e-02 4.631722685030902759e-02 5.546618760346541110e-01 7.066548560245240751e-02 1.936147377697519933e-01 9.929751512872869723e-03 1.807276650189553954e-02 3.714543592547735890e-02 1.950348218216544360e-01 2.826083728852195054e-01 1.356840479526608412e-01 8.419766607233143685e-02 -1.216115975640487956e-01 -2.867099086200379232e-01 9.689301777952681605e-02 1.147715984121136651e-01 6.797606023910938988e-02 3.401027574465396303e-02 1.700925425964737794e-02 6.132813101234368958e-03 1.545739867146769253e-01 5.908663055537163311e-01 1.962767469144013344e-01 1.004882372890424924e-01 1.616639367847437225e-01 1.263622837035866323e-02 4.692597918072206192e-02 7.891015871964598971e-02 1.275037718933262343e-01 -4.556078052123048450e-02 -5.135679416062184643e-02 -2.178531865544361124e-01 1.882911624225709624e-01 1.012245610837765736e-01 -1.052282886478709233e-02 2.831052409933579872e-01 -3.750994234098060237e-02 -1.524520158377357382e-01 -4.674902505464257896e-01 4.799329389260072187e-02 6.741371804962655034e-02 1.091181874860088080e-01 8.126005603016135670e-02 2.359404681814127880e-01 1.130528305821581203e-01 6.507959600699094738e-01 6.469776042595132282e-02 -3.089708504599637112e-02 2.538912848055686899e-02 8.549466508379665111e-03 3.422417086515951168e-02 -1.278046178549239742e-01 -1.427549258126751819e-01 9.080497201144217823e-02 6.413608626834813031e-02 2.309863835587544836e-02 5.810360415498309894e-02 6.089085040257424114e-02 2.597412556331123515e-02 1.800634247461530349e-02 3.282463655676035041e-02 8.165384064582854595e-01 6.732325637206353075e-02 1.356205609893958164e-01 5.405745730516923336e-02 4.577418000404998022e-02 -1.745763576356314239e-02 3.693049123227993835e-01 -3.517121649515070336e-02 -7.777594410360084975e-03 6.922768300965240207e-02 -5.847119340101907675e-02 2.080946712724773828e-01 -1.900224281745547085e-03 5.146463477613511667e-02 -1.276565255519954492e-02 6.482965322679110076e-02 3.836808980622796739e-02 -1.210614605613742449e-02 6.253185874924040155e-02 1.654592447833456298e-02 -1.544718168625830723e-01 -4.904579694943237977e-01 5.079084208611661655e-02 -4.466030587381558115e-01 1.895214391384441033e-01 7.236871140515542533e-02 1.182773338024496225e-02 8.758752230146776840e-02 5.172995101053317474e-02 -1.046758434080834492e-03 2.406560531078282016e-04 -1.354164517354309594e-01 1.592217599413905671e-01 5.329332300238683734e-03 1.018604122469313061e-01 -7.693108644842112653e-01 7.449556347972653703e-02 -8.043961031114955917e-02 2.605239164306030752e-02 3.687531444364649646e-03 -8.830377687725048108e-02 4.091350097890828624e-02 -1.619683510226481993e-01 1.601678215362421429e-02 -1.479521872039486416e-02 -1.154291064324277846e-02 1.121813837415448351e-01 -1.541831682341275322e-01 1.407937730461816528e-01 -2.975088885720421350e-02 -7.934646528064691340e-02 1.069484343222043415e-01 1.366830116457232458e-01 5.516050205708626641e-02 6.463241069997500976e-02 5.425424850928219772e-02 5.952360878884108142e-02 6.810680105628158509e-02 -4.101358110843243698e-02 9.811781722379843418e-02 -6.986492858940561435e-02 5.095584226357695590e-01 -4.788184116206326696e-02 7.821103615311600366e-02 -1.557794241713045258e-02 8.308574652263751859e-02 5.480161040019070062e-02 3.956842043750790072e-01 2.268288112988829652e-02 -4.082497158174112732e-03 -2.096735440239233805e-01 6.983863282758692725e-02 3.804562792558398993e-02 1.479420726153893263e-03 1.310750173842162580e-01 3.927340458469772561e-02 -1.630423949819256313e-01 -2.390742734827775995e-01 2.305255481543431670e-02 1.416272717871327469e-01 3.353716648008390755e-01 -2.662311516673914955e-02 -8.923082366798429019e-03 3.555020426590074084e-02 8.190492861893901300e-02 -3.066883651257683308e-02 -1.346501779087372168e-02 -2.523473254425697906e-02 2.863812427777521694e-02 3.726382331838239137e-02 6.210367742468064084e-02 1.588180715852934369e-02 5.325427282991626043e-01 -1.267835188730754258e-02 2.999421774320341211e-02 2.337076498461054530e-01 2.359306632313262209e-01 1.345518389412795612e-01 5.828744395838556525e-01 6.682488769296378306e-02 -1.716735122039582742e-02 6.547783108023412513e-02 4.275652123419126233e-02 -8.008755613329227030e-02 4.734725744004968095e-02 3.320919019856266585e-02 1.126681406114538909e-02 -1.309445834004212550e-01 1.218107363822698852e-01 -4.080489184397660674e-02 5.678382098839361569e-02 5.648994611898398160e-02 4.878559736070111619e-01 4.512219565709413294e-01 -1.327836277024511957e-02 7.346931705689555003e-02 -1.704038254997368440e-01 -4.363294551645265085e-02 2.146958197783996325e-01 6.650556362130971566e-02 1.079952452024920684e-01 6.102614076010316746e-02 -1.475805194667796916e-01 2.135830747901087956e-01 -1.535200947207921406e-02 1.373545762267106840e-01 -3.993123573110310409e-02 6.912626957558157259e-02 -2.217344220107962116e-01 -1.242432351820468711e-01 4.546274939213673649e-02 -1.135881158487234838e-01 1.207273845607776674e-01 -4.485874452873617885e-02 5.068761252452791410e-02 -1.557706884699050776e-01 -5.659733808029510094e-02 3.344106719258589377e-01 1.281482269310788291e-01 -6.018479569338349711e-01 -2.877625062122461316e-02 6.653396189721653975e-02 -1.715711147698020453e-02
-5.281546786112115144e-02 4.993523398951904427e-04 -1.022707161498848660e-01 -8.257918325307755936e-02 -7.249494009410356599e-02 -2.132417649377460825e-02 -1.013932798077571695e-01 -2.405820696518636351e-02 4.842376940867026275e-02 4.955761077323585923e-02 -1.381189039363599734e-02 -7.269637751523674862e-02 3.750209298947674436e-02 5.855203859987628823e-02 -1.530696642617144707e-02 5.489854220922532613e-02 -2.856152202251227568e-02 -7.515800944590135535e-02 -4.769019911428463293e-02 -3.004196233788716114e-02 -5.481990187137084775e-02 -4.063478698170269049e-02 -6.320416277016356610e-03 7.844611528102961306e-02 5.945526470962446408e-02 -9.349986971213383388e-03 -1.220370900703678929e-01 -1.242807705707227317e-02 -4.304362463056420063e-02 -4.737573031260600143e-02 -4.110650187012245688e-02 3.050325155962075804e-02 5.790386397800678479e-03 -1.117225206110060015e-01 3.194289254831848140e-02 6.148341824390522736e-02 3.463661932888645323e-02 -8.046848456389713022e-03 -3.455123744080434295e-02 1.004267781799163123e-01 -5.585907367101084625e-02 5.079031475936171894e-03 8.310418016899258353e-02 1.522767751797953276e-02 -1.427909435607412070e-01 2.614351276282429748e-02 1.399069627790055503e-01 -6.241281340459717275e-02 7.665574302065913948e-02 7.620770427980675006e-03 6.286411909697009470e-02 -4.339398023099804574e-02 1.385263167934548123e-01 -2.423313233511084977e-02 -9.140452132608291314e-02 -7.808014413679846555e-02 1.167931644136470902e-02 -1.232802084548409579e-03 -2.478001163279297189e-02 7.297385402463184290e-03 -1.595096852092657211e-02 -9.489768241568539986e-02 2.056443419104395376e-01 -2.943452668163284297e-02 6.974843620536036459e-02 6.994399094199947597e-02 -1.514204826638629875e-01 -2.685470876357580819e-02 -8.012774393936375125e-03 -7.560058707712660753e-02 4.857791373798049997e-03 -4.106548243034913170e-02 -9.290620380648288712e-02 -8.179664909360277736e-02 -4.028161783003905011e-02 -7.883822128109684024e-02 1.648963224917845971e-02 6.175611205214056806e-03 1.711513024625084881e-02 -1.926558028039483325e-02 9.254324954457623584e-03 -1.595596479019873240e-02 1.117845078643491148e-03 -3.803245953813790686e-02 7.975899669197630826e-02 -1.940196682786222634e-02 -2.146906821456035647e-02 -3.480788404795599061e-02 3.459295527356952976e-02 9.316548606381065689e-02 1.004541096148696966e-01 -1.033271485770017283e-02 -8.075854621014039170e-03 1.481396940969246720e-02 -3.111282933112122576e-02 -2.073595852944100926e-01 2.224493255369982408e-02 -2.710001833976813379e-02 -4.620170979019584956e-01 -4.547059004019901596e-02 -1.808829600300298698e-02 3.152131615742237436e-02 -1.136378196596977141e-01 4.682887869559985983e-02 4.869676738541852540e-03 -5.890927574703257001e-03 -4.077371638926076403e-02 9.456817156025209420e-03 -1.137050329693862355e-02 -1.493300903322875538e-02 -9.823622675400578950e-04 -7.505440104073524132e-02 -2.586878155540161834e-03 -7.153366881901536412e-02 -7.580988245779997359e-02 -4.690487504832206722e-02 1.868830682557453410e-02 5.173042890355135197e-03 -1.668792999869272431e-01 -5.133223429208560312e-03 1.641846516976529502e-01 -2.328687188272422770e-02 -8.984408001170102187e-02 -5.171431227792951113e-02 -8.017567954701841637e-02 2.094755635185600873e-02 -2.538632131450449872e-02 -1.844435692114825345e-02 4.874523084729295158e-02 -1.196318212937893394e-02 1.508593827489730643e-02 9.187332076914193207e-03 1.340085266359990679e-03 4.376522640464916569e-02 2.650515931056247193e-02 -2.115085192135717287e-02 -2.245433842343862868e-02 -2.499897996047539817e-02 -1.935269955548871851e-02 -2.186600140024971828e-02 -2.238914613604679055e-02 -2.181555154398813999e-03 -7.502300610899916532e-03 -4.091524639415505815e-03 4.202067156655352187e-02 7.918379128725148292e-03 4.239023139548259850e-02 2.057068889941411280e-02 2.187877922311675660e-01 -7.511043688141343100e-02 5.000624892300279192e-04 5.463686650971756684e-04 -9.597777258436898662e-02 7.065798554428157074e-02 2.888487448021029996e-02 7.952962146809033905e-02 4.428316558453849333e-02 -3.537969479724595301e-02 1.464605838331439411e-02 3.829529367620644609e-02 8.689489962601444628e-03 4.649091945466578280e-02 2.336037750314899630e-02 -6.453517132064441608e-03 -4.649901059465616493e-02 -2.132261457660721005e-02 1.336331403539697121e-02 -1.079293137840597709e-02 -5.823502692923343549e-02 -2.157315626500937514e-02 3.051061088261771900e-02 5.070651922650542404e-02 1.430021047268998508e-02 -2.899576459740860201e-02 -3.135460077269295459e-02 1.270433491131375651e-02 -5.849813751487814573e-02 -1.063509365606101799e-02 -6.019568588262965564e-02 -5.356720040546971567e-02 -1.033055331338530447e-01 -3.014918800302371360e-02 9.489767904048443392e-03 4.267184408853641475e-02 -5.358526450862450413e-02 -9.883920601687138513e-03 -3.694980340290162507e-02 3.580387457637290716e-02 1.456181244583172087e-02 8.040199652340161707e-02 1.041050451021360568e-01 -1.155885751290556956e-01 -4.599517253649833964e-02 -1.288562185482137745e-01 -1.122931154080176672e-02 9.518853657976424076e-03 -2.056436451578030900e-02 -4.942751838006100712e-02 6.465577678185106814e-02 1.669023242286956504e-02 5.970107254967914334e-02 -1.448569970160910325e-01 3.194563270534328536e-02 -2.661592835461422391e-02 1.463609873427595791e-02 -8.811444918476921129e-03 -1.321123742198326671e-02 1.815691470682016112e-02 4.526661007052866503e-03 -2.481050241963361769e-02 1.651804549242279554e-02 -1.050659625413013498e-01 4.971569227913853750e-02 -6.345325473783190381e-03 -1.417946423249948767e-02 -7.687718859612829771e-04 -2.464907390828845885e-02 -1.021429975834417005e-02 -6.592853416358265828e-02 -9.283639215845280665e-04 1.355184396527643782e-03 1.782555815338870281e-02 2.506738977670365520e-02 1.696027723757664168e-02 7.660435267750579681e-03 3.106502830168042864e-02 -2.506535254712321040e-02 -1.731892358852019087e-02 -2.076357481819922357e-02 -3.445404402744785960e-02 -8.094850724957702859e-02 -8.508547197849625210e-02 -7.204549483818749323e-02 -2.870834682585591061e-02 -8.600457144788349606e-02 4.291701606851763828e-02 -1.347764458045739022e-01 6.377308182258459128e-03 -9.077567920174652027e-02 -2.386579714363467903e-03 -3.560191490413967125e-03 -2.533619658160949847e-02 1.505532436323772996e-02 -3.474126475150930010e-02 -6.169163169620622313e-03 1.908715481012389012e-02 -1.581933742534100962e-01 -2.692424755716616921e-02 8.215093784984150993e-02 1.331246797051413751e-02 -5.459720723705886736e-02 -3.848418239897068854e-02 7.875342992585330354e-03 -2.721804414763449170e-02 7.528098805648745194e-03 -8.242790355872855329e-03
-1.172060822171828165e-01 2.344585340753394670e-02 2.562326388509593086e-02 1.244493511782537518e-02 -2.591568105502835631e-02 -3.049849743812294359e-02 -1.842247379579422997e-03 -1.438000456795410741e-02 -6.715527792162082239e-03 8.132162799046396828e-02 1.753878712611489990e-02 1.380300098149611458e-02 -3.219946893193286613e-02 2.682641774891979941e-02 -1.202393780217691360e-02 5.570376264586579355e-03 -2.665463808372248167e-02 6.148519644360312536e-02 5.606662036056408831e-03 1.545758559557421086e-02 -2.306305158651362000e-02 1.355654999011767989e-02 -8.642517857204292525e-03 3.464117253660275249e-04 9.858505312950852084e-02 9.839002144392459959e-02 -1.611456702727085332e-03 3.463864251767108122e-03 -4.206011294116524489e-03 -1.155785550082709043e-02 1.180227380902753274e-02 -2.745874017951851695e-02 -8.008908033383202452e-02 3.242903421165829053e-02 -3.078586593597545246e-02 -3.401718403366509741e-02 1.637963299492349936e-02 1.007924617768141823e-02 -7.301115747607255131e-03 -2.371642229756199330e-02 -1.310116466248225330e-02 3.530894086794771763e-02 -9.598098472910043810e-03 -2.286848083009881960e-02 -1.357539310545620437e-01 -8.117587932071082535e-03 6.783392353972438060e-02 -3.944700854854248464e-04 1.860414389036624608e-02 -3.261859597530607224e-03 -8.129656618535837861e-03 -5.165561560930572761e-03 -1.916727265996882520e-02 -5.817632576917093623e-03 1.235858956773611302e-02 1.025245038728406395e-02 -1.511409070882208626e-02 -7.130439305510968655e-03 1.832311380692976804e-02 -7.931294909023901482e-03 -7.221031812563459377e-03 -5.098089201867914838e-02 -9.217312789719760147e-03 -7.877004550311334646e-03 3.153345185932229788e-03 -1.734125695958730340e-01 5.747443027920802472e-02 -2.721668875918864874e-02 -5.517780603560464708e-02 2.182079162275989484e-02 -1.449767895468698567e-02 2.607368083555779842e-02 -1.769918596020593760e-01 6.805599831990462268e-04 3.202030238082487212e-02 -3.556293806262086910e-03 -1.125670830099647496e-02 -1.844624696083149717e-02 1.043005808916398248e-02 2.605089966992867826e-03 -2.154368608933615939e-02 -4.814378207686052791e-02 -2.731775717463768172e-03 4.156935616074995676e-02 -2.700075199239395859e-02 -3.127100439887512111e-03 -2.983967186448360093e-02 -2.486380194766371968e-02 -5.715201098551138219e-03 1.995661720926101765e-02 3.824477599254159921e-02 -8.433274012585804946e-02 -1.294105861318921823e-02 6.528858303575560754e-03 8.914982410442537711e-03 -7.773996014899448893e-04 2.693620231138545498e-02 -1.238028390203392039e-02 1.106411490899605540e-02 -1.122298185601651281e-02 -3.229751305516303985e-03 -1.930815841618332279e-02 4.666985110365655214e-03 3.806061958001460271e-02 5.714608675814480954e-02 -1.401383925283301857e-02 -2.179271505086097932e-02 -2.164692883902469278e-02 1.409362687603863892e-02 -2.691446392807787281e-03 3.493656803620565077e-02 3.980380030027588084e-02 -1.062468359801769895e-02 -3.759251927749668321e-02 -3.428451966505452388e-03 -5.640614048378773601e-03 1.279898351149293297e-02 3.987134014837911099e-03 -1.742751807168185785e-01 -2.656924135054139491e-02 -5.233465148300787094e-03 -3.695468948797794168e-02 -9.974493051650991718e-03 2.834551365744489987e-02 -6.268713917209382813e-02 -2.916799490844695919e-02 -9.287467027952462165e-03 4.764912354046928547e-03 1.629555712286251401e-02 -6.591105142776000972e-03 -1.982995584563164437e-02 -3.716206121323092307e-03 2.591480974273780574e-02 2.541330967382087955e-02 3.085634033502832052e-02 -5.788144163662209407e-02 2.014435152384361563e-02 -3.658045553125165855e-02 6.236021213840007779e-03 -3.797585068203275516e-02 5.134327715612914574e-03 -1.338756625985108341e-03 -6.150214613296698350e-03 -6.593646587130388460e-03 5.567465921375527177e-02 -2.204213368068285231e-02 8.502831457520207414e-02 2.388144792643020348e-02 9.873600657142551917e-02 -1.882747330005226510e-02 5.006018866760264530e-02 3.139917437744760027e-03 -1.447849610103479068e-01 -6.484664067002987586e-02 2.389955973172530612e-02 -6.348004114493380201e-02 -1.026328067090440110e-02 -2.972497818141841067e-02 1.352688889718793759e-03 -1.027113810222927102e-02 2.975089100304730352e-02 -1.908871887360318043e-02 -2.944992612005926415e-03 7.571121285647702641e-03 6.779003709864530464e-03 -5.729009456707427617e-02 -8.787777042569014374e-03 -4.611713348569234511e-02 -1.557386664279336239e-02 -1.058361673974891719e-02 -8.500179895007342612e-03 -1.970947709267147768e-02 -6.993686576611629797e-03 4.497757221527766414e-02 -3.206422435149160893e-02 1.791835723661664923e-02 -4.104975120456583887e-02 -6.690622632247612833e-02 -9.795271070606811556e-03 -8.683923187228695731e-03 1.020110175880542883e-02 -4.015380042399230862e-04 -1.361035749159408836e-02 6.229167712108287652e-02 4.234602519487624429e-03 -7.861647947553602675e-03 -1.773351943301975514e-02 -2.183945321693858341e-02 1.067933905013785561e-03 1.441678960212810362e-02 -1.504904578706887062e-02 -5.886668167466262494e-03 -5.335605417123477634e-02 1.734800197428872093e-02 1.948969682769260883e-03 -4.061529607744170448e-03 3.932032619540721911e-03 -2.986272568285033152e-02 5.094892807417827907e-02 -1.385437175750146160e-02 2.405686220658701663e-02 2.918186435053763544e-03 2.976769572283262735e-02 -7.698675389632089056e-03 7.687639533935339102e-03 6.145384889401871858e-03 1.539359305013204664e-02 1.801391614146222175e-02 -1.566434743982138972e-02 -5.500399947889461627e-02 -1.667889412074628069e-02 -5.094724620756078612e-03 -7.792215651082415317e-03 1.450266045683402776e-03 1.388663777679012556e-02 1.703095981343284585e-03 -7.720348217798347901e-02 -3.260344779614025336e-03 2.262595645969718572e-02 -3.833440349666578269e-03 9.121885096886959976e-03 -4.383993928084962965e-02 -3.349569655446788473e-04 9.950931389529103083e-03 -1.595955127364340198e-02 -6.884147428790550471e-02 3.205077068601322465e-02 -2.020237253211764825e-02 -4.006287517702222106e-03 6.931345580256616234e-02 3.413310777778427729e-03 -5.242618060198731694e-02 -1.175861676906067056e-02 2.831276061892584739e-02 9.373271071037091867e-03 3.992490588862527418e-02 3.459285196609856311e-02 -2.779600342212969893e-03 -7.292743134169450692e-02 3.073228683605701284e-02 -4.645958130528048818e-02 3.734767650365202613e-03 -9.263645399807752048e-05 3.370459458814125710e-03 1.551637597393224106e-02 -2.428757367757188382e-02 7.859736063802498507e-02 -1.029392660846138209e-02 7.194656976191364517e-02 1.054026179160267099e-02 1.878967702139626439e-02 1.586437346065256576e-02 6.384190988378114773e-02 -5.217903373912711204e-04 -9.229601295116136861e-03 -5.418926636655115037e-02
-3.014489081788076716e-02 -1.580238497966733949e-02 -9.262978363149519667e-02 -3.978818956885440961e-02 -2.819312860182611805e-02 4.309346043886672084e-02 -5.317672545219176428e-02 8.447412792952262162e-02 3.687109425209805086e-02 -1.070351960893617671e-01 7.481836341648466504e-02 6.344937319377949581e-02 -2.956824158402883082e-02 7.136915310120585387e-02 -9.831774132113267964e-03 -1.594664091237636139e-01 5.159842315084852554e-02 1.660788073099604967e-01 -4.188878739223906439e-02 -1.454963676286978591e-01 -4.321338987744498261e-02 4.714217450513420987e-05 -6.432877101906807685e-03 4.040422245748995222e-02 -1.438567472889559218e-01 2.749603715288799141e-02 -1.627728374105359699e-01 1.853863866986191905e-02 -1.697507920963305106e-02 2.416451155683705873e-02 4.123617800869923411e-02 -8.246310265349794666e-02 5.290536975471263337e-02 -1.969748555453186833e-01 1.107125970751801497e-01 -3.919610525929027173e-02 6.086853120236465631e-02 3.139495214208309903e-02 -5.271189294283271098e-02 5.267076671813279709e-02 -3.635558709672363775e-02 -8.049795141451390745e-03 2.830305975816664599e-02 -1.181512422128369738e-01 -2.537643525424610469e-01 6.579643850264660365e-03 5.038742831883030043e-02 -3.248405839238980436e-02 -1.455471411613263599e-01 4.635325862697714516e-03 6.628624525014774338e-02 -7.435772046010644121e-02 1.626712310522945848e-01 1.550396562435414453e-02 -2.548220152403890548e-02 -4.351639566058718156e-02 1.110475958453724550e-02 -5.248760893417298359e-03 3.605450281128495436e-04 3.433708824053099962e-02 -3.700943635772020041e-02 -2.731480911636652298e-01 7.995461881373483459e-02 3.942173245593178811e-03 4.646538763545771111e-02 1.641314206651622865e-01 -2.486237154424876875e-02 -2.545929653146460254e-03 -7.434710673409970771e-02 -4.658311808918778191e-02 -1.729297903555647789e-02 -2.684242789565928142e-02 -2.548915835181941314e-01 -1.888124818575018585e-02 -1.082616694365254179e-01 -2.838374270976293245e-02 -1.897993789384307475e-02 -1.963542689333879626e-02 5.337687765709375060e-02 1.166936951956318996e-02 2.238112565566516970e-02 -3.946383244908183846e-02 -2.754871227862038148e-03 3.871675003400448095e-02 -1.131361230818186785e-02 -4.473397292437149286e-02 -2.290217892512204367e-02 -5.124638863234402125e-02 -2.004665265131116286e-02 4.443934917897414405e-02 -2.055250933613788078e-01 -4.797512863052972448e-02 4.070304604673546933e-02 -7.757021428429497489e-02 -2.157576894701929843e-02 8.884852362941474124e-02 -1.475048615844230110e-02 5.922904635425371017e-02 6.788939794970591871e-03 1.999887604784969519e-02 -1.382490799289416185e-02 -4.491049928836660793e-02 -6.378044268650788495e-02 6.036614367468152303e-02 1.431166534232355680e-01 6.475392680587005456e-02 -5.749802773539924861e-02 -1.972226553927135945e-02 2.815965033021101266e-02 2.190566981144332834e-02 8.097629156727469135e-02 -6.531548727087103934e-02 1.225336607931593047e-02 3.301338465407720191e-02 -5.232038878682453154e-02 -5.687686965621718826e-02 -2.409511297904839283e-02 2.276300843953866018e-02 -4.071296641539070560e-01 8.906745380710298643e-02 1.878806318799780550e-01 -6.369404881617025949e-02 -4.649682937835417085e-02 -6.279881452452114321e-02 2.543724026641825189e-02 -1.520801812500193091e-02 2.338431902943002155e-02 4.224503280835324726e-03 -5.583184496472529124e-02 1.975257530166827768e-03 -2.499044938142912925e-02 2.187445688072372704e-02 -6.014949601580266841e-02 1.966033550809385272e-02 -5.794793676770306629e-02 -6.638448649695946613e-02 1.007155931263916532e-01 -2.271563771322172506e-02 -4.529687385881229350e-02 -2.403474889304139592e-02 4.379388566122570381e-03 4.340037694439138893e-02 8.655700571144677238e-03 -3.523181672378702858e-03 2.330192875751378387e-02 1.855805358599496926e-02 4.614056973264644285e-02 -9.328053064744739296e-04 -4.895301379757024257e-02 -5.190291048116486838e-02 9.577065709169857444e-02 -1.318764466062044734e-02 -2.720323478558318575e-01 -1.392335059691238858e-02 -1.874860871894448722e-02 -8.927220562102185578e-03 8.840963353041703110e-02 -1.705623053866736974e-02 2.869419063631354835e-02 1.405487861481331639e-02 4.276473459613708977e-02 1.145407949636073272e-02 6.090209257335328641e-02 -1.655124030906824847e-02 -2.432966628108109916e-02 -2.041525325458087292e-01 -1.369351576883186261e-02 -3.408907621227084961e-02 -4.470237251473626271e-04 2.241968936080953809e-02 1.212421565220879287e-02 3.353320159223249081e-02 -9.483215732298794221e-03 -8.222053209622197378e-02 1.017616865449347957e-01 2.544370199336497274e-02 -1.527376050179052314e-01 -4.315543448781324759e-02 -2.912930771547057526e-02 2.602148743481613735e-02 9.334851432506820201e-02 2.826644720503578359e-02 -1.179688724621625814e-02 1.421404025236908397e-01 -4.747038753806119560e-02 1.677508082596392350e-02 -7.157450904797768576e-02 -8.370354694059128908e-02 1.585062969202007122e-02 6.798951146126573641e-02 8.999917303039314809e-02 -6.554120475070086826e-02 -9.524374637938935739e-02 8.938011519195911136e-02 3.012089353505519474e-03 -6.834623579216279714e-03 5.287475521127362604e-02 -4.163423445634862469e-02 -5.137137938818361199e-02 1.786985509123388202e-02 3.889214011334432564e-02 -1.723493438305621905e-01 -1.434430995121174779e-02 8.295314949650755415e-03 4.901728264095870508e-02 1.758791205844495095e-02 -1.296410667356802209e-02 1.285712815848269290e-02 2.319834264546169825e-02 -6.705795136514530741e-02 2.762202690046025588e-03 -5.057956793550908575e-02 6.164656137245660278e-02 -1.947940886496468335e-02 2.711249110348804003e-02 6.771689364900762391e-03 -1.076606557005735376e-01 -8.085610641322875380e-02 -1.575025981052704865e-03 6.573684676427042628e-04 2.295356610116117482e-02 1.779233859696779767e-03 9.195208356945528544e-03 2.494403630987557588e-02 -2.339591158787499708e-02 1.504395442839835395e-01 1.748949376865698360e-02 -3.135235171081584421e-02 1.755548362857216674e-02 1.582876588138073387e-02 -3.626862476829276899e-02 3.934691060167246762e-02 -1.236125620246874834e-01 -1.302953192856465547e-01 -3.273724410520391370e-02 -2.456238111231289281e-02 -1.690342034728057607e-01 -1.307537907036596114e-02 -1.290965617446074576e-01 3.952785773225791360e-02 -2.632202881114474244e-02 -7.217958589612966970e-03 4.952952735183956817e-02 1.863845701500799895e-02 3.306265345875511463e-02 4.856496896778222938e-03 -7.859897834575559072e-02 1.511617196572151607e-02 8.684066619834812650e-02 -6.193043144959036600e-03 -8.067060948158381872e-02 8.222225485723096833e-03 -7.197860912806203215e-02 3.306322948725147481e-02 5.252447603899301071e-02 -4.378328918916109952e-02
7.674800223016816671e-03 3.540349705683873416e-02 4.932931670939014190e-02 8.098467851251865690e-03 -1.969300294048601657e-04 -1.554497752317393969e-02 3.893689196748725823e-02 -7.747936116357038994e-03 -1.925193886833527143e-02 6.447978512426563724e-02 1.751633745200536357e-02 2.814334660872898700e-02 -1.370074127142829196e-02 1.206154924883347593e-02 6.759705154961968138e-03 4.446690298455083928e-02 -1.337765960246669883e-01 1.083052036668397944e-01 1.059432242648886829e-02 4.851350282025386484e-02 9.147621473622252405e-03 2.006646509666319689e-02 7.882097059386776114e-03 4.691661961664098796e-02 3.899728798405619271e-03 1.369583699932544821e-02 -3.223487593803932294e-02 -1.061984729026397081e-02 1.750464778226935164e-02 1.428670789974313508e-02 5.124862774379853637e-03 -1.530996491984610262e-02 -5.051047331867247053e-02 5.579993351203062224e-02 -6.009004635277442191e-02 -1.303778221947532803e-02 1.063507058735908839e-02 3.514080680897856915e-03 -5.291774772689966655e-03 -6.176473142745405806e-03 1.754899703889498119e-02 1.205351270584179534e-02 -1.886551160625929077e-02 -5.015749373271129186e-02 1.764154648956476473e-02 -1.144610623816991668e-03 6.145188217537941172e-02 1.030827706635130056e-02 4.973419482566580202e-02 -1.087987242060930830e-02 -2.518990272483264542e-02 2.829245353418005648e-02 -6.581162540793376869e-02 3.822694123050763421e-02 -5.494918189983859919e-02 1.770609742870694198e-02 -1.312764573252996406e-03 1.990675149174500353e-03 3.800959144539550749e-02 -4.537039613293282134e-03 2.416792705310320463e-02 1.881374397083216202e-02 3.870395425771255143e-02 2.039508595935604629e-02 3.935652636005779192e-02 -3.054697925878882003e-01 7.782421749242957043e-02 2.894258943507612130e-03 1.525530477692127983e-02 2.301457644236422698e-02 -3.969332082134014762e-03 2.459168147167988330e-02 9.433732159969341821e-03 -4.329111547906152463e-02 3.490319634026707585e-02 2.201991160579414714e-02 3.017629130661662884e-03 -4.978562085860769627e-03 -1.309384417759260153e-03 1.822801536504056394e-02 -3.055780832414007209e-03 1.631999382391302947e-02 -1.305853524486471663e-02 4.481836978846343716e-02 1.065416635170404356e-03 2.201559425568984634e-03 1.354353335657669868e-02 -1.283674516930094836e-02 6.259189315089166636e-03 -4.711762353972171607e-02 4.580898876481929310e-02 1.772153081485435368e-05 -6.268685995690788902e-03 2.211581100489305035e-02 7.879512670902254212e-02 5.924100486384044351e-02 2.188690690297492858e-02 -8.758394461908038109e-02 1.774877030158089272e-02 2.081479726842935460e-02 1.741180499805941801e-03 2.162488095020264831e-02 3.909525164751292275e-02 4.096903305139189266e-02 -3.520597882816558447e-03 -3.228752704637025692e-04 7.046266004040498653e-03 -1.011323338786360854e-02 1.259376881422332416e-02 9.329822303682617016e-03 2.370427034768351690e-02 1.820063736403564406e-02 -4.620931871486396066e-03 -1.017531221771176830e-01 1.976257793210394603e-02 1.294914520331612133e-02 1.921415004809891303e-02 -1.287645813535818161e-02 7.174774009384611573e-02 -1.525175952579885252e-02 5.333411345916994062e-02 2.214182237291397945e-02 1.766521498771963378e-02 2.477026431454287803e-02 1.601766914456003582e-02 -7.623611098151267251e-03 -1.844605816185461477e-03 1.357092853465140594e-02 -3.012705048634784638e-03 -5.778299178375073154e-03 1.247745398497904917e-02 -1.416279378712859138e-02 8.872684501502190943e-03 8.609201026773621868e-03 2.194041753173361226e-02 -5.911263771536941040e-03 3.907547367171769481e-02 -7.321848807552486411e-03 2.017377819354548938e-03 -3.381188021431163950e-03 9.417699749831302813e-03 -1.076346009127088568e-03 3.693419119392680507e-03 1.030323208845843747e-02 4.146464354190825680e-02 6.290808413956456950e-03 1.144648853639595272e-03 4.992030758597852669e-03 4.938365404649081719e-02 1.037100437998604054e-02 7.046839153830629365e-02 2.047118715128082300e-02 1.949305128184031233e-02 -1.899888679444634160e-02 4.194480429967528679e-02 -4.537719059187292348e-02 -2.654733108665781674e-02 1.818397168096636332e-02 -1.326212732381547126e-02 -3.723896069935207342e-03 3.424125837362593933e-02 -1.450122818979171458e-03 5.783582009837086660e-03 6.841290359620472161e-03 2.502341349072452134e-02 -1.849168571790911209e-01 4.783254497734084655e-03 5.925568648086338049e-03 2.705438103446485346e-02 -2.217737196999463190e-03 -6.773615425850620583e-03 1.336213032305496543e-03 -2.551586059896100017e-03 3.798482470934494426e-02 -3.517029820116114591e-02 2.345269730610210698e-02 5.432898140780290097e-02 3.063473061082957853e-03 1.176518315780699687e-02 8.881256797637031644e-03 1.328760654856269395e-02 2.246511572054155081e-02 -1.005703902043891557e-03 3.559785838062492352e-02 2.638040707619742839e-02 1.615109152632952447e-02 1.313540980522270689e-02 4.765485835452273194e-03 1.093311630167602411e-02 4.970088295474560380e-02 2.050446371170704454e-02 4.259850288017924536e-02 -1.427359225108937139e-02 4.223443495411023652e-02 1.383279562060583945e-02 -1.853076567907519998e-03 2.348932882122978238e-02 5.027016981873917711e-03 2.378098231310680002e-02 -4.310358861450731415e-04 1.548687429382611912e-02 5.228282704663983482e-02 2.859589047449948018e-02 -5.852637393006773769e-03 6.654932442225091303e-03 -1.120221059450960815e-01 4.276490285813265395e-03 2.606902672049963773e-02 5.232451958291455246e-04 -1.575190083404679961e-02 5.516806466389159030e-03 -4.824101248279583781e-02 -2.235950038801439235e-02 1.214527146458428339e-02 4.610264534109696777e-03 -2.883864056440908676e-03 8.199110967800578298e-03 1.556318354371916644e-02 2.707052073609549428e-02 -5.828342716411924820e-03 1.128016449382932744e-04 -3.487277545733660084e-02 -6.085821046561488978e-03 -1.268952886759093512e-02 2.248476341048076879e-02 -5.876317043152794184e-02 2.588034581215069643e-02 3.488913939950881622e-03 1.595289979561778301e-02 2.619071584205509562e-02 1.901226607912685773e-02 7.921170693634587215e-03 9.799872068625047755e-03 4.135182508961116749e-02 3.386620798815745403e-02 -4.241412625329116465e-04 6.571953686770215519e-02 1.484700975710070666e-04 2.361182931803338519e-02 3.359127799532642816e-02 3.959850591771145976e-03 4.025821977960979126e-02 1.132369883005731291e-02 6.796293802747140587e-03 -4.999986985176583208e-03 1.018657472096813968e-02 8.280642188301634565e-02 3.433974922375896809e-03 6.566517078403731611e-02 -1.005197786287982502e-02 -3.919393134120054134e-02 1.197587329269647789e-02 1.927020381260467069e-02 4.499169022415574343e-02 -1.496296354769238376e-02 9.777702901939168412e-04
1.071519541832372663e-01 5.733066511825208461e-02 4.198665870314002846e-02 1.265207125911023975e-03 1.581064636208422136e-02 -1.931132758793715001e-02 7.290411012322358525e-03 6.762095632846880019e-03 -7.189251484319864396e-03 1.613619553611030100e-01 -7.071384368437466737e-04 5.245992771569744223e-02 7.338771135383483080e-03 3.526861430244884049e-02 -7.400312800680903993e-04 5.456618063112381872e-02 -6.692908783667717021e-02 -4.465375869319788277e-02 -1.296831616177811577e-02 1.110998074256269903e-02 2.649625395707601652e-02 4.412099949808792436e-03 8.237387029114260142e-03 -2.408259179933158051e-02 9.471333505844647949e-02 -7.088358652237507218e-02 2.978570336358480480e-02 1.540052254773030364e-02 2.860977907726100153e-02 1.324665561767292797e-02 7.152203160744667609e-02 -3.601856444423174458e-02 1.326849876125002319e-02 4.185781369760797205e-02 -1.009015644756244418e-01 2.478617848685163091e-02 1.261801677813710609e-02 2.258181779839860473e-02 1.073741692971933413e-02 3.227298324649238714e-02 2.043862495476639340e-02 3.384545636333001484e-02 -3.527801724915709952e-02 -4.399398574732528433e-02 4.201179579251002744e-02 -1.122594129600094047e-02 1.185107510003413286e-02 1.845146551118902450e-03 6.235399302887550260e-02 -2.444859993501830031e-02 -2.951862645585748290e-02 -2.414606170528582271e-02 -3.001221632001257328e-02 -4.270002262468646816e-03 -1.089005736158984820e-02 1.423234207156268659e-02 9.698089131876084720e-03 2.258729513486396404e-02 1.156040079520333783e-03 1.814828803635974708e-02 -2.795082932988908475e-02 1.537009036005260731e-01 2.154201138906814209e-02 2.688209951486709992e-02 -3.297721797826255741e-02 -6.269632310672233755e-02 9.721941017290323256e-03 2.972685692831061877e-02 2.645803655957682660e-02 7.898377405494190137e-03 1.005180097070406536e-02 -6.694316430248732110e-03 7.119748723209853858e-02 -1.048408385832481568e-02 1.098846273360981479e-01 2.173202117138978498e-02 -1.982756291470122792e-02 1.497010505930763263e-02 2.453153312768417346e-02 2.894338763796380082e-02 -2.604070307180748542e-02 1.953574142481971990e-02 5.304722230319841971e-04 1.579512143069285168e-02 1.759769632808645332e-02 -6.952386278632239312e-03 7.051256472907919959e-03 -1.843862070689406690e-02 1.234998272384037589e-03 -6.708504844749044183e-02 5.198102753296836992e-02 5.901263342575677889e-02 3.339642449882348346e-02 3.185374142397028735e-02 1.003118737236723124e-01 2.531848753912683062e-02 6.748679065111594377e-02 -3.710118781533770088e-02 4.258024883796261012e-02 -3.118011049393594209e-03 -3.623454905165202685e-03 -2.697114306242545667e-02 9.275354630981651888e-03 3.652948551158678031e-02 -2.351470078163073380e-04 3.658820341623954253e-02 -1.109427680515732116e-02 2.756177827794890640e-03 1.927750196505827185e-02 1.768094771334796297e-02 -3.345344249451464441e-02 -1.856784497187315402e-04 4.165729560341901311e-03 -5.882431112395753760e-03 1.644809311002636693e-02 8.067764797562286560e-05 2.233768435468681812e-02 -9.272389768839929894e-03 5.153560844865606033e-02 -1.192767479336553048e-02 2.057684844775039407e-02 2.058253213891255914e-02 2.134046614582312679e-02 3.776034496196752771e-02 -7.304434960548107647e-02 -2.485017651144956052e-03 6.690911490576766617e-03 8.652677942329796770e-03 2.577695805114152069e-02 1.693727137337820363e-02 1.677359047626604885e-02 1.461197226513864453e-02 -3.114963421234651086e-02 1.215215195016528145e-02 3.706994262431173581e-02 3.407366596723591240e-02 -2.921205053641827767e-02 3.267535668822065670e-02 2.790832677244943147e-02 2.665031350849438041e-02 1.774769491942857283e-02 1.545935349225928401e-02 -3.517025338984738295e-03 3.527829994014042639e-03 4.193596738200130319e-02 -1.760239044514756712e-02 3.645298726112052023e-02 7.729286041743227073e-03 6.187267917464675526e-02 5.356692050852900587e-03 7.009716840459077891e-02 2.143199729499653105e-03 3.614751379382577512e-02 -2.209716892567902859e-03 3.856540866087484337e-02 -5.729513328774685742e-03 -6.037047808274272759e-02 7.735143409712979569e-03 -2.425263807586667750e-02 -1.861788727851329539e-02 -9.387241373515226722e-03 -1.385816478332905534e-02 -3.638109570475667881e-02 -2.132641370787096563e-02 2.280374943598725834e-02 -1.475063551505679735e-02 8.767034219941183260e-03 5.487468994275994383e-02 5.727223660252443033e-02 5.250363642891918599e-03 -2.715303660453943432e-02 8.933925926738899709e-03 -1.691679181501071910e-02 7.802158360284255348e-04 -2.061702408082094484e-02 4.089979219513349869e-03 2.334545876395650865e-02 4.552571957837041328e-02 9.419055099445879445e-03 5.400945373037191466e-02 -1.124266560920195168e-02 -2.623709862546255017e-03 8.793145378622803723e-03 7.353326072918912881e-02 8.426794915693260404e-03 2.103640905186141344e-02 2.310124996840794837e-02 -1.641453971133727263e-02 -2.813173173782999165e-02 -4.407620985508462624e-02 -5.486730049183572572e-02 9.472944333375594994e-03 1.347236878648854982e-02 -4.178062781145224641e-03 1.037116842078526606e-02 4.683273112243608455e-03 2.897488613528416759e-02 3.491173227339924162e-02 7.063640791523405349e-02 3.001317509703570544e-02 2.889486408259084316e-02 2.071190582551981491e-02 4.519495091031427991e-02 4.646282552359397300e-02 3.941974146242059607e-02 7.201387057261073770e-04 -1.431937414277599345e-02 3.296574300499825055e-02 1.362134804122817032e-02 -1.557578537358470655e-02 5.878963486323759112e-03 1.778990299696946512e-02 -3.462794689381203800e-02 6.409437452716115931e-03 2.319635677796734116e-02 1.299472460842960968e-02 2.720059951729811992e-02 -2.556513841735488790e-02 -1.218828707144945130e-02 -4.799640377366829608e-03 8.430351154754696028e-03 -1.113171186191061653e-02 3.044335986627659182e-02 -1.858818198333760802e-02 -5.121171316223778469e-02 -1.209986130080198813e-01 -2.948762223898440671e-02 1.398048317641844770e-02 3.047199637894128579e-02 5.132454466491689210e-02 2.485992859201226896e-02 -5.585048435849079840e-02 -3.213524532665419653e-02 7.378342642494571842e-03 1.830919896442072779e-03 7.956816287142716437e-02 2.677030408075191034e-02 1.279393336466056949e-02 5.080025618053401332e-02 -4.474278792434261375e-03 5.492810691426928266e-02 -1.193556149221339409e-02 -5.340031887614928724e-02 3.277828227839543751e-02 1.191906243425817219e-02 -3.393746681758649970e-03 1.444867839223144823e-03 1.546928494010203423e-02 -1.934933186324573617e-02 6.088519097424101474e-03 2.626771212217694773e-02 -9.991882846110812164e-03 4.605254124844008340e-02 -2.806953851450125735e-03 2.053306236381536101e-02 3.741164284829119613e-02
4.513350427378086394e-02 4.038539679029411883e-02 3.279215608448975833e-02 -9.779423574000065122e-03 -6.367343373669135699e-03 -4.406255104188089300e-02 -2.220839072423621066e-02 -4.403907058603003660e-02 5.896367823622590716e-03 1.132677025496882095e-01 2.139111952253359636e-02 1.483900921716362412e-02 -2.234846209017685886e-04 2.679031602931439618e-02 6.019771322854745692e-03 2.579029484989624199e-02 -1.153710384900294011e-01 8.402161351284676265e-04 3.833864179766565598e-05 1.514261489247058397e-02 -8.177836823845438877e-03 -1.347168449410040408e-02 9.635694638501883513e-03 4.161679548348787283e-02 4.706058423407677438e-02 -1.241307528879178126e-02 4.174529530798504195e-02 1.418021666878341996e-02 2.201971181731240956e-02 -1.246333329586771232e-02 3.458661108722396044e-02 -9.716245858117068812e-03 -5.936917651594600387e-02 3.278546461217532459e-02 -4.958627237440837998e-02 -2.482381974106208367e-02 1.493435412582513715e-02 2.068888448028944130e-02 -1.103108002585921447e-02 -2.690455423334096527e-02 -1.517266500006880618e-02 2.511379667530589874e-02 -1.353439278289315104e-03 -4.626036197511540146e-03 2.625630041750187833e-03 -1.302759713070189172e-03 8.963517073350245334e-02 -2.000669218308660097e-02 7.736885778777798962e-03 -8.616522783363785021e-03 -1.841669338248754645e-02 1.122884869221504357e-02 -6.421253355480474601e-02 -1.036917117614914036e-02 -4.507245086365003345e-02 1.305608834812543514e-02 6.907914638006034530e-04 1.966131684041150934e-02 -1.947853787654225521e-03 1.990591145725643246e-02 -2.830780924241831694e-03 3.165203098644359808e-02 4.719361685881755253e-02 2.077964303067690241e-02 3.250923070104524970e-02 -2.038623637010977263e-01 -7.018595271388078545e-03 -2.448854693890267602e-03 8.557033569891150243e-03 5.602944409183712848e-04 6.473103887445552825e-03 -1.055097489646450969e-02 -1.210143163595988822e-02 -3.657981284348651302e-02 5.555753813838735372e-02 -1.573721661113563694e-02 2.725948278240358444e-03 4.869146325334550510e-03 2.322980267853914926e-02 2.186870524079724196e-02 1.591545234730664879e-02 -5.661714334945808919e-03 -1.210285488713731556e-03 4.578292646302277447e-02 6.432275555199187290e-03 -1.743633188587500119e-02 -1.704346241215263028e-02 -4.488628338946887980e-02 1.468596831419726953e-02 -6.085919081035324335e-02 3.858101355314413200e-02 -1.061353061890261094e-02 1.913569477395975216e-02 2.428844171783132305e-02 5.947610162718681287e-02 4.870407153449392290e-02 4.225581188799408527e-02 -3.346692840590246437e-02 3.449337491526905525e-02 3.588459356992697996e-03 1.789015623097030272e-03 -6.130837678948707244e-03 -2.506065768701406030e-02 4.902488933379071934e-02 3.408598728790570090e-03 9.960630530435700403e-03 -2.195125547146006047e-03 4.597583864603078073e-03 1.976479182115078656e-02 2.010622938979707286e-02 2.057384307182630323e-02 -8.090951886251359498e-03 7.781400056293600806e-03 -4.814006262859230750e-02 -7.553062318825615358e-03 -1.065240795037468782e-02 8.196295615503303850e-03 5.703720127811234483e-03 3.406499241382281856e-02 -4.459097769617081236e-02 4.218210377423828317e-02 -4.878908146600596622e-03 1.188583590197998168e-04 5.873723625602304821e-02 -3.164915352146219912e-02 -1.853949303088713550e-03 5.723333562928711177e-03 1.179438583016472614e-02 2.371117547039395743e-02 1.214423507734916675e-02 1.373456124577315286e-02 5.953155025291701798e-03 -8.572850462554921364e-03 1.635885563058440267e-02 6.240041289784662576e-02 8.144993670172729489e-03 1.036415640589551275e-02 -1.791836150856418106e-02 1.738050376249895487e-02 1.011880155585450150e-02 1.687799178173913367e-02 2.020520249774643978e-02 8.565051269088661684e-03 7.853932266445748378e-03 -8.893809195946239185e-03 -2.295670694799656266e-03 4.545989833723784734e-03 6.761199921448531047e-03 4.468254914954974261e-02 -3.568190573999110299e-02 6.661816692806506179e-02 4.271396239306955549e-03 -7.908389156772241066e-03 -4.874744071986813337e-02 1.095730842068163256e-02 -7.383421602192624666e-02 -2.931829558806248875e-02 -1.204723718747074089e-02 -2.244982850464832640e-03 2.046507890566492006e-03 3.390444893096528772e-02 7.452019912315186768e-03 -2.194331519044290073e-03 -1.204111931919266305e-02 2.522801265056402384e-02 -5.889961141695584934e-02 -5.895388922903960389e-03 8.527952585249538170e-03 2.239853501514261352e-02 1.508701789209695304e-02 5.358521795004265315e-03 -3.736881945671235994e-02 -8.046143626059475487e-03 -7.503238803049160771e-03 -3.399619015252369758e-02 9.748239049943274032e-03 5.082399121925728486e-02 5.891969260825303568e-03 -4.386272154283290224e-03 5.824713692834362390e-03 8.003865700225997609e-03 1.838621757488801203e-02 9.799517759360075464e-03 2.927732585778001356e-02 -7.490822820193243463e-03 1.212827949961977139e-02 -1.246963092673067808e-03 -2.866305484996459554e-02 1.124642961025765046e-02 3.492056955825123543e-02 7.268704483898168894e-03 -2.225626603576346535e-02 -1.975577097263301121e-02 1.234505981215687324e-02 1.871247747866217753e-02 6.507244683374477368e-03 2.901189132365207535e-02 -1.591329852265666945e-03 4.224125722918878334e-02 2.143694701831048988e-02 3.077852541965163044e-02 -2.841642091913154644e-02 1.409990983881569127e-02 1.642950010620072496e-02 1.503214677794351486e-02 -7.613856676486276120e-02 -1.598929530181285308e-02 2.176612349193211143e-02 -2.204430116971364730e-03 -2.322362209155264673e-02 2.715625373637481355e-03 -2.348780098941062600e-02 1.970034071875295006e-04 1.781882655854313130e-02 2.138939193208485093e-02 3.005309126314886781e-03 9.261752349017869992e-03 6.469123240591997080e-03 3.880204301931707012e-02 9.099790047803405293e-03 1.135859007888845133e-02 -3.655217417320301421e-02 2.840480873932316880e-02 1.480807684812152428e-02 -1.952560000021496059e-02 -8.674067724717458849e-02 -1.502795072357502107e-02 -1.556747544519883689e-02 2.171552255696870132e-02 7.230657195735359054e-03 -6.858178604859489248e-03 -4.419000053256556815e-02 1.462500410856238005e-02 1.370840447141486243e-02 -8.946675164048345074e-04 3.001526759714050197e-02 4.002927797466624554e-02 4.730080006752127725e-03 2.203662934788713085e-02 1.226964695083341585e-02 -8.305676091012550478e-04 3.236767372889845507e-02 1.078696612389504900e-02 2.225246179182015227e-02 1.408556656442480279e-02 -5.816150791156684402e-03 -4.259090972371970367e-03 1.756424169656170759e-03 1.425429645748862995e-02 5.086741592231742472e-03 -2.091271078295083106e-03 -6.584972816487579938e-04 1.455583174699114080e-02 9.110139493922858947e-03 8.371724847436878142e-03 1.828665768497402672e-02
-9.859512609271264827e-02 2.709874621604792255e-02 -6.075905414869087889e-02 -3.634460548106872163e-02 -2.109003886740083364e-02 2.699686299986207502e-03 -8.438156974885650113e-03 -2.648109975358538606e-02 -2.401856739259646337e-02 1.870128291912072360e-01 3.188613930042349422e-03 -3.403336477138156624e-02 -1.712376620632042115e-02 7.474595059462178781e-02 7.162570368174156141e-03 3.323950744509110433e-02 -4.001010158806335426e-02 -1.264947254404159005e-01 -4.030932506790164266e-02 -2.544087680470620561e-02 -4.398317737054320033e-03 1.184815932525171145e-02 1.263417488780679832e-02 7.648389434174868162e-02 -7.174425395601817523e-02 -1.677640596824238883e-01 1.357879827139563123e-01 -5.899496197799797108e-03 1.834226678370327532e-02 1.731389409403770799e-02 -2.026018897651440942e-02 2.365089255950716604e-02 -1.826507445231546206e-02 -8.486259427578508874e-02 -5.341948945754452366e-02 -4.985285397189069545e-02 2.716588173648942697e-03 7.135886880261776803e-03 -3.256435545399984088e-02 -7.054548305135505126e-02 -9.693304439375036163e-03 -2.118112726454008179e-02 -2.175977871786811610e-02 1.583312131007621332e-02 -4.309174753708170519e-02 -7.516272236601797239e-03 2.741280657947502489e-02 -3.317616195916340410e-02 -4.837901207391320617e-03 -1.646979492749488586e-02 -3.868836275408300135e-02 -3.684466902139086480e-02 -5.737033485696501484e-02 6.796731043988377477e-03 3.904361623383127006e-02 3.497655288103288310e-03 3.152688823422226949e-02 -5.975398589954081068e-03 -9.899941132265560259e-03 -1.930393543107449070e-03 -2.218330219747271723e-02 -1.002487754199219150e-01 1.076496329893220777e-01 9.684574177342707840e-03 6.740730495311694770e-02 9.213134449570566098e-02 -5.478900510797633794e-02 -5.312845291980721786e-03 -6.054578942617068471e-02 -6.895494570694925274e-02 1.788176187214230274e-03 -4.755678459805275787e-02 -8.432372313972504030e-02 1.613984106225348214e-02 5.003229386544866958e-02 -2.328532188512534226e-02 -1.989449519884016276e-04 -5.028716590575597238e-04 8.976448976132530427e-03 -2.831938813244071033e-03 2.684404323073480338e-03 -3.603629974838752636e-02 -3.656661513164936872e-02 4.950629902029546336e-02 6.746675763092728484e-02 -2.790059850164430116e-02 -3.492363174289692118e-02 -1.037508395434800709e-02 -1.581117603259836121e-02 -7.273325876680546143e-02 -5.262788645392819237e-02 -1.872084593370431857e-02 -3.339552789371058941e-03 3.097418489953038864e-03 4.725782551950445404e-04 4.751516328211232570e-02 3.305313074155412367e-02 8.200204512315428795e-02 4.994464321810088148e-02 -3.876086632617744589e-03 -1.845304666355999587e-02 -3.558990061889485967e-02 -1.977834893692228049e-02 8.894208226152093555e-02 8.063848211014960909e-02 -1.098192279941575047e-02 -2.704522897086627728e-02 -6.801276182979104287e-03 1.507030346320169939e-03 3.609805188005468617e-03 1.867618847591307960e-02 -4.767847146556673799e-02 -1.030281997869699926e-03 4.278106487645879502e-02 1.298520135221650079e-02 -3.470897394220836402e-02 3.892723703860497507e-03 -1.572025391264291611e-02 -3.077074664863499454e-02 -1.232083578231512287e-02 2.268402696329509596e-02 -3.134587277912173620e-02 -1.236089951284361985e-02 -6.494685564727319116e-02 -3.454478886164914775e-02 -1.264828232510717583e-02 -1.925419736310777022e-02 1.843120385078723944e-02 6.129993876305962069e-03 1.439841783272290641e-03 8.411101243070514058e-03 -5.861587541967402948e-03 -1.278448618812772636e-02 2.083561915583764801e-02 -1.290459277835831302e-02 1.583668388852644063e-02 -3.438198821250118553e-02 -2.007466120243220006e-02 -1.792049094113326232e-02 6.172660198333518831e-03 -1.551084106670858054e-02 2.681618755615757226e-03 -4.224923312096399292e-03 2.593851085893978184e-02 1.944284930206886461e-02 -8.654806392442815355e-03 8.887562704040982697e-02 5.985078639595020622e-03 4.894303597516532801e-03 -3.179782492516324693e-02 -2.855019023628549424e-02 1.464716019630098696e-02 -5.595280857436356337e-02 -2.976704100878736423e-02 1.640340292186506874e-03 -6.021255881521962033e-02 -4.374177025150082637e-02 -5.412725086790293010e-03 -2.743021368436963231e-02 -7.405144980897121129e-03 6.019685629900581314e-02 -3.756629577406904886e-03 1.593988571232519622e-02 -2.751390867682778317e-03 4.027126643186024202e-03 -1.716434297566741263e-01 4.151602408436796433e-03 -7.972372873519196351e-03 -1.486198820694070374e-02 -1.502908857490574401e-02 -2.560651354804393490e-03 -5.707991588084972145e-02 -2.253681810524070170e-02 -3.243767037261323372e-02 1.797447790478565177e-02 -3.390922747137455409e-03 8.750488769640987763e-02 4.634428266438488575e-04 -2.832334645715896704e-03 -2.984942919631090007e-03 3.329029626032843636e-02 1.752145622119789803e-03 -3.431161356568650754e-03 -1.527840670401047971e-02 1.818042952236002905e-03 -2.901881942779156211e-03 -2.696763397417079045e-02 -3.965931819520923662e-02 -6.206255466204741410e-03 4.912494287962081152e-02 -1.870997788000521717e-02 -2.428617557530839480e-02 -2.302256517076484155e-02 -7.720664388842451639e-03 1.553619461397386971e-02 -1.856836247610402571e-02 -2.335300192889390447e-03 -6.936344740193720222e-03 3.015382422757321296e-02 6.315045847696447792e-03 6.779320986221866463e-02 -7.169827317906875275e-02 3.928517570054764971e-03 8.245354049574014910e-03 1.573573402573383642e-02 -1.428060365090155770e-01 -2.655853213687160708e-02 5.050225598822348679e-03 3.556582145169770448e-02 -4.146577256437945780e-03 8.980988838358098733e-03 6.698544624879761156e-02 -1.454063652484926562e-02 1.801315435866442452e-02 5.032008737211356338e-03 -1.519729551762386520e-02 -4.564964510822699939e-02 -4.163737923013995784e-02 2.005151326074992163e-02 -1.120069200758156899e-02 -8.674639590762664096e-03 -6.137286250939554683e-02 5.117599006879773246e-03 -1.127962643895161730e-02 -5.167208365747015530e-02 -9.812080176534605791e-02 -2.764172552055321752e-02 -5.137390405929403991e-02 2.130919056403481494e-03 4.312965719822552113e-02 -1.290417285663682245e-03 -6.837307772935495576e-02 -4.287774234513648530e-02 -1.267397934050976463e-02 -1.773775294756228804e-02 5.239600307519623468e-02 -4.527921993100941789e-02 -4.556825804445563573e-03 -1.902944400360629534e-02 2.972550756782265779e-03 -5.337973605853414509e-03 1.838688852188214914e-02 1.448982611132989748e-02 -1.476472168288287500e-02 -6.301690615761643913e-04 1.171556514036143758e-03 -1.393039359335940808e-01 -1.177914839127677631e-02 8.640521381137200585e-02 -1.763942179855158485e-02 5.897780172606912480e-02 -1.024091979369551146e-02 -1.184069132133691443e-01 1.032572891159509038e-02 -1.917678746870224221e-03 -3.201665021765186139e-04
6.234117832269343157e-02 -2.002925209425724523e-02 9.271664005629212668e-02 6.269605805808879662e-02 3.043247842903337632e-03 2.479323987197351933e-02 5.224657134893944538e-02 -1.145737867384774220e-03 2.734547094206847551e-02 -1.144253383838697985e-01 2.694023998897469158e-02 9.525022316505293851e-02 7.469616199266257417e-02 7.813230059787594495e-02 2.063578016784899105e-02 -5.158738789688867982e-02 1.421696516838810154e-01 2.380119640190080377e-01 -9.442425285974097651e-03 1.272641371309940483e-01 -1.542184455817551154e-02 6.976368378463422559e-02 -2.388209872310770570e-03 1.976248160955162633e-02 -1.772927362688728192e-01 1.789043652256085415e-01 -2.925930627890106495e-01 3.210786680277066818e-02 2.155148031703318576e-02 2.970725103948379433e-03 1.625634626427255661e-02 1.094603935475624568e-01 1.440301966649834287e-01 1.251137727707079539e-01 3.865674530298527506e-02 1.164622963615701556e-01 7.642005313997991822e-02 2.296552140107399262e-02 2.700764423706196460e-02 1.063864703825604940e-01 -1.789572159210788774e-03 3.590927431469246450e-02 5.305318487412076511e-02 1.044981100325434037e-01 -9.060532840418387274e-03 -3.179739245075208220e-02 -2.151573697361126858e-02 4.398995755957157971e-02 -1.223011380769198526e-02 3.955470613914412181e-02 1.905947539722756962e-02 6.985181401166254411e-02 7.067070664838059901e-02 3.146958962268618654e-02 6.471388926411854141e-03 3.599325585249134318e-02 -8.684094705385742019e-02 3.533966686204450397e-02 7.121113603853340690e-02 2.346720311577984303e-02 1.794074979783085236e-02 1.066415178743165965e-01 -1.721703085131994285e-02 4.156932131198601277e-02 2.896312030904260593e-02 -5.198037830078352378e-02 9.062079822762864056e-02 -2.075783241117798786e-02 4.258883830471775489e-02 1.728237908584690785e-01 5.815225428462651031e-02 9.899957220365221411e-02 -3.188602998730535182e-02 -6.332221551278595373e-02 -1.376783595274264256e-02 -1.434849300562564788e-02 1.939376634693169496e-02 7.244502656617310410e-02 2.073411641645665771e-02 3.041026734106725207e-02 -6.102791650022192788e-02 7.988778167245079442e-02 3.937232346236799185e-02 2.534118849128217180e-02 -1.149176148059087577e-01 3.688152895192776948e-02 7.993300611345691142e-02 6.335990115329112604e-02 1.045776305501792680e-01 1.693880459801022642e-01 -8.999784859421884609e-02 -2.561334427230040761e-02 3.067736307163555429e-02 1.567549096967108258e-01 3.669918698790673034e-02 -5.295918905596460474e-02 -2.145804440215228707e-03 -1.464481453489926699e-01 3.219674503947166783e-02 6.284050922124936878e-02 2.906368453777483096e-02 1.055544981300854390e-01 4.906322552819069455e-02 8.019309110036748622e-02 5.054012627406095914e-02 9.609945704513315687e-03 7.052196280060674116e-02 5.877920164306073975e-02 2.773645686541901731e-02 1.550753203777054286e-02 5.176984504223464123e-02 8.232504467816312288e-02 -3.690616995211127779e-03 -4.266895293029857733e-02 -3.368937102959423252e-02 6.280738269717144051e-02 1.202155109505469305e-01 2.513926996395502919e-02 1.735201100113191730e-01 -1.816474709906657631e-02 -6.945806482938760018e-02 6.900543175351268876e-02 -1.641423547944047268e-02 -4.367225158497680532e-02 7.473866249510782711e-02 6.669813904051351272e-02 4.239211920432963548e-02 -3.992645056672828457e-02 1.356520408605693118e-01 4.156937630853708987e-02 8.798238447757462943e-02 3.645810617956499189e-02 1.124491089392251758e-01 8.127404331157193906e-02 8.699188371277750964e-02 7.426740093715154811e-02 5.560638768718010466e-02 1.261790549088597814e-02 -2.537792077764413137e-02 6.061322680651559658e-02 3.394726997441017968e-02 1.285588430662833528e-02 6.558515862188226200e-03 -2.809842804531687693e-02 5.115082080187049324e-02 -7.371221466339079875e-02 -1.297752452873843221e-01 -2.904109419631671282e-02 -8.651564719176878249e-03 4.469697424709906386e-02 -8.935452117977979794e-03 -1.585436041036576704e-02 1.334612262165287867e-02 4.662096170873483020e-02 2.949684559238659187e-02 1.536948625155942771e-02 4.244318452104692274e-02 5.137783432244218129e-02 4.685961987455408012e-02 -3.043172768018077151e-02 2.790324536470449937e-02 4.555284299891368405e-03 2.933764294669220091e-02 1.045461550970219235e-02 4.702864309983336571e-02 3.940976069322595782e-02 -1.661948628140686932e-02 -3.871467133130932631e-02 -1.307095323207753922e-02 3.372743418680886063e-02 3.114789131760100499e-02 1.064833150266068784e-01 -1.541879996369754924e-02 1.300251902085981237e-01 -4.871183361261781364e-02 1.303161232781583322e-02 -3.430266539972435646e-03 4.134210329125537903e-02 -1.959757594941488254e-02 -8.399050696959221157e-03 -7.427774861095474968e-02 4.124509141679781610e-02 8.206337190244415714e-02 2.458041507013781005e-02 -1.440185769334515441e-02 2.773785860684695875e-02 6.281593689034944972e-02 7.855166014052131218e-02 -4.839285379822536037e-02 1.174073953311410290e-01 1.128761282892663670e-01 3.347689530593103008e-02 6.139834381109494227e-02 -5.025383186664193064e-02 -4.369854650606077445e-02 7.155234734857061907e-02 3.117617346276420343e-03 -3.538181350806993836e-02 1.695333362610141337e-01 5.179677009284740924e-02 1.149273649346460868e-01 1.313516465515860432e-01 3.209109568870802814e-02 5.307625853910044600e-02 9.158451363493315400e-02 1.033237106966307384e-01 2.810119805580808469e-02 1.952052148122419839e-02 -6.738655907374797860e-02 4.799423787481187087e-02 -8.263410815133614973e-02 -9.309837250440923528e-02 3.291696997284698084e-02 -3.478829864150982665e-02 2.519497438887885812e-02 4.414324682209629092e-02 6.668019649450172837e-02 7.581940349009055891e-02 5.543937770501797951e-02 2.094942968751479714e-02 3.407990107415356795e-02 4.184536320681628285e-02 5.226141228321702636e-02 2.491952449658500768e-02 7.518396095613666397e-02 1.085573763636746986e-01 9.887844168469334116e-02 8.037714935283250817e-02 2.662657334715868782e-02 2.396535539781455976e-02 2.027732417779706461e-02 6.871061568584706236e-02 8.241404829367542095e-02 1.448414211862025514e-01 -1.353804497131166429e-03 -3.435395462572059244e-02 6.908141621176508429e-02 -5.236631072646294634e-03 -9.601980532546228880e-03 2.135085651128056095e-02 -3.057315425715154134e-02 1.182160797193471807e-01 8.588339740793794752e-02 3.564983003199764799e-02 2.806229166045997800e-02 -6.203723758009654227e-02 9.475017974818389366e-02 5.523386586117976643e-02 9.036341258012169086e-02 5.547469456821060851e-02 -5.295759609232376236e-02 3.989284887212832253e-02 -1.013189003091569812e-02 4.932364251499923163e-02 3.572732476054189116e-02 3.739941760410099569e-02
1.278649343362983984e-02 1.668204024152915646e-02 -9.920659684141801271e-02 -6.149323934864739383e-02 -1.403399053534559911e-02 5.452367300047462895e-02 -5.241636128843100290e-02 1.278588421360167815e-01 7.609072603563593606e-02 -1.376708185538530194e-01 2.299059793002577665e-02 -1.379033942971221241e-02 1.823468931486742911e-02 2.035878582056263944e-02 1.880103747122049626e-02 -1.114654781421643148e-01 8.620538038237510192e-02 -1.019289620880264036e-01 -5.204548090484231899e-03 -8.431615386560577241e-02 6.946590472426115472e-03 -3.141876867918483307e-02 1.684360975563918214e-02 3.252778133184915793e-02 -2.496086033998314371e-02 -3.856229582428301050e-01 -4.838027143759703053e-02 2.722492638943143500e-02 -1.389053586455170700e-02 6.217325574091585143e-03 -1.293208695358986048e-02 -4.664245901795449623e-02 1.226902293514246511e-01 -1.508806317080415849e-01 1.563718040344406340e-02 -2.799991804287908781e-02 6.307508358381137825e-02 2.676624348474094736e-02 1.392781504139949979e-02 1.283470606302650474e-01 6.017887789745037137e-03 -2.512428702233718281e-02 1.255779483428590415e-01 -1.008938605256906318e-01 -5.818590813300010545e-02 5.101297735621047186e-02 1.191246555941577884e-01 -2.044665720925828434e-02 -1.946825693867708026e-02 4.103536043191301219e-02 9.593907431370816974e-02 1.738988815344454401e-03 2.120178204833408631e-01 1.595804459306465056e-02 -9.992483337337255966e-02 -1.897058116015289467e-02 1.265583750494139216e-02 6.161291690656325697e-03 1.924152528546162894e-02 3.990670835228758012e-02 2.481959403852955839e-02 -1.588620872436807829e-01 6.041565279114836928e-02 4.826019358296753346e-03 1.929935072783061159e-02 6.870640858054734290e-02 -1.072306495388835636e-02 7.736790058440416902e-03 4.800677039900835830e-03 -8.650944275026647978e-02 2.353238376721333847e-02 -3.650526263943341260e-02 -1.292098847833745290e-01 -2.384194297915658012e-02 -2.171080700339757252e-01 -5.601802330774473260e-03 4.309224268801288560e-02 2.647895012314930435e-02 1.056138487242157253e-02 6.375897116101133209e-03 3.936206803451872821e-02 4.422677456367338222e-02 7.460824292727405438e-02 -7.053210412149864272e-02 1.014583010669337926e-01 -1.185557266888514864e-02 5.067049606116816318e-02 -4.534398370384597893e-02 1.641438732838483572e-02 -1.349290585424754441e-01 1.249871558684306945e-02 5.233992046506597690e-02 -2.985670858722768838e-03 3.314795290337871347e-02 3.523359865301371047e-02 -2.677258497662445696e-02 1.807240894347159760e-02 9.960673060215219712e-03 -5.624336307650357192e-01 5.402768618757345515e-02 4.197823833837121404e-02 4.748591384382613162e-02 -6.575929433556935988e-02 -1.541036756633538431e-02 -1.043722416338952325e-01 2.884996792331756890e-02 2.061151937451687760e-02 2.062414945725406928e-02 1.983875172281588870e-02 2.088449296240608641e-02 5.679666650628307362e-02 -7.206229102246795859e-02 2.726901963982756791e-02 2.412686373373882504e-02 2.978064070095027757e-03 1.013317224910270653e-02 -2.004883559946902052e-03 5.852938203374381115e-02 -2.550310718376355146e-01 1.295770594950802213e-01 2.000372331409518145e-01 1.152706072968136611e-02 -2.188152234501830953e-02 -6.353760510020575215e-03 5.197177656507288857e-02 1.917971547995979409e-02 3.584206404407444535e-02 1.104532897739022440e-02 4.619562881629241113e-02 2.770603343851605130e-02 4.102537733344638338e-02 3.588273923257793291e-02 -2.353317700878558918e-02 3.015041353908267177e-02 -3.372044768356193684e-02 -9.568882727264739225e-04 5.672314832397121198e-02 4.790584158424266402e-03 -3.119120925067417338e-02 1.391296498282115074e-02 1.917735569215357067e-02 3.311541829920476576e-02 3.473505506265993359e-02 -3.267477934595832550e-03 4.736539606194131030e-02 1.435099451275483225e-02 -8.642443277092362597e-02 2.048314360043584220e-02 -1.902178953179389440e-02 -1.394752103237953053e-02 3.045743380858024346e-02 1.225406261869096784e-02 -7.624447283961692523e-02 8.993361543775838657e-03 3.816111330357591785e-02 -4.433864386260701757e-02 5.449734724542613928e-02 5.599658865382073358e-02 3.519771233419039663e-02 5.086224169631020642e-02 -4.844517930568705694e-02 8.313047174023928398e-02 8.737056032850060161e-02 -3.159216398570728612e-02 -7.116640649682136333e-02 -2.845482680884122706e-01 5.786262157996139091e-03 2.894433227055334679e-02 6.349746447473359444e-03 3.214642234689001066e-02 6.420543200188155719e-02 8.080725320717389859e-02 1.754648459398212498e-02 -1.400330537222530536e-01 1.364071591827520913e-01 2.454165697388968614e-02 -1.129030702999274799e-01 1.480686155743666382e-03 -2.884364793450695710e-03 -8.014676716434545461e-03 6.376292017502231853e-03 7.130550187589565665e-03 2.608982754316634817e-02 5.134748385524792735e-02 -6.982274219343623245e-03 1.682414650163100919e-02 -2.605324964674941499e-02 -5.506670258264509399e-02 3.930199269299711196e-02 9.077459887674442507e-02 1.483852236922567069e-01 -5.840261591192296570e-02 -4.873260736621965600e-02 4.672295984767527860e-02 7.488934216533182919e-03 2.872029007345903995e-02 -1.160283999414797682e-03 -7.140951858480214416e-03 6.520530277645107675e-02 2.322994738770382123e-02 2.158338116294367462e-02 -9.552809824400662619e-02 1.916982585381003801e-02 -3.901073418600919940e-02 1.533104135457696166e-02 -1.593804616450568423e-01 3.676204064377684017e-02 -6.825279209724574581e-03 4.584696147498393271e-02 -2.366321908563772183e-02 2.339520138929750484e-02 -5.579206221572024366e-02 1.056912114007020481e-01 1.966275059164147507e-02 9.850611787094702351e-03 3.962143920793299856e-02 5.151962296870048891e-02 -6.413069528642829573e-03 -2.600497936939942523e-02 6.251742859970983723e-02 1.516933270188973795e-02 2.353814712640319579e-02 3.518554722990176187e-02 6.872073267151658504e-02 -5.448778302688472158e-02 1.356099581457262948e-01 -4.046645300804815881e-02 -1.459005154628908616e-03 1.666076037235140334e-02 -3.467579215402370740e-02 7.564610182246279957e-03 -1.151776691143251846e-02 -2.034678050655082115e-01 -7.951801730216861985e-02 -5.095623681103585156e-02 2.270183641547219439e-02 -1.767192580777544320e-01 1.438581755703247349e-03 2.736895615371095353e-02 -3.698399658374869163e-03 4.425933767963436544e-02 8.472974516529818353e-03 5.805084783532647036e-02 -2.108656726350553040e-02 3.522082187672031378e-02 4.075551412847458650e-03 -2.391395420292410923e-01 3.475728456928382087e-02 5.073735515037379462e-02 4.047167044130919877e-02 -7.857089718642164267e-02 1.998427699168954519e-02 -1.484954432996081659e-02 4.190660303528203484e-02 3.530712602663051147e-02 3.008272089353139240e-03
1.174241964293226692e-01 5.209813891707331529e-02 8.412458305181065576e-02 -1.157157318086028241e-03 -1.586211748309207178e-02 -7.226670749726042675e-02 3.519051554229653961e-03 -1.389247926825069174e-02 -4.141687781046264789e-03 9.516233900359910569e-02 -1.977964284035036184e-04 7.033386207792102773e-02 -1.591363681310900210e-02 2.361170964951773629e-02 1.559037891001815133e-02 7.501016509479320471e-02 -2.184552662066447937e-01 -4.556401801158023457e-02 -2.579905375899841161e-02 1.937723234925602112e-02 2.365152379247952713e-02 -1.896937285824458128e-02 2.188531492953798771e-02 -1.876682437864572251e-03 6.187837348835474593e-02 -3.088298821868917451e-02 -6.991355033740674629e-02 4.493938826145739548e-04 2.433202897231710043e-02 1.335106036373265043e-03 8.695832702282468851e-02 -6.308854899631535784e-02 -4.167644682655061161e-02 9.159972949650146967e-02 -6.723861157157526303e-02 -1.737514162627061022e-03 -6.976636382948898756e-04 1.285789291722744081e-02 4.114275759351788617e-03 -1.132225830447540970e-03 8.113963420226464815e-03 5.573114937257873241e-02 -5.604095649424713221e-02 -5.514104146839954312e-02 3.342266393433337979e-02 2.099231085009438391e-02 7.772801337746511330e-02 7.632552932802707385e-03 6.194489796863392184e-02 -3.794459605993410339e-02 -6.635109681096246215e-02 -2.462467248808932613e-02 -1.308562900565632681e-01 1.384318895311481903e-03 -9.700730316555114530e-02 1.777698915550148320e-02 2.947984157397761512e-02 2.468177592561297123e-02 -6.811065729145611772e-03 2.681448406311831567e-02 -3.557583916055984119e-02 1.344290484958263199e-01 3.475029752405185690e-02 1.165432001999248263e-02 -3.295090547307627689e-03 -3.599846188157796445e-01 -9.788725333479042848e-03 5.785020822133827255e-03 3.342834301432727473e-02 1.096119885619654868e-03 3.837272991289859521e-04 -2.043697222328583543e-02 7.919706039912689788e-02 -8.170160586349485554e-02 9.986850102794539441e-02 1.085434547894271497e-02 -1.942845249602104252e-02 2.490624374277832561e-03 4.015865698907432335e-02 2.658914977853676573e-02 9.582778407328306630e-03 7.132729078027998104e-03 -4.684456119655489546e-03 4.816493266353590735e-02 -2.207154839940830490e-02 2.929325111870466434e-03 2.624262168109239238e-03 -7.615018532063072554e-02 -1.273779859924425994e-02 -1.517024147701472869e-01 1.177865862168763194e-03 2.811994846926315142e-02 4.513683914336518582e-02 1.822118413139282855e-02 8.097189166300812480e-02 9.215426826929580886e-03 6.767164017985698166e-02 -1.243296612492501146e-01 2.964757718430522868e-02 1.046786964587913954e-02 -6.286078379161511714e-03 -1.685784265058058382e-02 5.504440165457285226e-03 5.953131866736699473e-02 -1.116725965205948995e-01 3.993216876093962087e-02 -2.682873889046554286e-02 -2.262409958396658857e-03 8.409344886129498792e-03 1.762409687970076938e-02 7.100661485438743321e-03 -1.097814032039486250e-02 1.746782618635670664e-02 -8.813563516514348606e-02 -8.789192564619669303e-04 1.341669063322565442e-02 7.808419511784106884e-03 -2.982872056308264949e-02 1.340801963167354005e-01 -3.663022844909800263e-02 1.684153465772685390e-02 2.982807398021463871e-02 2.321636936978773227e-02 5.438402761347262138e-02 -3.272621757833434064e-02 -7.101059278579710358e-03 1.520498341703022810e-02 2.783136164386871766e-02 1.299554628526227579e-02 1.749123615832708784e-02 1.538683653010733746e-02 4.666814927426401333e-03 -5.262499129011843912e-02 -1.121687297465514231e-02 2.708684085645463382e-02 3.303943086821413411e-02 1.983133390034106519e-02 5.407695111956350997e-03 2.127148669174576054e-02 1.882112764466307292e-02 5.514771854096260639e-03 1.912747561914877534e-02 2.990991341057571209e-02 1.984769993646868375e-02 5.899305774574035988e-02 2.578944660659703708e-02 -3.387886659575129605e-02 2.121879159975429904e-02 1.617353872646224988e-01 -1.257140319055534416e-02 5.963882371911224251e-02 1.947261981306164583e-02 3.452937996128806891e-02 2.269765718975987230e-03 1.354963063714766797e-02 1.741091165509578778e-02 -1.000071362612387077e-01 1.907707765138494729e-02 -4.886799137579574126e-02 3.584060188915024620e-02 2.588534465894321360e-02 4.979941601925013187e-03 -9.670923321277895279e-02 -4.395680655817594401e-02 1.206441603220775698e-02 1.151014550552657834e-01 1.428680552273998983e-02 3.561722855933192183e-02 4.267894184401746505e-02 1.032508512166668488e-02 -3.740574438026676718e-02 -5.297513059682820540e-03 1.127187439748688833e-02 -1.775376764021596721e-02 -4.296582288624881812e-02 -1.123780787018305348e-03 7.372690971431114515e-02 5.020664214720715196e-02 8.230721136775547356e-03 3.477282420272333890e-02 -3.894979761907949728e-02 1.415489026599702459e-02 -4.249091444774632034e-03 6.500859052265317573e-02 5.041065483759623461e-03 1.807274436852436203e-02 2.332082325048875568e-02 1.074248392961755193e-02 -1.908677850347939749e-03 -2.486635763216579059e-02 -9.919696713531153676e-02 1.606156892352770746e-02 -4.099798213753205224e-03 2.048188326779160854e-03 2.579515372519344124e-02 -6.958803007377159164e-03 2.958664511710829004e-02 1.954148408264020503e-02 8.504719901809798532e-02 3.191883856367953853e-02 -2.382294988760516249e-03 4.033580739013601507e-02 1.063691716874632515e-02 4.871646212423662303e-02 1.977171793465653735e-02 1.552196254443745024e-02 -2.698444326835756912e-02 2.565516629190121856e-02 1.762256214684746261e-02 -3.991105954000188916e-02 3.624950302162658483e-02 -6.435575837967306978e-02 -6.269511647295529511e-02 2.190816761228766771e-02 2.105300912247994038e-02 5.683482971148090014e-03 4.050688831074142349e-02 -3.945349598686329756e-02 -1.276793098458673184e-02 -7.673662411552134750e-03 2.557181418340750620e-02 1.220057182749394696e-02 3.346438517952807223e-02 -1.523642911921101704e-02 -7.837995067357869661e-02 -6.832665162352001553e-02 1.299321192118320020e-02 3.431832046777922446e-02 1.425451505204091383e-02 4.200634428723617336e-02 1.829714618702316109e-02 -3.608450637684953305e-02 -2.029428236713892372e-02 1.053218952229679171e-02 9.795164909747926599e-03 5.860913898078545098e-02 5.809905486051829965e-02 2.673094735535306091e-02 1.647693874104719583e-02 -7.198291178558675549e-03 2.881194408776945048e-02 4.059515687892064489e-02 -9.155726913068154560e-02 2.214255723363783498e-02 1.329170751618850670e-03 3.464403113994771882e-02 -2.968721374763156479e-02 1.861419076909061332e-02 -2.227534383642716664e-02 -1.221416109381559707e-02 -3.230807090463257841e-02 7.216087250048107589e-03 2.717917548205828204e-02 1.667068991708457737e-02 2.226976120034389328e-02 1.496168721482144491e-02
1.529811707257398568e-01 6.906656875752636982e-02 6.628518007154830805e-02 1.839158248358266270e-03 7.346739263863459428e-03 -4.744744259567184458e-02 8.453473728932353257e-03 -1.629132235036651402e-02 -2.997076148535979950e-03 1.164393044574449781e-01 -8.743232831018781653e-03 5.992160238435245007e-02 -2.616730521102186152e-02 1.433127483130633949e-02 1.306062230618755364e-02 9.014197603220057420e-02 -2.311487314413777083e-01 1.852322358228765051e-02 -6.537652234085465121e-03 1.210244663432348544e-02 2.018357997557401404e-02 -2.079871296391319971e-02 2.641104550918359564e-02 -1.047610676279950997e-02 7.260009366871056358e-02 -3.594243311341936697e-02 2.073132755878093897e-02 4.440646956779511004e-03 1.402589383011707339e-02 8.355640318818784423e-04 8.043247256837866843e-02 -6.428511971945503889e-02 -2.881373089751838520e-02 7.506752858230618386e-02 -1.031428665922253241e-01 -2.328313052885458770e-02 7.544797946046929819e-03 2.078688264053060730e-02 -9.191093838012653200e-03 1.162768664236232862e-04 1.844845720962851390e-02 5.683370070553047521e-02 -4.006811239310052036e-02 -5.174870939677015530e-02 4.918598218349192613e-02 -3.525234819778873176e-03 7.596583004550894191e-02 6.485907303818331561e-03 7.715941607443312089e-02 -3.948586680384413850e-02 -6.483435794449096679e-02 -4.142094538056024372e-02 -9.410797840927470626e-02 3.381441062673678100e-03 -3.709668643401761723e-02 5.306121858665566182e-03 1.833420161413163579e-02 2.158262683440489993e-02 -1.234345684123949391e-02 1.980937145897910395e-02 -2.796290769757388273e-02 1.606978308092565644e-01 4.569364638398876882e-02 2.445724990665991763e-02 -1.467428715440992175e-02 -3.589016173265006659e-01 -1.495005022196716632e-02 2.002161483294165236e-03 4.439867156779584573e-02 -1.053280620003448423e-02 -4.415965919130291836e-03 -1.788941258541898796e-02 9.657464788063055416e-02 -2.248738922711978130e-02 1.196468064386775471e-01 1.851397590338526786e-02 -1.598077619477701605e-02 -5.457576969546984805e-03 2.896646490561756437e-02 2.534064715789198161e-02 -1.993861766024190851e-02 1.066340336466134117e-02 -2.374713272109288745e-02 3.241083281845110603e-02 5.200074940463476209e-02 -1.685158224072340338e-02 -5.762579428428779744e-03 -4.100855462611296964e-02 -1.820483952372954281e-02 -1.072631084884091562e-01 2.002238088450831663e-02 3.286428719550559679e-02 3.893472804682017452e-02 2.152138470045823759e-02 1.095426629806208613e-01 4.927802491057752671e-02 7.230335011385664867e-02 -6.719918857432310988e-02 4.348935919116681675e-02 5.332499978735467765e-03 -2.171988824813451176e-03 -4.023536820252542751e-02 4.238929088783568826e-03 4.310271343559541474e-02 -8.219784483299634459e-02 3.642876493043702146e-02 -4.019052193452470750e-02 -6.768610165217056607e-03 2.061934708329767399e-02 2.717817416251239182e-02 -2.642440275928235882e-02 -1.307405580310492740e-02 1.065478034337349195e-02 -1.319194647798646765e-02 -1.746195796312587090e-02 -1.362848686181683880e-02 -5.806369422994192000e-04 -2.350001806558437226e-02 6.068499681010355862e-02 -2.195590967993556533e-02 4.633028508683340735e-02 1.991966248149192736e-02 5.465525386950042044e-03 5.120593088633212941e-02 -7.074216410879848038e-02 -1.893650109321937114e-02 6.045960481062106345e-03 2.690021378357539475e-02 6.232186100708506440e-03 1.757351539846644869e-02 7.554496410583814298e-03 5.418801779160759349e-03 -5.308233690861146464e-02 -6.104061078170214261e-03 3.656287725809318628e-02 1.953220168481517582e-02 4.392187910977816273e-03 1.548589826214672588e-02 1.786548317341416642e-02 2.310742819251501365e-02 1.439986316607572321e-02 1.963774407923759083e-02 1.775641944866083663e-02 2.204441483633485035e-02 4.324350846958759098e-02 2.311242313101323758e-03 2.093787798280961551e-02 1.828816843548532189e-02 7.184825881061973618e-02 -1.073127981643348314e-02 7.107926904848446692e-02 1.922825044841440165e-02 5.037415839558924933e-03 -1.788866486015643076e-02 3.731848878544770376e-02 -1.442498054307105038e-02 -1.047056025561287351e-01 7.497318357538515499e-03 -5.982156947288667925e-02 2.705800695731823760e-02 1.378425435918582964e-02 -3.959149149525759744e-04 -7.865454542111043057e-02 -4.597098483269457941e-02 1.626315803714363864e-02 7.132613590912006973e-02 1.764334481773517996e-02 3.919815499024433686e-02 5.239333865588834127e-02 9.170503124600309225e-03 -3.594499487922513808e-02 -2.039633541872000466e-02 -4.817866623865996699e-03 -2.523933477543982215e-02 -6.238388400196089034e-03 -2.098719181911238782e-02 7.393478275565321112e-02 4.667926409050886238e-02 4.836153988376669724e-03 3.820661819303626527e-02 8.403673442355069634e-03 4.560638972031128870e-03 -1.049719219799975616e-02 7.475161222986474729e-02 -7.167018600448848455e-03 2.298033392700864555e-02 9.841645822770838867e-03 -1.854146589176966162e-02 -2.107942483830177460e-02 -2.687670764884933852e-02 -7.161953728814698938e-02 1.111363226210158872e-02 7.324361913173487067e-03 4.115854351603830813e-02 3.059754099961139659e-02 -1.074761639417700330e-02 3.689125340541949544e-02 2.190007527534865855e-02 6.265836883025821535e-02 2.906683516726533967e-02 -8.307844287205792128e-03 2.670439580254379067e-02 4.357418052180027368e-02 5.267737775204429929e-02 2.742576522887272758e-02 5.736708468094304375e-02 -3.525826262536312788e-02 3.368087625425122966e-02 7.547378770226102068e-03 -3.521048117833914387e-02 2.080353847446038754e-02 -1.845998274138139356e-02 -6.006193691858301154e-02 3.461930520541475764e-02 2.120384225740422693e-02 5.727097830792273088e-03 3.426393584660751557e-02 -4.598683166494765828e-02 -9.398703457559842668e-04 -3.766224999912717603e-03 1.935831158447972808e-02 -1.097265290111026394e-02 2.771036697939746260e-02 -2.034172863688584951e-02 -8.336078228904607312e-02 -1.220308656054995833e-01 7.759834774182538565e-03 1.571887833812994281e-02 2.640052588557125282e-02 4.694920036858508949e-02 -8.574548452113086097e-03 -6.250355840510468663e-02 -2.860081095951741773e-02 1.174760144967126017e-02 2.716462519126840256e-04 8.501455224454325388e-02 5.961274691086935335e-02 2.756440707746730945e-02 2.348446370654705753e-02 -9.269590764279019707e-03 4.253866117519340684e-02 2.439756718975057831e-02 -8.881253599519320363e-02 2.413405677590531664e-02 6.560546169164006153e-03 1.946052063075986299e-02 -3.424918941426121841e-03 1.102124168102573687e-02 -1.414576524900577545e-02 -1.346500281280899221e-02 2.957866955735794726e-03 -1.005028702454185963e-02 1.707617392125358388e-02 -1.135045368633851633e-03 2.345970942822308072e-02 2.183256846883048150e-02
1.242882452207741267e-01 5.411497281523415526e-02 5.947638006791913096e-02 2.988707421279317503e-02 4.318534389605722945e-02 2.349497443214088044e-02 2.808163607983421919e-02 3.331557324006555881e-02 -5.354987726466635400e-03 2.985371141011342044e-01 8.181965839791062456e-03 7.538455552446522712e-02 9.042343707969486416e-03 5.639810017821672572e-02 -8.073212085387332371e-03 8.734203182639067864e-02 -3.359311756902365331e-02 -8.655532244249918017e-02 -2.842767098453368932e-02 2.772570642924220702e-02 4.285798108219559394e-02 2.231702836172533636e-02 -1.067061005342815130e-02 -1.833097836189671523e-02 1.261928483440183657e-01 -1.215610035069288053e-01 5.503780855077762546e-02 2.086297931156732427e-02 3.136478174621544490e-02 2.883279434012386150e-02 6.163699378280240032e-02 -1.457996812693072852e-02 5.812461046366300399e-02 4.713098992345621241e-02 -7.923449690530336154e-02 3.399417054456736753e-02 3.689695376067896743e-02 2.315467917604601550e-02 1.754084610233750535e-02 5.432020590307080204e-02 2.851818439872401412e-02 3.322775450419566956e-02 -1.207833586764662202e-02 -5.012082413825955790e-02 1.634699329665648820e-02 -1.869218950529341963e-02 1.046547028485810167e-02 1.819849847046286356e-02 9.099960999664016836e-02 -9.953938237587237059e-03 -1.559284460312795190e-02 -1.963730470897899830e-02 1.364803609899097915e-02 1.728305149703584370e-02 1.234446582508439381e-02 2.778770310779346206e-02 1.518200494167521418e-02 2.264417095592006005e-02 1.227353017098224176e-02 2.248650744103914551e-02 -6.811167224014160436e-03 1.465532682528998820e-01 4.950066689755143468e-02 3.042209828697010204e-02 -3.307299853331573114e-02 7.497614957733468588e-02 3.032587742390440572e-02 5.019342397478719631e-02 5.360922525845883066e-03 4.704426297780114896e-02 1.584760802874620941e-02 1.024573659222799762e-02 3.770158358703681878e-02 -6.984504819777238816e-04 1.612752448213709000e-01 2.928130834223152332e-02 -1.548348170230929438e-02 1.397679405004573737e-02 2.590535898787469163e-02 3.059339466625126888e-02 -4.177372425813000167e-02 3.001586147673273100e-02 -7.263927496803593807e-03 -1.219256042057582749e-02 -3.826009827849209677e-02 1.145023872608710337e-02 9.581146464397701304e-03 1.807627460514992998e-02 1.159131067431805155e-02 -7.385488133203153838e-02 1.256618334497823786e-01 6.306625940050841761e-02 3.680927442344861245e-02 5.358513688570553518e-02 1.224325548404472802e-01 3.002731476075386902e-02 5.628495463268062132e-02 -1.843045312745376571e-02 1.017086005386259318e-01 5.070930770021850505e-03 -3.773367472523425897e-03 -2.906889048740779816e-02 2.873341254823940163e-02 5.772464156803244761e-02 6.060127754688776625e-02 3.549880040632173717e-02 -4.304513607686783969e-03 6.816383278176004444e-03 2.750097052635362693e-02 2.644563074873306288e-02 -1.978660834025182738e-02 1.904869695352184866e-02 -8.308835550310004689e-03 -1.635469142182685576e-02 2.444977056528441911e-02 3.482121610846984454e-03 3.405759824634463362e-02 -1.135485510092300657e-02 5.395805324385462981e-02 2.128137406338834886e-02 3.242887406797152761e-02 2.559786231798522743e-02 3.720400335718659912e-02 5.064854572995431542e-02 -2.581350269941744963e-02 3.213763197857742466e-03 1.311942243208723095e-02 -7.521608580904439074e-03 6.707661406019420347e-02 2.134979813033767784e-02 1.850616097484607953e-02 1.574324590022512307e-02 -1.180969290856750953e-02 1.828609079611864113e-02 -4.038632189495833420e-03 2.742298814038522312e-02 -1.321445234666585034e-02 5.808839077487717995e-02 4.865642589648178779e-02 3.002071194389132822e-02 3.185305658713484533e-02 1.263199424151981165e-02 -1.167652648597423612e-02 -7.154669672028164673e-03 4.033545531514021176e-02 -2.356222982502687718e-02 3.700461169747456917e-03 6.346359884273733432e-03 5.795885664658544101e-02 2.198421710196389600e-02 9.399436283769090072e-02 -1.738948135315723439e-02 2.178297431703592538e-02 -1.383429808076023539e-02 6.074822491435478977e-02 3.934863348613954794e-03 -4.243900651195681856e-02 -8.924799794960568480e-03 -2.289214807572170080e-02 -5.784090297113284908e-03 -3.109725376707373617e-02 -2.213845635061410452e-02 -8.618430421928882298e-03 -2.283075770411703564e-02 3.178799959976937733e-02 2.824227984870490704e-02 -1.620829292193176835e-03 7.184801258984209460e-02 7.812863415060049277e-02 1.136731140686021886e-02 -1.552497008675797138e-02 4.105810909597033126e-02 -1.009375884684620903e-02 1.441951500528198225e-02 3.275352029894733428e-03 3.702336308391872017e-03 -2.460300878662497956e-02 2.748078254428862333e-02 2.362669732422472205e-02 7.193063126633064686e-02 8.689490573920911898e-03 9.499689903584303263e-03 3.219002567030958533e-03 9.627576312814474513e-02 1.769130989905466633e-02 2.421314734692810861e-02 2.112603589070257207e-02 4.333205803789740192e-03 -2.696926371565989619e-02 -2.922017019486842365e-02 -3.357992429924530620e-02 3.603665132467047394e-02 3.154371200925391860e-02 -6.311081784707387246e-03 -3.656260213621839988e-03 4.540967164093902449e-03 3.340947819584685896e-02 4.714940609598872873e-02 9.539704459129240421e-02 2.222922981310757051e-02 4.269018392982140697e-02 3.466028419193273313e-02 6.722350251550807121e-02 5.007523134823149008e-02 6.416194822742754544e-02 4.875135452564032662e-02 6.734246126369118450e-04 5.614984532121258809e-02 1.888122116668600886e-02 -2.701283290501118456e-03 7.304967071251706676e-03 5.460216366809506755e-02 -2.572888586115624696e-02 -8.895304181615836664e-03 3.065268443607269827e-02 2.350456552150778297e-02 2.029242515985499318e-02 -2.252231448236694314e-02 -5.027127336367492177e-03 -6.574557329986817356e-03 4.415828081813829263e-03 1.617156208496980940e-02 2.426433905542804692e-02 -1.190740798294206287e-02 -2.951870622866052327e-02 -9.459610403261550782e-02 -1.446068637958748682e-02 2.831744718289891036e-02 2.884570946093184540e-02 4.278053012943456440e-02 3.238463102780085590e-02 -2.848900248838766303e-02 6.000789722910868616e-03 2.835824139870082514e-02 1.823711154146183400e-02 5.966030532091087107e-02 3.164865254167230357e-02 5.317099184722407987e-03 3.732078448080317079e-02 7.740908055248918625e-03 6.894743081315758693e-02 -2.140867958200027774e-02 -4.170936257505879208e-02 5.679650640128582756e-02 1.239088830402960799e-02 9.830980848307216153e-04 -1.610599617071832232e-02 8.929863955755640986e-03 1.530928479319452161e-02 8.638121964451832974e-03 4.573696884296163390e-02 1.615900162533837753e-02 5.880083380939866294e-02 7.284941600059308305e-03 2.520974610419582720e-02 2.874462011718539878e-02
-2.764323863530780967e-01 4.518674605814854139e-02 -9.774619351729246786e-02 -4.406634515000068184e-03 4.350360851621940667e-02 1.363072957821272538e-02 -1.774515164387116496e-03 -2.315480710934242001e-02 -1.679243254415947392e-02 -8.293944306647581255e-02 -7.799671778867989236e-02 -1.202070275128928334e-01 3.281947147227436742e-03 5.091563772258181353e-02 3.094602708552246159e-02 6.602928716896144107e-03 1.880768616060388143e-02 -1.391133194947589413e-01 -1.480388170659537039e-02 2.583317159078470440e-02 1.926201457776414300e-02 -1.363780314453196148e-02 4.198348988287985140e-02 1.204102759414513585e-01 -7.298185197569556637e-02 -1.221979948755638409e-02 -6.082718723630161847e-03 -3.320035551464670109e-02 -1.428880932499924754e-02 2.924627325238038714e-03 -1.027459645225282242e-02 8.757559230852632326e-02 -1.329926490799523096e-02 -7.967970469179386228e-02 1.166530077213267097e-01 1.216383635051871553e-01 -3.262631189649969204e-02 -3.381129007392633112e-02 7.614995138254395182e-03 4.915951991685612449e-02 9.840239260738745455e-03 1.205437847888631182e-02 -5.699726387137937084e-02 5.496238598177163176e-02 -2.866498654041677377e-02 2.645983189428472576e-02 2.321936591258555709e-03 2.828523386119156068e-03 -2.246757993154382266e-02 -2.872870583264553867e-03 7.989626152874544293e-03 -1.959362486728694411e-02 1.362879021041781546e-01 -3.009597563547269927e-02 -9.185645568485041254e-03 -6.860285487629083634e-02 -2.719342459002729515e-02 -2.819600893731206634e-02 -7.920758667310591515e-04 -2.090411495074977200e-02 -7.657252971588484822e-03 -2.365473844562710481e-01 2.419596354555268725e-01 -2.768410495218319445e-02 9.712465029034329789e-02 -1.643299396603406237e-01 -1.088719957862419041e-01 -3.218310734755903089e-03 1.806517272033591331e-02 -3.756854641478572787e-02 -1.805583413107473417e-02 2.405126487046049463e-02 -1.924297633223567491e-02 -1.824629806195553205e-02 -1.453391814319256736e-01 -7.231688898558918249e-03 -2.304920944305692554e-02 -3.135514397577838369e-02 -6.960307598003268037e-02 -3.528163211625436751e-02 1.150429457609736771e-02 3.589810754762303574e-02 -4.732999491668898884e-02 1.370081507511120011e-01 1.840770606219883365e-01 2.836157254154333257e-02 5.986822039934938319e-03 6.876089786102530799e-02 -2.435458679437441792e-02 1.693514904218274275e-01 -7.071013601143030791e-02 -1.292511541465782808e-02 -3.253124478738422115e-02 4.344357985580792059e-02 1.842876345688239728e-02 -1.458606824667163238e-01 4.777743509583182863e-02 -1.683471606254162770e-02 -2.498157764436352846e-01 -8.029000405942791907e-02 -4.019957666958716772e-03 2.426984487358576498e-02 -7.175303192413939012e-03 6.716644529593296387e-02 -3.470690103583022601e-02 -3.557694838797711978e-03 1.719306945018623731e-02 -2.481801212733637796e-02 -3.345762623935261137e-02 -3.186654955795729244e-02 -1.981459832545579836e-01 5.616067597257010536e-05 2.784032271222028343e-02 -1.943224159948418739e-02 -1.841969029399694729e-02 1.763059097235119069e-02 1.888408702476202915e-03 -5.003278344900667640e-02 2.499046764806524962e-03 -1.226796816814323780e-02 1.179475382537649442e-01 2.356984109982987116e-02 -3.989715712101225137e-02 -1.037126205809713875e-01 9.697480330918835378e-03 -4.978670908696285896e-03 -5.396570479933598952e-02 5.044497143746258516e-02 9.154702160232477959e-02 -3.060176952472494841e-02 -4.240932193910939424e-02 -3.722846642837047970e-02 8.129523547298565800e-02 2.692056143937761326e-02 7.269374827693451946e-02 6.653531137005175289e-02 -1.528829965753662479e-01 2.872021453730435117e-02 3.935301474063505195e-02 2.474085427268226181e-02 -4.669186729238335859e-02 -4.596627106053401135e-02 3.069354258666937701e-02 5.811805161809661946e-02 -9.237723955279124322e-02 5.093599861525807161e-03 2.777084967129627158e-01 4.133454843470178025e-02 3.327551408759879883e-03 3.979788102185240900e-03 1.737002027682960428e-02 4.831927232443957582e-02 2.467020356212565324e-02 1.438636448235662280e-01 9.661903959837927353e-03 1.223645802236348334e-01 1.297560151924264174e-02 -1.082918584214825723e-02 -1.873193529661036291e-02 4.644727168334796680e-02 9.276379806195735045e-02 -3.223987660941529144e-03 6.132775163036706390e-02 -1.498566173987167169e-02 2.870978828864410165e-02 -7.079447134299025890e-02 4.540649112480027449e-02 2.507986781815426877e-02 1.143915663033445544e-03 -4.781449840477758340e-02 -2.729761885032902860e-02 1.002453911507077966e-01 3.577523573780885813e-02 1.015856629073825027e-03 -2.204699033705734279e-02 -4.184519950660466059e-02 7.442314717136866431e-02 3.273468976455008034e-02 -2.586052926521137385e-02 1.540929914228330797e-02 -9.004282339684605008e-02 -9.131833733279963450e-02 -3.005661528573774083e-02 -3.201196183697443964e-02 -1.236927725973120153e-02 -2.740087612439901649e-02 8.068745150080830139e-04 1.093945286563995506e-01 1.108552343414377465e-02 8.278707727090270363e-02 5.881839718534397077e-02 -1.053032941325712790e-02 5.572430193805506977e-03 -5.872036123006437597e-02 5.581846029888653388e-02 -2.816361522969578965e-02 -3.926672059129693304e-02 1.120958894303173900e-02 4.627206717340415915e-02 -2.022136951271111954e-02 3.788500811283548181e-02 -1.734379101333811263e-02 4.944308158988958840e-03 2.431342654886911939e-02 -2.653012605172188135e-02 -5.071084651075415117e-02 -1.062671161552160119e-02 -2.179745847410310619e-02 -4.458050762631705910e-02 6.419553707391714714e-02 -1.553628375292038588e-03 -3.519920627238446592e-02 -4.515350339702723509e-02 4.973307017330681062e-02 -2.913693839394144655e-02 -3.669719151443107119e-02 -1.045402017390340867e-02 5.290329611020000954e-03 -1.563006172569635643e-01 -4.261767321344835796e-02 -6.678227464566442728e-02 3.814029606342717038e-02 -1.058950851678555106e-02 -5.566110844004680536e-02 1.045729404034132781e-01 1.351345343240655250e-01 -1.812191582034224091e-01 -7.802256229568177437e-03 -2.385715525822324629e-02 -7.971151502438948711e-02 -1.081146384428453323e-02 9.831746264147685210e-02 -2.363941077143743782e-02 6.946969910459428743e-02 -8.154363605170481845e-04 1.048162698682237881e-01 -7.100468987985124325e-02 5.601349582095230262e-02 -3.842458728300641307e-02 -6.408567318146862757e-02 1.615638928732058069e-02 -1.271873147336511911e-01 2.991855072714155739e-02 -6.915540274060681669e-03 -1.236643489544309374e-02 1.123332846434967579e-02 -2.973296050926837672e-02 -5.480323839955211773e-02 6.871725297286838952e-02 -2.738484652675166747e-02 1.626184309307673187e-02 -6.009556388420087686e-02 -9.405632816186176859e-02 -9.592804107446947781e-02 -6.033981924688176790e-02 3.964140318140152441e-02
1.042989821579284535e-02 4.302428861081398354e-02 3.164475393277218357e-02 1.377585116631674725e-02 -5.959037737378433848e-03 -1.444102726906432502e-02 1.164152431770228667e-02 -1.338595140213811284e-02 -7.507684092747411893e-03 8.466433353139510287e-02 2.266655124557055700e-02 3.963761787909455409e-02 -1.275728778972216437e-03 2.443236676762532839e-02 -3.361252222774934687e-03 2.278900082613621175e-02 -1.028010790624074577e-01 4.382637224357448236e-02 1.527710243854584968e-02 2.359273328429928665e-02 3.521865228506569460e-03 1.140059331380385323e-02 4.178372604579093028e-03 1.564113657546023842e-02 2.616251698691160824e-02 -1.780012362442326065e-02 2.429616628095225897e-02 3.506711155232487484e-03 1.901337883394147235e-02 -3.528794984033615904e-03 1.962584739269487497e-02 -8.808203477049473401e-03 -4.957674839842696191e-02 3.166982082360314532e-02 -4.057039348059042483e-02 -2.123370093279166107e-02 1.797110869908454325e-02 9.801266259599827196e-03 -1.332387528935996199e-02 -9.874898841966314386e-03 -2.968070458117826396e-03 3.817084290801776858e-02 -4.980626992466765171e-03 -2.814294490116132919e-02 -5.456080442720838419e-02 -1.875960684319983359e-03 5.386710908682573046e-02 -4.552708682560537533e-03 2.685279407154142484e-02 4.365582246769882536e-04 -2.374176188880817301e-02 7.708294054370888083e-03 -5.108350927641235745e-02 9.305899818333825471e-03 -4.770529872449844055e-03 1.508717573776928791e-02 -4.092318141776690385e-03 7.150232665983938208e-04 1.681086071874293361e-02 4.266645122588171718e-03 -3.613131851700376353e-03 -1.255045557669237991e-02 2.560916862585116416e-02 1.569269604768926824e-02 1.423858531458622144e-02 -2.085262359815168443e-01 6.009124216401880159e-02 -5.619438843062667457e-03 -2.040260093806101419e-02 2.202373361646919186e-02 1.452342055122996575e-03 2.593621968163752414e-02 -4.889537391435239827e-02 7.684861052636224668e-03 3.653135195267435270e-02 9.173039454177980834e-03 -8.590188233214474979e-04 -4.125676387311614200e-03 1.273975930151913412e-02 1.790222049288863609e-02 -5.616595528976963195e-04 -1.736981483771716725e-02 -9.554887119984624422e-03 3.759056930898316273e-02 -7.675697519324642740e-03 -1.472318656004865944e-02 -9.775409082312527115e-03 -8.503328410406036514e-03 1.418091050604912765e-02 -4.332996616459037359e-02 1.953232330579967105e-02 -2.916971586409092612e-02 -4.335411021475137593e-03 2.179986181346964258e-02 6.729222746043955761e-02 4.519954212141524819e-02 4.847487751800239053e-02 -8.649269014650766071e-03 6.339268892433726210e-02 3.085807771820206578e-03 -2.264826013362033867e-03 3.282471537394648334e-04 1.372231619395628162e-02 3.352441346862502364e-02 2.636082569844581600e-02 -1.855306069356140114e-04 -1.811462367418624833e-02 -9.878075216918519655e-03 9.350823696947079336e-03 9.770328838384348055e-03 3.114460221581362431e-02 2.742368802028321423e-02 -7.779920445346173198e-03 -4.556604973031212757e-02 -5.350591785080647221e-03 -1.762190411083923783e-02 2.115264375274500744e-02 -5.067865511296086589e-03 -4.628923776696360765e-02 -1.254017252781799811e-02 4.090251027009098039e-02 -5.374500838667506039e-03 8.645357096000005903e-03 3.523961367744263967e-02 -2.080590992674171899e-02 -6.776428121312691368e-04 3.722162715121135265e-03 4.831117874951250564e-03 1.541136581432497703e-02 -1.829068057932450603e-03 5.492602590629538407e-03 6.199989341460820924e-03 5.840637188529185404e-03 1.926640477480059260e-02 1.997794436742530988e-02 -9.537441236132449332e-03 -9.587858596534553843e-03 -7.231908964626118999e-03 1.457125409794595219e-02 2.184972467572823211e-03 1.022552137592296941e-02 4.813238360747928990e-03 4.016053366974734785e-03 4.628058837668556913e-03 4.528358918476693001e-02 -4.964116173582754261e-03 3.430758104819288390e-02 1.168945201339840513e-02 5.688267226968155704e-02 -1.083333837144354744e-02 5.481963407618444667e-02 4.693264159641670485e-03 -5.059306164308832732e-02 -4.736796063982815636e-02 3.898792705810041198e-02 -6.034107403226290217e-02 -1.694181578765872886e-02 -6.523326998330932977e-03 -6.834032181370084183e-03 -1.217450129570912939e-03 2.586260605347820082e-02 -9.038861049177296381e-03 4.948353975165794422e-03 1.207780916796087969e-02 1.588409634986750335e-02 -6.738203118562524629e-02 -5.087152795205019187e-03 -1.967414151404109097e-03 1.728844818651318130e-02 3.358485953041497312e-03 -3.626392593073856068e-03 -6.745335782884800914e-04 6.106826693284889065e-05 4.063541756564061774e-02 3.153444447900764259e-03 3.408072637215204398e-02 1.630919611600321201e-02 -7.126388880392636391e-03 8.492542211140312975e-04 1.132073175278557574e-02 3.648683421402481447e-02 1.923034802155611234e-02 -2.909368092618956625e-03 5.572360502267256765e-02 8.593006949145637341e-03 2.136431392985788102e-02 1.625152402428283285e-04 -2.830831691315344872e-02 8.554665966577256961e-03 3.182091796019322072e-02 1.949071713478334536e-02 7.331233223246113803e-03 -2.797828458425374865e-02 5.053419884912043608e-02 9.597706196157738609e-03 7.544435997297686651e-03 1.940287294259192621e-02 -2.666317653740203110e-03 3.690563687897198408e-02 4.726051527808669377e-03 1.736996191358060673e-02 1.796299766651798108e-02 3.658036619603526052e-02 -1.219371018757611259e-03 1.493068584166133521e-02 -4.103402776444212141e-02 6.757878871407096803e-03 2.444764540317549695e-02 -3.665704955782023936e-03 -3.051480563800927290e-02 -3.065895706973228562e-03 -1.441558991324423493e-02 -9.720649651753225651e-03 9.010906940122328027e-03 1.659603633013069512e-02 6.644247360227308746e-03 -4.320608250248350601e-02 6.705860025569543997e-03 2.580128733396724189e-02 1.554470117954356422e-03 3.247783475757039630e-04 -2.881018198104157851e-02 3.539897592263920381e-03 2.269841961498716455e-03 -3.142551220580613175e-03 -5.792562167827837449e-02 2.258870421891820759e-02 -4.383954948850567364e-03 1.578141669932041011e-02 3.921641594718973389e-02 -1.247041133641727841e-02 -2.055996847901872537e-02 7.592657137313122730e-03 2.112560230081279855e-02 1.446233923471594573e-02 3.832972599794937096e-02 4.133536464300794494e-02 -4.228744073424770163e-03 -1.370819346619041833e-02 4.205344652329568583e-02 -8.176550264850843824e-03 2.082908895233197971e-02 7.232363346419264268e-03 1.229508302247366187e-02 -4.248272565065294888e-03 -1.439428155230669873e-03 6.246217939468936414e-02 -1.939673387949528236e-03 4.903694882265508675e-02 -1.041163724349625968e-03 3.647787802231885514e-03 1.131617266199913194e-02 -4.938440847233597185e-03 2.647669686933533731e-02 -5.694940623787704548e-03 -5.308270651835193810e-03
