2.661980022096813170e-01 3.135170245379811926e-01 -1.568560764915264416e-01 6.444245573071647470e-01 -5.668020738496126060e-02 -6.387302376363649531e-03 -3.211916498123312813e-02 2.629312594770982225e-01 -6.490295625384093214e-02 1.149981250983923009e-01 3.539203022688864331e-01 -5.721205450817025140e-01 -1.017689492050745770e+00 8.601409176599869033e-01 -9.937492799922108266e-02 2.825550854018832880e-01 2.766312271566322423e-01 -7.409735605106767403e-03 4.978143774125586285e-01 -2.849933188627998271e-01 1.214311858282725920e+00 -1.275926037461995455e-01 2.999548637704061438e-01 -4.519848342073905928e-02 1.292536166966245514e-01 2.703783220509630575e-02 7.119015901782191347e-02 7.378694702172954034e-02 -7.111042449716056257e-01 1.893465143633434211e+00 -5.025064565409467082e-02 -3.977806015997548128e-02 9.305770277557998682e-01 -3.853855752459888883e-03 3.811657916676456370e-01 -6.242433525659089044e-01 6.907850405102951008e-01 3.389540822164709422e-01 3.359924086201965254e-01 -3.641678281030296671e-01 6.503702023591356740e-02 9.073377425927385553e-02 4.064795802751322400e-03 1.330956505581821492e-01 -2.765596450818503995e-03 -6.684635267873175746e-01 8.670711773861332350e-02 3.005215784760874587e-01 -8.970820892710006100e-02 2.973716033492603602e-03 -2.970391768220781090e-02 -2.030081337371709704e-01 1.742125553597918125e-03 8.651446520108149740e-02 9.536113944932325115e-01 -7.400397982167146449e-02 3.467307607994357666e-02 2.410298065046619642e-01 3.626836923237324734e-02 7.447515809103849582e-02 -1.926301454221447385e-01 4.923958577538279369e-01 -1.397675131851732755e-01 -2.440346686158114189e-02 2.671733864552378601e-01 3.498258087547070905e-01 -3.887172030298389758e-01 -8.970999036666682525e-01 -1.400204669713047412e-01 -7.144295937664874030e-01 -1.294254756489962022e-01 -1.039486218199508899e-01 1.914640051116244523e-01 1.670238980186367767e-02 -1.303281294289308778e-02 1.640258503774547627e-01 -5.716125371592152560e-02 1.218721570588058856e-01 1.829703610072959397e-01 -2.222074050114927757e-01 -1.693789546908669175e-01 -7.706858223666736285e-02 -2.960040695317892392e-02 -8.407448140026312078e-02 -3.427054995419442918e-01 9.693122547497800001e-01 6.489725317228357826e-02 -2.764725989527147196e-02 9.707219547532598414e-01 5.159898981318963851e-02 7.346899726038070844e-01 -4.950567571417245349e-01 2.477908642743759937e-01 -1.012436056458697831e+00 1.914897564217066250e-02 7.862548971487628435e-01 -1.687285713099270223e-01 1.048787534808458266e-01 1.446074533711488308e-01 2.928376054553957775e-01 1.149189832519350585e+00 5.597551787658300304e-01 -1.293711603290256806e-02 -7.299697449883095490e-02 -2.863775780381535352e+00 5.849923930967648733e-01 4.748105966126257849e-03 -1.006568963841194125e-01 -2.008848627099877465e-02 1.289819888393202163e-01 -2.941901876703463883e-02 2.502484622802847447e-02 8.002749763288327656e-02 -9.059009450082708970e-01 1.443263736993946333e-01 -1.180862442613131030e-01 -3.577319337513268360e-01 9.259236574024878319e-01 3.908214997127763823e-02 7.528089653246986535e-01 -4.096835515169747893e-02 -1.521514586387884005e-01 2.248904395471315043e-01 -4.040262225393753334e-03 6.426816305372375915e-01 1.043495139707362879e-01 3.640926781386078503e-01 -3.394416311607445502e-01 -7.542292737754688337e-02 1.461859634455253409e-01 -7.198918129632161378e-01 6.752764576654536610e-02 1.407023303402797909e-01 -1.616371539540160107e-01 1.718142542612998702e-01 -1.069354562217552373e-01 1.289258974877514508e+00 -1.749950648677866538e-01 3.822609572263354627e-01 1.212731986823800678e-01 -9.533380493207868067e-01 1.185701257939927977e+00 -1.380314262615904841e+00 9.225837309901674388e-02 1.514718223036940203e-01 -5.704340111008495695e-01 4.931387600279052985e-01 1.174795888486568796e+00 2.352084938251770927e-03 2.606850903420960819e-01 -4.150536250618496736e-01 2.776123853754784016e-02 -3.772380013088691419e-02 2.875867570434325615e-01 -7.358838343032024498e-02 -2.215788248732090959e-01 6.339085841040750791e-02 9.563718014505000198e-02 6.804800746326193639e-02 2.076378866734801265e-01 1.435294452904411489e-01 1.370257826569289294e+00 -1.016238422944182873e-01 1.201174915579696773e-01 1.080836016925872806e-01 2.452436528853049746e-01 1.499971141699521227e-01 -9.207428299363639157e-01 -2.673583852156954238e-02 -1.373545342007988571e-02 2.715462189233117662e-01 -1.246106472163896195e-01 -2.920782695531696713e-02 2.783075395372208716e-01 2.873554095886703408e-01 -6.754910750383095186e-01 -5.315376352405787319e-02 8.817744726290025481e-01 -6.197880367852691419e-02 2.078667197956027002e-01 1.216477658937168277e-01 5.222355346471949655e-01 -1.209687957035101152e-01 2.091071844954365544e-01 -7.345146228666329935e-02 -7.198683403370981226e-02 2.706239791902138592e-01 -1.237540933473304031e-02 1.344260943091873661e-01 -3.215743516585961581e-01 -1.073670697901600024e-01 5.413371986283451592e-02 -2.041475397264412572e-02 5.350965523551484693e-02 -1.024608581184351941e-01 1.307108878711889417e-02 1.920283721856990145e-01 1.249431442126467118e-01 7.662767012956784099e-03 -7.496829912948919927e-02 2.630995149734875055e-02 3.234568457350308485e-02 9.990399886905011739e-02 -2.852207358197540038e-03 1.006538870275965003e+00 4.812684437182619679e-02 -3.006866443164089159e-02 -1.060465665090715333e-02 1.008296304991192077e-01 -6.341226924353957628e-01 -1.797996380086946400e-01 -1.200425981834773032e-01 5.186821543752391517e-03 1.158955068639536956e-01 1.795571524115087136e+00 4.381083337700763386e-02 1.431266301398577800e+00 2.158393281293375932e-01 7.508494357052482304e-02 -6.250760879323736391e-03 -4.397241668948235760e-01 -2.762162508332132935e-02 4.997135074557949030e-01 1.099039286962182754e-01 -3.276568247745090257e-02 1.684614439414829634e-01 2.992467214475972859e-01 7.532950376177753871e-01 3.928858174849542313e-03 -3.892180758878431845e-01 -9.729040639029029602e-01 -6.023890530660579445e-01 -1.736432905093079349e-01 -6.568142348697146582e-02 1.417642883908599993e-02 -8.047262656346609866e-01 1.816931127052556494e-01 1.395743205048765867e-01 8.428194738977422620e-03 4.650407973620995783e-02 -1.114299528453263077e-01 4.056991379784789103e-02 1.372820192382573079e-01 1.098540904194216091e-03 1.443319675614564146e-01 1.522153132863813541e-01 6.116795444737248288e-03 3.296142955538624575e-01 1.816553713831889905e-01 4.086960427991741529e-01 1.627888508705229054e+00 1.156155107376426877e-01 6.673569239697918487e-02 3.572944989213004963e-01 -2.880623913810032022e-02 -1.724011541645732171e-01
-4.249750299972800960e-01 1.086660459999701400e+00 2.863616410051056937e-01 -3.648993186746348760e-01 -5.745872318070458645e-02 5.187494050541753554e-02 1.684037800216492235e-03 -9.886840198764240695e-01 4.942943227642698223e-01 1.674842043624805848e-02 -4.858827788535477823e-03 2.891044377890807371e-01 3.866758681068452330e-01 -2.491542301860980302e-01 -6.939379583605510826e-02 -2.920808079275794000e-02 5.167128316263587262e-01 -2.261442077691921959e-01 -7.467213359962558694e-02 -5.357180423269946035e-01 1.829046669511435574e+00 3.262598405969899251e-02 -3.498544570112392393e-01 -8.269882015088523197e-04 -2.352567831839757206e-01 -4.997374137826517126e-02 -7.233460983574795389e-01 1.728596564186932749e-01 7.134613290084476089e-01 -3.005496117715642956e+00 6.382885358076454373e-03 2.671552187813449816e-02 9.218212822010508622e-01 -1.864602755578284032e-01 -1.949129377672273733e-01 3.747181785069115811e-01 1.784415384891739620e-01 9.131238511388182211e-01 4.933473209094129119e-01 -5.394517030363316090e-01 9.856701706671676388e-02 1.698541593520881410e-01 -1.947846526280833379e-01 -1.008977742528679583e-01 5.882580039925347504e-02 6.243960226636863231e-01 -1.223300256898474658e-01 -4.586791452714304197e-03 8.275585079396116095e-01 -1.740967594473265267e-01 1.532360463245588562e-03 -3.928204070323247366e-01 -1.836179936173749361e-01 -3.172539850163302311e-01 1.016913149351265977e+00 2.176330305450511343e-02 2.776401546729815317e-01 -2.452767575283446577e-01 -1.531604680964357944e-02 -2.161490485601174141e-02 2.400993590161178970e-01 -4.747425230999881007e-01 -2.593243516533759729e-01 1.387903713318187730e-02 -3.611187353266740591e-02 1.193510688079937486e-03 3.779732255645417149e-01 5.465557756094882036e-01 -1.687001590016697361e-01 2.424740216973782392e+00 -6.265387925332021046e-01 -6.357172672920778922e-01 2.040971632679475234e-01 1.774937220280522476e-01 -2.203508169136076181e-02 1.821510533791923792e-01 2.284549958444319871e-03 1.170389634638699661e-01 -1.521197911295887606e-01 1.240985116116260611e+00 6.747164980917913502e-01 -4.754872492119486815e-01 3.533967976980317144e-02 -2.161055926322805187e-01 5.622005699197487605e-01 2.874417722726581026e-01 -1.868675256400094756e-02 6.266089650443886772e-01 2.342437099979611137e+00 6.822381606526503051e-01 -3.203331917241507010e-01 3.670926806119210184e-01 6.652361339453310984e-01 1.549371873090351071e-01 5.805628275007242989e-01 -5.237265693974056946e-01 -3.169869167613450500e-01 -3.964466304682563030e-02 2.640413017277937202e-01 -6.259195395624156388e-02 1.716000938084147442e+00 1.217595338495717439e+00 -2.213546377618303210e-02 -5.405613748775985883e-01 8.114224932074217689e-01 8.347839414564357519e-01 5.975756691656480130e-02 -3.469574063003077330e-02 6.676353586309797042e-03 -3.387899960856787240e-01 9.813471542710292331e-03 -4.742089477907707185e-02 1.644891978456280712e-01 3.722337184359673090e-01 1.752407526268475180e-01 -9.350943026396070501e-02 6.978707508257634418e-01 6.460667466951254267e-01 -1.012082942686090732e-02 1.680851588974165312e+00 1.104557461248574166e-02 -3.089276770043058451e-01 1.038695115144548708e+00 -1.407198599534613959e-01 -1.168699629642097615e-02 -8.791610125390545427e-01 -9.679447642615077729e-01 3.971219574267270125e-01 3.644088284812613352e-03 -7.684632933709535374e-01 3.178091120670128306e-02 -3.901653380800096382e-01 -1.289211660567794737e-01 -2.037488673105354586e-01 1.801101018076355365e-01 -3.548976780619932936e-01 3.906963917317430313e-01 7.927433036825354273e-02 -9.935821354958700169e-02 1.527777939545301757e-02 1.032512011148279535e-01 -1.104926689779780036e+00 4.331971922281702692e-01 -1.924449632171413016e-01 -9.570028906857469542e-02 6.164165065209745720e-01 6.605239238788815914e-01 1.912668062488899867e+00 -1.934894600089573369e-01 1.084518332007233937e-01 2.889980768517049770e-01 2.276963891977416485e-02 3.694777553890731675e-02 1.709049016584594793e-02 -2.890154564881989852e-01 -7.794527333436789274e-01 -6.003105972629456666e-01 -8.228196775972178578e-01 7.248125526157335463e-02 -2.394986627410830918e-02 8.151794136380181854e-02 4.039366553931844628e-01 -2.028825837527252762e-01 6.944412063506534560e-02 6.487597700733677142e-02 3.366199875120274854e-01 9.031410223372217383e-02 3.111765725636247981e-01 5.138962527783601242e-02 -4.349483287046646551e-01 7.200632870833332741e-03 -1.747324962207907062e-01 3.058402466544335278e-03 1.490589375409664616e-02 -1.228424460937823787e-01 5.200702822117233559e-01 5.150508155403924621e-02 -8.173630347803366725e-01 9.924188713590842426e-02 7.069011253731402045e-01 -8.612301377538808533e-02 -4.063817923052633757e-02 -2.389659420373601573e-01 -1.788268897835539745e-02 4.316860247289235758e-02 3.763369909996547302e-02 1.091851460387409795e-01 -2.148981937538286743e-02 1.277048938025681923e-01 1.035506281551182295e-01 -8.520783409586382695e-02 9.339459154158498422e-02 -6.050918715256100588e-01 1.436069861009756088e-01 -5.980623455146041323e-01 -2.637622843077571180e-02 -2.324361758910443998e-02 1.373102966772541365e-02 5.331840257569064878e-02 1.732603022460977582e-01 2.298500470691871300e-01 3.407200162261668063e-03 5.352739213667431772e-02 -4.083658246314354062e-02 -3.117160772698970295e-01 -9.597361474433718787e-02 9.717423630807315443e-03 8.615876487397679251e-03 -5.195678013249590554e-01 3.923530292055547597e-01 -1.050597168939390313e-01 -2.049209567568070489e-01 -2.245428445032618125e-01 -1.036266667588433332e+00 1.766462339012718763e-01 -1.722645147564211277e-02 -6.034577032892799453e-01 -2.506190880775621341e-02 -1.047726957251116087e+00 5.341346321107120348e-02 -5.588614833271586813e-01 2.044738881111597684e-03 5.599778167167162035e-01 9.409608477723278852e-02 5.418498649074119863e-03 1.538335074493171417e+00 -2.647830389553332189e-03 1.320582849529318703e-01 -2.892062317202193089e-01 3.949092574022036173e-01 9.588368834031151255e-01 6.122342787740601144e-01 7.561188065356660992e-02 7.121627159276054941e-01 1.391261609801479615e-01 -1.297559600571598581e+00 -1.019288006110139033e+00 9.748400737691556572e-02 -1.695214304579938935e-01 3.242050165091607539e-02 8.817087552159280639e-02 1.220915424566106494e-01 1.172416149397794288e-01 6.332897641075818651e-02 2.793938800047773285e-01 7.375189278927378744e-01 -2.225160458628478444e-01 9.931109783518010659e-02 -1.054689023297676442e+00 -4.809523044387598034e-01 6.016076057446499981e-01 -4.418164065823344810e-02 1.537437709649263490e-02 -2.296126227888974948e-03 -1.886905361305964146e-01 -2.593265316385695018e-01
2.499416746240090970e-01 -1.237926192071451048e+00 1.717805921990881446e-01 -3.803694517007792930e-01 -1.564284904469216197e+00 -2.774257059520804369e-01 -3.022720960499519771e-01 2.322123371783714751e-01 7.091605832328348180e-01 4.624385658380698594e-01 1.550282210435571517e-01 1.496736791829196500e+00 4.743635537643446920e-01 -1.959428921561037429e+00 -1.951354959595632321e+00 1.817174301939200043e-01 1.040314180973844094e+00 -6.988683052282639308e-01 1.286334293031908604e+00 -5.334935905823519064e-01 7.394670574866694102e-01 1.346389293048934954e+00 -2.986760375850724958e-01 -3.367172229394727045e-01 -4.133254920638255725e-01 8.820635128132461311e-01 5.231157916264744800e-01 4.396683209602480602e+00 -1.011005255058315289e+00 1.275072898987936076e+00 1.411855290285963127e+00 5.358620744848310302e-01 1.131022588331193068e+00 -8.126183339378850734e-01 -1.240335679435814881e-01 -1.181183347375872605e+00 1.142009912440200781e+00 2.908125812597025739e+00 1.394807060788143760e+00 2.714864923108601391e-01 8.087863291091614004e-02 -4.578600406876628254e-02 -7.677615758739106955e-01 1.645449470404306835e-01 -2.989114191443585922e-01 -1.058422053745074365e+00 -8.398744066940654063e-02 8.944500892886114718e-02 2.529622623592395314e+00 -6.737845386885216170e-01 -2.802953124172566923e-01 4.226509766675323188e-01 -6.945328117507794108e-01 2.724954431146709433e-01 1.120298180738367178e+00 -1.339810373342967154e+00 -3.287009085281549781e-01 -1.746455845962975595e-01 -1.180366428937521667e-01 1.855706834613360390e-01 1.830826328799724845e+00 -1.044749552089317551e-01 -1.347750100870941159e+00 -4.049407761791996130e+00 1.719605019515348110e-01 1.009369776449063200e-01 1.149471835227068972e+00 -1.043954815053228291e+00 -1.340980877129366089e+00 -3.005393619040262809e+00 -1.840632391782365485e+00 6.010275256474435501e-01 1.666703925815488763e+00 3.776717486848906735e-01 1.978342179205163087e-01 -5.298237298677684060e-02 -2.201448213192743530e+00 8.595587950504847419e-02 -3.355721395253742134e+00 6.638130727337312464e-01 -1.122875519280124301e+00 3.106403572635502153e-01 -1.771778150395975082e-01 -9.073698286464577656e-01 -1.590787274860988143e+00 -2.009397643271621792e-01 -1.674070741245129446e-01 2.895430315582900316e-01 5.106410019661905553e-01 5.561199916964866263e-01 -1.378264507887849044e+00 1.416670907590429351e+00 1.851815599653901634e+00 1.529049533814254902e+00 3.236582424596341045e+00 1.044919102592828608e+00 -7.487338736670495765e-01 1.937923960702881421e-01 -8.838655638207598697e-02 2.002963510537724978e-01 2.818457263880798092e-01 3.391836012059650796e-01 1.890527802825985315e-01 5.187448338625697541e-01 -1.663451787025558959e+00 2.487296348191903733e-02 -1.440075183458061348e-01 3.884991816044503637e-02 3.157815041991848815e-01 -2.256916597263265989e-01 3.904381223983082183e-01 1.183948798888655729e-01 -5.154761355171203971e-03 -1.019989784934220545e+00 3.703660928583478729e+00 1.341552207918393358e-01 9.274898307242851470e-01 6.298340528901558329e-03 -1.132823802032759675e-01 8.557933614038688575e-01 -2.908374981093196365e-01 2.237885799325006475e-01 4.300322927564354636e+00 -5.750544759627594926e-01 1.361891185312030350e+00 6.149208222670721202e-01 2.520292264257116832e-01 3.167885547126321200e+00 -3.029516932530130102e+00 -9.304963723111567275e-02 -5.176467701631889184e+00 -1.010843154383596953e+00 6.963335278349066515e-01 2.172772003118852713e-01 1.683325444241200869e-02 -1.038328029538381769e-01 3.191911479745095370e-01 4.580838836623283838e-01 -5.609361245645969052e-03 5.003601599347288209e-01 1.591565666280061908e+00 1.411594598041447268e+00 -1.166834172511346024e+00 -1.002446575233562953e+00 1.634178778698318346e-01 3.667213787659748814e+00 3.421822908609545855e-01 2.769250379420571395e+00 -7.368209989644305402e-01 4.313327191711162634e+00 2.837258767908701795e+00 -1.674112527665787553e-01 -9.742961462767361913e-02 4.298812861458693568e+00 4.003863726335302187e-01 8.737097734904507584e-01 -7.296225998216546715e-01 6.388345480166366386e-01 2.219269033886670517e-01 2.634244946094171924e-01 4.450464568571641522e+00 4.486415525235993296e-01 -9.637673120104729430e-01 1.809478296728354030e-01 2.287478515888639874e-01 -7.623213344534465197e-01 4.419652711682195978e+00 -7.081043895954621803e-01 4.017175906660356843e-01 -6.576860206672719977e-01 5.499880890690012070e-02 -1.615178519212759456e+00 -2.277068071605205246e-01 8.595225939330557174e-02 4.080769984995096245e+00 -9.236558990947844050e-01 6.713302025920619975e-01 1.317364410221431470e+00 8.273428688956024901e-01 8.361268131579445706e-01 1.628130239765923359e-01 5.563188161793893860e-01 -1.155162721847345253e+00 2.784346172108495554e-01 3.893906211710973508e-01 1.358573784284781594e+00 4.462785367722951868e+00 2.110702040717712946e-01 1.195150027450659069e-01 2.066392841383862589e+00 -1.345401096332103696e+00 -2.263219145062368709e-02 4.963057710865110828e-01 5.299314612506336175e-01 5.301967516904808608e-01 9.330895093362660819e-02 2.610572697348817472e-01 5.306135673640891559e-01 -2.022416965493417651e-01 5.705105243251427094e-01 -3.053219845482814110e-01 -4.466112392044906468e-03 3.653899958330373288e-01 9.154502241683932784e-01 2.003139429929898352e+00 -4.279552499711478109e-01 4.530917471016753795e-01 -1.433612205679914320e+00 -2.117874169752124391e+00 4.366113392967000628e+00 -3.181448742807266861e+00 -1.992734312078353165e+00 -7.114623111452410553e-01 3.080561516394653143e-01 4.332690291636216440e-01 -7.459126347138433921e-02 2.738876759452238407e-01 2.771288039142998372e-01 4.150380834643881967e-01 -2.428671551476585255e-01 2.270363592416829446e-01 -2.750632397005168817e-01 1.489805059006748200e+00 -8.889320499855326435e-03 -3.346320268668580233e+00 -1.283525726526719701e+00 7.868536096549379188e-02 1.068529807785140839e+00 -5.304585856037238312e-01 1.215931772157994084e+00 -2.112178020323784988e+00 1.071355316267281754e+00 -1.123257158890117041e-01 5.016395715581462023e-02 4.896631362366785784e-02 -1.644603294539539462e-01 8.328988988021271966e-01 4.039660010330408113e+00 -3.483477984769899893e-01 -6.080619699620659624e-02 5.553745545916698445e-01 -1.088082411380011201e-03 8.999261253479889922e-02 -3.023869900635315355e-01 -6.239772191012288999e-02 4.878711024857677048e-01 -7.716483834320531088e-01 2.531990709372653914e+00 2.772644196590829391e-01 -3.391636800372181959e-01 1.108989301107659725e-01 2.143754529864163039e-01 8.922084166103968483e-01 1.344336945220359625e-01 -6.236321538478696302e-01 3.165310034261145100e-01
8.637275956109944364e-01 5.049855159479574418e+00 1.025497155357459667e+00 -4.345839894864789721e-01 1.245154713442767402e+00 2.608996543749317887e+00 1.403845190601799242e+00 -5.813571170282085809e-01 5.778783007281127482e+00 5.132871652616829428e-01 1.599412583135250365e+00 3.855605356797402905e+00 3.842567765554051551e+00 -2.461676564079704477e+00 1.838140794523035026e+00 1.621996306199438465e+00 -9.202019638232588061e-01 1.483311189063250657e+00 6.296489147989748902e-01 6.573983387562455372e-01 6.303301621990472503e-01 4.174735345499077432e+00 1.051400527201773238e+00 1.843014487192966566e+00 -4.979926162788674837e-01 2.220690054248268375e+00 -1.727720293789551942e-01 1.347743705183477081e+00 6.778082703897722605e-02 -1.415280758801200411e+00 4.068915043151509536e+00 2.072611255546549458e+00 2.368505209290761471e+00 1.193881112310086312e+00 1.187321453427974793e+00 6.270004638332517255e-02 1.791066597298489604e-01 1.247058257524459757e+00 4.167616326418839279e+00 -1.136948128159893434e+00 1.869457862735872666e+00 1.619986384165825077e+00 1.417082824949607911e+00 1.447378610743406346e+00 2.287135017629373213e+00 -4.740132565362262240e-01 2.105992175601687499e+00 1.674612956421443144e+00 -4.194381394922461204e-02 1.314975297959112277e+00 1.483849461178755380e+00 -7.301244253203395540e-02 1.328016964482793050e+00 2.159225305446054455e-01 2.877026952658678471e+00 1.694446617229668828e+00 2.349455201358174872e+00 1.450456362778336006e+00 1.163707455510542665e+00 1.754547860743417509e+00 7.709635528759515299e-01 1.941197920035194979e+00 1.064655980528883328e+00 1.360027776153581502e+00 1.483993670088397998e+00 1.635943160134067043e+00 3.702414999657413830e+00 1.041207003322218577e-01 1.103756131508156324e+00 2.576951870542623646e-01 1.228619049747111003e+00 -4.748432566672710076e-01 4.537960190130907456e+00 2.747863969854090982e+00 2.117400688471087200e+00 1.870440063674653430e+00 1.420657680880430318e+00 1.426208972215845971e+00 -3.192595323174987954e+00 -1.755237342686450097e-01 -4.042254018344348387e-01 -9.965244199304619521e-02 1.495795097817312014e+00 9.985978382568370115e-01 9.979692092261893688e-02 -7.353874283284512758e-01 1.083642197110323613e+00 4.864019616996812623e+00 4.264833974955613560e-01 4.250130261779964336e+00 -6.815855202595613171e-01 3.934752810694355674e+00 6.805455093503104402e-01 3.103541701996001656e+00 8.272559433136905671e-01 4.335070484958607473e-01 7.904053188822087739e-01 1.527792278210577059e+00 2.409120941371390767e+00 9.735416921693306191e-01 3.891247689766302198e+00 -2.762984555462282693e-02 2.123364794422173851e+00 -1.922727702353946300e-01 -2.110434788464353506e+00 -7.263443633838204683e-01 2.347210736213535043e+00 1.112367936281961178e+00 2.218696973376660164e+00 1.169277066595937109e+00 2.193895525769614441e+00 6.612738412121994536e-01 1.783736176109341320e+00 7.981531031079741600e-02 1.532056087404102040e+00 9.232863630739027716e-01 4.160417798378895249e+00 -5.180712151841097013e-01 1.334935181538802862e+00 5.773084420038282483e-01 1.179088263742778642e+00 -3.678018057999181134e-01 1.384522897930803520e+00 9.575624644293294629e-01 6.289987506139749218e-01 -4.346070747910998899e-01 -2.318192047753655782e-01 1.269307884800587427e+00 1.929302609754687925e+00 1.716164525736685320e+00 2.727518619290737689e+00 8.369656875186467504e-01 2.095301724970614288e+00 6.093888088110611667e-01 1.896269313875141416e+00 8.656005304546270374e-01 -1.047979991478355105e-01 3.410375802043705828e+00 1.201315783055806330e+00 5.434813199565687869e-01 2.845612923944096373e+00 2.239006139987535227e-01 2.491383814115664397e-01 -5.296601381996002278e-01 1.251395188014718496e+00 1.074772944206292102e+00 5.021952819680351787e+00 3.180178968166669229e+00 1.398671251705764451e+00 1.932863217692157187e+00 -4.423958817127849330e-01 1.851265854188245852e+00 1.141511117041292378e+00 1.655484849754551124e+00 -5.883218927633918072e-02 -9.059579578367517039e-01 8.272031120172413932e-01 -5.588441543832061154e-01 1.155585194565719176e+00 1.586390177922867739e+00 1.477407730513452977e+00 -3.981932895760268432e-01 1.004434054336605708e+00 1.498406537380874370e+00 1.355942265591747242e+00 -2.510128799639216868e-01 1.504908262064886593e+00 -2.768770742612151718e-03 2.477472384175505749e+00 8.542816948086447981e-01 1.431207221480227609e+00 1.046648759656479077e+00 1.369962023012601060e+00 1.689855361852577120e+00 1.401484722093206514e+00 5.799573145529747509e-02 2.131025216877156847e+00 2.846640333868424855e-01 3.036263599761462650e+00 -6.334699187639094564e-01 1.224052800565908372e+00 3.935288841145799577e+00 9.299254462376381758e-01 1.672379932819581638e+00 1.993070521532630535e+00 4.159686291450467976e+00 1.963123416927945231e+00 2.078507391954951711e+00 1.558958917435475433e+00 3.239221773521894665e+00 1.277258739092371309e+00 1.675834286374069837e+00 6.069327908028696733e-03 2.418280169180767381e+00 -3.258786990853120291e-01 8.059881016101063667e-01 1.482742183698871674e+00 5.775093477944237552e-01 2.250411495313672461e+00 2.565574767305888404e+00 2.047397134366422122e+00 1.014841591528643283e+00 1.192301617495317156e+00 2.156836358547450594e+00 6.028012570127025960e-01 1.132643414565810636e+00 2.038882392493996942e+00 1.362425672108669161e+00 1.380094254144187849e+00 -1.194832127375322184e+00 2.254684509824162131e+00 1.051233427328018610e+00 1.078425059986037660e+00 -7.625608546531873477e-01 -5.553421613687438141e-01 1.059342477332121168e+00 -5.883966685431907262e-01 1.662228053361123559e+00 -6.614176297052815068e-01 2.485810079540072159e+00 -5.678021117309500765e-01 1.393897020741669879e+00 3.231261585476242759e-01 1.152246959355327949e+00 1.350251396482412103e+00 5.612498539439433110e+00 1.374917431728747363e+00 1.731531433205848736e-01 1.028799844734920477e+00 3.861791793628794878e+00 -4.275690507404831253e-01 3.527785106762959089e+00 3.700589429079129911e+00 5.088361565555262978e+00 8.270132079280609894e-01 5.094261819180196937e-01 -5.604106619223685470e-01 1.374223638650745372e+00 1.042832704322737447e+00 1.004881457163938396e+00 2.955155410292400919e+00 1.100389741160917811e+00 1.453834503817931667e+00 2.270198968437415310e+00 2.614611846916717219e+00 -2.397356043553092453e-01 1.041451513554496389e+00 1.233635445008538500e+00 -6.608233730962866925e-01 1.178589693009218786e+00 -5.801967975913578934e-01 1.719402131200796546e+00 3.249774878096147179e-01 1.617429958699058368e+00 1.078629108993985675e+00 1.738707189136814157e-01
4.349952263151110610e-01 -1.150937209590686239e+00 3.409457999372631498e-01 8.721907566820510382e-01 1.495003158356676409e-01 2.598887279764376321e-02 2.662608169993776336e-02 1.267275385597327109e+00 -5.093154091929782412e-01 -5.084833778455719738e-02 2.441360593803038603e-01 4.716153041123262168e-01 -1.040965942982591930e+00 2.889019695421354145e-02 2.323777085817171073e-01 1.537920900648894751e-01 1.248348798792788816e-01 -4.226999143562352318e-02 5.066118364166347643e-01 4.006104774083120712e-01 -1.365162437621435521e+00 1.072555437659689498e-01 3.681801650294822675e-02 9.301484230697706218e-03 1.210115891083978656e+00 1.846207574099592019e-01 1.028212454955925947e+00 -1.670794522470987753e-01 1.480481501812807243e+00 1.406940553217461698e+00 1.233487268554611660e-01 7.953013927005417316e-02 -2.604357562076102806e-01 1.139777641747354575e-01 1.363573751798085043e-01 1.525195220156708054e+00 7.345961927502603350e-01 -6.672031233194632982e-01 -5.986877189242468811e-01 1.349929498416196028e+00 -1.903332249048965419e-01 -2.796574221724661968e-01 1.262341733133369448e-01 2.636843447690917497e-01 1.890521121498923290e-02 1.002872748684254134e+00 -6.242398805666551920e-02 3.149382089176455679e-02 2.057514085047732755e-01 1.098883709536690595e-01 1.908173284807927403e-02 7.830826788316410658e-01 1.154181542903079394e-01 8.414739138874737234e-01 -3.441983498104593253e-01 7.309706926818521078e-02 -3.047921536887779337e-03 -9.006714198157242390e-02 3.546620056178176883e-01 -1.393837768844745188e-02 -6.464975597144989594e-02 -7.444711165199249803e-02 1.308748274757353669e-01 9.819042255304330502e-02 1.627894867075010132e-01 2.402323906855264035e-01 2.762699095431209173e-01 1.333548491638421263e+00 1.612875105449254332e-01 -8.172346449874160479e-01 2.262112089876011090e-01 1.039497778152750573e+00 -3.308294553100194491e-01 -2.124513873420639520e-01 1.688852466212311387e-01 -8.850436485080569182e-02 1.860010004985254012e-02 -3.494825578939017834e-04 6.460161220533529314e-02 9.085667415191704954e-01 1.452623098980182714e+00 8.382177284133238704e-01 1.233775389047887111e-02 1.335028790211930105e-01 1.212896797665671267e+00 -5.941475142964043332e-01 3.993956369884376634e-01 -7.359041881143701946e-01 -2.185769166553423570e+00 -9.163992393635279898e-02 1.160877457517605515e+00 6.132313214751562436e-01 -5.331680428096808866e-01 -2.087978943539923471e-01 -1.622557359772141550e-01 6.335554875833356858e-01 1.695345875851892725e-01 1.813389371697150254e-01 -4.390734728583864932e-01 2.550951859738123662e-01 -1.949297251048343727e+00 4.017763800844748046e-01 1.690093089311591190e-01 8.810224159519499665e-01 -9.777588629344788895e-01 -1.397949637828928560e-01 1.913550562539189509e-02 4.282825504273916617e-01 1.095089908271795753e-01 -2.411986634970483768e-04 1.095140301314758285e-01 5.453044308943327811e-01 -2.992272997166114390e-01 1.588908258208303170e+00 3.400495381215447588e-01 5.267062014571477491e-01 -3.086993547547428052e-01 -7.007974390516644725e-01 3.738509821698603464e-01 -1.565100058121937865e+00 8.111588912770259507e-02 1.464395329802821832e+00 -8.360079037960869153e-01 9.262611393121346348e-02 5.758646326721440500e-01 1.238625805374798938e+00 1.941918414994481701e+00 -1.154596443367181535e-01 2.261341382550626639e-02 5.515484865983110579e-02 1.240611507431737648e+00 4.629970375451005205e-01 1.931875771835569744e-01 6.274840644306797222e-01 -7.887365567379001074e-02 2.222195600699621298e-01 4.255906190431787417e-01 -3.927260357149293113e-01 4.486421620167449498e-01 -5.249988889543844017e-02 4.522515668925692900e-01 1.107489789275247771e+00 1.460770510751043805e+00 1.458299648238182256e+00 2.919432345234236892e-01 -1.468114085795396984e-01 -8.335859831342445903e-01 -2.834997577403552071e+00 1.195511385885731914e-01 -3.141963387428224896e-01 -1.796412335309374442e-01 -2.751551962884903405e-03 2.090730871847816530e-01 -2.712908071074416338e-01 1.852746440054094723e+00 1.220760267983798109e+00 5.397885336909996612e-01 1.199399442555031392e+00 1.504298283574383166e-01 1.325486648379368415e-01 -3.783020249177432848e-01 -9.022164451994275636e-01 1.120339501240411872e-01 1.266927717075924387e-01 1.263593895090832087e-01 1.210152115074212498e+00 -5.146456544591098137e-01 1.844059286103832740e+00 5.930922918817344014e-02 1.038722295598564892e-03 1.768976455882709242e-01 4.952256033024556720e-02 -2.657481408460339936e-03 2.212317736372053367e-01 -2.673059165382170588e-01 1.299525129285845626e+00 9.556250557443954352e-02 8.528100801431690581e-01 -2.483829379966230322e-01 5.522428403141315112e-01 2.421593613469982531e-01 -1.213551026757935469e+00 1.453257896413613359e-01 1.290952918073365041e-01 -1.877263626029914423e-01 1.025161933495337546e-01 -3.183261960296545623e-01 1.622790848126142160e-01 -4.344215122550161221e-03 6.644556239237836559e-01 2.069275254026188005e-01 -1.776806276963004694e-01 8.059948706643352834e-01 -1.368432843445915592e-01 9.754531141297539953e-01 5.019241540563017523e-01 1.250664066032482202e-01 -5.627264487356280903e-02 1.365249597032782217e-02 -2.983484371468330676e-01 5.681074452163148436e-03 4.823899179375516488e-01 2.383420880752273319e-01 1.647817475123524167e-01 1.005580192950509127e-01 -8.354425314414984025e-03 9.709592928960424085e-02 5.898178277943325054e-02 7.133957259800173256e-01 6.648195316050035109e-01 4.152246659946134399e-01 2.519444677750523262e-02 3.142692089693826518e-01 1.089819952105569589e+00 -8.936744249831266584e-01 3.481201477064660432e-01 -1.014868876130397890e+00 1.382996124630709589e-01 1.044992646283701143e+00 8.605477117782920835e-03 1.508445283252452196e+00 2.875553192377307971e-02 1.796073329180145894e-01 7.288823244150124947e-02 9.541624665722482634e-02 -1.812019640698055323e+00 2.075460115195706112e-01 7.087479841423168780e-01 3.366653046490060142e-01 2.962966185286692866e-01 4.197622076116896972e-01 4.882540821637171291e-01 -8.424994000494744339e-01 -7.881329437767814472e-01 5.604474647168385948e-01 4.382816376655382928e-01 7.461063554674020049e-01 -5.035233101637542896e-01 2.350770751975610195e-01 3.838298877523230179e-01 -3.204358962049307924e-01 4.203121265823613895e-01 8.930878181025435694e-03 1.994648847186512169e-02 -4.742560421065544207e-01 5.078945699022161531e-01 3.124887522613941648e-01 -1.006192237151867924e-01 1.345483698184537058e+00 6.140789167637793894e-02 -3.996069456707512790e-01 2.040863355181266048e-01 -1.622521171753068814e-01 2.446327181392066452e-01 1.268349042222955692e-01 6.647160590293009763e-01
-5.739350192293033587e-02 -2.921049946132585617e-01 -1.262673783564833008e-01 -3.492226425755087238e-01 3.818745107657846305e-02 9.283446340079444525e-02 1.217466534734312593e-02 -9.854334166274994478e-02 4.856793376344453045e-02 -1.765830708239417290e-01 -2.568031823228489330e-01 9.192926566689524348e-02 5.622188120565518865e-01 -3.131894445360007828e-01 4.219666925347543424e-02 -1.747132302175191665e-01 -4.455519108628699931e-01 1.254919405594676629e-01 -5.477167680661715332e-01 1.496485492334851952e-01 -1.291444431047269692e+00 2.370699377411250308e-01 -1.985804192261889090e-02 2.773158069193192368e-02 -4.063515893749384822e-01 6.834322140024033654e-02 -2.253546954113855652e-02 -5.736507647428257944e-02 -7.038317711511143937e-01 -1.021957188456358967e+00 2.334883011574076794e-01 9.811682749944170001e-02 -1.074390393584945036e+00 6.095556629273528315e-02 -1.288339406744991034e-01 -6.185504893470600285e-01 -6.045183673885624609e-01 -4.992989825712210172e-01 -2.331511019027830145e-01 2.656144516725541388e-02 2.079609117925270215e-02 2.063499188578042393e-03 5.047179927770017310e-02 -1.149394812572189090e-01 7.142413423656739091e-02 -2.395178166259320784e-01 5.878475290459891922e-02 -1.351898731926564068e-01 -6.401014809940398509e-01 4.716175634693817176e-02 1.601302696654100660e-02 1.276676541837492296e-01 4.830340994048407111e-02 -1.106101931874561850e-01 -1.106074843400096652e+00 2.786376281061277507e-02 -1.212970703787470683e-01 1.134639109224168385e-02 -8.408977094400997554e-02 -9.705461888700389617e-03 -3.971686181281256639e-02 -1.486169015733904489e-02 1.618122339474127591e-01 -1.026069300437632559e-01 -1.754058374684658306e-01 -2.557500282275313452e-01 5.788249985526251057e-02 -4.886423239220409886e-01 1.346364589016971203e-01 -7.495677661692465854e-01 2.513688003250846292e-01 1.149677703672114110e-01 -4.101060898606954941e-02 1.282263464560452412e-02 9.512278523770927030e-02 -8.678981891045027541e-02 1.754273086355226732e-02 -6.593040914769791871e-02 3.478103641075001862e-03 -1.095724838924654332e+00 -7.293543788868322997e-01 5.347625255984261167e-02 5.142730679963413570e-03 1.129003279749799804e-01 -5.594808359063673242e-01 -3.725565115129138571e-01 -1.007672001360902930e-01 6.420190061015414174e-02 -1.055313114464746960e+00 -2.364420608161068860e-01 -5.477175491596041335e-01 -2.462252469424072721e-02 -3.571025712803693186e-01 4.396553395225087368e-01 -1.654388726969784340e-01 -6.990504978746751030e-01 1.596110028003182302e-01 -1.043272741057307135e-01 -2.200394012195256137e-03 -2.050736332289347374e-01 -9.238460670601528202e-01 -1.420198753555966364e+00 9.459959413768898040e-02 8.973614246432394526e-02 1.201177010189711236e+00 -5.873490308900483070e-01 7.884604456232902070e-02 -3.882581124640784639e-03 9.821988421795879720e-02 8.465508744493194238e-02 1.019136506035571155e-01 -7.853880878517995046e-02 2.267659883849403729e-02 -5.088744718036170012e-01 -2.253354190360371823e-01 5.365479297353518799e-03 7.423836557818849768e-03 -5.855684192510482999e-01 -9.052469410271211936e-02 -8.349465104097494317e-01 1.093662196736654504e-02 -4.899466617549640968e-01 -3.880970986268612588e-01 4.025463060025939038e-02 -7.211631236791370414e-01 -3.222675717741606272e-02 -7.437494461195359730e-01 -7.234921023291292219e-02 2.394897942699487220e-02 2.207411243283499691e-01 -5.051338155918307787e-02 -2.547253601520296437e-02 3.752254488392414017e-02 5.674887564678977175e-02 -9.110106145267291011e-02 9.487245451907608262e-02 -1.506550161321019043e+00 1.532901760022893078e-01 -3.013233449318786228e-01 -1.875050366262131230e-01 3.795515991076500173e-01 -8.489615155653847944e-01 -2.724585423145975960e-01 -4.930568430115189749e-01 -1.289252965980763055e-01 5.527788146090495229e-03 -2.512193004422961229e-01 -7.253499446723526978e-01 5.057311063001203311e-02 -1.160130162448200740e-02 1.563337108647081808e-01 7.019681342661945878e-02 -2.924158871805140544e-02 -3.490241135080374146e-02 -7.200900168536035206e-01 1.648705029759727769e-01 1.817049832318698389e-03 -3.611624768474837321e-02 -3.598252482048212852e-02 -1.439999854741690066e-01 2.935391488494772105e-02 -8.850056342298525669e-01 1.184267663620467981e-01 -5.220455298988053994e-02 -4.529432440881876742e-02 -7.498574804742923483e-01 7.706308889161785081e-02 -5.896285344254892369e-01 1.004052201470682082e-01 1.562443435187007845e-01 -1.984390638357518277e-01 1.696906025622502145e-01 1.984904658326708260e-02 -2.207422422100563941e-01 -4.355141823247541538e-02 -6.279869038587725383e-01 8.654922835417251659e-02 -6.459330004568513139e-01 8.816164376316007467e-02 -7.024871493323477933e-01 -1.005998697712898321e-01 1.817939173797555874e-01 1.396443282455519241e-01 -1.459956299396163448e-01 7.095778499798265082e-02 2.316799498453961659e-01 -1.724916720302505785e-02 9.380577666880324239e-02 -7.293915192642037859e-02 5.941952889698238344e-02 6.009658374533946579e-02 2.127579403955019710e-02 6.166029969684500012e-02 -1.593836778420213568e-02 1.065226064824762314e-01 -7.549493425958754556e-02 -1.317984427805813097e-01 -1.958493491320071334e-01 7.581379296055951178e-02 7.597818872733930196e-02 -1.012979476140385832e-01 -8.457975942410451975e-02 -4.805623715439460986e-02 7.485139417640314374e-02 -7.400287442514554836e-01 1.871851542404202873e-02 9.759262002538353353e-02 1.196481058186437546e-02 -6.718293043084802574e-02 6.603600169637106887e-02 5.373177498841751748e-02 1.938734662895524041e-01 -8.042942641787604804e-03 1.080192375727476312e-01 -1.100661330092009838e+00 -8.437732044798158804e-02 -5.882203410712939506e-01 -1.492715104316351682e-01 1.520839358998970769e-01 8.873961188277273981e-02 -6.310606688617655113e-02 1.602302671843105694e-02 -5.412164186529244692e-01 -6.081017742613360061e-02 -8.241031175586586988e-02 -9.236857335054511620e-02 -2.184965180880396041e-01 -5.781769095754939469e-01 4.725725470584521935e-03 6.096181221497911501e-02 -1.212022005118732343e-01 -9.939414793659236136e-02 3.746472247358298979e-01 6.486717809616669717e-02 -2.396138392807262152e-01 5.970905071514069906e-01 1.911974790802904445e-01 6.746221138094932179e-02 -9.016585688113233632e-03 -9.260175873955905912e-02 1.017192855802819956e-01 -2.075706661094603445e-01 -7.132206016887385203e-02 6.668327950863769948e-02 1.372164336098861438e-02 -7.242693737677265986e-01 -9.817431694403430317e-03 -1.923012565289324849e-01 -2.955945085112453297e-02 -3.042123639763587295e-02 -1.483148229598489909e+00 -1.165632364608885502e-01 -1.569480943843433729e-01 -2.585842867642617615e-01 7.274573840598672070e-02 8.287222888732240222e-02
