-2.548188247294734532e-02 -4.785179082280036078e-02 6.974946468004321332e-02
-3.542349384998263323e-02 -4.372012604124535934e-02 7.331065792880679666e-02
-6.473015722183832199e-02 -1.999687653873717663e-02 8.831573611599274898e-02
3.010065125194025248e-02 -1.420023333098859031e-01 1.078885835866933013e-01
9.139684283454404395e-03 -1.465413774092906296e-01 1.316570858107102282e-01
-2.967380750395932215e-02 -5.309503957520272238e-02 7.896786275327030702e-02
-3.488054154378304045e-02 -3.156827760457687343e-02 7.113255580546960777e-02
-1.350020315173701933e-02 -6.223629911444968771e-02 7.404018861294447973e-02
-2.331097690983625556e-02 -3.569680658313392763e-02 5.791178463586126729e-02
-3.562692459112960786e-02 -4.597244631201674592e-02 7.320194853850740813e-02
-3.462942874481610839e-02 -1.166271080869314275e-01 1.459056040761461115e-01
-2.274196778725306317e-02 -4.233653358173512793e-02 6.150699144995178808e-02
-5.490789623824551269e-01 4.061805049810324197e-02 5.087186325170094392e-01
-4.540518575188166178e-02 -3.771442021670806666e-02 8.110807437500126837e-02
-2.752357093326766868e-02 -3.593058997163872670e-02 6.090631830047894130e-02
-2.793694445705127358e-02 -3.906902116118104312e-02 7.043333494567156905e-02
-6.780269376364195244e-03 -7.332960691096433725e-02 8.409503027309246648e-02
-2.914301612667894240e-02 -5.428044283106987083e-02 8.111301584904642703e-02
-4.399871707985881231e-01 3.072036748367210079e-02 4.090826743456799641e-01
1.018126805169015936e-02 -1.227490902900150588e-01 1.138780433404265324e-01
-5.684756266410553784e-04 -7.142221659323863547e-02 7.044420980108270780e-02
-2.516571657508603899e-02 -4.880412629741806563e-02 7.838681496872330901e-02
-1.059148835060718351e-02 -5.667912038582489237e-02 7.081857399671487308e-02
1.481145993955588960e-03 -9.407827608232249839e-02 8.890968766047760430e-02
-5.320522901558547013e-02 -2.341693272060054939e-02 7.055877684311578912e-02
-6.686513497924805038e-02 -1.811754019898250204e-02 8.602726262572278626e-02
-2.293763715527043223e-02 -4.130018785019252264e-02 6.935594305390921366e-02
2.578951487663750514e-02 -8.319996687478298236e-02 6.043989512203142705e-02
-9.062477486243100677e-03 -5.933711684933687391e-02 6.521186505333124994e-02
-3.712768672478689025e-02 -5.394857022990927342e-02 9.636670891559581675e-02
5.903398992439206142e-03 -1.130740293252109202e-01 1.101741467459754903e-01
-1.162300309373256188e-03 -7.577536160369822971e-02 7.580358493136563069e-02
-9.243331307357428167e-03 -4.515548674706548749e-02 5.730545500817360582e-02
-1.467174896545932888e-02 -5.191477446367211840e-02 6.385234972415752830e-02
-1.944887514993307726e-02 -6.345766584447869174e-02 8.444964518849193413e-02
-3.517219992714824134e-02 -3.685731095596418705e-02 7.321048305985031202e-02
-2.011708693789738406e-02 -5.172325482906466043e-02 7.327958020324588928e-02
3.267425875939491270e-02 -1.368309926222962825e-01 1.087528556849059747e-01
-2.810329797494477352e-02 -4.024788789390778415e-02 6.731757612303081173e-02
1.140941126595745730e-01 -1.850629278357423801e-01 7.174818348869345386e-02
-1.891949004637137610e-02 -5.791128263112371027e-02 8.407195568909084371e-02
-1.812001216907073997e-01 1.353289152518784844e-01 4.362646577323073260e-02
7.487186868758758350e-05 -8.913071177620500440e-02 9.598967483946417578e-02
-4.897942922902460972e-02 -2.582240929899651954e-02 7.728170318038118936e-02
-3.301713138253640351e-02 -4.804092299577484432e-02 8.200595022080446606e-02
-9.290764012252389348e-02 2.819312010114349148e-02 5.606745611045266947e-02
-1.701937848824487676e-02 -7.718175758913836670e-02 9.186029042198577688e-02
5.867841933480781764e-03 -8.302453348242608278e-02 7.085210716811188303e-02
-7.286481564305649986e-03 -6.709060524879309484e-02 6.950380643764345057e-02
-4.587801213250387172e-02 -7.931783746275291105e-03 4.388906201434180504e-02
3.907416369636524528e-02 -1.367302262589591977e-01 9.161657101249985613e-02
-1.017853807405068867e-01 3.728152913849308581e-02 6.975839754025978112e-02
-6.789567120277514335e-03 -5.940875738802358502e-02 7.108792957339032936e-02
2.000152506695780652e-02 -1.387340964604231452e-01 1.203306282659644955e-01
-3.777859808761506455e-02 -3.799818651754031246e-02 8.066070453862143885e-02
-5.363150007584447376e-01 2.513398049340869189e-01 2.848377256837928417e-01
7.640841224558680977e-02 -2.318576186862287836e-01 1.530043507391297408e-01
-3.800432962579160939e-02 -2.564982830830661240e-02 6.617811872376727633e-02
-3.674141794438479103e-03 -7.298191297771748631e-02 7.034818461479769303e-02
-4.052536287511504520e-02 -3.397588181548853725e-02 7.472493068329437438e-02
-3.770649633068515194e-02 -3.219323801156002973e-02 6.245433341058599652e-02
-3.726062837830401014e-02 -2.926227552436674872e-02 6.941942940135614748e-02
-7.283808161698253347e-02 -6.506699200812268713e-02 1.381329984061163696e-01
-8.505150042064429927e-02 -4.448577530446279349e-02 1.312092843387619723e-01
-7.638158825863323835e-03 -7.606396252699147709e-02 8.243794989667334316e-02
-4.399504358039847164e-03 -1.256880793314316680e-01 1.254315575593020482e-01
4.248172443733101711e-02 -1.186803707057416252e-01 7.611969431771453687e-02
-2.488159198469612476e-02 -5.253368929368365525e-02 7.759470847945569572e-02
-1.191929001902134189e-01 -5.518380156965611849e-02 1.766080421860244387e-01
-4.429861589298589308e-02 -2.946990047393611631e-02 7.997347919408907824e-02
-7.753782882138232635e-02 7.173210828145799509e-03 6.374902030819212806e-02
2.497969193969659663e-02 -1.208302605688254816e-01 9.000266628360933940e-02
2.975806293607269892e-01 -4.492558088345716127e-01 1.521452522401023633e-01
-1.280132199284928288e-02 -6.945751865450827678e-02 7.424081315877642528e-02
-1.179384220535231592e-01 -1.270413782065365343e-03 1.175641594532177425e-01
-5.172046421654637183e-02 -8.770602502219650154e-02 1.396516711269408240e-01
1.878736133454192714e-01 -1.504916380558703748e-01 -3.849453180599597679e-02
-1.878163180225696227e-02 -4.559446252285446338e-02 6.412821765876028368e-02
2.766619949017211644e-01 3.699193299544745704e-03 -2.790582828570325469e-01
-2.183433986474378127e-02 -5.763978253690404951e-02 7.752049837547206335e-02
-4.771352972483512006e-02 -1.021418416406913790e-02 6.145113969514912761e-02
-4.004743948119924291e-01 5.284139141988748456e-01 -1.279256807669313378e-01
2.403621861051320405e-03 -6.634828565861386473e-02 6.521429947293276574e-02
-5.494745075687162278e-02 -1.066927803207622372e-01 1.635247734009022125e-01
-4.734621662817391913e-02 -3.201470094929004251e-02 7.847088051017896138e-02
-2.521921254949724411e-03 -6.097506668924426720e-02 6.839315405931434277e-02
-7.828500711634968356e-02 1.184020519316136832e-02 6.073913365723660612e-02
6.693572589454135913e-02 -1.799429034050881449e-01 1.167604939689164956e-01
-5.157384611307599953e-02 -1.355105292335794832e-02 6.418105035210373843e-02
-1.950286440303115182e-02 -4.688671469630298350e-02 7.771623688628422066e-02
-1.100858368305308041e-03 -7.049249388908529479e-02 6.918841431558886423e-02
1.091725471898296468e-01 -1.646561138947588432e-01 5.603214684686955160e-02
-2.706127522929500928e-02 -4.296905695113100582e-02 7.737749357991757782e-02
-8.807039468458288667e-03 -7.433173884924007546e-02 8.874830167389868851e-02
-5.289100638448097913e-02 -1.428673678477426247e-02 6.507444464733959377e-02
-3.525150799223398385e-02 -1.872302920218519434e-02 6.650267798837469768e-02
-1.710862507657081796e-02 -5.729075730056566729e-02 7.442317015025756710e-02
-4.485728925877994350e-02 -3.198923305527441585e-02 6.861907932351457573e-02
2.979208560237810513e-02 -1.900598186736287554e-01 1.593239945833501425e-01
6.168930099190970129e-01 -4.152038554531250342e-02 -5.752209705620823232e-01
-8.718876875019462847e-02 3.161987811272236326e-02 5.411739238840072158e-02
-5.817653156285557126e-02 -3.593089369509981645e-02 8.915366309527872346e-02
-4.912047958327198649e-01 2.013385208944144245e-01 2.895939352167618552e-01
-9.211153932859464377e-02 3.694476632880329403e-02 5.406388340860129871e-02
-3.025474826901672909e-01 2.294488884282101515e-01 7.307577319125249660e-02
3.738573457067786293e-02 -1.229355924810539707e-01 9.445228121977213009e-02
-2.466426600062476132e-02 -4.437135547604348362e-02 6.851556773671878264e-02
-1.490298669751077137e-02 -1.993734130822302775e-01 2.168942292791119497e-01
-9.128837347105134281e-02 4.490515041131264151e-02 4.576904100941911469e-02
7.326907018651370729e-01 4.129662139142119270e-02 -7.739445030081861798e-01
6.437466213156316577e-03 -1.604630351194646087e-01 1.587044141654194440e-01
-1.020053575322588529e-01 5.754818467067714799e-02 4.865035118467056496e-02
4.669182028729126910e-02 -2.006687971161036088e-01 1.526062441171015527e-01
-5.034733465178007662e-03 -7.556279706225670079e-02 7.610836837284450096e-02
1.090334227337102016e-02 -1.346398517478380741e-01 1.248818035551465117e-01
-1.023203733158839085e-01 5.790378301958030299e-02 4.271576972691638191e-02
9.798422174549611952e-02 6.082040191439355148e-01 -7.066384932780807038e-01
2.860814829300042592e-02 -1.156583846142604788e-01 8.974483850261610884e-02
-2.143225908780971647e-02 -5.802609952681392347e-02 7.965901630692294455e-02
9.217051859787739679e-03 -8.529056417664267198e-02 7.982000561785182469e-02
-3.367099606842035523e-03 -2.388835046024981035e-01 2.451530270345538276e-01
-5.512330420823693261e-02 -1.295557171179085275e-02 6.960872577809203154e-02
1.304614130021676255e-01 -2.038121246874570469e-01 7.418543251414090600e-02
-5.860355563875873502e-02 -1.891176411621085102e-02 8.135473993001744730e-02
9.495872215144092465e-02 -1.728438894253777336e-01 7.631818140942921158e-02
-1.730305425882364412e-01 7.151326932381091989e-03 1.630094752465225671e-01
-4.377762954104611609e-02 -2.923495302614399077e-02 7.252248284607884510e-02
-2.452181067963294173e-02 -5.096051759053272373e-02 8.051786071959027291e-02
-7.151726791046485177e-02 1.082818039135897470e+00 -1.011183950234664009e+00
-2.745674436320035688e-02 -4.100040050018156218e-02 7.401139766788189522e-02
-1.154505109233311400e-02 -7.291275318996090493e-02 7.978114976164864258e-02
-7.319367464569574711e-02 1.333785953809582623e-03 6.219101746615809945e-02
-5.328498336441577221e-01 4.417510864554156647e-01 9.125773056940833516e-02
-4.754659152654228810e-02 -1.682897788968218400e-02 6.190765406188977749e-02
-3.147449170515406042e-02 -4.101855599738575553e-02 7.214512760525135238e-02
-1.468122978400917267e-01 5.897324650858593378e-03 1.371204042002666101e-01
8.099699604103165196e-02 -2.409222840213361971e-01 1.580717473038442400e-01
-5.897383445013076875e-02 -2.084680346246356106e-02 7.760117660529672334e-02
-2.527940212803516523e-02 -5.701584056702782566e-02 8.417388313588479443e-02
-2.090941133589854783e-02 -5.957569947507519031e-02 8.002721600916423705e-02
1.116252795488398763e-03 -2.316414822486475289e-01 2.324597366615484273e-01
-6.795319305004729471e-02 1.929652337359815881e-02 6.099128685371993375e-02
1.447161470734539997e-02 -8.505714974402364681e-02 7.573611804233798539e-02
-2.766907865795888849e-02 -5.907557807013182755e-02 9.170085099538070883e-02
-7.230606102054633333e-02 5.984783015217161328e-03 7.481907883569718920e-02
-3.707206619578104489e-02 -2.968062826121408565e-02 6.818405867383804664e-02
-1.694029978519523069e-02 -6.289035884337772220e-02 7.621305566854598423e-02
3.430240750589270277e-02 -1.640591637966748451e-01 1.266075970706987408e-01
-3.962420767053623921e-02 -1.845816405485970618e-02 5.896037480618491339e-02
-9.604565463275945014e-02 6.925451582126017358e-02 3.203472633798346014e-02
-7.018127978894157792e-02 -6.568603945297880886e-02 1.379755282650758919e-01
-5.094813057492307562e-02 -3.663456118236192022e-02 8.239320918568869556e-02
-9.050430572945604435e-02 3.947532326092828558e-02 4.915670220802228346e-02
-8.769559805391950735e-02 2.206922992053706248e-02 6.343995553697619194e-02
9.435927448571893375e-03 -7.424265761169991651e-02 7.169854604929330744e-02
-2.949782258775962562e-02 -9.733381210764509295e-02 1.279223129200137143e-01
-2.266283796518214419e-02 -6.242092309864041150e-02 7.549409081885873063e-02
-3.650930401062950359e-02 -9.612928718979252274e-02 1.344105416828069721e-01
-3.513493348022966867e-02 -2.422193549560133427e-02 5.745778215367380176e-02
2.435171547818318696e-02 -9.313224346757725813e-02 6.990024333716247928e-02
-1.432969130639801317e-02 -6.007110012744653477e-02 7.663389603241174686e-02
-4.846863357813287893e-02 -2.609702942903827441e-02 7.717159846041593552e-02
3.254549443559476979e-02 -1.384227819960276440e-01 1.040735066418148058e-01
-3.359708505197733786e-02 -1.238082795302771488e-01 1.617969367642240197e-01
-4.366132376688251771e-03 -6.436222705523358956e-02 6.982835629409407663e-02
-7.989318541160737863e-02 1.791496765620979176e-02 5.862563172509865222e-02
7.693882801420839912e-02 -2.252511487198540774e-01 1.457202536671472204e-01
2.069326840518959099e-01 -2.513123437907581192e-01 4.366374248269327268e-02
-2.862407283581883122e-02 -1.423277830041292380e-01 1.702604270734633662e-01
-6.138799660719988782e-02 -3.882049649100275529e-03 7.043396638203044957e-02
-1.782431078838200150e-02 -5.509606703856310267e-02 7.354562048349616576e-02
-1.518288278541908912e-02 -5.628804663883758136e-02 7.770376446508386881e-02
-5.155188433416317551e-02 -1.696304021449557969e-02 6.652331838715720702e-02
-3.445517783056535610e-02 -2.136377991054747363e-02 5.269494924549503190e-02
-5.744791720648597180e-03 -1.119557812232136185e-01 1.167901366926638179e-01
3.642114768026751687e-02 -1.296861602013109904e-01 9.227043389667798079e-02
-7.103680303008630403e-02 6.460854452367157004e-03 6.674389187124450673e-02
-7.347345197933455307e-02 1.125124995619971972e-02 5.959961086287066112e-02
-4.596762723914399884e-01 1.080937193279344066e-01 3.515832628712610708e-01
5.908468675055811303e-02 -1.896398321937100284e-01 1.308895208098726781e-01
-4.561105286846345308e-02 -5.312282082542344255e-03 5.815372201758865073e-02
2.234871119074499923e-01 -2.756270894633915114e-02 -1.963324949234272476e-01
3.614438288197919721e-03 -8.213238079388415769e-02 7.616169699174679675e-02
-7.683328713020923240e-02 1.219573694213383665e-02 6.607850834112689864e-02
-1.833637267585537869e-02 -4.277365113284682663e-02 5.959586390307257397e-02
-1.858275683270380063e-01 2.459735169386065637e-02 1.592683022011210092e-01
-3.678654141764648583e-02 -3.243341484104707989e-02 6.813321523405860280e-02
-3.552260552754174516e-02 -5.001797520827134386e-02 8.294330197808853777e-02
-1.058298752800014564e-01 6.048667664801857941e-02 5.388158332760705632e-02
-7.273661608827759750e-02 7.608501717114274365e-03 6.493685679833156865e-02
-2.360193288178599053e-02 -2.013110302979925076e-02 4.938513667810878749e-02
-2.125393284569321653e-02 -4.761417530671929743e-02 7.070788404125981363e-02
-2.843427796149396993e-04 -6.619215186330652811e-02 6.849311704638129383e-02
-5.112768027864996595e-02 -1.031761281010371289e-01 1.532979337287607158e-01
-4.974149019818435158e-01 7.254213630923291023e-02 4.254469482344365727e-01
-1.354627887165909487e-03 -7.935300388541435823e-02 7.598825931519535837e-02
-5.634169844335986180e-03 -9.468894557174038773e-02 1.020546838340418566e-01
-2.189003900714323880e-01 1.191940597253685064e-01 1.000294832156871372e-01
-1.985945580955248910e-02 -4.645702976612289120e-02 7.177110248178364404e-02
-1.907722584591504261e-02 -9.058357666878527614e-02 1.099794734170902177e-01
3.803249760292334858e-01 -6.629313229464669499e-01 2.824253770470127600e-01
6.067198868441070481e-02 -2.138336107610257220e-01 1.520030598778641107e-01
1.157169864599154850e-02 -7.557049539358241808e-02 7.075946541059867367e-02
-9.756724904607253293e-03 -7.380086083481539327e-02 8.542332954044895565e-02
-1.537770610061521548e-02 -6.963312843555027887e-02 8.359267367632577939e-02
-1.574348263083025917e-02 -3.508830214665251135e-02 4.993008566267106985e-02
-3.920589147666422858e-02 -4.376242038644961169e-02 7.237907310645333436e-02
-4.484872433197129027e-02 -2.093299575008122915e-02 7.243071731964299820e-02
-1.331990085069212001e-02 -9.018473690641065632e-02 1.001861441582408419e-01
-1.661024561936585639e-02 -5.139523506458971991e-02 6.623651791167660396e-02
1.002647459821920939e-01 -1.795502792929460911e-01 7.949298509823930770e-02
-3.637911754096397922e-03 -7.437224722033855540e-02 7.428458093759600367e-02
-4.518949094211508616e-02 -8.902502784301599692e-02 1.344455262006426233e-01
-7.559872687178427475e-02 1.848074149357578286e-02 6.454685039256771728e-02
7.912478020175263138e-01 -4.477532907760473635e-01 -3.433968233056254871e-01
-9.253981702446635246e-03 -6.687390202654359961e-02 7.915957809133387924e-02
-4.092902294491902043e-03 -1.482627748268837420e-01 1.495469020201138088e-01
-3.317223019400445533e-02 -1.932008599292995080e-02 5.889760072077336595e-02
-1.072937415904518660e-02 -5.396535629861974603e-02 6.319633936598674506e-02
-3.567798127480549530e-02 -1.825224646266135342e-02 5.389405625274963640e-02
-1.611522647439923295e-01 -3.232111882765159594e-02 1.981708551628990900e-01
-2.557856785420032156e-02 -4.936843772510839112e-02 6.938659292855228755e-02
-9.802595523026374699e-03 -5.980271185010235802e-02 7.254392168164351673e-02
-3.779480335218851628e-02 -4.323090550643455404e-02 7.820420247713427697e-02
5.823856280342213504e-03 -1.670301784610381812e-01 1.659339115021568334e-01
3.010439178661116974e-02 -1.708564403919681507e-01 1.458283537152952891e-01
-1.051450133789202657e-01 -5.335327135728337028e-02 1.547305091122871123e-01
-3.030552433226927495e-02 -3.884350608764459284e-02 6.574606852703117343e-02
-7.359423255808389408e-02 1.071288224206967156e-02 5.977758794337345583e-02
1.846563595306700556e-01 -1.805954869541848695e-01 -4.474444729284145390e-03
-3.327027633993453332e-02 -5.100005962423277694e-02 7.566284494640619640e-02
-2.777273107344267744e-02 -5.104785204645832797e-02 6.915236752620104732e-02
3.009287572642126846e-02 -1.322618416483754278e-01 9.594847162583086675e-02
-1.117886992775234296e-02 -6.670698202050934222e-02 7.519386787284917939e-02
-8.645421987939098940e-02 3.354673193423558797e-02 5.779251614423814437e-02
3.608461685979246630e-02 -1.428488741980687149e-01 9.973464129498181563e-02
-4.045160671521067820e-03 -9.136204784815020463e-02 9.707012593583651261e-02
-1.499308420118413560e-02 -6.042212825573125418e-02 7.131650172409714772e-02
-7.731483542924644237e-02 2.067619013309605208e-02 6.085112544281810754e-02
-1.253872474574916629e-01 -1.292803318708248550e-01 2.530991349672760404e-01
-6.400718325544567378e-02 -5.503647846061151226e-03 6.541705360156188642e-02
2.512806313454117313e-01 -6.148558783935879068e-01 3.647241178812640761e-01
3.377883892719496517e-02 -1.011722761340459742e-01 6.606928390264947548e-02
-1.115953962114736298e-01 7.147609052089799742e-02 3.457036197106292535e-02
-2.370433152734977358e-02 -4.132045360911559134e-02 6.674911229383394262e-02
-8.607965683302318260e-02 1.930405348194910720e-02 6.691486926824351256e-02
-6.249253222348045284e-02 2.184851769744169687e-03 6.585051666613483956e-02
2.261366816194503027e-02 -1.245311161980034442e-01 1.072019938318020532e-01
1.528321951343778601e-02 -9.053019423841232594e-02 7.282688940410220191e-02
-7.110860238279666234e-02 2.367057538044559963e-03 6.905576589722085823e-02
-1.075110787296048448e-01 1.121924649076459085e-01 -1.816918440237271816e-03
-6.739593545195131374e-02 -1.173961589647405396e-03 5.850729717935592572e-02
-3.782455995020127248e-02 -1.111850053242652986e-01 1.534242699894283191e-01
-1.326802687411157526e-02 -6.861152667146841466e-02 7.973349007231023133e-02
-5.454033942957608322e-04 -8.093308463004256215e-02 8.273070208464730624e-02
-3.776653098751624887e-02 -4.937080925926354974e-02 7.607196260932612419e-02
7.132861944281444488e-01 4.678250201127622798e-01 -1.180959933969282449e+00
