1.789829272104840469e-02 -7.804169331219225347e-02 5.821584172770116750e-02
-5.737174987624305521e-03 -8.236212386179815603e-02 8.721513353966918458e-02
2.209006259298238600e-02 -1.629786211352242387e-01 1.400995200648167682e-01
5.675559212803865661e-02 -1.570993262318851613e-01 9.998196242363013853e-02
1.461614203334868634e-01 -2.526960722022208450e-01 1.077005706607005175e-01
3.712475733729249036e-03 -8.785365240034233303e-02 7.726411505202691876e-02
-2.228353729412876905e-01 3.252148110976157275e-02 1.900146670839404639e-01
1.143501507600095356e-02 -6.866343845708805516e-02 5.270814462024790009e-02
-3.305617632929150340e-02 -5.051415442429083025e-02 7.866088270060794807e-02
5.526615022666597071e-02 -8.206646797796561532e-02 2.732261542655225681e-02
-3.387920442520299391e-02 -5.821494263977641109e-02 9.313087107217866978e-02
-4.269321246347815985e-02 -4.363026407450015104e-02 8.440757999720535643e-02
1.094686940550485682e-01 -1.141478137306519425e-01 4.564866505846336929e-03
2.374869337677440462e-02 -4.629300452036910068e-02 2.394873362171914127e-02
4.508050673143974840e-02 -7.430631579016240551e-02 2.447213304824628899e-02
-8.388163470629790910e-03 -5.304877855758731442e-02 5.995899631512403155e-02
-3.625004262284799994e-01 1.787538918885542560e-01 1.827293250406253622e-01
-1.597399614442057414e-01 -2.234537938871081209e-02 1.819669157594634989e-01
9.395803208257754238e-03 -4.414841724806550100e-02 2.941486105568063072e-02
4.908963141423315635e-02 -1.033251701129624389e-01 5.796974775410531494e-02
-3.536376097037122190e-02 -2.234977003579076971e-01 2.579221473859913960e-01
5.757040310898073332e-02 -8.255783504761488034e-02 2.785250557099422722e-02
-5.022541393554462719e-01 4.516645559615544703e-01 5.116425953041404268e-02
8.149700727672857040e-03 -8.451567416512584252e-02 7.586075184021062734e-02
2.472598670733528944e-02 -9.334916311651565712e-02 7.558613337779748753e-02
9.063990494616026850e-02 -2.358211820601403830e-01 1.423941767104687783e-01
1.681143545127023464e-01 -1.713579968673739073e-01 3.791670866349397193e-03
-4.095039296626480640e-02 -4.006876683696100616e-02 7.707793717829879154e-02
-5.749778527766746632e-03 -7.397871145432487194e-02 8.367800736457298161e-02
-5.488786016211338534e-03 -5.271659178290327014e-02 4.860343643805647290e-02
-1.792597405267061517e-01 2.084198317205682160e-01 -2.983119665384944413e-02
-4.784112620516141161e-03 -6.260079709931740122e-02 6.964482491914861240e-02
-6.662160960391475852e-03 -6.961326638715145676e-02 7.925874335561851336e-02
-2.274276043615119230e-02 5.201193639664878354e-01 -4.965072816691388224e-01
1.015175225567988421e-01 -2.005658836292540659e-01 1.004354082441793056e-01
2.310121949552738918e-02 -4.621125290330761054e-02 3.308275852629048719e-02
5.684332655192081418e-01 -1.657977037389393449e-01 -4.032489656574217429e-01
1.325644973948267823e-02 -1.436621387358373581e-01 1.286065167179402113e-01
5.618124333371800061e-01 9.039941259237900539e-02 -6.525413654839308242e-01
-2.083844643655463971e-02 -3.089998431443250967e-03 2.615774154953695238e-02
-1.376468400226416554e-02 -1.685602147857065136e-01 1.820102857398276375e-01
2.795110846684265710e-02 -7.256559666710823975e-02 3.907661611914751282e-02
6.826519536033233415e-02 -1.251251757340395010e-01 5.285855564346461644e-02
-1.415808961596008199e-02 -9.943745086079738837e-02 1.110383742796386131e-01
1.837764198600949639e-02 -8.474303220780909918e-02 6.475582392591278103e-02
9.295808315536387145e-02 -2.198375404140755773e-01 1.267720885215604942e-01
-1.266791849544560700e-01 5.587041477098247944e-01 -4.318179993850639886e-01
1.123877567311007929e-02 -1.231341276388935452e-01 1.123140448954606241e-01
1.033060734089733500e-02 -1.751312116910097028e-01 1.654359035951231682e-01
4.011579115301004000e-02 -5.595304830046365224e-02 1.601859391351459841e-02
4.288599987781363532e-02 -7.226532567382627781e-02 3.331570350191297158e-02
5.323673657255986735e-03 -5.659749484086896293e-02 6.297076929572834048e-02
-5.971226766453521101e-02 -1.113786617122496519e-01 1.711794982939162657e-01
-3.943547371183245102e-03 -7.177698922297319484e-02 7.959837825289529933e-02
6.070634412195314439e-02 -1.062785354559190321e-01 4.164442563255472962e-02
-4.947556068654537231e-01 3.754861877213462318e-01 1.194669405594485645e-01
2.475621690201348663e-03 -6.930203014753023860e-02 6.010264513615331400e-02
-6.840172558803458980e-01 7.048519510080228923e-01 -2.083691582367241946e-02
2.746981184403006135e-02 -5.352216447599350557e-02 2.731094005458261156e-02
-2.896447034823086963e-01 -1.660780077593493054e-01 4.568275809679528399e-01
-2.219319801493704336e-01 1.217233877022537020e-01 9.912968243090058973e-02
-7.999570451456937056e-03 -6.446707109585872453e-02 6.935714683174322437e-02
1.289588706720581346e-01 -2.746905132373191893e-01 1.449322502146276614e-01
1.667179198228937662e-02 -5.711958515590234015e-02 4.183033610769081034e-02
3.482140489926126292e-02 -1.102607995000468161e-01 7.429082195044982295e-02
1.139415542225781369e-01 -3.950234752265395222e-01 2.808877333904301055e-01
-7.883251914742894773e-02 -1.080303021225278853e-01 1.864607326592306602e-01
4.086009084115985179e-02 -6.982955780050863204e-02 3.315599869333802491e-02
-6.765748210721292955e-01 2.300750361736361715e-01 4.465912821040394221e-01
-9.952937270478620646e-03 -1.293121435895977223e-01 1.457585971755920862e-01
4.711276895888590055e-02 -1.384173986559952552e-01 9.107737327859041776e-02
2.329750235819238735e-01 -4.417729115559577147e-01 2.092088689112722166e-01
-7.062574344926401959e-02 -1.715483117492727083e-01 2.402714198817086089e-01
-1.778370053992013866e-01 3.672928831221816681e-01 -1.889878065408113483e-01
-9.426558432313865143e-01 7.735917700983335754e-01 1.682393656132389614e-01
-8.083997387565873272e-01 5.957365708020985473e-02 7.492217016988145240e-01
3.400273044515944587e-02 -1.389705895664463675e-01 1.091486026334084897e-01
-3.294002387431964329e-02 -2.008862236676007273e-01 2.364657253485331623e-01
-2.912281457276398866e-01 5.321971971828517445e-01 -2.413491803427091076e-01
2.557211942525147025e-02 -7.031062818220633337e-02 4.094348732362711185e-02
-4.077396407466664374e-02 -6.069130042084359966e-02 1.013377799768078180e-01
-6.780026691020105134e-02 -2.132278912547786592e-02 9.832565238200903501e-02
9.701679948401247672e-03 -7.966558801510896515e-02 6.545375529020264205e-02
1.144425130272437030e-01 -2.215033934023017959e-01 1.090684080137907935e-01
2.030361944733663840e-02 -7.338516629311168937e-02 4.981056228025054766e-02
5.843689349670188465e-02 -9.325398685440659807e-02 3.047594269056995431e-02
-1.842629201281459628e-01 3.413026806601722196e-01 -1.565161570894864629e-01
4.560579162228757255e-01 7.912692722505223486e-01 -1.247747686083014340e+00
4.764309392146032218e-03 -7.919595358164385757e-02 8.124149227025981301e-02
-2.588563726816216562e-02 -1.522513647590422181e-01 1.828242176583942946e-01
-3.127586026792671808e-02 -6.188330072896752743e-02 9.750199659221273074e-02
-2.580140846665701648e-02 -7.463384586318928815e-02 9.495557995463335677e-02
-1.019430013651716725e-02 -5.906045806888780836e-02 7.204185288564057821e-02
5.000885031643045875e-02 -7.328318053204402327e-02 2.303657362442450285e-02
1.915674137912739272e-01 -2.552050969850973017e-01 6.140857246840011191e-02
6.020752955091416420e-02 -1.016013840029734161e-01 4.455194344776357285e-02
1.656451601139557334e-02 -9.732072187034325472e-02 7.366484482958469970e-02
1.540826166036809650e-02 -1.250279191276433000e-01 1.144742875204267790e-01
1.498464773306438513e-01 -2.445201512458662074e-01 9.508177425302818953e-02
5.816220167435446342e-01 7.615203668926437408e-02 -6.575936723373208004e-01
5.561498972955766784e-02 -8.974438729627881584e-02 3.611498942673166401e-02
-1.275514062469133153e-02 -7.069102949776501221e-02 8.075613434187968454e-02
4.144361805540051902e-02 -5.618823530410558403e-02 1.940608616288205801e-02
-8.135429250760031761e-02 -7.675183719719487485e-02 1.582072050578156586e-01
2.328395203174983205e-02 -7.030940448461481251e-02 4.862662646815792827e-02
1.766773860533758095e-02 -7.089713164027892922e-02 5.904579757434949561e-02
-9.274341381015867025e-01 -4.465913054687975503e-01 1.374010165047597987e+00
-1.228915559811233522e-02 -6.405386949668659402e-02 7.739805577104170997e-02
7.145431368585213397e-03 -1.051961947828331939e-01 9.244469775161405500e-02
4.575121483661503952e-01 -1.364651340585082973e-01 -3.208735733639300203e-01
-1.197886179203837276e-01 -1.134016965256441772e-01 2.364496651691924411e-01
2.181907346653549629e-01 -5.361709244555311615e-01 3.167007824355768664e-01
3.513189450156985194e-02 -9.725507464365792942e-02 5.437439146243572274e-02
-8.165191222182145714e-02 -3.030073374840628470e-02 9.970185187197709575e-02
-3.808584605439854776e-02 -5.524220059065661215e-02 9.033014054771956736e-02
-8.397515676104215510e-02 -2.293191281099022510e-02 1.012802511019475771e-01
1.165902569654941184e-02 -5.487985210466864855e-02 4.276232550312069475e-02
1.216637727908373712e-01 -4.570642405979030154e-01 3.355447165871020543e-01
-6.041499919263193519e-02 -1.633311894484985177e-02 7.814008035194210111e-02
6.478926496514461619e-02 -1.409796786779129174e-01 7.668249242221260309e-02
1.742331850457310219e-02 -6.346399644649135252e-02 5.132796294203573195e-02
3.020116277350284179e-02 -5.515108416636227417e-02 2.394705020437705792e-02
-2.169906057142293593e-02 -5.797357550855855579e-02 7.770059112095724363e-02
8.469672502127914560e-02 -2.008766878429183445e-01 1.185608477003369937e-01
2.500657245421319952e-01 -2.071331410746615476e-01 -4.281077622328382376e-02
-2.527916005075786510e-01 8.333069555692369790e-02 1.675263388118559404e-01
-2.240007245333059879e-02 -1.347824690431967953e-01 1.525507805247667270e-01
2.859098741349363690e-02 -5.931434820400301178e-02 2.823534911895742017e-02
1.448636452443711510e-02 -6.050740712704145985e-02 5.552478313097857637e-02
5.131407715556770416e-02 -8.255385441325605034e-02 3.402775630186161832e-02
-3.305341414156547086e-02 -2.170940498605091473e-01 2.471953141212115956e-01
5.474874967189041763e-01 -1.683672593064478029e-01 -3.788868667756018493e-01
-1.449692173937533815e-02 -4.138059042344614802e-02 6.525540019027387117e-02
5.578448148235668619e-02 -1.354789820937017664e-01 8.283049684092086418e-02
3.248772391667705262e-01 -4.759530086247841241e-01 1.516811085287768646e-01
3.359318727160957030e-01 -1.413987336063484423e-01 -1.940372193280925917e-01
-3.377157866573698292e-02 -3.046758491532182075e-02 7.178745347695802970e-02
-3.737498542112478728e-02 4.566827397781164088e-01 -4.195821396138866843e-01
-2.039506311026961227e-01 1.506515596522324356e-02 1.887397526715289542e-01
5.738525196111074478e-02 -8.226162884503447625e-02 3.235508728302873005e-02
2.418026454957308141e-02 -7.033538111678407090e-02 4.338888834060783406e-02
-4.325316336806082074e-01 5.171952094867353356e-02 3.810471966570947444e-01
-1.911166756216650109e-01 5.403062826996826717e-02 1.349758661963633977e-01
1.457864430419344645e-02 -8.709424943730663393e-02 7.160958485100567261e-02
1.446838993822480157e-02 -5.731962440860878527e-02 3.835531146299582528e-02
6.843375901932968741e-01 2.211763772297034025e-01 -9.055673673825362924e-01
-4.771341843409736272e-02 -3.504388617961459729e-02 8.135814052752257663e-02
-5.045739847710901949e-02 -3.328122414554119529e-02 7.583697502012125280e-02
-3.203359687919940524e-02 -6.165334513440092618e-02 9.491546471407379115e-02
4.042563196961082572e-02 -9.000466851395080847e-02 5.476288163421380584e-02
-3.816713922550132171e-02 -5.494258167005120624e-02 8.833928354236536551e-02
-1.733555936475994208e-01 7.152416087010833312e-01 -5.417934660422547566e-01
-2.466772678593811760e-02 -2.851720205360289695e-01 3.095293657241910967e-01
2.150809091251822680e-01 4.518731556606297439e-01 -6.677749497361732400e-01
1.175519647600913875e-01 -2.870216521767245954e-01 1.680737670191195798e-01
6.402057393442842081e-02 -8.748559375146625072e-02 1.745407838228216560e-02
2.427149322274771773e-02 -8.388302090251940901e-02 5.900121413334603188e-02
1.223162681489345068e-03 -6.158899656826356817e-02 5.929299374340998158e-02
1.013946220909363038e+00 2.507608299334019297e-01 -1.264762778339894700e+00
-4.738050113958034576e-04 -5.714634381782122269e-02 5.246411889695135056e-02
9.749086931930664446e-02 -2.972883496269979053e-01 1.984962641127837324e-01
-1.431143591394878067e-01 7.322624810665803174e-01 -5.891528097835871947e-01
-6.364536258016181836e-02 -2.946927256042552318e-02 9.110194793138158553e-02
1.949403627955933679e-02 -8.599758054475216407e-02 5.805318475337562650e-02
-8.622433741999053006e-03 -6.749739769074965257e-02 7.436532137334093961e-02
2.794805924152922796e-02 -4.174862852855911605e-02 1.197779243465909964e-02
8.476758411843469954e-03 -4.492643296484589294e-02 4.192537628048759180e-02
3.965595988530637439e-01 -4.944231766760022462e-02 -3.465099688457359273e-01
-3.552616454397754947e-02 -3.397531426096196683e-02 6.736599214854115114e-02
4.038956931604541461e-04 -5.301048141350693521e-02 5.904105067348911634e-02
-2.098982477631679625e-02 -8.035212589784103410e-02 1.007565206692060816e-01
-2.995292294884094320e-02 -5.583573954579448134e-02 9.073428684086246032e-02
2.144474553639946768e-02 -7.167063482356175741e-02 4.838090458406292538e-02
-1.866062739113627175e-02 -8.009108636508549539e-02 9.372050226046130250e-02
1.390999066866174805e-01 -2.995693337127730005e-01 1.611070983308281745e-01
-2.095627301184048996e-01 1.598475763115398407e-01 5.359907840710938232e-02
3.062718881339917751e-02 -5.446612678974561972e-02 2.130615369431916942e-02
2.285844051413873229e-02 -7.913431139495576139e-02 5.978501427274544172e-02
-1.351244764754327109e-02 -1.042998127690228510e-01 1.142246259093960409e-01
-2.496419310468188379e-01 2.224560896309240865e-01 2.749565421398260726e-02
-1.696362121528064981e-01 -8.481273171910183595e-02 2.547713476077826389e-01
1.042578960372285840e-01 -2.716675053954999974e-01 1.677466010042159006e-01
7.841708014275072802e-02 -1.301648944658806706e-01 5.428687951477140922e-02
-1.936103407305744817e-01 2.300744907322894162e-01 -3.768458987248339553e-02
2.133440100070681938e-02 -9.999360560172328161e-02 7.224546622963524956e-02
1.051049472932784161e-02 -8.728908991854526789e-02 7.037264759897302047e-02
1.115537858745797861e-01 -5.257460555831247051e-01 4.140721375889657718e-01
1.951341412471070333e-02 -1.421278093787263774e-01 1.223969007793864611e-01
4.241653573304148689e-02 -1.037121312565884024e-01 6.424124347415163805e-02
3.291071106500970123e-01 1.313772278320417264e-01 -4.602524126663959381e-01
3.900533978441536043e-01 -7.139296499131744245e-01 3.239417667470789741e-01
2.494003217500606259e-02 -6.929851846232537582e-02 3.511988665786942160e-02
-1.845059380513518546e-02 -6.153962053969965623e-02 8.524208267959182406e-02
-3.450305421631567893e-02 -5.015109225211357435e-02 9.233372221938639102e-02
1.693274643274485236e-02 -5.567743155511940822e-02 3.547037179312199917e-02
-6.228068091223987364e-03 -6.122672508155821425e-02 6.902365566757043269e-02
-1.181047445464632195e-01 -6.515600753048397809e-02 1.851940013703175514e-01
-4.072433868056887785e-02 -3.475854616775170963e-02 7.446852816398799590e-02
-2.510297181997481631e-03 -7.395872160209794599e-02 7.610260076101722782e-02
-2.209770273388240447e-01 -9.525821207529271140e-02 3.153137264483878432e-01
3.173284040498296210e-02 -1.126250132161316919e-01 7.346853471977163319e-02
-1.405431387361691375e-02 -2.336002862904032126e-02 4.296942700899836209e-02
7.265312291703729386e-02 -9.441419293968035531e-02 2.641304690344131734e-02
-2.872293376462937281e-02 -4.089491242149269346e-02 7.565364707129644539e-02
-2.157734586477400365e-02 -3.820490657762571352e-01 4.036763969014338649e-01
-4.031365240694211316e-01 4.241611042580411411e-02 3.609287581177035298e-01
-4.021067349542017944e-02 -8.422418700967110317e-02 1.289227458871096132e-01
-3.775540644291180276e-02 -2.259967251018970419e-02 5.838005280974419009e-02
3.819206549691556065e-03 -1.130333556888549612e-01 1.156680900590824623e-01
1.171677231304371070e-01 -2.141603641520954393e-01 9.497197175325385043e-02
7.325809791350715305e-02 -3.649164051691144439e-01 2.915605906781410517e-01
6.102790898534981440e-02 -1.310079897321716480e-01 6.812560067297056265e-02
-1.718507497503842241e-01 -4.322535537561537911e-02 2.167731620353530453e-01
-1.361771136341222710e-01 -1.407120275272159549e-01 2.788014114587255565e-01
-1.304885503810338188e+00 6.360284338858019915e-01 6.688929178897975447e-01
-4.900065956066894379e-03 -8.220429419349396805e-02 8.688168237136820182e-02
7.221523699504855606e-03 -7.763486682859742360e-02 6.770308502933461425e-02
1.600381363589122724e-02 -5.871813274890081563e-02 4.488207032561705029e-02
3.503740670844435190e-02 -1.150439933777102630e-01 7.554560300320140032e-02
-5.292442746167589362e-01 6.171899292712631491e-01 -8.784214950175857350e-02
3.425380095328325099e-03 -2.900881503707857800e-01 2.861668235239949731e-01
3.035371351416097166e-02 -5.390497512777649852e-02 2.459928105832297207e-02
-4.208415258129227267e-03 -7.412902658100865849e-02 7.920021827120191094e-02
-2.868878103622809692e-02 -3.301049456568209278e-02 6.453457315193851518e-02
1.672052275696728945e-03 -8.625766617417630899e-02 8.355772406576474076e-02
-8.099908287806874274e-02 6.409411232259769851e-03 7.244293921833114269e-02
8.628029945941656509e-02 -2.387906522957460309e-01 1.532532069291987487e-01
9.234834720689227838e-02 -9.741204954421039952e-02 9.106125130657713451e-03
4.806546764279867046e-01 -3.258836367111666577e-01 -1.547615752051977600e-01
-4.327678409802361570e-02 -6.568796046129374289e-02 1.114528556275248689e-01
4.304589211155885470e-02 -6.033028424865662792e-02 1.770467759080077141e-02
-5.804756087477278004e-02 -1.101869476418430721e-01 1.698447855235153681e-01
3.396042999089831649e-01 2.080962273687914366e-01 -5.474575913441798170e-01
-4.053123491663712663e-01 5.248244421381912383e-01 -1.199554065193719904e-01
-5.488232087068502241e-02 -3.045562698340449279e-02 9.056343924790988265e-02
2.521511916218811822e-02 -5.537110406868345908e-02 3.847131879109980807e-02
-3.428252007946234747e-01 6.047592073611103292e-01 -2.618739765526548191e-01
-1.739978081598924503e-02 -2.257662788261910469e-02 4.464982852963359644e-02
-2.612454473561648394e-02 -7.149098340429806131e-02 9.923410817897528047e-02
4.179560242754875796e-03 -6.658692017876359504e-02 6.305190453496349601e-02
2.343181581669082358e-01 -3.468269727665737046e-01 1.128158113118729461e-01
-1.112957949550147374e-02 -7.288311749389542182e-02 8.392721356510858544e-02
1.912179812846228483e-02 -8.272619423663311877e-02 6.922059210509477756e-02
3.818676554208147444e-02 -6.986329331353792471e-02 3.092676568981044330e-02
-1.758535695614740491e-01 4.420717509871318479e-02 1.344262605605009431e-01
2.138765483486439190e-02 -1.172579256241683965e-01 9.680287151888218589e-02
2.467028077307756653e-02 -8.364703462578154669e-02 5.061411793576637425e-02
6.244223530838887148e-01 -4.678205934593600568e-01 -1.560895213163157880e-01
-5.779082728700725424e-02 -1.625699901012117934e-02 7.417780760303774312e-02
-1.007394250081673033e-03 -6.716566442036113471e-02 6.603049806444361014e-02
1.924852231040592027e-02 -5.919836128521138024e-02 4.161978496014214629e-02
3.662258140774402593e-01 -2.987737154740097156e-01 -6.885919346637772720e-02
-1.901347616612461267e-01 -7.834538167372662870e-03 1.961492623208451469e-01
-9.694744318021191343e-04 -1.981976557108276471e-01 1.987047113824318423e-01
-4.652925178086161906e-01 2.437963449407762676e-02 4.408449342151312123e-01
-1.251959647628506866e+00 -7.851291211563214689e-02 1.330094450773184001e+00
1.576361696044700500e-01 7.893299668178350714e-01 -9.470656517996467461e-01
