-1.424527321983541372e-01 4.473174693310245087e-01 -1.648013420395434414e-01 3.492987400989118196e-01 3.737887508383017088e-02 1.058614827907430334e-01 -5.164375777867930006e-02 -1.139490242861722485e-01 5.110237064021466713e-01 7.588047365769617914e-01 2.954685539415821769e-03 -2.966806092628814298e-02 7.296027152130421523e-02 3.956014668954953573e-01 -5.561452142156839140e-02 -3.910298013024231245e-02 -3.123119861238314240e-02 1.621368422169407533e-02 2.704990563918661106e-01 1.253730442832588776e-01 3.170601860404415745e-02 -2.842964637586973750e-02 -1.750932262817619933e-02 -4.776731210773201182e-06 9.971454790507439103e-02 -1.544373895490878112e-01 6.237884066537309480e-02 -8.722526835641519760e-02 1.647433314081739597e-01 -2.142610980703648638e-01 -7.543371328257897357e-02 -1.988623424878206147e-01 4.961841707866733731e-01 -5.035409719916694032e-02 2.609252055496540379e-01 3.378991848625553795e-02 1.019471563408615555e+00 7.871679521872473329e-01 -7.341166265498197396e-02 -3.828800239618050660e-02 2.346955295508324768e-01 1.696491860845203148e-01 5.349467997945686615e-02 3.070327367432487686e-01 1.705834339498867314e-01 1.538238697244400169e-02 3.473027793609955588e-02 9.178116624265186818e-02 3.735703970725969270e-01 -5.001930833500965734e-02 8.877252845706473661e-01 1.823449212667153652e-01 -6.792037103543921428e-02 5.106539831153197179e-02 8.336770513939882887e-01 -1.333778871007467393e+00 -3.268486443077962128e-02 1.402498406403156206e-01 5.568073440159749810e-01 3.942240494640628645e-01 8.659133449188687326e-01 2.365067471172279945e-01 -1.961610331055844703e-01 7.520844990839230526e-01 -3.745699467882883382e-02 -1.082668385000173927e-01 4.151748991723009513e-02 -6.497189892248801668e-02 2.295071823674768585e-01 -7.848077364048395843e-01 6.769701964367173808e-02 5.414079334638235291e-02 1.028857647935995517e-02 1.694214815800445528e-01 -2.233570288655797043e-01 -1.112607780236699456e-01 1.374508328934834767e-01 5.590973003562715871e-01 -5.752378822152875298e-02 5.572343569356500437e-01 -3.859928026363917408e-01 -3.225223966655571279e-03 -1.468131857641267156e-03 8.191075392712708625e-02 -6.286536727970529204e-02 -6.270135409583756925e-01 -1.110583490272308294e-01 -5.353450647905224624e-01 5.678456974281797381e-02 -1.074560201485559585e-02 3.920456590815407996e-03 -1.643035764206032256e-01 -3.514503576025485021e-02 3.330681421456657687e-01 3.014835100299718684e-01 3.326963655401977971e-02 -3.223963321135882992e-02 -1.783989783120972228e-01 3.418369964564080613e-03 1.822410918305985283e-01 -1.280966763339880243e-01 -2.084492396570050976e-01 -7.715548968863507329e-02 -5.684983577204864857e-02 -1.605123253744340783e-01 6.232566588029688770e-01 2.955253750724406991e-01 1.169341281094598596e-02 4.399540423936678657e-01 -2.665010399449180278e-01 -1.137611357185823180e-01 2.478903485919154714e-01 2.194760638131638408e-01 -4.913464682496888614e-01 1.037354327999487902e+00 -6.234645875617987609e-02 -1.398732370806041528e-02 4.750809666241816998e-01 1.973726902343697354e-01 -1.154131153577365870e-01 2.720455011550122482e-01 3.750864655142990278e-01 -6.354665989840815876e-02 -7.567306308177751406e-02 -4.755273977467618374e-01 -1.591008306593309163e+00 -2.114541848575565153e-01 1.167741866370464697e-02 4.666669630985854911e-02 2.101818085452239124e-02 1.419813010497807393e-01 1.787459619071146352e-02 4.945778109830675784e-01 5.959361361345598684e-01 -1.806284135721432718e-02 -5.382355405885708155e-02 5.885308075492204360e-02 4.085196631856780752e-02 1.808459335100383036e+00 -2.734626431860591456e-02 -2.805697475410161568e-01 1.538729296790804224e-01 -1.134837054200407008e-01 2.223190923957814313e-02 -2.621526663380147407e-02 -5.248261852946525807e-02 6.563819339291118160e-01 7.782794279749791766e-01 9.813424805775557147e-02 -1.475661183480573291e-01 4.602918608995166250e-01 -1.176580586455214350e+00 7.566131410474474794e-02 4.800753676435833839e-01 -5.670316742183341419e-02 -3.001419913398565772e-02 2.897291913579089773e-01 9.573468692382099479e-03 1.195226591492422746e-01 -1.531420494776733650e-02 9.601644784170557667e-01 9.564634084700816830e-02 2.965815209840236832e-01 -9.390231728586003745e-01 8.225988814381552938e-01 -4.822910468088016656e-02 4.660904472180948943e-01 1.299850238199265484e-01 -2.553555277244826810e-02 3.330055894737350419e-01 -2.836851282487645731e-02 2.409984932040867001e-01 1.221079120139193508e-01 1.474612087071789923e-01 7.789218602535391556e-02 -3.193203173972999215e-02 8.021391849071771163e-02 -6.440313074296825924e-02 -1.484086604013762078e-01 3.457489977907285961e-01 -1.946945493980433983e-01 4.199733771518399661e-01 1.958907167727754195e-01 -1.549618603131280858e-01 3.676574040267494708e-02 1.596990924130712586e-01 -4.714159611175338521e-02 5.560755881846274340e-02 -1.061135544040415213e-01 -4.859328349984072537e-02 1.579798190507287758e-01 -2.898446480500018949e-03 -3.106733804190450754e-02 1.747875082006654646e-01 2.728886710281403505e-01 -1.555513552687207320e-02 -3.123237612832588939e-01 2.122995858016704762e+00 9.494910951211980865e-02 3.558068395618147473e-01 3.759708972003769634e-01 8.585634724149143748e-02 -7.537583647168480394e-02 -1.315507524879928336e-01 1.190209667445051717e-01 -1.364142799438362141e+00 2.062159645680015918e-02 6.050416744385131440e-02 -2.009813195057870427e-01 1.084558531215411153e-01 -5.619743659702735455e-02 7.938683148807476608e-02 8.324252249143290067e-03 4.792332674793696456e-02 4.676865416109142470e-02 -7.361915186930473309e-02 7.946912907399014681e-02 7.601044648016386240e-02 -2.023010288526920844e-02 -4.095241777282708495e-02 -1.197733904258161709e-03 -2.178617073311148733e-01 -1.389714611562068713e-01 6.523320288812187173e-02 2.475949083249074922e-01 2.266905878926741003e-01 5.681022844717460718e-02 -1.061141690073539312e-01 -6.686070784550797452e-02 8.096898454284837676e-01 3.956778370826032412e-03 -7.448361143280399221e-02 -1.224053709246047776e-02 -6.080330287788943827e-02 2.017060980705693840e+00 4.802118039896922097e-01 -1.467058107261595967e-01 2.652253654900937341e-01 4.261107060938844615e-01 1.346730668488821614e+00 -5.623631195537605321e-02 -3.701029899693269315e-02 2.655201652609452401e-01 -6.972136785730337002e-03 1.307119009465255721e-01 -1.118381137222216049e-01 1.829142649710788215e-01 -2.193606908031179969e+00 1.596550932906991016e-01 3.562498768924453052e-01 1.197548954277340427e-01 2.254025095608373219e-01 -6.444267679145335159e-02 -4.017640803942515437e-02 -1.938185323821202746e-02 -1.637122707061313409e-01
-1.361670072683343891e-01 -1.445909076753860989e-01 -2.461433749201246413e-01 -6.914350294362682225e-01 -1.844060974784297174e-02 2.147760864828882621e-01 8.985050135850859709e-02 2.015354775760328787e-01 -2.263664430983214904e-01 -1.340245426934294493e-01 2.735380054745236156e-01 2.123074151017849132e-01 4.626609644278222716e-02 5.456831261783736675e-01 -5.762688837282869264e-02 -1.585490094691567875e-01 6.874978951352536671e-02 8.722452132484050102e-02 -3.538847140886954012e-02 -5.179529960309142700e-02 8.962112015484166583e-02 -6.014498285087475915e-02 9.896164415719171936e-02 -5.401929636265416779e-01 -6.631958257191163109e-02 -6.203107643195358012e-01 -4.378989589233520802e-02 2.216781135481201981e-01 1.704648849852190562e-01 1.703492872625710641e-01 6.004811418842402604e-02 1.435097127011518425e-01 1.128451583133365910e+00 1.203321739130921025e-01 -8.488742213166702300e-01 -2.338600241723931897e-02 2.627055582608762707e-01 1.485854173840072345e+00 -1.805313956407680609e-01 4.173188861746818940e-02 -1.648248805507192272e-02 2.556547581892301135e-01 1.456962355982205359e-01 8.223940648482280791e-01 1.940105620234391925e-01 -7.937379499574688524e-03 1.119063466520584665e-01 -9.884181557145970548e-03 -1.090518458657373735e+00 -3.402748991386096017e-02 7.739384018526592746e-01 4.691676048016744233e-02 -2.085590986291482526e-02 1.586584403324281869e-02 -1.476403723953521041e+00 -4.347122513452166340e-03 1.202363214881995851e-01 -7.145303019957774948e-01 -6.605770829093702279e-01 -5.701049473327757244e-02 1.966996608867775276e+00 2.254725958452384882e-01 -2.972067168687386185e-01 6.394140252913130817e-01 -2.781374292336664250e-02 -6.817926943964158770e-01 -1.480173914529375918e-02 -1.781216050776383841e-01 3.196959879049003639e-02 9.544009154838366538e-01 -5.324066984738178715e-02 1.047744411689533889e-01 -2.331596596174321731e-02 1.694647342567623047e-02 1.829076603207749618e-01 2.098648865268012143e-01 1.915506106084728100e-01 1.171242381540231525e+00 -1.608901299541398155e-01 -5.699498080497645836e-01 4.298569703693561617e-01 2.113800291896122951e-01 -2.133163818061581396e-02 1.368557991230454074e-01 1.327839616384978751e-02 7.223438479608415008e-01 1.559722956206746614e-01 -7.196290446977255950e-01 3.976683226382966840e-02 -8.177716613587330263e-01 -2.830846980076856534e-02 1.583175965436224575e-01 9.792526131186647664e-02 2.047703043782720528e-02 4.527622721637439285e-02 -4.426449375711377643e-03 -3.195107920871446960e-02 1.262083861500248594e-01 -2.749126229465213150e-02 2.168787003276115288e-02 9.297410229487151900e-02 1.603662545781233129e-01 -9.093764780705428097e-02 -1.316722073667292436e-01 8.879612854619356455e-02 -3.031847926769801749e-01 -5.495723086022109155e-02 -3.929068774267263642e-02 2.638432297292613860e-01 3.822791011458391286e-01 3.292378215007015774e-01 2.848094130281003111e-01 -1.223160750562681531e-01 1.535210283038510315e-01 1.060596901949727888e+00 -1.479281796875969376e-02 1.101632997314148377e-01 -8.874777220048594983e-02 1.631279080951236402e-02 -5.703448114160558635e-01 4.770926993933861243e-02 8.309927822949694232e-01 -1.343948057194142565e-01 9.312794359778570064e-02 3.914353911408039594e-02 -1.140154380125904865e+00 1.620913194390177503e-01 2.521822452970762796e-01 9.249227495685455325e-02 7.928092958030545645e-02 -6.314684856998356577e-02 -3.359989536794150133e-02 -2.358663996515044381e-01 1.076310617129996539e+00 -5.185018996741661557e-01 -3.196989862684205663e-03 -5.258348545659920908e-02 1.151647929349683824e-01 -2.292319238749732868e+00 8.712460929853774183e-02 4.594332011353704504e-01 2.845323625333640583e-01 2.700460126924860149e-01 1.042511823885115957e-01 -6.677643223417604329e-03 2.484278540211100339e-01 -5.530205379086547413e-02 -1.793371963047934114e+00 6.338097453788842095e-02 2.482737113523267869e-01 -4.766826486171212296e-01 5.460662059420249292e-01 6.216020462091770976e-02 6.796939022513712736e-01 -3.550107122445418650e-02 2.382062781502692905e-01 1.277794545034030213e-02 2.854638657582678554e-02 -3.921863982868603604e-02 -4.186999210647364411e-02 7.766888856315432577e-01 1.863569651114061754e-01 2.379836420822644683e-01 3.059763599789870003e+00 8.812146228486693600e-01 8.734070975140681425e-02 -1.836335315865230411e-01 -1.279424483623597120e-01 -3.727247794770273404e-02 1.143615734075879242e+00 -1.549069243688137344e-02 3.181859042488189172e-03 -9.702412641942126381e-02 6.826788376342453162e-03 3.768418565917760477e-01 -5.170944425637175740e-02 2.678979386545324859e-01 -2.116550285089514594e-01 1.133527847147161316e-01 2.478649474410493658e-01 -3.298735126572493459e-01 -1.450321367601430378e-01 1.581091603635272902e+00 8.777284425610526464e-02 3.291743446737730450e-01 -2.651671534013910203e-01 2.383276562596306214e-01 9.216921972098744698e-02 9.579354570659727452e-02 -1.810744246535121380e-02 4.157423933533363480e-01 -7.115131689323009878e-01 -5.563871648016249088e-02 -5.857672703599853953e-02 -8.979215533080260325e-01 1.062137620222216167e-01 -1.770195723073758609e-01 1.904897621708718569e+00 -1.000423881764829770e-01 -3.900707616433757297e-01 -9.815393994756503593e-02 1.882171970087721524e-01 2.618985546074969473e-01 8.985371532979050113e-02 -3.338354735816739804e-02 3.716117056045760703e-01 7.068431979148245836e-02 1.324055992108293944e-01 1.401643037768421085e-01 1.967777690173047600e-01 -1.677517573344668861e-02 -3.503652463770048214e-02 4.608795250772336760e-01 1.752457543118700056e-01 1.364327648465168963e-01 8.989055689174281494e-02 -4.961003039611550092e-02 1.424830118470760409e-01 7.449087472559150214e-02 2.249902536533283925e-01 3.590102737850068421e-02 -3.423598454639519284e-01 1.636880774171877995e-01 -1.919825357470355057e-02 -2.284628388932439524e-01 1.888142914292949281e-01 -6.098817878081024685e-02 -7.793048648337667084e-01 -1.405482937344681715e-01 1.179883490172683569e+00 -2.008179266175106475e-02 5.456383605815768451e-02 6.552010276892532379e-04 1.268095409949031860e-01 1.458972837142350765e-01 -4.704165610310994672e-01 1.510178369534024845e-01 -9.942097592349816160e-02 7.752671959767051257e-01 -1.601342365850478400e+00 -4.705276681049649357e-01 2.439324693164365843e-03 8.577345968177636504e-01 -7.534946430710696141e-01 -1.506565092831435027e-01 -6.812212064477558560e-01 4.662298518594609059e-02 2.100798329025048705e-01 -9.222519998729036272e-01 -3.706252906916963075e-01 2.277489617555025492e-01 1.662666141736925812e-02 4.601242899392305602e-03 -6.015362950741626191e-02 -1.279223430707817355e-01 1.208937895338881990e-01
-7.280574133598683773e+00 -4.911924803280958568e-02 1.042354142966115255e-01 3.342101101885700063e-04 2.079045367673427458e-01 -1.545958472768459990e-01 -1.895317735341637277e-01 -5.388891318367612371e-01 2.012693323616991936e+00 -4.598020077304663666e-01 -1.542230935428598460e-01 -5.406078337877054940e-01 -2.565799780825295806e-01 3.965897203854452102e-01 -1.612493750196229148e-01 -2.341643564384490173e-01 -3.360770340380868082e-01 -3.177853702963095439e-01 -3.697515973104408826e-01 -2.150424416839795128e-01 -3.264818277869853125e-01 -4.171257960422795064e-01 -3.569637496073979066e-01 2.186349006173561871e-01 -3.126138501480417720e+00 3.420770720553323874e-01 -1.001183076563541829e-01 8.180230259192862174e-01 1.055460313759866153e+00 4.443273795907501378e-01 -9.895291211041530310e-01 4.845729406620191693e-02 2.594830918520458329e+00 -1.923279237741858938e-01 8.549836513346732725e-02 3.016692797293207273e-01 5.856936604822085002e-01 3.553967593291849081e+00 -1.247809568686210485e-01 -1.096591943837958771e+00 -4.297964349231218617e-01 -1.356639049330636837e-01 -3.242138722916848570e-02 4.363301276868329359e-01 1.260660689980081406e+00 7.972990795481975645e-01 8.673525395871868604e-02 -2.146669731587240171e-01 -8.595038309386713316e-01 -1.128674707419724532e-01 2.237022583159504197e-01 5.261217034491875388e+00 -1.075641987983506492e-01 -3.057418982674590668e-01 -5.889865080160311406e-01 -1.677529031593876230e-01 -3.657014152386623973e-01 6.010694231322399883e-01 -2.330688590061532339e-01 -3.438350583498262503e-01 4.365827472860553726e+00 -2.402438109538233280e-01 1.433613921664927404e-01 2.574227686153431449e+00 8.660250743392060579e-01 3.612929505096822425e-01 3.709121647735879601e-01 -1.117853314972807738e-01 -4.355013617037996609e-01 -8.280189387005199020e-01 -1.310348435257222000e-01 -9.264987550382237924e-02 3.060943914918600739e-01 -5.139101336115341478e-01 4.699611664071802197e-01 1.797385910542434573e+00 -2.462604458955576503e-01 2.717064793286541047e+00 -1.717465860484101159e-01 -2.341908006588277746e-01 3.794426343384396105e+00 -4.957926920382892400e-01 2.827879401257765712e-01 -2.454542677187697974e-01 -6.688810341201069376e-02 1.843030881386714004e+00 -7.557649764811086301e-02 3.949787782343650716e-02 -2.147003484436860177e-01 4.475428118178277903e-01 3.140331020046701616e-01 4.599674725802280206e-01 -5.847388056257422084e-01 -4.606057113773339151e-01 -2.984805051528647835e-01 -4.179166615255090061e-02 -2.740333524152802069e-01 2.419538539734767402e-01 1.970189817581397551e-01 -6.387442508521686824e-01 -1.346975896384183802e+00 4.069325211009258703e-01 -3.352052420678627076e+00 -2.021502666659890923e-01 1.332129892389016246e-01 2.653194754180467907e+00 -4.288417137942809321e-01 2.832811040905376943e-01 8.079524546477153679e-01 3.759987542566910257e+00 -4.936207791999581707e-01 1.188831217417131825e+00 -3.363174142718586834e-01 -1.368403388323621295e-01 2.013071495604497940e+00 -9.870828594443921411e-02 -4.462623734932006370e-01 -4.537090093415173664e-01 -4.600986859128619044e-01 2.469872532797110221e-01 -3.239689790197729513e-01 3.321893734608141052e-02 -2.068835770856117806e-01 -1.540418836374790879e-01 -1.431889952828506625e-02 6.693215983351326059e-01 3.544767402801300982e-01 1.396566740159982611e+00 -4.416701861470517243e-01 -2.732225175612489343e-01 -2.816249465954301368e-01 4.637388385516381106e-01 3.155966203164481954e+00 2.943135682101843287e+00 2.436718337459770067e-01 -1.806059213943609076e-01 -3.389109406113091638e-01 -1.116287622397160173e-01 -2.211347750292743941e-01 -2.670804004818511102e-01 4.241513505349673530e+00 -2.107242660187072791e-01 9.874895365935123515e-01 -3.464504254672932659e-01 3.802104609867111296e-01 7.084375702218386195e-01 -3.684878042108230556e-01 4.804777138553755655e+00 -2.302846097817740634e-01 2.014942709839911417e-01 -1.062718934262658760e-01 -2.958347401148579414e-01 1.099340674329003509e+00 1.079983574695293269e+00 -1.630015728020531574e-01 -6.765009795905507772e-01 -4.381713262475301907e-01 -2.619746490469388456e-01 -5.787349546270608158e-01 -4.743713721071846634e-01 4.392248587870150267e+00 -2.487168372882131440e-01 1.273295817173186961e+00 -3.358634667207844871e+00 1.316996407832545790e-01 -1.801581146167236247e-01 -2.528342855514697507e-01 -3.225886167354730660e-01 -3.127705111488199297e-01 -7.379571874386245955e-01 -2.822575000153063063e-01 -4.848697933290436191e-01 -3.591781881855160563e-01 -5.593670770798940817e-01 8.725863233492762161e-01 -3.818108033435493320e-01 -1.367500182153723320e-01 -1.302912922272869978e-01 1.064007858126137240e-01 5.575177767460326450e+00 2.025499550235445867e-01 -1.813438484501938841e-01 -1.958008441770347607e+00 5.015082837160401985e-02 -2.074760724710026163e-02 -4.594604582306124341e-01 5.777842345766724952e-01 -3.948765545214810713e-01 -9.731279885441865285e-02 -1.946329247642758498e-01 1.246380988210062268e+00 2.666015877631451869e-01 -3.699638981013305683e-01 -3.192715828490101382e-01 1.117683813260802739e-01 -3.909081704520608325e-01 -4.366744384721378047e+00 -9.885329715635148007e-02 -3.698524932271080035e-01 -8.279608141938986365e-02 1.780889788887333181e+00 -2.474370498823662834e-01 1.152545992086021265e+00 -1.096745013753525289e+00 -6.634811598803633803e-01 -7.868821883363317227e-01 -2.808843688079306622e-01 -5.601364168766480300e-02 1.174936496728328922e-01 -2.374733101278688197e-01 -1.769371257420283006e-01 -3.616221651954066862e-01 5.583090268596319072e-01 -7.396049509220142815e-02 1.371343348521422527e-02 -1.047998026916218545e-01 -9.756609208862344895e-02 -2.111899325955179652e-01 -1.320115766051983830e-01 1.421840667636614430e+00 -2.125650785834184209e+00 1.786571916204937327e-01 2.543758724220520073e-01 -2.137322487971954690e-02 -1.626880210577094921e-01 -7.585087406246693309e-01 -2.786590377999651480e-01 5.225624542870623834e-01 -1.731606510598200088e-01 1.840885324981211602e+00 4.985961506798610166e-01 -1.020263859021414365e+00 4.235238932793081723e-01 -1.869921068252674012e-01 -1.058715397344801801e+00 -2.223612138899908608e-01 3.914821358707595511e+00 -2.437230734207673777e-01 2.049442249904074309e+00 6.258290754032618253e-01 1.143554395954674424e-01 4.205567526489242258e-01 9.345990039039339115e-01 3.386770785101921866e-01 -2.908805645648442906e-01 3.408652924672407880e-01 -3.246319348816052441e-01 -3.969151730858556104e-01 -2.961377827640396365e+00 6.558076773793581893e+00 -1.679039093967910901e-01 -6.439858411919525683e-01 -5.937118306173437610e+00 -3.974234505439601106e-01 -2.184024798266483991e-01 5.975208638919456139e-02
9.468232856155818500e-02 4.048938488044401263e-02 5.351347843789350245e-01 -5.726781187049572175e-01 1.439373090119058451e+00 1.972795674431899071e+00 1.245751052278832871e+00 4.167264829878110088e-01 1.232208923558795854e+00 -1.523898910577327903e-01 2.705636734364775364e+00 2.603211136110739954e+00 2.050486667501806970e+00 -2.880096672992182305e-01 9.715247367669272993e-01 8.452239374870592625e-01 1.569197343684435531e+00 1.180151140875541182e+00 2.593454197256434668e+00 1.405802556478239707e+00 1.053801303352471352e+00 2.114616370839374149e+00 1.177838837025694918e+00 5.655939330847391533e-01 2.623069498732561122e+00 1.593623295138790197e-01 1.128184171799895053e+00 3.230747358858963469e+00 3.014020922400453273e+00 1.619578844538783979e+00 2.182288323394353746e+00 1.611005994753410553e+00 2.002636051583737586e+00 1.291654754255794346e+00 1.773821702355180552e-01 1.773545866937213278e+00 -7.378267100794829725e-01 2.496671008046505325e+00 8.226253103683124346e-01 2.292784548739114303e+00 2.507963188321488346e+00 1.841689496209326649e+00 2.786711797282190428e+00 -3.867162272868405193e-01 3.319606410803714880e+00 3.427583331286828905e+00 2.702241132014131519e+00 1.206829336515868878e+00 1.131153540542673364e+00 1.032413499381381161e+00 -4.688600658516486330e-01 1.964842753220067628e+00 1.073239111929187084e+00 1.631070912622802904e+00 3.732920995391194596e-01 1.980059299136000817e-01 1.414542199579742254e+00 8.605658915669751607e-01 7.512611513064358926e-01 1.279440033775709251e+00 1.899682540903892880e+00 2.028792933095939333e+00 4.415310012419525476e-01 3.756163305490480830e+00 1.122225194436858864e+00 1.036260789462617182e-01 1.673827473531903864e+00 7.936386962665933353e-01 5.363277249944562453e-01 1.205251416203576120e+00 1.109795566613063000e+00 2.015025835150214828e+00 5.442312728687846990e-01 1.933620256959684092e+00 1.694090175943028909e+00 -1.971652427020660570e+00 2.318532573245350115e+00 1.796988698607692836e+00 8.420823994251666056e-01 8.180267972500273599e-01 1.619480893401438193e+00 2.198191089195126846e+00 1.151856418049984843e+00 2.549010022906447404e+00 1.233389637890503904e-01 5.087317295977563880e+00 1.545212686818126180e+00 -3.183842692601115271e-02 1.740597514313002581e+00 -2.153204332852995395e-01 1.846682005454926667e+00 2.376836004850903628e+00 2.299996798246795482e+00 2.653332536634493977e+00 2.060871638452456356e+00 2.014542988848459171e+00 1.106433078158408634e+00 1.349086083323833174e+00 1.713164865543377324e+00 8.339282317052968407e-01 3.088613954453045540e+00 1.583220228150979070e+00 2.480181063899677074e+00 8.429370642562570293e-01 1.215339657668696116e+00 3.762358885633588557e+00 3.249032834885327681e+00 6.368662089464803833e-01 3.152278659479203160e+00 1.640024295984713554e+00 2.730398214801238232e+00 3.441719077587330311e+00 1.389528768594964658e+00 3.167698841010646582e-01 3.905775921964697250e+00 1.095708946043882026e+00 1.344345847404085914e+00 1.196789741694751497e+00 6.579846364452272001e-01 2.403736156081203168e-01 2.088003778706390090e+00 3.766460727905191153e+00 8.542629879961692874e-01 1.278204622987400452e+00 3.422494955278194695e-01 1.240822215994940469e+00 1.652816719654067290e+00 3.219787042742965788e+00 9.978467708486857823e-01 9.782872755821471200e-01 1.512838265782903147e+00 7.128220679787514724e-01 1.866269663592559080e+00 1.900122102188274598e+00 2.485610207922723525e-01 1.195092930510051055e+00 7.229171614266928225e-01 1.976273960983487177e+00 -2.659601013012021564e+00 1.179208459860164204e+00 1.874786072520700841e+00 1.913417068526873654e+00 3.693423869676827564e+00 1.189410045049603459e+00 1.677653991621754992e+00 3.292652283950145975e+00 2.133348651740900326e-01 4.479576174417205237e-01 2.182631750979169727e+00 2.478020448273131393e+00 -2.268462379374132920e-01 5.477513489393570634e-01 6.236613352707928160e-01 3.006112528348738877e+00 1.210587298615221963e+00 2.500259839270034146e+00 5.121127234724485167e-01 1.906246150010716400e-01 1.466319482197424362e+00 2.083252483774526542e+00 2.631633286769607505e+00 1.986564265310419852e+00 3.422406463712123426e+00 1.583879941489220178e+00 -4.588474888132082485e-01 1.167205487618886872e+00 9.512234768543424701e-02 2.192939300910144773e+00 1.432232118750162986e+00 2.765375164547446918e+00 8.903743649099078450e-01 2.572459925429310346e+00 2.607965342253184104e+00 8.993670141005889462e-01 -1.786984171784969933e+00 2.008335380289124839e+00 2.150031037864564620e+00 7.153023719169503414e-01 1.260890035271751586e+00 1.234121921075060024e+00 3.611321875283580729e-01 1.655165712153098823e-01 1.333439535190467984e+00 1.245401591197546232e+00 2.393532501871765028e+00 4.601469233647444840e-02 3.210081610651322581e+00 8.548776206819056478e-01 1.278782712653998566e+00 1.037756996601294057e+00 2.876567063993808571e+00 -1.484963891683820092e-01 2.012878922375571644e+00 1.487795039068402492e+00 1.490628431399638965e+00 1.268174848892589468e+00 1.036372239219357061e+00 -6.312070949137978948e-01 2.296790074603525245e+00 -4.303150404756166461e-03 3.097892948659675127e+00 1.903607395278780423e+00 3.413590150212852059e+00 2.952071521356339545e+00 1.552789673461017594e+00 -8.483485007110547205e-02 9.004316350284801151e-01 2.578943712502208552e+00 1.555468938001195456e+00 1.818351857492574331e+00 1.133250158821043518e+00 4.987759096670682513e-01 -1.348285180919121862e+00 3.345601814077909353e+00 2.965257566946431833e+00 1.239321550728861743e+00 1.206308064512827904e+00 1.516403504002016511e+00 1.815850371071186242e-01 3.139097125872402305e+00 3.143445786919325968e+00 4.596352891887478531e-01 2.007590436023216185e+00 1.206007921199095057e+00 1.640417196817796353e-02 7.564141158756777505e-01 5.387891414768176679e-01 5.465760054850259120e-02 9.485439357438515406e-01 3.555206842039999593e+00 2.347591405385420327e+00 2.218396837821634104e+00 1.583683039684619542e+00 1.381384375065852099e+00 -1.373499457366918586e+00 -2.039545160562017956e-01 2.005212748559554559e+00 3.070772149058692557e-01 1.515389071966885659e+00 -1.689430389306052716e+00 5.418759702264298594e-01 1.757489641113983314e+00 -1.401059959986122871e+00 -2.056606905214148906e-01 2.173806313342608654e+00 6.348948729661678392e-02 2.023892773298395120e+00 -1.810543627687755397e-01 1.454946424603705601e+00 2.090499485808592350e+00 2.056549030610288042e+00 6.884608742510565094e-01 7.283042810688735713e-01 1.903198364019982547e+00 7.863632211908846426e-01 1.353351987848211868e+00
1.551886513218198871e-01 1.160840605572853068e+00 6.543806647500519658e-01 1.569899511123414193e+00 1.410900123537387751e-01 -3.142981476986979050e-01 1.657590441910306578e-01 6.816520937272654290e-01 -6.218427738207251559e-02 9.142685929028849801e-01 -3.489027365225282340e-01 -2.175500129288860940e-01 -2.128711095390108388e-01 8.140221189441853022e-01 2.420620247977622597e-01 3.913880639588750987e-01 1.964394957989288037e-01 2.772328044961909210e-01 7.208825487412234834e-02 7.804889540687767746e-02 2.454552782876156525e-01 -7.952342691985317402e-02 1.172513816565990546e-01 6.585818420553049002e-01 6.518218331044403069e-01 9.411837710938673052e-01 1.963496533270429056e-01 -2.700048569971502110e-01 -1.654890950089544788e-01 1.682497429716985071e-01 1.550000887415525497e-01 2.228122894395261067e-01 -1.300802165885886819e+00 1.280400532266006142e-01 7.356918318636231913e-01 1.494494053855635607e-01 9.311413408694370064e-01 -1.157151666496833764e+00 3.931159750773230432e-01 1.232230510812456631e-01 5.922021775924274367e-02 -2.757575408769888381e-01 -3.436473161721946834e-01 9.664865373265714155e-01 -1.868792986103064713e-01 1.780848323117684151e-01 -3.645101942266202322e-01 1.130204184499137843e-01 4.224011799610027373e-01 2.497558502011719417e-01 6.361407996268844123e-01 7.213054455506219265e-01 2.904614830563305716e-01 -1.712770284625990125e-01 9.236619166927650948e-01 8.878790957410960250e-01 1.337482118883223103e-01 5.181402713013422145e-01 7.617539624699259937e-01 4.984993041804653968e-01 -1.163935943730820766e+00 -4.217935758663906021e-01 7.226579653952224236e-01 -1.041374048979273104e+00 2.395241588254072296e-01 9.477376853840899784e-01 1.514244319397217153e-01 4.166074577011120161e-01 3.145022547197509066e-01 8.823493061688769679e-01 1.761469606717594449e-01 -2.622644293739092580e-01 -6.007968805962028008e-02 5.119918199259890917e-02 1.671071052487982656e-01 1.191839708176599233e+00 -3.403729138101566631e-01 -7.616811726820253980e-01 4.026422233565528086e-01 6.899652422291033815e-01 -2.978633608951998801e-01 -2.121834843615667821e-01 7.560392943805373245e-02 -2.993607848029419816e-01 6.143451848343982613e-01 -8.971191704747752960e-01 1.624988248420474179e-01 9.111774971241355381e-01 -1.809776535596666347e-01 1.417145254052368797e+00 1.322547184629496164e-01 -1.642224383131004883e-01 6.299365357905704899e-02 -1.600934825853948806e-02 -4.974706430291017667e-02 5.117578664808088151e-02 2.888509707506950464e-01 1.723670836182417676e-01 1.226851771222891713e-01 1.734781648329815629e-01 2.154051573845532919e-01 1.690765014664398214e-01 5.018230967363317419e-01 3.363309926613423650e-01 1.839306793541894691e-01 -5.386733653884523410e-01 1.103416396779565156e-01 -6.474505381991260689e-02 -2.269271346628874975e-01 -3.273152281595147484e-01 -2.153160184125620935e-01 -2.908372170336041562e-01 4.220045478235324721e-01 6.803195328467552816e-01 -1.010507036072019416e+00 2.875743661256716655e-01 1.249125409923617647e-01 5.336977818030336218e-01 2.183572018295329986e-01 9.150053834543836473e-01 -5.361537340258920592e-02 -5.404257773198006820e-01 3.420524540360066479e-01 1.676752290369501741e-01 7.112003067785722665e-01 -6.916799724592143095e-01 1.906632712738878799e-01 -1.314659693203404367e-01 2.567226062110849472e-01 2.471116864250584577e-01 1.013349933176959095e-01 -9.051198092498241587e-02 -2.553900397735245353e-01 -1.274825484837096345e+00 9.122104204985174158e-01 3.068619582814596791e-01 4.159381203753810818e-01 -2.534807020109966502e-01 3.889176351617220084e-01 1.738779341809384982e-01 -3.969452029627316136e-01 -2.895983967971438311e-01 -3.067134028459903572e-01 2.526604073341733869e-01 9.237424508150311742e-02 -2.594481098768676719e-01 6.346598812445115589e-01 2.626659900683748550e+00 -1.833817009127143016e-01 -2.394491207593477389e-01 1.168107836880470041e+00 1.156223584679033856e+00 -1.771177877300582071e-01 -5.646377111330548315e-01 2.800822321596099784e-01 -2.466650019129340843e-01 2.545210830949779512e-01 8.862093148525451713e-01 2.295806905684857901e-01 -4.663181497219829469e-02 -1.485684880011538755e+00 -2.836710502165397663e-01 -2.139619245719057428e-01 -7.541376018738490394e-01 6.963829008240484120e-01 1.452862308293701443e-01 8.916822477114213497e-01 -1.309153115448644655e-01 -4.977463605868553964e-02 -1.571177161332174999e+00 2.487683664114768156e-01 4.494282712901898763e-02 -1.791107584804595698e-01 1.529862671624946380e-01 1.651081107118566260e+00 -8.112406899021347428e-02 -3.724009195144158957e-01 4.911576901207522772e-01 1.491912137491240575e-01 -1.256303905583958450e-02 7.533360130878355987e-01 1.086001781016201040e+00 -1.882089414259290050e-01 2.145205113626660054e-01 -3.368350722012370957e-01 7.064199674791039607e-01 -2.486154007546081679e-01 1.709336651555253828e-01 1.501355492439065409e-01 2.765962770864838771e-01 -2.640480403009228816e-01 1.252773801253448838e+00 -8.839374508487561621e-02 3.335191450202144026e-01 1.336292167411507747e-01 1.249391407031313350e-01 2.487214479473273399e-01 -1.942439190351843425e+00 -1.499865517803450066e-01 9.206709558401626747e-01 -3.428058749387495330e-01 -2.605876711224197062e-01 -2.362744818522318213e-01 2.134751183677450759e-01 2.215741222554743761e-01 1.844332379746017159e+00 2.449629954554207456e-01 -3.340209919931184657e-01 2.135430601137658368e-01 -2.849662643207449553e-01 2.982984062245966350e-01 4.306856569714341831e-01 1.510339688308971917e+00 -4.070073192234716086e-01 -3.732788728731568639e-01 1.996836587270411356e-01 1.571418422679956017e-01 -2.028619363176372703e-01 9.558207478039769667e-01 -1.405928696023153457e-01 2.364934061183077418e-01 8.187555426511082812e-01 -1.218913518858779771e-01 2.204973867195310355e-01 7.306468355645887591e-01 1.616903805090637580e-01 4.047259014033238733e-01 1.145977339085427094e+00 3.584971915483545213e-01 -8.727751858697253562e-01 1.238471717809426081e-01 1.513557867559568171e-01 7.233655952306652925e-02 1.391469111137823844e-01 -5.976037538948567596e-01 1.132706968055071206e+00 -3.212320573331302054e-01 5.727617868058324513e-01 -9.271147460631773418e-01 -1.608945466585765205e+00 5.346690993528685487e-01 9.091661178214444083e-02 6.436461229819132601e-01 1.334718148272161731e+00 -1.300936957675133676e-01 9.512850060165184418e-01 -2.296144371323363409e-01 1.659518511487166004e+00 1.237343024062869334e+00 5.102664790823064900e-01 -3.524403529965701720e-01 2.586181268644764386e-01 5.256309824182384821e-02 -6.306377794760087419e-02 3.457058001379073042e-01 1.619074693186351721e-01
-1.002876717373892695e-01 -6.191271025550201257e-01 1.015379940174820500e-01 -2.247507449388272127e-01 4.001615865395161814e-02 -1.414946765568812596e-03 -2.736490299909699608e-02 -2.613217630532528313e-01 -6.665523640657453064e-02 -5.661116228102255343e-01 8.947481056808340161e-02 9.874477378146254147e-02 5.271802046159305283e-02 -9.889257195314188342e-01 3.442607951034763747e-02 5.409793692664081194e-02 -3.987745827771398827e-02 -6.163409288670179675e-02 -7.882910835171998143e-02 -3.459535137794214621e-02 -6.336347993629271036e-02 6.139452891058772011e-02 -2.866696610226247832e-02 7.794897597495500929e-02 -1.001822047515517761e-01 1.741684337088309498e-01 6.540257336746461286e-03 6.112465778858314908e-02 4.151403674874099003e-03 2.534934475372896401e-02 2.617294788898195598e-02 1.824212204496267198e-02 -5.202680323572425047e-01 -3.511716567092043606e-02 -4.554142672157174276e-02 5.879527419812614897e-02 -8.583984600167674506e-01 -8.724698176420426776e-01 5.608665049176921047e-02 2.700180946300366480e-02 -6.604694298316504675e-02 -1.016100986751642954e-01 7.798368536984369437e-02 -1.269588071187701672e+00 1.883839555963540482e-02 1.668270121040823506e-01 8.686545327982615750e-02 -1.075326688779835137e-02 2.847880446391951731e-02 1.794346719355564487e-02 -1.150126469312511945e+00 -2.525290586668021975e-01 -6.266239298220404805e-03 4.821307582517020407e-02 -2.245984481234371277e-01 -1.465639946692174345e-01 -3.249435770512702770e-02 1.984373474689267725e-01 -3.668581725377749181e-01 -3.406586229423528289e-01 -1.099046652603631102e+00 -3.599741005099095503e-02 1.224586764467243682e-01 -3.912721586142121066e-01 4.479223038622762165e-02 -1.552068722046685001e-01 5.014170709259874181e-02 6.670639456397713107e-02 -2.220058082191491144e-01 -4.496266830965213734e-01 9.152188631262733395e-03 5.222046471434429321e-02 -6.597700024648948947e-02 -8.978604222097633092e-02 2.736602649348852945e-02 -2.574077971288528111e-01 9.435420417633488474e-03 -6.685559705131177699e-01 6.252730598208190715e-02 -3.561608777385858460e-01 2.352348597017548532e-02 5.511162244814896832e-02 4.886582868740667329e-02 6.656504353229014681e-02 -2.353388572381282240e-01 4.238019753259876787e-01 -2.442957744538781784e-02 -7.841118615874990982e-02 4.150043405085777209e-02 7.318252587806942100e-02 9.243959289321630746e-02 1.658219150635208694e-01 -2.128739769631670525e-02 -1.220749422705475484e-01 -1.135910786512255993e-01 6.132274294235241785e-02 7.821412841441582886e-03 8.645221327093534358e-03 7.599973756519393109e-02 -7.767104198422021544e-02 4.275657530072715651e-02 2.465274654554118136e-02 5.592701932455295538e-04 6.039664935518298389e-02 1.348835157911986056e-02 9.550885730949036645e-02 -8.273563865916548632e-02 -7.061650386200399310e-02 -2.194188788616080188e-01 4.831854982856841063e-03 7.980679807380522406e-02 -7.721229917483937721e-02 -1.752229601727797181e-01 -2.184873559315474723e-01 -8.785747391489489022e-01 -1.000580363639577697e-02 -3.275896423851484135e-02 -3.983413019896561713e-01 -9.041495407527103123e-02 1.427651221050338926e-01 -1.003297972914013736e-01 -3.505886269300985680e-01 6.183471754125807740e-02 -2.196553379265721653e-02 -2.416674426267747533e-01 1.196865949654395633e+00 2.287800281504736438e-02 4.674394982058589082e-03 -7.342681505049827861e-02 -5.654928642463775273e-02 -3.588700685096646303e-02 -9.556937312207640367e-02 -7.990870793617189938e-02 -5.976266483732739498e-01 4.370244630474252878e-02 -1.165051622397165684e-02 -6.669746943705077979e-02 5.036133404259440782e-02 5.065176189933302819e-02 -3.244510872364211873e-02 -5.150871561655671893e-02 -1.056564107647800510e-01 6.844382764368665828e-02 -6.660265661524066017e-02 7.998343959150783222e-02 4.231467768117597172e-02 -4.491138933588313953e-01 -6.060845324385888411e-01 4.297354439686359995e-02 1.366216298617403679e-01 -3.232498827894844107e-01 -1.778326473577913625e-01 -2.005741210335099667e-01 -4.636552499578203701e-01 2.007342989767561814e-02 9.252752820633063091e-02 -2.099806404843670982e-01 -4.430354693970965929e-01 -9.577365220730220396e-02 7.497724229124094752e-02 -5.120295225752053980e-01 2.376918674266165904e-03 -1.106028116010990686e-01 -9.138990889258638006e-01 -1.248114821313270451e+00 -2.559798676604772491e-02 -4.915171809810606751e-01 5.661170615152473495e-02 4.072774271946972419e-02 -8.469697124207468952e-02 -3.018877339660428274e-02 -6.772071722305141039e-02 5.705405436963191523e-02 -4.478394930947282582e-02 -8.469962239510760993e-01 5.429060548814070020e-02 1.000847584557235104e-02 6.973209272855786234e-02 1.368248251153424827e-02 -2.478095268830046161e-01 1.293009490539476503e-01 -5.751875518937754617e-01 -8.758030436450798817e-01 1.642113155665597549e-03 1.963698226445755729e-02 -7.662184854649256582e-02 2.394736034077578346e-02 -6.484355748578088385e-02 -9.604064829704606066e-03 -1.973183732612681165e-02 -1.741842537728019447e-01 6.139643740010008316e-02 5.578760181190961509e-02 -1.513187679414673137e-01 2.139031317275222888e-01 -3.015619531331908271e-02 1.476896714804368238e-01 -1.550668536930615016e+00 6.659188426353526702e-02 -2.409797249541188735e-01 3.250415345284976554e-02 -6.995004318846254066e-03 4.579157188373982751e-02 2.945089269361641018e-02 -9.494306081495409999e-02 -2.867680738716362199e-01 -5.370949952017391171e-02 7.146397678158580846e-02 2.103374118849326083e-02 -8.996353017415567588e-03 -2.201355312557306751e-02 -8.191166104431561734e-02 -8.095216020245542543e-01 1.022471550600493745e-01 8.625532644930222759e-02 -2.475006835377683775e-02 1.022114849087807625e-03 -9.069443941036254078e-04 -4.678482599351434512e-01 3.810383005992901834e-02 1.765320518093868585e-02 1.365208781755532785e-01 1.047099143039321584e-01 -2.606391479926213357e-03 -2.446172714129789538e-01 -1.789099646594422000e-01 -6.267474796807037674e-02 -1.961131181901870635e-01 6.874356162589287389e-02 -8.293948232925396624e-01 1.156761244666258265e-01 2.964392790178169493e-02 7.488916485387372979e-02 -3.646330208736737327e-02 -6.442660663792481035e-01 -3.360151044065232684e-01 1.115794868619510993e-01 -1.212927204462428687e-01 -4.167112274397244964e-01 -2.060755716797880444e-01 1.748845881185379370e-01 8.669222195009929077e-02 -8.693156754350571669e-01 6.428184020471960913e-02 6.590768394895982207e-02 -1.465891317278276429e-01 5.180198498095609644e-02 2.159449845039444760e-01 -1.073275958518071505e-01 1.054621021853951318e-02 -2.318805339613008026e-03 -1.051671736146451847e-01 -1.222407772737712228e-01 5.898427186799215516e-02 2.989733659484642564e-02 2.191683680551488253e-02
