-1.047366953301566705e-01 -8.610389618157873390e-03 7.279959465913196648e-02 9.448198917591122542e-03 1.944165188592504243e-02 1.678285486431415393e-03 -5.499890810147066433e-02 7.607067715083401516e-02 4.823986316584301902e-04 2.346558678413414745e-03 8.113061110106987300e-03 -4.451795189532731928e-02 5.623870772201041562e-02 -4.617008293931861192e-03 1.134276714261062829e-02 4.870632546605442592e-02 -3.458271887757147917e-02 1.950280766105947847e-02 5.900446263138614143e-04 1.246095932129240476e-02 7.078792616631304768e-02 7.421038206106486679e-02 1.453691831837823634e-02 -2.372199249997610643e-02 2.852197914615541355e-02 2.669860975622698890e-02 1.938447268751497185e-02 -1.920734047802603525e-02 1.936704694323573145e-02 -3.926065364249827633e-02 1.307473720813713026e-02 -3.607564033092707650e-02 1.763825938189142158e-03 3.027508385754556163e-04 -7.312830112110439706e-02 -6.584085043609495293e-03 -2.782773294785420223e-02 -3.034855080691197665e-02 4.243222439437123461e-02 -2.815647278593464559e-02 -7.624052261855726598e-02 -2.200759475470493234e-02 4.214512246236411241e-02 -7.633991448188572754e-03 -5.351951811438536433e-02 -1.756201696233441762e-03 8.605506895870975240e-03 4.192064423935345369e-02 2.210446597904985877e-02 2.442282391452628085e-02 7.927928491120486698e-02 2.647195416498010143e-02 -4.579611271353736801e-02 2.165283016120579315e-02 -1.045166416170539014e-01 -1.347012025676017771e-02 3.550465278833647015e-02 -2.155638791178248002e-03 -2.577941898244426149e-03 -1.385934632967415585e-02 -1.676039285828484771e-01 -1.357202312926339589e-02 1.627898626469599652e-02 8.215028526068802323e-03 2.667486114133240521e-02 1.424970126304582300e-02 2.757546652644972743e-02 8.290932190921762590e-02 3.783927133702485578e-03 -1.348898420684266006e-02 -1.860725297283703089e-02 4.673487840667746307e-02 5.243333064078553596e-02 5.659277860266626048e-03 -8.239059814426209771e-02 -8.545192017850081201e-02 7.222637120285715917e-02 1.329604956532043358e-02 -1.021545599299403390e-01 3.815253537642981224e-02 -4.758590441221535045e-02 -6.463651159041219896e-02 7.799491380455265965e-02 -7.737909031927582559e-02 3.233789368793068553e-01 6.429414332779805064e-03 1.525967588640862738e-02 5.559725630240602151e-02 1.069940640957432439e-03 1.168589139769285468e-02 6.295887048213759385e-02 -6.788091175856508785e-02 4.851084729210999175e-02 4.969220465310474066e-02 -1.137841246185065103e-01 -6.079149442815366677e-03 9.186601787683375264e-02 3.751029866551527925e-02 1.439653912705367300e-01 -7.362790290634392554e-03 -3.990791789748269341e-02 1.490347740060513591e-02 3.581906031004010449e-02 1.714815820870362051e-02 3.980856839729322166e-02 -3.760450262522853360e-02 3.336979179211800248e-04 3.170106376810499782e-02 -3.359357175839231685e-02 -1.636192946990083080e-02 4.398892315812484577e-02 6.727639080591317489e-02 -5.229662415454384983e-02 -4.893324875840969479e-02 1.251843112159958457e-02 1.952533809427351580e-02 5.606930364668921696e-02 5.906309428588694954e-02 1.688793554482754741e-02 4.144890613647277122e-03 2.362376170658412548e-03 2.053792857420316531e-01 -2.635564213830811006e-02 -7.221279558579260516e-02 -4.868529228205620979e-02 6.608309180634654167e-02 3.914395901666916570e-04 -8.668841827779603937e-02 6.289547730509419121e-02 9.004556461486738078e-03 -3.461962844360235575e-02 1.124737021169179563e-02 -1.136654180411370181e-02 1.058865195201094157e-02 1.276554767676408575e-01 -1.528573537444433833e-02 4.233154125878074020e-02 5.864585946720339560e-03 -2.215367466457882420e-02 5.317503139651782312e-02 7.402901962426405857e-02 2.819252414039137219e-02 1.825028987120750831e-02 1.346378664572859402e-02 3.827034972988832551e-02 7.712852056252137573e-03 9.258041599289267357e-03 2.804593211425583394e-03 1.196161029960214964e-02 2.685583804046055845e-02 -5.921086185841992894e-02 -1.581442620775325505e-02 -1.953182762942716477e-02 3.468828344385786744e-02 3.274668534793908486e-02 -3.090998958159692916e-02 -1.556382201774466484e-02 -1.204362657758032557e-01 6.508010575549501298e-02 5.441316759596129954e-02 4.128833363047339916e-02 -9.357466613221541519e-04 1.631492531538842250e-03 -4.113404523823397524e-02 4.844860651782082611e-02 -7.801625909787066049e-02 1.191134887393391698e-02 -2.490491830331012166e-02 -5.702419554642348953e-02 -5.123497429529454139e-02 -5.494601712570736790e-03 -5.965210089548821787e-02 -5.988041624081566310e-03 6.071598993087904544e-02 -9.174670623112736109e-03 -2.617622294681465345e-02 -1.550306542349160583e-03 4.301718250855558062e-03 -1.897185925756493877e-02 -6.048664362820726365e-02 -1.319836162799275722e-02 1.479512747238969327e-02 9.653059603243757322e-03 1.351319510835451675e-02 1.262225863851061496e-02 -7.738592789113989123e-02 2.221181037938873074e-02 -2.221337811372456946e-03 1.345620905898878110e-02 4.033762294934922776e-02 -9.989800958408021417e-03 1.932505382003373018e-02 1.563899889144783339e-02 -8.442945399303455889e-02 8.694502013463535628e-02 2.210103322863389390e-03 -2.604048299161054042e-02 -1.233271764658372543e-01 2.247981348043905352e-03 2.326158028991650792e-02 7.337477011006673239e-03 -7.451841392830210742e-02 4.013750050827126492e-02 -1.592523410647926629e-02 6.737361258687431242e-02 -7.183706160053762724e-02 -5.884108828721613255e-02 -6.607731707797502574e-02 1.656862995553400053e-02 6.216381736413923581e-02 3.169454767995639327e-02 -2.538386771881181309e-02 -1.330459943952122179e-02 5.901249662062364038e-02 -3.127330306801330215e-03 -1.839381051887596999e-02 -1.503954429650423627e-02 -5.836119291184814484e-02 3.960726746744634708e-02 5.131005514252926641e-02 5.506236933271652784e-02 -6.704970112844962915e-02 6.557274887563629973e-02 3.782987969856898593e-03 -5.884408702844298733e-02 -1.665229067829554314e-03 -6.393059027760326918e-02 -9.582514493494664887e-02 3.459393550444563037e-02 -3.216757866055216381e-02 -2.941666597198861963e-02 -1.823615929790250306e-02 6.436911705673715664e-03 -3.937911532146775423e-04 7.412311163396062552e-02 1.514986247516696485e-02 3.964158155012712653e-02 1.352044519992540682e-02 -3.957449183066481108e-02 6.342304498601950002e-02 6.228304438313193511e-03 -9.028900670149714314e-02 -3.112394660368799498e-02 1.563827513094269081e-02 -4.346974502488759606e-02 -9.111618271253042745e-03 -6.602903692468799560e-03 6.421306742954790460e-03 1.017236889984059200e-02 -8.279582404668663076e-02 -9.226827458008785010e-02 -8.019934678334739164e-02 -7.909220180166369463e-02 -2.286678224711856666e-01 -1.389973901726702932e-01 5.318405540276524568e-02
5.514041790699628770e-02 -5.579245081214802976e-02 -4.435741992198745653e-01 -4.990193031898608744e-01 -3.405430568490572935e-02 -1.029749076032936833e-01 -1.142176941534417539e-01 -4.569880191340989356e-02 1.770738062426131104e-02 -9.815266669992215795e-03 -9.645360093328124440e-02 2.397647305153981570e-02 -1.150128394346469629e-01 9.994808926433987328e-02 -2.837312151786138686e-02 -6.601082254900622615e-02 -6.777528750345945818e-02 -2.419837259855887601e-01 -2.077801927365158924e-02 -1.544774093314558181e-03 -6.054958867328126028e-03 1.074626142695771086e-01 3.854321725013721417e-02 -2.925472279596642855e-02 6.569769366994035464e-02 -1.166618317217944789e-01 1.728913604391195402e-01 -9.042437647949197466e-02 -1.935710245132613375e-02 -1.368105836421149857e-01 7.151592325825656404e-03 -9.336675426277081524e-02 -6.727316852316912732e-02 -1.397790995754931778e-02 5.147672891291703301e-02 -1.145801694387096024e-02 4.244917366169704415e-02 -2.574493281653552068e-01 8.576800852851908241e-02 -4.058236334926188654e-02 3.856706505763407566e-02 4.135551622610976474e-02 -8.946398523045742679e-02 -3.725310116821196893e-02 -8.412176614999374025e-02 -1.001182075165134022e-01 1.392936910899031933e-01 -7.016911999588199000e-02 4.752435842763128027e-02 5.236979752788468306e-02 2.641972677569421821e-02 -1.333704301885698384e-01 -1.485365785985129083e-01 -8.909460070590442815e-02 1.143624356783699836e-02 -5.864693326261201378e-02 -2.757537531531855171e-02 -1.180943713709873971e-01 -1.838480545033737978e-01 -1.731145775962527056e-01 1.124207306422287805e-01 -5.834201254901727474e-02 -2.049736972925086942e-01 -4.496780277344899351e-02 -9.496147507427982193e-02 -6.884504803772245607e-02 5.088232935153579745e-02 9.917750889214146937e-02 -4.782316176110611439e-01 -8.249267467200916207e-03 1.045340830231133999e-01 4.376555612448896487e-02 6.941758821885203601e-02 -2.130953844433641775e-02 6.447344785251177268e-02 -1.656001496250697202e-01 -6.624662500065173210e-02 -8.108518053450043325e-03 -7.281041801647397671e-02 4.807221877178909086e-02 6.426246916510322538e-02 -1.540951785633398463e-01 2.374564596540480049e-02 -8.115991964355395369e-03 2.181348084889072336e-01 -1.224178767690071307e-02 7.780149133496479588e-03 4.931044907085939399e-02 5.872876781394281015e-02 -2.868315164976316042e-02 -9.656658815319971167e-02 -2.364199743010653165e-02 -9.124844908579538005e-02 -7.977590601823691951e-02 -5.152382444769011693e-02 -3.314013063861973724e-02 -4.125922073838372839e-02 -1.202279484921521674e-01 -1.197361546158609222e-02 -4.146438654074934005e-02 -1.301060041148172086e-01 -2.291440344822826269e-01 1.016098087967779728e-01 -1.289620305141357115e-01 -2.953224115388636967e-02 -8.941138844902711547e-02 -3.530485039323927321e-02 -1.041064777081382176e-01 2.545775377970396214e-01 7.989194793404197359e-02 2.959674127647895503e-01 -6.032089551372113445e-02 -9.426755923289975581e-02 -4.837910008471085072e-02 -1.790182150791539209e-02 2.901056047955628131e-03 1.045753254022039475e-02 -8.799334321819771154e-02 1.752345249972281013e-02 9.878441960792775159e-03 -1.368768702625859646e-01 -3.581065667886176862e-01 -1.263249116866684840e-01 -3.203351252925809578e-01 7.934001658481140695e-03 -5.416440824866600862e-02 -2.177179559973900780e-01 7.263383364780763574e-02 1.704289670342107668e-02 -4.471067315536385312e-02 1.113153781418652413e-02 -6.378875407391372543e-02 -1.080332142062280371e-01 2.037465723507695947e-01 -8.577303143266802599e-02 -1.774367722853571749e-02 7.813071556015808994e-02 9.652693914952741039e-02 9.608772300449518189e-02 1.235352731266153581e-01 -1.039222546975017009e-01 -1.562924638881305617e-01 -1.770153949711624885e-03 6.443866365531598916e-02 -7.416625811414219449e-02 7.377990814081070159e-02 -8.028320701255026171e-02 5.926161589642613137e-02 2.787567155150024248e-02 -1.108457803038936512e-01 5.113314988145845758e-02 -2.199974490571962871e-01 -1.301298529358686090e-02 -7.200738508701395868e-02 -3.118809197805435390e-02 -6.564656290800828520e-02 4.431021488408679043e-02 -2.804316887178185357e-03 -7.159619084352496221e-02 1.797713875864611621e-01 -5.430793319094779498e-02 2.826590364319621698e-03 -2.321606529540816422e-02 -5.533251759309812390e-03 7.612818609597130082e-02 2.417486453322771622e-02 6.238654942466866776e-02 2.252615073837957102e-02 -6.308948498773084279e-02 -2.125534777840382833e-02 -9.173921673108290098e-02 -7.439402543346908259e-02 1.235695923774465660e-01 -8.123988119349558057e-02 -2.029032211724725917e-03 -3.456369082040547935e-01 -4.828727386005957772e-02 3.084211303925063485e-02 1.045160155176269460e-03 -7.311760324118887766e-02 -2.248689172347736326e-02 4.604782194484866725e-02 2.021277833824279280e-01 1.118162005508020057e-01 3.464503194777453915e-02 -4.002883493730369224e-02 -2.226193731303649781e-01 9.321827465594550305e-03 -8.113938041442945656e-03 1.027243004360125223e-01 8.315640256865337171e-03 5.284170519267122890e-02 -2.292700214282187288e-01 -2.420604010814463858e-01 2.581205108890366820e-02 7.197283578972166283e-04 -2.911515629676293404e-01 7.639847020246579024e-02 3.288679398722223896e-02 -1.288808466197075703e-02 -2.161943759053929631e-02 -2.085447249583131102e-01 -8.420059905693570712e-02 2.987918162268515462e-02 3.134905453780662682e-02 8.803053677921351960e-02 -3.427551041910704976e-02 2.118568382813603573e-02 1.693461016377199174e-02 -2.437792274945764226e-01 2.130885036338307503e-01 -2.087653534522707632e-01 -2.054253083757556775e-02 -3.156850818753247773e-02 1.345727769968429414e-03 -7.536646193869062094e-02 4.122619162825594263e-02 5.656984462457857743e-02 -6.768972459529279395e-02 -1.681861324270307601e-01 4.005772678602630837e-02 5.094323157992526607e-02 7.960648931161530550e-02 -1.869304267875192271e-01 -8.451160092151860370e-02 4.319042276180226625e-02 -9.847540325045267551e-02 -2.080772943972465649e-02 3.428734718264000447e-01 -1.166596741945014754e-01 -2.360645371033924522e-01 -8.919493749477412983e-03 -1.478668342890434272e-02 -3.226845412374841626e-02 1.230496989851777127e-03 6.767936356511205544e-03 -2.905891571486758640e-02 3.558667229060710063e-02 6.830676502031556019e-02 -5.679154933310836401e-02 -2.022656141047680656e-01 3.016028265775841377e-01 -1.127003103880713092e-02 -2.463488355438632829e-02 -8.374102993949705809e-02 -3.165512528689494731e-01 -4.931022630569337900e-02 1.960829112591149382e-03 -7.805108795572701652e-02 -4.177398907161358754e-01 -5.741964518276763130e-01 3.260633440451904397e-02 6.083253429085254405e-02 -2.594142849307969415e-02 -1.755447288765324410e-01 -1.920044385513285101e-01
-2.388408803706115746e-02 -7.378334313137428768e-02 -1.806492939693876421e-01 -9.408967528181473236e-03 -5.700927439082047188e-02 -1.916079348024739282e-02 -8.381781224821747631e-03 -9.634847718332084990e-03 7.775756951666802641e-02 9.498680976945839127e-03 2.637523252948381983e-02 5.933260159086097690e-02 1.537755861106706624e-02 6.141531055524066993e-06 8.661999782327832811e-03 -9.022215229205263198e-02 -1.945351340040182841e-02 -3.238088664526033583e-02 -1.328808336192395002e-02 2.307168323152914216e-03 -1.707697830359670155e-01 4.935312986592747808e-02 1.721086419294964170e-02 3.182469371112443129e-02 5.975509887761121935e-03 -3.214041813575108097e-02 7.349001601012564167e-02 -2.030874100939929899e-02 -2.475329337198864735e-02 1.121849270901205571e-02 -1.451061671461806139e-02 1.850319472191967740e-02 1.567373418171059615e-02 -7.843507924554846134e-02 -2.766206658176956906e-02 -1.738937865330952804e-03 -1.210180502588195824e-03 -3.772101713082369988e-03 1.615799228920058173e-01 -2.473117237741082747e-02 -1.274054288894131137e-01 -3.628118656244339046e-02 5.133766829964509643e-02 -1.035923314103041198e-02 -9.829537523415059208e-02 -2.346307905019974493e-02 5.456974458843123071e-03 1.631878983852048937e-02 -2.982065049012317531e-03 -3.521546706862250381e-02 -2.058554743934734935e-02 2.772008469205934286e-02 -2.817988524505176187e-02 1.023186763672475838e-02 -4.465632506768309889e-02 -6.526275384342465624e-02 -1.633270153600211230e-02 5.366198683061099844e-02 -2.247291709364433038e-02 -1.622615275255761824e-01 -7.251450690948442468e-02 -1.107039440710257394e-01 5.287032308985631021e-03 -1.378969085380417868e-02 4.105695886372977971e-03 -2.278165558598184773e-02 3.258913885717934500e-02 4.638949766722705141e-03 6.845832650452018942e-02 3.124780642840214659e-02 -7.748942411989130641e-02 2.644853724643546691e-02 -7.293057005204335586e-03 4.389382123850034227e-03 9.746873776665181122e-02 4.392025564822932965e-02 3.184400168370506764e-03 6.420767169634726546e-02 1.428482448207794853e-02 4.001378886276132918e-02 -3.928836251889122194e-02 8.337967130522429618e-03 2.725717661057724950e-03 -1.893314461947411334e-02 7.903595481661401106e-03 4.959109071798848724e-03 -3.454034907999884579e-02 4.242618920867041038e-02 -5.804747389997976480e-03 6.343276381691115469e-03 -1.389192176021987468e-01 2.216265967311203955e-02 -5.464751007491285700e-02 -1.375920035142202125e-01 -4.870785867732180252e-02 -5.312602240142060353e-03 3.633366293006416031e-02 -3.223675256629855712e-02 -9.038118298300643061e-02 -3.307983098909592079e-02 -1.218744928970898062e-01 -5.477632001477145823e-02 2.467782689492199755e-02 -1.301035428830701335e-01 -8.642320657656531180e-02 6.889018228549112499e-02 -6.288649772572840746e-02 -3.417749724177473331e-02 9.491008736809797286e-02 -3.218843638007985036e-02 1.012345147629560987e-01 -2.555777970247649980e-03 -1.231287929309714951e-02 -2.850364776467890701e-02 2.140254796479386726e-02 2.366217893534273281e-02 -6.717311219518709575e-02 -6.514618062386801078e-02 -4.511614288185153421e-03 3.186654056476911218e-02 2.973371132373950690e-02 -2.006898607780997074e-02 -7.701103832684073891e-02 2.464548688514760395e-03 -3.736128297063565779e-02 2.211864442540205367e-02 -1.150790725566912115e-01 5.920182052751334773e-02 4.038978632969526111e-02 1.689476822638084560e-02 4.239935283574447489e-02 -1.529290167756807914e-02 1.737042339531437440e-01 -2.808285937501677973e-02 1.716584378513688267e-02 -3.684025854309723458e-02 -1.264396841782396315e-02 1.724291900245911863e-03 -2.163067413103625033e-02 3.155400410179012849e-02 -2.628497474352042493e-02 1.901487129632367309e-02 4.269163017863051614e-03 2.120115798676826951e-02 -1.111351608643720151e-02 3.283589361546043750e-02 -1.088162629905146950e-02 2.406786724798347593e-04 -4.245263485748632104e-02 -4.136792308114031064e-02 6.284606086251619435e-03 -5.172733277920128075e-02 -4.681354576474570928e-02 -3.419302906025740042e-03 1.661830046710983944e-02 -1.333019041958555945e-02 -5.211876064836066906e-03 6.286411367194737199e-02 1.507294837622093729e-02 3.289325035431622107e-02 1.260955462225926693e-02 3.219379052860663407e-03 -6.415199144447535431e-03 -3.328619729554119916e-02 -1.893421838362851009e-02 -5.523005859898740683e-02 5.971007168483376086e-03 2.937999443767266849e-02 3.581751132678823168e-02 -5.439954878859407095e-02 -2.951462300730765820e-02 -1.242619870711553220e-01 -5.059528363681767629e-03 -5.931938637210723564e-02 -2.364266770974779441e-02 -3.642003947807641306e-02 -5.234924492463969951e-03 1.765083697342653690e-02 2.914821541501338184e-04 -1.091850286874359865e-01 -3.344354923954423291e-03 -2.325558644630926902e-02 -2.607492487652362384e-02 -2.299550992584666401e-02 -4.892984683929942763e-02 -4.144751201296330290e-02 -1.510369661910345232e-02 -9.373559645668267173e-03 -2.225498306123187796e-03 1.150993392236777796e-01 5.616297167665177878e-03 1.193459580105140500e-02 -1.172140765006174923e-01 -3.912695474053663400e-03 7.820190736851091728e-02 4.201943044536941840e-02 8.601314483305302905e-02 -9.232996585455581842e-03 -8.734547100416154009e-02 3.673772569684222861e-02 2.402066413219436977e-03 6.055444910455216184e-02 3.356539317457704619e-02 2.419669748027391751e-02 1.769593674925247495e-02 1.818826236791173598e-02 -3.857500740397997591e-02 -2.465166210446661718e-02 1.542648259430108582e-02 2.255746251969619268e-02 -2.580374238761944800e-02 2.439793008660838189e-02 3.684433930294552743e-03 -3.053880222563800512e-02 7.105450743081618073e-03 -2.412955565302054434e-02 3.335127871787942760e-02 3.468225032135867358e-02 -3.296118202816462894e-02 3.585392380756324826e-02 -5.844452393248261192e-03 -3.709946531640261318e-03 2.219998545987181965e-02 -1.784360358899590368e-02 -1.352504384661954440e-01 8.809584166891851545e-03 1.029476805558464034e-02 1.466656811387742967e-02 3.683086182485896531e-02 -2.018684451118507583e-02 -1.274682471199239941e-01 -2.399015121795237742e-05 -4.644904599345839324e-02 -5.227650211690249016e-03 -2.109938401356233756e-02 1.354774824745113432e-02 -8.397752608997430257e-02 2.947905024322117207e-02 1.172097454841610799e-02 -7.288461664353365621e-02 -4.714707444046083856e-02 7.036954365515236953e-02 5.294718319976410292e-03 -2.577555505782666914e-02 2.592274822224740864e-03 7.201690830910767449e-02 -8.855473061246553479e-02 1.162927743843188318e-02 -3.905240307394483492e-03 -4.716374274663002325e-02 -2.896906029357322956e-02 -4.433827171859597294e-02 2.247001386662668757e-02 -1.306424525658982268e-02 -3.141541135981797128e-02 1.053658157415342765e-02
8.969424561703603915e-02 1.790585799530703542e-02 5.872489342035754761e-02 -1.345712179280731391e-01 1.162783849549395634e-02 9.854391063477446061e-03 -1.029146618173839844e-01 1.554998749134836253e-02 2.409680936270161555e-01 -5.329324729262659849e-02 -1.529244034445435274e-01 -1.592863231048243997e-02 2.604035513215457965e-04 -4.068726977705797165e-02 -3.384458481836382510e-02 -1.544178093368789827e-02 -3.838562536761160049e-02 1.706824774508411968e-01 3.216783705955566369e-02 1.725824317755112608e-02 -1.307425267849282244e-02 6.256927237003738484e-02 -2.674830153514046530e-02 -6.028568555502036158e-02 6.877883629058323400e-02 6.133591206650504390e-02 1.338145769811486252e-01 -5.266941819418682197e-02 2.476830519281038485e-03 -1.031740810257898711e-01 -1.465247687519725429e-02 -6.217887653253910407e-02 -3.158027616469191723e-02 -3.601717993463178502e-02 -2.398632298184818698e-02 -2.327581696087118943e-02 -5.366161645217898402e-02 -4.662777378414494772e-02 2.967257298217676476e-01 6.483326168028785697e-02 -2.456946825362637254e-01 -1.001199062774008192e-01 7.729002027996647109e-03 -1.514489138440106887e-02 7.628203567577460098e-02 1.649427200569177077e-02 6.290112788831524193e-02 7.664365018190683054e-02 8.423376430556121786e-03 5.164005622457211453e-02 9.899999468785820878e-02 1.698817938006573144e-02 -4.384485970709618013e-02 1.242449521013869879e-01 5.145411187189657953e-02 5.460467068494739146e-02 -5.136473729986969911e-02 3.386135681139741671e-02 3.283101961486280251e-02 -5.959621520091411273e-02 -1.431728485281587859e-01 3.617504680282669638e-02 2.578459116442956278e-02 7.691240168047110137e-02 -5.259608955175455042e-02 6.582436309917046036e-02 2.688846374076749729e-02 1.200758392671989749e-01 6.756112718313639354e-02 -2.629352588896681150e-02 -2.635872368943443372e-02 5.369786839824040175e-02 -1.133729961471805769e-01 -2.325214969995572853e-02 5.744302945154174111e-02 2.214883112841601123e-02 -4.861569295397968893e-02 1.384199579113702949e-01 -5.519245442444820071e-02 6.105362019814619158e-03 -4.237734795883752598e-02 -5.765017797763098001e-02 1.070571427843824280e-01 6.690792820231562799e-02 -1.680814038431070467e-01 1.199546543656029819e-03 3.418610198560077112e-02 -6.753912127045885727e-02 4.077028805844929316e-04 2.230091156726068252e-02 -6.066855284428410156e-02 1.984151486333867453e-01 4.993862798426505073e-02 -6.546228427737979527e-02 -1.458035769246335267e-01 2.733923368000673593e-02 3.897034413793296070e-02 4.892233347707555108e-02 1.045774293717175174e-01 -3.485093659420213791e-02 -9.557341370635480393e-02 -2.187285479841794833e-01 -4.401878310449119924e-02 2.845630126188436471e-03 1.082490868244959624e-02 -2.847643483848793511e-01 4.156894992481981188e-02 -7.494845618339723153e-03 2.761217945665496790e-02 -2.925647458638259285e-02 1.756648795997466928e-01 1.051615826048246660e-01 6.445535292934877203e-02 -4.666234329557265165e-03 -3.257490899454799915e-02 4.266833050322427212e-02 8.436237605043864218e-02 4.973335897647036818e-02 -4.415495988061191208e-03 -8.720413106363798794e-02 -4.829060302914181188e-03 2.232516061388790107e-01 -3.069790650434887913e-02 -1.116549675573242223e-01 -2.685055241668053011e-02 4.673905529294213046e-02 1.338067729976206988e-02 9.277508665168814062e-02 5.598722965486703507e-02 -8.406962796231229329e-02 -1.610193956999389888e-03 3.339749865247146343e-02 3.826265263357344487e-02 2.478199831642834139e-02 2.782753589905279795e-02 -8.006665218348768542e-02 2.845174815641573172e-03 -1.402087186985106204e-01 -6.300921303313099242e-02 -1.215377167980406792e-01 5.591945826087673516e-02 -9.944864489916546008e-03 -2.327581880053852456e-02 4.362906238265822773e-02 1.484471476977334420e-02 -3.899183636360697286e-02 5.347085782582956803e-02 -3.487765381847450670e-03 -4.936416609234199615e-02 6.478765586154895673e-02 1.662948245901802735e-01 9.473250898803934825e-03 -7.737031473466528253e-03 1.344760933241625489e-01 6.984391875678756800e-02 1.737822285164219299e-02 -1.325806620998788189e-02 3.861737034399811974e-02 -1.096279308351583680e-02 4.327616784115745352e-02 8.181227762424683747e-02 -4.315304551661663240e-02 -2.182468799665299858e-02 -4.784076337797003864e-02 -6.748193287042135446e-02 -1.882070364863671352e-01 7.624604647389837675e-02 -1.235741709043950906e-02 -8.751489910932751248e-02 9.864763209697753610e-02 -1.548328136178166517e-02 4.281310644474525806e-02 7.347117886108825435e-03 -2.003865404701094324e-02 -1.635554097108520705e-02 -1.612565138243571006e-01 -2.976082239957233283e-02 -2.061312572812961513e-02 -3.394322374789072311e-02 5.520430023480870502e-02 5.966908692927117702e-02 -3.690998172345866940e-02 -1.678175676636289859e-02 -4.966412952405668130e-02 2.317378792283730435e-02 1.078619422113450271e-01 -3.018413242379028305e-02 3.303275488256997294e-02 2.816863702361379479e-02 -1.192971437730880671e-02 -3.247160835419894698e-02 -3.817343191890646553e-02 -1.865322731883453933e-01 1.840986682777930039e-02 -4.803696560119127129e-02 -4.785913068062778303e-02 -9.872348923180335190e-02 -9.837411097921160141e-02 -5.041289366002479899e-02 6.144729488266980483e-02 -2.512546702601758941e-02 -6.712865909845430051e-03 -2.975962845938777326e-03 -6.698404576602758065e-02 -1.928921158314348544e-02 -3.210089838091163827e-02 -5.419994529437384412e-02 1.180529953851562897e-01 3.718146649826385708e-02 1.088330122478505836e-02 6.111423652118479904e-02 -2.092245905301109155e-01 -1.087139425525012054e-01 -1.127108972500291857e-02 -9.606737456951026932e-02 -7.505627077245694001e-02 -5.792036811721856110e-02 1.956317376923723955e-02 9.886739748408003570e-02 4.841018398518396465e-02 2.362964483576154850e-02 -1.478157889310522111e-01 -4.445886290747196740e-02 2.538228517161280132e-02 8.740860529264525558e-02 -1.901901333745289677e-02 -4.918600283318246696e-02 1.417380695343063018e-02 -7.731480348917603440e-02 -4.090369023718272434e-02 3.059254113091182115e-01 -4.301500779781991524e-02 2.170280999262414745e-01 2.890978744596477568e-03 4.003247386124145278e-04 -3.527799487630337016e-02 2.625928838047832548e-03 2.125671637829975105e-02 4.516440437145072956e-02 -3.775942163735843907e-03 2.970728279692620363e-02 -3.772930847301180224e-01 -4.151005779693340420e-02 1.229457019955183111e-02 -2.014252498721136667e-02 2.592786865389292567e-02 -1.607090394598545413e-01 2.893096802649428641e-03 -2.216514699923138043e-01 -1.700623268353569639e-01 5.135297053312430637e-02 6.546742794819145062e-02 -7.392899014592418938e-02 -1.012861959822094898e-01 2.421614281303432759e-01 1.093417358224395980e-02
1.118450133554430015e-01 1.261377940294080950e-02 -1.313267414451767257e-01 -3.252528152779012027e-02 -2.646314412132125173e-03 3.380705620405495982e-03 -3.680162231620104363e-02 6.466640816040727935e-02 -3.055612313993500209e-02 2.177981234105280661e-02 -3.865505046595139188e-02 1.173923238552471715e-01 -2.572262508394065547e-02 5.308143596307631634e-02 7.999502625256190921e-03 3.660656382985265356e-02 6.152484038042530662e-02 -1.637410317293317569e-02 1.891928855941635464e-03 1.633249421901589865e-02 9.844594771071119021e-02 2.536929130977721124e-03 5.638008113437296791e-03 -1.776461252978369515e-02 6.624841570757213083e-02 8.463135399539795101e-02 1.106965184536498198e-01 8.884669432746220355e-03 -4.834134681356502816e-03 -1.505381452075308041e-03 6.776671306395122552e-03 -2.746746334310524898e-04 6.932061382931878693e-03 -6.130570137313556128e-02 5.755796253967510956e-04 2.039558137455426724e-03 2.368943269066825508e-02 -4.004579293067397905e-02 2.642743097725292617e-02 7.044250340875706298e-03 -7.684444118505333321e-02 9.337107920515481940e-02 2.885548920409856249e-02 3.071916253928552720e-02 -2.682679564978337691e-02 2.422470531605069866e-02 1.594542606315651756e-01 1.131723043006634295e-02 5.139838504255368756e-02 5.772263798424785014e-02 4.708712384460922440e-02 3.002032716957090189e-02 2.278117330345412993e-03 -4.365664705127771279e-03 5.609841339874273303e-02 3.521281639603110469e-02 -4.486072758361017015e-02 4.124486474832222971e-02 7.686983160954778682e-02 -8.993946010370212907e-02 5.508059971126494370e-03 2.286901383256819895e-02 4.919602736112308611e-03 -1.835044604034779051e-02 -4.025846943719868509e-02 3.925133159221530499e-02 2.960149140248037949e-02 8.017576158166780931e-02 -7.218764764045411397e-02 4.262831330581706019e-02 3.062164950770124641e-02 3.546049836800761745e-02 -1.206950824439207391e-02 1.617103973849164100e-02 4.554584523270827773e-02 -1.819253823910513615e-02 1.413505318390731111e-02 1.733384796774793094e-04 1.312084296628776570e-02 -5.151512403966283619e-03 3.909419774343007165e-02 -4.955694199695123356e-03 -1.878565889227044872e-02 4.612138337865935578e-02 1.622874166931837225e-01 2.436783874878078321e-02 4.248210483409077531e-02 -2.050615335652226576e-02 5.555995398609779590e-02 1.163111087832192567e-02 -6.294762675186928169e-02 -4.236340959764830355e-02 -3.342783557353754681e-02 3.049707030564482828e-03 1.637999147583140552e-02 -4.460190597774681479e-03 9.713374937378427276e-02 -4.602582640003871628e-02 -2.568708603542194449e-02 2.686007359706657147e-02 -4.733449332072102445e-02 -1.190008548527851512e-01 1.136532885829794406e-02 -4.680025278257532451e-02 2.991833885329988479e-02 -2.995141090875567957e-02 2.339197750073928814e-02 7.151160239701605942e-03 1.609196752176408340e-01 6.704781421159143606e-02 -2.644995946770389850e-01 4.104533008382058035e-02 -6.050580933992169563e-02 1.467591259354901756e-01 5.310531657129344274e-03 3.169838755554846288e-02 5.889289283774658962e-02 -5.328824684610408702e-02 1.373793856249764557e-02 1.676605113490890753e-02 -9.946073365355511189e-03 -1.672921857270489587e-01 6.925764173963658288e-02 -8.767224214749483324e-02 -5.814915470739515785e-02 2.652717077580018026e-02 -7.629753339640225895e-02 3.543773962446766790e-02 1.988827558935277184e-02 -1.859415487569947853e-03 2.118047531495681479e-02 -2.195205917593287190e-02 -1.272997386658179519e-01 -1.880503031760944257e-02 -2.191714332695346781e-02 3.059355600052280147e-02 4.714200492052347813e-02 -2.703960669587860549e-02 5.486885030627696586e-02 3.918834487666585098e-02 1.104670888225800091e-01 3.573162001780975060e-03 3.565539806368283465e-02 5.058007873826306233e-02 8.287130520460168903e-02 4.011319293471874575e-02 -7.518143476503888131e-03 5.594384361005611678e-02 -1.545328031802163226e-03 3.107101972913383844e-02 4.666159834294184711e-02 6.707166580385434673e-02 7.695942274723151233e-02 1.158423100262154703e-03 -3.657930336561737023e-02 4.836268120475214344e-02 5.547750249048659377e-02 1.934106716329235531e-02 -4.094085368224777838e-02 3.155565193733356893e-02 5.135763684984775285e-02 1.733096674061968684e-02 4.709492342237818832e-03 3.727251337055723784e-02 1.952534065669266159e-03 5.419612842492201044e-02 9.308973281509549946e-02 4.964152979483566624e-02 3.800108980088516379e-03 1.329727054003640267e-02 -4.470473381402873675e-03 1.229226939508403123e-02 -1.886446548628228359e-01 -7.157906395357245110e-04 9.167199420025922904e-03 4.175721657376246093e-02 6.412652122921033183e-03 1.518290608842674111e-02 4.897690219115791166e-03 -2.283700935547086468e-03 2.942321866956100138e-02 3.952395451140524457e-02 6.585875159877664642e-02 3.011512012875865868e-02 5.691223391748704424e-02 4.218645881917164331e-02 1.040405159540508662e-01 4.512000988708539384e-02 5.209000988656969228e-02 -1.850501999745975124e-02 6.709207363874390706e-03 3.145143852973995846e-02 -1.215600794496679397e-02 -1.651946759978252868e-02 -1.327744155237781665e-01 3.734902562474315402e-02 -6.359512981603025750e-02 1.804990566468308022e-01 2.223329193985002991e-02 5.865302092317001281e-02 3.001135289703319581e-02 9.803184204189185902e-03 -1.472083911973027549e-02 3.760953171548116203e-02 -2.613486766318146373e-02 -3.295775495649057307e-02 1.194505780283767610e-01 2.824050647602787886e-02 2.035129677786592234e-02 1.720135454008990192e-02 6.916422146580006314e-02 -3.986928352463660341e-02 3.522297786690074123e-02 -2.959795076520318688e-02 3.099692940573020583e-02 -6.026547239912344485e-03 4.464196034507401933e-02 6.611789936617147589e-02 5.496438666186919536e-02 4.339228018479143745e-02 1.414059592022223234e-02 2.667171659946410700e-01 -3.780432750221121574e-02 -4.110957536103276161e-02 -4.997537383289465951e-02 5.096490731515292139e-02 -2.507518830649414950e-03 4.077564772632455425e-02 2.735133385613995952e-02 -2.211445350641982541e-02 -6.246416292520438202e-02 2.994510464666071820e-02 -1.340118400289779356e-03 1.798967058179607587e-02 -2.878174645557258354e-02 4.151991048599273926e-02 2.574469945852599778e-02 2.366293144972619195e-02 -5.732866173542226079e-02 3.362027688926862851e-02 2.181042237850507742e-02 4.155718320374007790e-02 4.026068769708526091e-02 -2.002902579507129938e-02 2.133298423755672964e-03 -6.474077995561912380e-02 -2.956351767141397573e-03 2.562035712940429963e-02 -1.534519535917956978e-01 -2.253652435324795256e-01 -8.535687770659143581e-02 -5.798139109937389818e-02 4.325337879559693760e-02 1.585163101881401915e-01 -5.906834184669477322e-02 2.601006069272884455e-02
4.161154790278445703e-02 -5.813448765965583548e-02 -4.856997952712785449e-02 -1.568439452766436093e-01 -2.711171404133422627e-02 -3.946492599723695760e-02 -8.329600113965223915e-03 6.092019804355938706e-02 3.509025734986246509e-02 2.349328035817559168e-02 4.327805814663556599e-02 4.483740176390885179e-02 -5.417646054174315995e-02 2.012085141874307703e-02 9.939602451012713794e-03 5.160034585455190725e-02 -2.058044870713299918e-02 5.984868350035731262e-03 1.045846437374013151e-02 6.610056061394346642e-03 -1.144583362475952437e-02 1.505280888536817720e-02 9.098926033228418517e-03 9.786632234667887523e-03 8.753615073384192133e-03 4.017992845207366687e-02 7.955872883597685241e-02 -4.513048027036840881e-02 1.522051802180806809e-02 -2.632507521134869188e-02 -2.716273399574087311e-03 2.712962818624562421e-03 -1.395099959086529111e-02 -5.849326190349035670e-02 -4.436338197239656639e-02 5.600858626126415697e-04 3.098398221872642692e-03 -2.449969541193188285e-02 1.133739472071843696e-02 3.583590681219302101e-03 3.663960619298441829e-02 -2.046255668464417796e-03 -1.405506771461045162e-02 -6.843888531036761667e-03 -1.518196081178967705e-01 1.222357209077699382e-02 4.114723129011992747e-02 1.021130052149577146e-02 -1.045637667052418639e-02 5.345977335484221153e-03 3.132643822102920000e-02 1.356496484066888400e-02 3.657429189682867565e-02 -1.473273629317095081e-02 1.073639998512018572e-02 -6.035103161962384472e-02 1.483355237586115455e-02 -9.840262476998876823e-03 -6.731933440969420368e-02 -8.435168672269605095e-02 4.167572768748807372e-04 -5.986362542390079311e-02 -5.639627595741796007e-02 -4.463131486943805980e-03 -1.418894658563375766e-02 2.851357254519500464e-02 -1.257788262355115025e-02 1.349384562250260759e-02 -2.084190651554043983e-01 2.794858589003300364e-02 -2.188787367124100589e-02 2.469067104896325790e-02 9.969046859844352473e-03 1.531165031484053342e-02 1.768324383279720399e-02 -2.114195233633021052e-03 -9.521198617881571069e-02 -2.999676743786826999e-02 3.806619342790893562e-03 5.283150872720988878e-02 -1.355752737117299272e-03 1.467372179058468867e-02 -1.651560744280647017e-02 1.459935292201968056e-02 1.731392226877406793e-01 -2.112495481785338445e-03 3.333429418244304027e-02 -1.472048689305674625e-02 -2.139681023304566831e-02 4.181341875708522067e-04 -4.564585898032171019e-02 4.143042568192646657e-02 -2.860730710958261924e-02 -6.578788939672484959e-02 -1.654084038951397495e-01 8.243036118289361188e-04 4.736886942082635388e-02 -2.860346098135390855e-02 -2.764257906897820208e-02 -1.137476126576175348e-02 -1.169523369901476345e-01 -4.110061876657115920e-02 -4.470961295933956019e-03 -1.849165425187399847e-01 3.730906801946780316e-02 1.858692053243515482e-02 -4.280994442996746696e-02 -3.025379514606579834e-02 9.517151988624567016e-02 3.003000592290907753e-03 5.618362961987335286e-02 1.784704920467150915e-02 4.513797859799873607e-02 -4.416148814490951369e-02 3.019566232289291104e-03 5.375616035538709724e-03 -5.265647706940798645e-02 -2.334097580715392348e-02 8.861005938304812243e-03 4.148442767376153001e-02 1.261300222949469137e-03 1.543615058927018391e-02 -6.751042761143077886e-03 -1.868211442205340023e-01 -1.084952770575635800e-01 2.366674607890993653e-02 -2.001108332643846965e-01 1.307703172791907509e-02 -1.775374830695707409e-02 2.303267672999743942e-02 -2.479510924367449970e-04 -2.903349193288534344e-02 5.543641788710774315e-02 -1.611267391843678939e-02 3.524485938418660258e-02 -2.098312206802770835e-02 5.698010433027592830e-02 -6.205462880710565371e-03 3.360557714340224253e-03 3.376021278622300809e-02 1.863311413616969281e-02 -2.473083220996112087e-03 1.509999265581499911e-02 7.336978798435972449e-02 -4.269600923112263496e-02 5.783271143365133204e-02 5.982209349696497938e-03 3.080609379062809045e-02 -2.077820748802928705e-02 1.014792273286227453e-02 7.326932577301360772e-02 -1.161638754448114930e-01 -1.029071485930329634e-02 -1.280071214153123173e-02 -1.468281727897388124e-02 -2.812556707531517833e-02 1.233173121323254476e-02 3.284543644208812868e-02 -9.747411299556371991e-03 4.334201294381417879e-02 1.074325537610064905e-02 -1.183849681727948758e-02 3.127721381764007099e-03 -1.408547515707247490e-02 4.520404531952198005e-03 -1.133222506306165028e-01 5.977361480948020084e-02 1.763801132701035140e-02 1.061330516008781796e-03 -4.474194053354232231e-02 -8.895144700636086268e-03 -1.182145919843481663e-01 3.990377552967536851e-02 -6.959558303599226725e-02 3.984065877181463058e-03 -2.123780982556901231e-02 5.031849316509390442e-03 8.770674663698276030e-03 -3.248658941529754957e-03 -1.301950948515465112e-01 1.730923050364047838e-02 1.916510775349153112e-03 7.216118989222163049e-02 3.688278755707266598e-02 9.205794259086656425e-03 -6.039236312506386650e-02 -1.403001911594312368e-01 2.336921688205313707e-02 2.831038591277345445e-02 1.152981744873514541e-01 -1.006839029457593090e-03 4.788226365587990030e-02 -2.722729313272823429e-02 -8.590299607573660678e-02 7.612832125707333364e-02 5.454326326760125521e-02 -3.270615977637490648e-03 3.904817431289666404e-03 4.622223329512299694e-02 3.044199186093007187e-02 -5.410298716302735025e-03 -2.025074849500336019e-02 -5.812172237854724630e-03 2.186770438558554783e-02 -1.592938224241523953e-02 2.605230262095174776e-02 4.661493415954861413e-02 -6.133127959949236790e-03 7.824395825803054025e-03 -9.271858200292752445e-04 3.802365780920070881e-02 -1.566177252328309830e-02 3.222532796843859820e-02 -1.969052191170520688e-02 -2.494133693041203706e-02 -3.562157066665477649e-03 9.238006957852561152e-03 3.900727061066520951e-02 -2.426384054747946807e-03 3.687361062559413316e-02 -1.073233503167863624e-02 -1.708455878882202822e-02 -4.731527764400779890e-04 -8.441817272041615694e-02 -1.158300454410051278e-01 3.456499718573354668e-02 1.377152773719410653e-02 1.614908319921846622e-02 5.995599920828757062e-02 -5.268184640465180257e-02 -3.026024215574275589e-01 -2.760634982509136640e-03 -1.478449710096158172e-02 1.423266479902415144e-02 -4.055385718538415812e-02 3.276686676567439754e-02 3.991354251901799849e-02 1.744681016454029815e-02 -6.313896763902087685e-03 4.729976819806908789e-02 -1.831531234142560194e-01 3.133260148303716047e-02 1.739914173298966887e-02 1.913413681751980830e-02 4.370425897059587901e-03 -6.388850548170529886e-02 -1.839065761552147529e-02 2.446727879024787611e-02 -8.426945505796307190e-02 -2.672537678673644890e-01 -5.486814380797697122e-02 -7.632961011539608764e-02 4.084792258597846892e-02 -5.171092077940483978e-02 -2.468212122666187947e-01 -3.777608664145431366e-03
-6.993781475229844669e-02 -1.571022281700251363e-02 -8.610094297525519580e-02 -2.826444965466578391e-02 1.243338029864814263e-03 1.148121523045261827e-02 9.113678681382927568e-03 5.452855296027242504e-02 -4.101212423001297791e-02 4.760469155566065050e-03 1.094719821310544301e-02 3.727466750845068177e-02 1.894323566665931727e-02 3.591821010904180239e-02 -2.925140008653631316e-03 4.173691901740821109e-02 4.566280862385103945e-02 -9.750662957866338548e-03 7.150715105864640167e-03 3.191718109243608589e-03 6.744890928304143884e-02 1.939167944590835385e-02 2.367148847354338601e-02 -1.144638504330033023e-02 4.171019052325666138e-02 2.976323776683675176e-02 -2.764789298832504363e-02 1.353220858118303616e-02 8.770784807614462721e-04 -1.516977812823937580e-02 9.380789102154509299e-03 1.117753449853655517e-02 1.097455702174732553e-02 -1.820224941434020818e-02 -8.015369243580769756e-03 1.246198695814597303e-04 1.492977928569043898e-02 2.991182534030116785e-03 7.864044497873649842e-02 2.861645154206351148e-03 9.069355565416911680e-02 1.436443779443586852e-02 2.449559780546694751e-02 4.504630664986363636e-02 -2.814631174452699239e-02 2.601119644665863401e-02 1.879610454893037436e-02 1.768354136213226438e-03 2.888305615713647120e-02 1.905690219920488579e-02 3.467184317374594898e-02 3.463253132647055310e-02 3.908654131246369623e-02 1.083561800004176432e-03 -5.796376474314691302e-02 -1.997307083650761914e-02 1.078466054532013427e-02 3.346810125205298969e-02 3.559282349543822777e-02 -1.650750157155616519e-03 5.143656940521643128e-02 -1.520719372010969316e-02 2.172599122504169367e-02 4.819941464023914240e-03 -8.011616104056791879e-03 1.327986316147968839e-02 3.819397658694087538e-02 5.758164808123102107e-02 -4.521554869538640248e-02 5.049570855511437140e-02 2.070722839828812931e-02 1.190752890266786939e-03 2.549125469036786842e-02 2.274766940867679887e-03 2.643504944778010679e-02 1.822347663630953171e-02 4.870499082422959439e-03 3.132029545345317578e-02 3.361401689987192245e-04 3.627410205267834337e-02 -8.383480761921678973e-03 -3.245779215022815811e-03 8.045740281406430286e-03 -6.166599727120968683e-02 2.225892346711418612e-01 -1.462337492239626090e-04 4.978168630955995960e-02 2.664987851193904508e-02 2.675875780310087507e-02 -9.725822991563267544e-03 2.861770934422722926e-04 -7.493053993421522514e-03 -1.019476253408141408e-02 1.682245362922618614e-02 -1.911679439416384468e-03 1.911396470430102744e-03 5.464028912291988421e-02 4.782388884467946195e-03 -5.807962461934295349e-04 4.535440872163939117e-03 1.385224513781101521e-02 -1.449615324690477387e-02 3.015334331059050729e-02 6.955150732996225136e-04 3.446628134143331357e-02 2.478642119604675467e-02 -1.230128988138350261e-02 8.146263789425223917e-03 4.932953247654057322e-03 1.845132574383427648e-02 -1.547860966263047700e-01 4.057485393550798458e-02 -1.353758599666284902e-02 -6.957517012534854967e-03 2.591721449356622613e-03 2.886891310724176360e-02 3.728597845591703069e-02 6.515494502479081927e-03 8.804724107530378582e-03 2.074914727752793023e-02 -1.120849363782819991e-02 -9.645550404956644563e-02 2.078361556702951543e-02 2.839526111782628148e-02 -7.474854286430896756e-03 2.881994011974736702e-02 1.829087433371302807e-02 -1.992465865406236117e-02 -3.161657488123562759e-02 8.438360002005377419e-03 2.863913812263689171e-02 -1.733971410631201041e-02 -2.239398151422545072e-02 -3.202101108948592068e-02 1.550855330831964760e-03 1.975380600229560690e-02 9.012742494715468566e-02 -2.000461609381944811e-02 3.050810814366308396e-02 5.812922584360834255e-02 6.718752661782606550e-02 3.786700756301498993e-02 9.034769433671657399e-03 4.010156857533124508e-02 8.700013249534015169e-02 3.733989774809089775e-04 -3.807841261461997195e-03 3.285135784559373162e-02 8.206117026547048166e-03 -7.000671812181112272e-04 -1.383374029107585675e-02 3.027287865274655432e-02 1.027830286119133484e-02 2.905785393701431078e-04 -1.210806200866617992e-02 5.170199412149135976e-02 4.108253506802657384e-02 3.473507111092914712e-02 1.905304679997349079e-02 5.449162925836059657e-02 2.196554151317083384e-02 1.859422071942016391e-02 5.510612950261520315e-03 6.999441651105336656e-03 2.904629074169824687e-02 5.024196314928514040e-02 4.437098344086302937e-02 3.912255145678825152e-02 5.392731054231926675e-03 3.002301536993367929e-03 5.636503096311671485e-03 -8.034964839242457121e-03 -5.452251815710129623e-03 -7.546763865718486217e-03 6.638942110529917574e-04 3.329482820656130826e-02 1.142300994878571452e-02 1.933905826370766953e-02 1.418587080305744492e-02 -2.425630205723185162e-02 2.487898002933483510e-02 3.619947638757429337e-02 7.564306061986177110e-02 4.844705265484202522e-02 2.998406502563929696e-02 1.111396448317344271e-02 4.525105886036646929e-02 3.143785592452027350e-02 5.852588211060002522e-03 4.455370160605297281e-02 7.959723178188729325e-04 -5.933157555316946608e-03 9.899559886006187304e-03 5.595787646871274931e-03 3.361202358964055642e-02 1.446649438528278646e-02 -1.372926911297852881e-01 -3.179473721873707359e-02 5.914518261394267895e-02 3.625363221717946283e-02 2.758632664110109711e-02 -8.822401325307208369e-04 -1.060060401823062666e-02 2.926726114381278041e-02 1.031164378524700859e-02 1.262947126147703596e-02 6.388976547061958611e-02 -2.869152196250435854e-02 -2.662146330074071157e-03 2.751963924627726446e-02 1.035023487723615021e-01 -1.215703604611787121e-02 4.871525019287797909e-02 -1.972094868039974899e-02 3.062332432984817693e-02 -2.545092381500491455e-04 3.467874819112148205e-02 5.184644277276485164e-02 5.415657736186852561e-02 4.303737791951552094e-02 2.344428769351292879e-02 -3.048550545023812237e-03 2.008107700763673079e-02 -1.782048757666234926e-02 -3.109534158562785727e-02 2.966775975068474541e-02 6.057841443308767740e-03 -3.350679099348120166e-02 1.241113084232516733e-01 -1.030742725526192713e-02 1.464926556845807387e-02 3.323379720910012852e-02 -3.533038776560880334e-03 6.103822063925601858e-03 -1.572747386070249762e-03 -7.949087159847349413e-03 3.912234845974196101e-02 1.074288530261756011e-02 -8.356873769536293101e-03 4.009849716249799106e-02 -1.328042225477299790e-02 1.072112827289318504e-01 2.298777383882662576e-02 -4.845758472310350584e-04 2.595632899246409601e-03 3.175972754785752472e-02 -1.309207255780711447e-02 -1.783108783429292405e-03 -2.169135675547686007e-02 9.281372326268626238e-03 -6.419227204414475196e-02 -1.037176267171770541e-02 4.774334627366376427e-02 -1.923090578276745455e-01 3.169456420446063565e-03 2.894676731856311858e-02
-1.533241306755709146e-02 3.560231211419764147e-02 1.372230145505904109e-01 7.039389124371488171e-02 6.424583630628147302e-02 -3.121527659522155274e-02 -1.896330984345970597e-02 6.136766109001462466e-03 -1.201433685246849729e-02 -1.333839616372374526e-02 -2.245517081177627813e-02 -9.218488391612537913e-02 5.206770128432099479e-03 5.263596816089022475e-03 2.124063804026133512e-02 3.034593520871011613e-02 -6.726008682207962330e-02 1.239888251917367103e-02 2.722100428017221879e-02 4.545328286455001948e-02 -4.050771026122838153e-03 9.361852038324236513e-03 2.700564156292417292e-02 -2.254072132700126949e-02 -1.343886934079424784e-02 -7.095864407123188278e-02 4.006754302196718215e-02 -1.319947024800533636e-02 -5.140308747485682062e-02 6.555553245637247943e-04 3.785881158358636589e-02 -2.943126719332550545e-02 -6.559119057262888415e-03 1.825033665586239806e-02 -7.841485691691431337e-02 1.560094451843165551e-02 1.779726030353757579e-02 6.452521174181901666e-03 1.679088474652517832e-03 -8.839578521819448087e-02 -4.650366080874380748e-01 4.363132359851497333e-02 5.446846910653729834e-02 -6.889413567703585317e-02 -3.931453048548995237e-03 -3.124143512020778266e-02 2.279736538272973678e-02 1.433203532250403554e-02 1.220528248713755905e-02 1.734549459200526505e-03 1.304625636780809561e-02 1.991917184538598631e-02 -3.079918062778398344e-02 8.848008186886269569e-03 -3.109948535731160008e-02 3.896043899327914645e-02 4.326408597385539290e-02 -1.411543921221998857e-02 4.489195661775650936e-02 -7.646402591611038690e-02 -4.268477209049757470e-01 5.379237160775645482e-02 5.487820953701105092e-02 1.049653027444158795e-02 4.406428464301333919e-03 -7.544360259357936471e-02 -4.679669456244663767e-02 4.447090471566380460e-02 1.844590483195188979e-01 -8.825197829482848977e-02 6.996217279775060645e-03 4.833919330380583718e-02 5.511310563460725814e-02 7.573412942693086639e-03 -5.705463985032394741e-02 -4.765037273916927774e-02 9.841340500781424472e-02 1.259177039962962041e-01 -1.324379070123401191e-02 -6.249351410815299351e-02 -1.861261590684644418e-02 -3.757173062078175002e-03 5.862011160311633717e-02 -1.348378884424677147e-02 4.548007645259569479e-03 3.590422059013753664e-02 3.685027310433353076e-02 -7.921094590616840209e-03 1.267038365616917663e-02 3.119127305318640520e-02 -1.212383233177350035e-02 -7.105977823861014953e-02 4.723964220323969426e-02 1.304977655899068612e-01 -5.485998008297275630e-02 -1.548131553101030240e-02 -3.098082571331269366e-02 3.823166718431080663e-02 9.982952209750312056e-02 -4.585481748694343260e-03 -7.887842777580858500e-02 -1.039285867881882715e-02 2.651687093475069146e-02 4.954067343397737522e-02 3.366093902156021278e-02 3.544039587233741712e-02 2.076140093404253706e-02 6.633240738390447366e-02 -3.128431611349465763e-02 4.837936191505620015e-02 8.740001655054022156e-02 5.720736774546678061e-02 -6.946288711103236480e-02 -1.106237965505204798e-02 2.333822232648343972e-02 -5.662582502696619779e-02 1.204123333822815223e-01 7.222793153021105084e-02 5.618537150916181472e-02 7.206642667995519225e-03 -7.920237494118441413e-02 2.998672898246147467e-01 -4.646428424467289459e-02 -5.498448460940607435e-02 8.123468107441163266e-02 3.081182228411905033e-02 -1.359569297413818489e-01 -9.918723721839807494e-03 8.175168818267072868e-02 -8.755769426184931148e-02 -5.897956159516887925e-02 5.121437524646797051e-02 -7.051978101319432424e-02 -1.225156269419083871e-01 1.658368701173195126e-01 9.654156010041665958e-03 7.434334221326513448e-02 4.262196170254715921e-02 -3.126547808200789286e-02 -9.214620751857968695e-02 2.160459494881869155e-02 7.322935426593873975e-02 6.584314278278505239e-02 -9.151845272666457587e-02 -1.380056021322762470e-02 -2.102527262295629876e-02 -5.206880041881872812e-02 -1.500672717972153548e-02 4.045575150089089633e-02 -2.755361433848244751e-02 -5.281564723476787210e-02 -3.740278575737243649e-02 -9.916459293444174206e-03 2.619208964056814193e-02 -9.862957934650083691e-02 -1.438082376097508941e-01 -4.817796463448979077e-02 -4.357223344331803694e-02 1.618310810683230849e-02 6.107899518310895906e-03 2.745114545728730496e-02 -1.324001751554105266e-01 2.429759921366759015e-02 -3.804348491668936572e-02 -1.221559351286190774e-02 1.319410306255935049e-02 -1.006152667652831373e-01 -2.660140559864660262e-02 -4.933773764936057182e-02 -6.444114899519342611e-03 9.848648017896461868e-03 4.194518009985846035e-02 -1.300930941542098873e-01 1.149714350410512981e-01 -3.676278080964236195e-02 -2.910611300796579759e-02 1.792873636663357834e-02 -4.412720334314852028e-02 -8.294586368640094465e-02 3.171521125503311972e-02 -3.671622805189820454e-02 1.177146991527879168e-02 -1.327066101292416825e-02 -8.003054451120343582e-02 1.797090245489708221e-02 -1.083519127591428891e-02 7.135239706617266253e-02 2.245677170524398858e-02 -1.205163666971204722e-02 -9.841583902906776704e-02 3.067660166303501010e-02 -5.155074255255940457e-03 -2.906699888710961160e-02 -6.805542008618122030e-02 -3.703319528633895741e-02 -4.821496425719903889e-02 -5.756049381302584533e-02 6.379908243872416292e-03 4.787059526435716306e-02 -9.356724736623898975e-02 -4.112568670696499507e-02 -4.489726605368987017e-02 3.723932650112212611e-02 -3.090285516660229437e-02 1.864141470620892665e-02 -1.507686841016729340e-01 -1.064676147762625702e-01 -1.400885875066029337e-02 3.148628227938381902e-02 9.144651933174852143e-02 1.469603939791097429e-02 4.273296425869019298e-04 -2.876746032427416125e-02 2.126993948300418685e-02 -1.276148285070408984e-02 -7.549257013336761789e-04 -2.425630547136343670e-02 -3.589897255390828157e-02 2.621321360662649119e-02 4.436759176754041106e-02 4.510740159934897853e-02 4.625099868250462549e-03 1.658016472912657649e-02 4.697399335830092920e-02 -4.331715711391782159e-02 -2.613965374335600403e-02 -2.659579876294818762e-02 -1.260063320844265478e-01 -2.103607447676007214e-01 2.793704577050694013e-02 1.087099988954227658e-01 -7.762526162271919661e-02 3.028831888987143506e-02 2.510740198378743487e-02 7.635653706963692333e-02 1.309149060035926480e-02 2.406256548896702416e-02 3.100565683473583203e-02 -4.651911046725861615e-02 4.807912101519225961e-02 -7.670698337008889645e-02 -2.047432651865407349e-01 -7.271359533796560581e-02 3.903146323138408785e-02 -4.608168344977742886e-02 -2.391660579860629965e-02 -9.470527800146523456e-02 1.587811243464870570e-02 -2.162481037491826782e-02 -1.380016902604398743e-01 -1.088880314561963408e-01 -1.258247630642686694e-02 -1.271446343498608689e-01 -2.148893702037014408e-01 2.179573808811671731e-02 5.989833831159593891e-02
-1.909207524500202979e-01 9.064275336332743016e-03 -3.354125201198304707e-01 -6.573851136250632998e-02 3.520842100234775063e-02 -5.755370670154676127e-02 -1.104708269824185712e-01 7.306257061264678776e-02 -1.380576481673871647e-01 4.082303424490871246e-02 1.481647855181185969e-01 5.986417536152741081e-02 -1.291443529851287429e-02 8.051316241698096288e-02 5.252485268744409158e-02 1.477580194344475101e-02 -1.899831101359641256e-02 -8.832411108966757574e-02 3.584666032986690704e-02 6.449397769508070921e-02 1.055303549900526855e-01 6.551934073742102238e-02 9.435062335621563490e-02 -4.453344357118266955e-02 5.695141377657171600e-02 5.011289916997627159e-02 1.964982953532205534e-01 -6.427614722316643027e-03 3.627708004405675452e-02 -4.589846844175071022e-02 5.506266730119489805e-02 9.175837347394339913e-03 1.540367599636920277e-02 -4.616411345249472192e-02 -7.092649784163188031e-02 4.327275304988882632e-02 3.976271003133732829e-02 -7.521595208753609207e-02 1.528505745619183065e-01 -2.659917626985133440e-02 1.510253678808667066e-01 -9.620959473315413013e-02 3.802935623573468898e-02 8.047439055429729537e-02 -8.449909169427863298e-02 -6.648918079557911663e-03 1.729059394850936821e-02 2.413374270141471767e-02 -4.677943465897623811e-03 3.445794452158762976e-03 5.045085472871442545e-02 3.907298441519847093e-02 5.616364642549186853e-02 -5.080988379573352087e-02 -1.112131585523699340e-01 1.406351378758006337e-02 -1.611521720453156295e-02 3.007665783442343629e-02 -1.075970302010254981e-01 -1.231807890937638289e-02 5.103722285552449861e-02 2.000176773726128343e-02 7.595748935147893233e-02 -1.113053836889410308e-04 5.281585849286499906e-02 -1.384436844718416916e-02 8.198154431851376045e-02 9.224314245878297014e-02 -5.667466127914227991e-01 5.107861554031528639e-02 6.466260447119029364e-02 7.817175794578846981e-02 5.938474910355654585e-02 2.876369170662910688e-02 1.747029867585971896e-01 -9.752158672442200193e-02 -2.081996146079056198e-01 3.277912418245768067e-02 1.333311602409394288e-02 9.567333201335488646e-02 4.052354235484038891e-02 2.728375043087877955e-02 -3.112117387099900753e-02 -1.209688789847581658e-01 4.335587668380959658e-01 5.025683823847024168e-02 2.759702400620570040e-02 5.111015481923249920e-02 8.360253858636590429e-03 1.258057388443478003e-02 5.164709532712804391e-02 1.202222759181817840e-01 -8.354930453797777823e-02 -4.755053094811943770e-02 -3.497110362096304825e-02 9.721396584729228782e-03 6.029636261134164316e-02 -4.826629110612375151e-02 -7.144117166265669117e-02 -2.992437680031800190e-02 2.408657879662756511e-03 9.061776472305610453e-02 1.705404661628820775e-02 -4.515767304836598717e-02 3.396557139708837603e-02 2.797707904022399272e-02 -1.946940803234485954e-03 -5.120968473161335854e-02 1.041940402275448457e-01 -9.473662006246555412e-02 1.335044174978556042e-01 1.363425352371069703e-02 -5.868532822759742890e-02 -1.340480285686635187e-01 5.337433518840679902e-02 3.551116049274678776e-02 -1.166655842970032581e-01 -6.951830582657503310e-02 7.037275769980064211e-02 1.125289498911700437e-01 2.774897445566086585e-02 1.445276343032688704e-01 -4.819781223671192050e-02 -2.070325681380845162e-01 -5.170239357659093399e-02 -3.179653994830152625e-02 -1.179436627599061704e-01 5.376576399948879668e-03 -6.812100356873927731e-03 8.416535381553993944e-02 -3.619092163095271632e-03 -6.382679562921456107e-02 1.431868461091265754e-01 -2.271178589901656081e-02 8.753682508001629781e-02 -4.013357543347367135e-02 1.832289970307240667e-01 6.725831892478464913e-02 4.322965748103470979e-02 1.394833839749261006e-01 -1.514540638369780458e-02 4.618990136492856502e-02 5.401924363876031004e-02 1.551203259936873580e-01 4.270146308703642868e-02 1.047029894893645174e-01 2.285941140593975018e-02 7.393874790964136134e-02 1.089922224081628713e-02 -1.674089044897431044e-02 -1.319597551686561843e-02 -1.139434566663986848e-01 -3.065050402731227946e-02 -3.244394462674309726e-02 2.385281378977938474e-02 3.242565657135794421e-02 7.531536976179110943e-02 1.271744108589984400e-02 5.252230574262787416e-02 1.312134487767898927e-01 1.191953564305454211e-02 7.161164654114514361e-02 4.316392671627181099e-02 -1.923404381946200795e-02 6.516970900868078453e-02 1.677883820857322891e-02 1.488974268013099622e-01 1.024636389623960302e-02 -4.275373257033997232e-02 -1.486054999169300790e-02 -4.659760568632319994e-02 -2.921675484548713966e-02 1.597585146384165045e-01 -7.608593528311470566e-02 1.375738724919959438e-02 -7.081647770211649262e-02 4.587805017016351183e-02 7.902290310335870205e-02 -3.388955845584035870e-03 -4.175423675479125046e-02 2.621687472197192781e-02 1.012742015290257584e-02 8.406679684927441387e-02 1.154903445953702895e-01 -5.270384804110983881e-03 2.503235611986624753e-02 -1.770562361006249863e-01 1.561461401526115407e-02 3.656775061598054738e-02 2.941308021533824424e-01 7.080262849318787535e-03 9.774951718985475102e-02 -2.464231856022570666e-01 -1.319128758460922368e-01 1.533343291236513306e-01 9.353601546067494277e-02 -2.448914437815100653e-01 -1.895218496665722896e-01 6.807186152111248389e-02 6.064758593534418790e-02 1.274873441783791993e-02 -3.050636138974715736e-02 -7.670566553589058811e-02 5.845236175766297532e-02 -1.031155320862827685e-01 8.296547960664933663e-02 2.177989434223178422e-01 -5.260731029662958635e-02 5.326296328183629386e-02 -9.827317458882258924e-03 1.922811829930306526e-01 2.385190145286550378e-02 1.402354140936374893e-01 -3.718396760606516166e-02 -2.807293191335777718e-02 -4.517456112538074248e-02 4.527930039580162908e-02 2.358682048426909844e-02 6.613861636734254257e-02 2.658620998546247852e-02 6.445317391729264711e-02 -3.132689874258332563e-01 -3.939844536634733163e-02 -1.001805192425129637e-01 3.644249788900062043e-02 8.349817081154828347e-02 2.717338021242577881e-02 -6.741919170966496899e-02 2.936570222733124180e-01 -2.717694962340748768e-02 -1.163007744689391887e-01 5.459821387459856679e-02 -3.290717370168228656e-02 2.240243528707109438e-02 7.657890037209669036e-03 5.265048733532670666e-02 2.849533084092868707e-02 7.148375468291398582e-02 6.594761382551775353e-02 2.777747409271793394e-02 2.241930314512208602e-02 2.215647293695182096e-01 7.086617833980686509e-02 3.477675125972969072e-02 1.306571345188904665e-02 -9.159474271001315226e-02 5.391493493513645902e-02 5.946972083483798716e-02 -8.329157973015254013e-02 -3.466459153336534649e-01 -3.567054681324473564e-01 9.433437808375934319e-02 8.992295248881740366e-02 -2.444364637105587434e-01 -9.614455220424819593e-02 8.495253659996412909e-03
1.972195511232646345e-02 1.640826332239531116e-02 9.991132276053775116e-03 4.887289175477244757e-02 1.685916633299069239e-02 3.041179314894789168e-02 2.357445530758761967e-02 2.083308997382080432e-02 -8.134162195803809267e-03 2.278147601708136946e-02 2.713482878095321849e-02 1.881458325053804448e-02 3.673831715552486332e-02 1.761393321432373066e-02 1.648220132868242344e-02 3.320357135158098077e-02 3.050258470418310691e-02 8.592712659190098953e-03 3.553845112172864668e-03 1.876150605146277225e-02 9.746045581906778027e-03 4.008432161119670351e-02 3.049818892644253973e-02 6.718318864432250639e-03 2.906703610800963691e-02 3.725152700080284346e-02 -6.427549552455173905e-03 3.242081146766375571e-02 1.795824604738725794e-02 2.034357164334118021e-03 7.793896948085896059e-03 -3.606820366344289162e-04 1.044230149262926309e-02 4.094617358548299606e-03 1.184220533816311184e-02 8.771968569222268058e-03 1.189518976510715517e-02 3.470063480117728527e-02 -1.467466100909060010e-02 4.677835849991465039e-02 2.926403878378131679e-02 1.615253212602410851e-02 1.104906108509294576e-06 2.675105206461167451e-02 2.000809581156015593e-02 2.446529443918119689e-02 -6.206556195657341249e-03 8.423172202838532033e-03 2.623855656999638658e-02 2.132044869908348086e-02 3.626239752373815878e-02 1.180756598213950938e-02 1.952117538166268929e-02 1.166743871656155361e-02 1.073625746153503493e-02 7.878731951991357202e-03 2.058338512638102288e-02 1.457638978382070662e-02 3.989244952499189194e-03 5.038878180580209747e-03 3.363970316531660065e-02 7.840596825136389794e-03 8.096210422180472391e-03 1.340441403040385816e-02 5.562567480753767557e-02 4.233686880960819965e-02 3.091375115117105457e-02 3.425518883364591510e-02 8.609727679027215710e-03 1.521768853425220849e-02 5.093815598418114342e-03 1.307760304229807491e-02 2.895027244610863179e-02 1.190371638745196629e-02 5.843029297096673930e-02 -2.773973478952526835e-03 1.324833494704785730e-02 -1.344789719085460978e-03 -2.268675914770213516e-03 4.370705473928709894e-02 1.262729433584312139e-02 -1.999597434804844945e-04 2.384440312228612580e-02 1.231876038536154801e-02 -1.322565762649340927e-02 1.940955727563563327e-02 2.692049771902474062e-02 2.520551044499361876e-02 2.044065387028573891e-02 5.568361045392189977e-03 2.543030821063343647e-02 -1.084522046493868394e-02 5.187181447167536416e-03 9.436357777367569005e-03 -1.738359597231557696e-03 -8.983723852656617503e-04 4.292010621784669161e-02 7.704462601936469014e-03 1.022248012496181253e-02 2.186867152292273908e-02 1.067576421843310398e-02 3.574052235126863597e-02 4.638014735129281779e-02 1.035161335518794239e-02 4.234529430123373794e-02 5.433646584234105847e-03 1.476874488945166194e-02 1.473725216036249862e-02 5.956099790252613463e-02 1.740723051589376791e-02 -3.145789294275374431e-02 8.590283554960938955e-03 1.124320295701778348e-02 2.182236718748708712e-02 1.127626421963061516e-02 3.353701224507985024e-02 2.818525147365365680e-03 1.443389554031102029e-02 9.527044797321528383e-03 2.404653693929902428e-02 3.944513197351465434e-04 -9.371192774013971383e-03 1.501138243801801615e-02 6.532860902818102104e-03 5.130846475297747879e-03 9.823984504917157579e-03 4.598456819185375681e-03 -3.124943933691099081e-03 -8.671536706560273051e-04 5.290494667382543426e-02 3.260323312585716032e-02 1.801539392393497821e-02 2.764493361145777591e-03 2.539552701394301101e-02 5.682817834394529588e-02 2.571960418242330224e-02 2.870872799863521604e-02 2.479953322099687565e-02 2.242598869118097443e-02 3.307378318138644302e-02 9.389933132922845954e-03 1.466199427834588911e-02 2.002111978691709440e-02 4.728202836757487704e-02 1.170734964969163613e-02 2.660651209986267252e-02 8.155275191361013865e-03 1.646337545917552977e-02 1.822496188067320583e-02 3.668837519343161324e-02 9.356607715271267014e-06 8.019628066778776085e-03 1.584612604000032107e-02 7.716531170061017783e-03 3.874799888262916991e-02 3.402419435230259748e-02 1.569064222974539055e-02 -4.720685677286784454e-03 5.357458576904720882e-02 5.171569069573252880e-02 2.768882598446673407e-02 3.500622274590191318e-02 6.551054777521965813e-03 2.047807666410010954e-02 2.968137070303692934e-02 1.054226368845619967e-03 4.857994922456183862e-02 1.834553284044264029e-02 5.403644451375035421e-03 2.054451856100096563e-02 1.969220057216088463e-02 1.896755486565868468e-02 -7.123423722516610598e-04 5.425065026337783265e-03 4.896858686052529830e-02 1.508876690198094998e-02 1.335974970031267653e-02 2.241370485614762806e-02 2.861675946548641880e-02 1.556974346461902775e-02 1.767220198516570445e-02 2.209355268990164517e-02 3.289576843456554905e-02 3.373773477177374053e-02 2.214385730152703194e-02 1.935514338615152222e-02 7.795030638832408515e-03 1.715018235777234640e-02 1.716033470142040371e-02 7.354518655243375610e-04 1.313000363290064802e-02 1.963463988371986699e-02 1.198610288089459533e-03 3.678942476365032205e-03 5.142646278864939670e-03 2.164495196891800741e-02 5.980597544586383624e-02 1.476940838483062693e-02 4.175513869076858536e-02 4.996644588803562242e-02 2.924434734247640527e-02 -2.955598532998657615e-03 5.061993584139445022e-03 1.486818675366448177e-02 2.512908903508256214e-02 2.848627320807644442e-02 3.685486437079709549e-02 1.287195928227156949e-02 1.975693468944918207e-02 1.354258078204826667e-02 3.259114106103116332e-02 1.983010662859900543e-03 2.147823810904593220e-02 2.397569821739265958e-02 3.957911763892201645e-02 2.459387393321125700e-02 1.505482277564864670e-02 -3.506245419028762491e-03 2.707163147412311802e-02 7.464412953271853945e-03 2.329522323695494904e-02 1.600471167721450802e-02 2.369826657148949717e-02 1.026773950700295493e-02 2.246266887627134529e-02 1.663881857499421510e-02 -4.366574351260105007e-03 2.279813672366219277e-02 -4.039717173965728068e-03 3.028865762093163258e-02 -8.265974864495925355e-05 2.916264606361635217e-02 3.883796089143935065e-02 1.086258228371852867e-02 2.066305307454638363e-02 2.263396969306839118e-02 3.632713661487410595e-02 1.899529601089742711e-02 2.932537258569849550e-02 4.003299221667242641e-02 -1.213754191894765100e-03 2.279408626767053317e-03 1.459665049821510033e-02 3.157035149480941390e-03 2.768367692905825475e-03 4.934915623008494408e-03 2.332820800479896289e-02 1.843928872321801832e-02 1.923734354843173108e-02 3.680593468933594879e-03 6.259896439412343354e-03 1.669968924875151611e-02 2.202713258502190033e-02 -4.594261896990808891e-02 1.633002242566940557e-02 1.133063662015615716e-02
-6.038286946863318655e-02 -2.061309886296469954e-02 -7.011457163403046755e-02 1.122366462014188354e-02 -4.026908596712042848e-02 6.341481533671891775e-03 -3.398688585391339279e-02 7.902678779643286522e-02 1.824251518498285624e-02 -2.390983550064992164e-02 -6.304059255643000570e-02 3.733314948049086535e-02 6.210567862132887473e-02 1.714565592186022280e-02 -2.844781450692289437e-02 5.407438153610204939e-02 1.684842472659178747e-02 3.921561100006786676e-02 7.314492914275944578e-03 -1.168857416643167071e-02 -5.288551670924009768e-02 3.401115634090894069e-02 9.734931340758626664e-03 -2.875055631533015785e-02 5.986866388005449707e-02 6.589456714087615907e-02 1.569675911054276354e-02 -3.447187935799048836e-02 1.797842663645957129e-02 -7.123358536098108040e-02 5.941293819999946685e-03 -6.362365478890491532e-02 -2.887274842882905923e-02 -3.105783865471367644e-02 -9.615488733931079612e-02 -9.689707698200576008e-03 -6.361766671261022410e-02 -1.553890783458582343e-02 1.458273541291770226e-01 3.637183358764822100e-02 -1.837046711011836378e-02 -9.292847040913018719e-02 1.028502302683241901e-02 3.610335589886010804e-02 -4.526850803059422057e-02 3.196658359512524056e-02 2.404985251245509228e-02 2.406677419348340549e-02 -3.129130092006365133e-02 -5.155413445925913218e-02 5.858899242505363758e-02 2.167385501539965259e-02 2.033866337872829513e-02 -9.098944671288915166e-04 -4.068423680794740899e-02 -1.041430248923733669e-02 6.050159990746404454e-02 -1.143790090622855311e-02 -7.847937158184163653e-02 1.136787358456930845e-02 -1.169022813522649189e-02 -1.157535434429410488e-02 6.956705832516416055e-02 7.506077098043655547e-03 3.621146556873195560e-02 2.089443783806375216e-02 -3.024834715468095736e-02 8.219154988405803774e-02 -3.540963672400502388e-02 4.804798556443155844e-02 -2.572339568039579485e-02 5.513500524296087620e-03 -1.736014191521870198e-02 -3.229325829683908633e-02 2.530552319543750636e-02 -2.645380728266982437e-02 -6.782152750066007540e-02 8.093687959373709051e-02 -3.781686982924328116e-02 4.093122610233641649e-03 -7.996322327540475450e-02 -2.037108529401874483e-03 6.930298377578237440e-03 -3.518888003190762809e-02 6.872796959860071053e-02 -2.335161489274513447e-02 6.009525271766404109e-02 -2.382081066387851942e-02 -4.487380118578449678e-02 8.010302753137762619e-03 -5.965984004543836011e-02 4.582189495675016017e-02 -1.533621409734633664e-02 -4.638817668883206684e-04 -8.288106491981191148e-02 5.728495305700223063e-03 1.340055074363593300e-02 2.592538872958229795e-02 7.125957328380194689e-02 -4.784838988036338447e-02 -2.318555169771294860e-02 -1.401707633027867578e-02 -3.460875037040382629e-02 -6.685530880533288589e-02 7.150051580424345021e-02 6.396636342521096370e-03 -6.554473250102598250e-03 -1.260618094835310246e-02 2.282722637552533559e-02 -6.835803396244712060e-02 1.231597245001367913e-01 5.460527528876227277e-02 8.631040880142574687e-03 -1.083473523540774523e-02 -2.897801738319157050e-02 -2.146820274966685944e-03 -6.152723256262560697e-02 2.874764691331272923e-02 -1.719913673333359552e-03 -3.895260670189996943e-02 -1.100314910300892630e-02 1.713359951117456592e-01 6.355868374287575520e-03 -6.323875816510450554e-02 -2.516882399278836877e-02 4.158045512911603958e-02 -1.133748477960300621e-01 -4.859052029607696666e-02 -1.114924371143881203e-02 2.689655393861011684e-02 -7.865386388933484629e-03 -1.510786994944368980e-02 5.215052905892731891e-03 1.998599714562571128e-02 1.071518704854163007e-02 -5.721392469341907844e-02 8.633079249297458124e-02 -9.975693933935189661e-02 -9.635991756448575307e-02 -8.042938884628779428e-03 6.731589586818405302e-02 4.951495140404065312e-03 -2.850711319492919490e-02 2.420794553472855812e-02 3.025770815287127241e-02 2.616463036946211490e-02 5.242207585726117378e-03 6.354087632998077148e-03 -2.465057906902826113e-02 6.777552244713086482e-02 -1.201619760458438532e-02 -4.647126827421837331e-02 -1.242457252617771950e-02 5.431753051818223425e-03 6.469532881800049706e-02 7.845975717079983758e-02 -4.513283257852531739e-03 -8.699187263452677621e-02 9.026883670157292983e-02 5.614085309126248813e-02 4.879328979387369258e-02 3.158427390390373783e-03 -1.489680984495656349e-02 -5.939040363767510156e-02 -1.338767782477041229e-02 -4.524712643845662380e-02 1.203819236200019682e-02 3.791159896295383941e-02 2.556432335745658681e-03 -2.041807169780784567e-02 -4.607743730583596306e-03 -1.533896755730082377e-02 1.681187647303359067e-01 6.999059978657157233e-03 -4.330200952338733589e-02 -5.428931903346594784e-02 -1.628394985227447564e-02 -3.184940220407365356e-04 3.787353538061682696e-03 4.267038067137221904e-03 1.555566869431358745e-02 -4.159370231114638272e-02 7.457469031400575099e-02 -1.757855716790287723e-02 -5.847656605761958337e-02 -2.759374829302522689e-02 -1.037614091909459385e-01 2.690423031952986644e-04 1.478713377870554714e-03 3.015757494953330564e-01 -5.247304033829179593e-02 1.098857111958185390e-02 -3.041805609064616653e-02 -7.749568087683730844e-02 2.939482200209644347e-01 -1.738846340490312649e-03 -6.764565983945859673e-02 -9.236845385835407152e-02 3.990541981192181203e-02 3.981315935121322418e-03 -1.683972793732393600e-02 -8.510773274699914848e-02 6.283082832468253782e-03 3.251633071305354977e-02 1.529016054489503243e-02 3.484642616896441170e-02 -2.624710328064576784e-02 -2.746886450145184788e-02 -6.286577273568223420e-03 2.295149069857101501e-02 9.332974609996670667e-02 -9.335452745710720590e-02 -2.198211785687626679e-02 2.201732864820199823e-02 -4.473151805923099300e-02 -2.869271157447802686e-02 1.836316022601302070e-02 -3.035441573058406811e-02 4.727610606995291676e-02 3.617380244323119276e-02 6.759097028755576414e-03 -9.324976725164305091e-02 1.961623294451532093e-02 -8.366979206971708952e-03 -9.785571113616410577e-02 1.718636399372137566e-02 9.266913924835100749e-03 -3.937675225675808105e-02 1.071250711100001363e-01 -3.706639575718223556e-02 -1.159206613651413836e-01 -1.682943447951780469e-02 2.638385345339848420e-02 -2.852114106102227736e-02 2.959755425414617794e-02 1.341584462903826908e-02 4.255129900291636930e-02 -6.400431712379874103e-04 7.245031277313608575e-03 7.647620157994107493e-02 -3.213487488492144245e-02 8.638650062724946566e-02 -9.408451166666418480e-03 1.409911576088481843e-03 1.722589902883277235e-02 -3.145814028223788139e-02 -6.810680410906716498e-02 -4.971529978482721636e-03 -9.728747365948089976e-02 -8.182551836914976617e-02 -5.902815383505236740e-02 -2.289543794598053461e-02 5.375037530245684730e-02 -2.234404810973446565e-01 -1.752707071305302788e-01 4.172156868454037631e-02
-1.336813792599683415e-01 -1.642584486714997738e-01 -4.221642763178348051e-02 -3.018877620755017893e-02 -6.570518742143030555e-02 6.583435290542637153e-02 -6.018152414213053317e-03 -7.158728229408261104e-03 -5.344918942944396761e-02 4.935433752131893059e-02 1.445098126319444842e-01 -1.643858676725197532e-02 4.089567229907381529e-02 -3.121342980656489907e-02 5.513983061840524447e-02 2.751664989649509757e-02 -4.817250878722734858e-02 -1.506719498146274205e-01 3.723630045734564048e-02 -1.367761242257296578e-03 -1.909978324170269193e-01 7.023295910165489042e-02 2.447605108804255108e-02 4.889996344911168996e-02 4.795964245909221241e-02 3.092272306292512263e-02 -1.941305916167141710e-01 -1.167561056879648160e-02 -2.391672832502409959e-02 7.158381456872878190e-02 -1.178243195446374708e-02 5.669416465471736888e-02 -1.689639291488432074e-02 -1.803343736458971336e-01 -1.563832280407236874e-01 -3.868306958898412671e-03 -2.004011783503680325e-03 1.142194132499536191e-01 2.075799096125920118e-01 1.366863730064143967e-01 3.046624956865869038e-03 -9.714315761060167420e-03 3.521834591719412433e-02 9.149824391466047924e-03 -2.701337109300498418e-01 -5.038222395253538766e-02 -3.030165004794920791e-01 1.004727728858603730e-01 -3.128531389904307819e-02 -5.322554420189067742e-03 5.197862636510038742e-02 1.648857850518933507e-02 -4.892979564296863482e-02 -5.578203568798520418e-02 -6.686164283146669995e-02 -1.696168195463661210e-01 1.241376372612291168e-01 8.163069199913701446e-02 -4.137209690091146058e-02 -1.945360579932710887e-01 -4.409238862562973177e-02 -1.597924795355719629e-01 8.763336560426292221e-03 -3.982140947277007514e-02 3.414268441299957851e-02 8.575899833355674073e-02 7.233306469051896392e-02 1.866707788741497551e-02 5.551521325517750488e-02 -1.153624321474687117e-02 -1.251821416798007680e-01 5.425288303789171235e-03 1.753464397420071569e-02 3.048485213647458836e-02 1.912008842954932841e-01 -2.096207764774583523e-02 -1.156653224373410671e-01 4.121064761493597149e-03 1.243880579231117639e-01 2.043973920334015704e-01 -9.300466794379950997e-02 9.023332108810913632e-02 2.537154098333007160e-02 -9.322035778282716789e-02 6.209970107266335471e-02 -3.347785295771638775e-02 -2.215355907083643890e-03 5.580347496067144392e-02 -1.941872085840062531e-02 3.651589036641163244e-02 -1.869361355820985116e-02 -3.089897117091342654e-02 -1.980671555979900689e-01 -1.637700916410519958e-01 -1.379134330402474740e-01 3.896859795774372526e-02 2.504277565467936256e-02 -7.479209754332581672e-02 -9.829064666396256089e-02 9.075090745019763830e-03 -1.304635228073444675e-01 -9.777823300708400611e-03 1.208968227652869459e-01 -1.501317218050699231e-01 1.474909790427064021e-02 2.895149640870171570e-01 -1.372680196790475038e-01 -4.793699623537298060e-02 1.998947143296777029e-01 -4.679506740173976914e-02 2.730196919741820216e-01 -1.914139120988208806e-02 -5.091723453510439701e-02 -1.431944547383728894e-01 5.821066203251644422e-02 9.913793638284545615e-03 -1.412685638339865879e-01 -8.341731955367300000e-02 1.005135306798817484e-02 1.101695792971226356e-01 1.007448674043687382e-02 2.233231853486183638e-01 -6.723103717254015621e-02 -1.768489828605891157e-01 -1.312813764406557948e-01 -2.886868162460546131e-02 -4.515184346174278551e-01 -1.798920400610094089e-02 -4.590929426221117965e-02 8.430601025188626252e-02 4.106808261846445207e-02 -1.571022130570906561e-03 3.201353105334134308e-01 -1.187969211729128644e-01 1.480901346604012458e-01 3.217174800516812289e-02 6.721303960168910352e-02 7.163550392939641021e-02 1.847642009542492525e-02 8.041353574579977737e-02 -5.338456895694276838e-02 3.692567226025506716e-02 1.217472504394805912e-03 6.965067191119253542e-02 -1.020532500386757413e-02 1.073021181715314298e-01 4.177926538919231325e-02 -4.259491550641617691e-02 -3.217826489870746764e-02 6.655962734959816607e-02 -1.173788781894699457e-01 -6.253191815350199467e-02 -1.156701663939873614e-01 -1.276683149683734142e-01 7.114721619234896932e-02 1.393801520655945335e-02 -3.242343849090382341e-02 6.910802216092828965e-02 7.072922287426057497e-02 1.726249725678992430e-01 4.011891079151239797e-02 4.921664001541781880e-02 -2.136643563103013399e-02 -1.128727308307041627e-01 7.384588405919717546e-02 -1.897702115800802281e-01 9.912709136894301554e-02 8.638684590055161622e-03 7.175918590446943301e-02 -1.430342568970590644e-01 -3.681845340565434443e-02 -1.261122386916822269e-01 1.911001769218380886e-01 -2.243957664992167478e-01 1.391788832500935047e-01 6.409311884475622778e-02 8.912112268908808227e-03 8.992890666286425250e-02 5.080544051994071580e-02 -1.438168219710553863e-01 -1.766433696774128217e-02 -1.418522206665400603e-02 -8.261544952442173573e-02 1.100829620405849169e-01 2.138781793732023873e-03 -1.029927210254039244e-01 -4.449843056167095134e-02 -4.234545314579253594e-02 3.372461548706694179e-02 3.228484065911078060e-01 -6.721690916961894219e-03 1.279271885310673262e-01 -2.506664700280359162e-02 -1.265829512099047038e-01 3.479777395185479349e-01 1.131333644297388835e-01 1.880113957240483330e-02 -2.162842670423590630e-01 7.974182424988708606e-02 7.878571733648863373e-02 7.477483823755591563e-02 7.201490829940856986e-02 -3.191308842942806173e-02 -1.147559513742609904e-03 4.789457762212220165e-02 1.309713592204683578e-02 1.434397524658533041e-01 -1.145402250132185468e-01 3.815203175680942360e-02 -6.021210229179726342e-03 -2.258852040805939959e-02 1.743509425015176140e-01 4.278831258583336294e-02 -5.382105319204906306e-03 6.864390354031821295e-02 -4.727038488578401421e-02 -2.058601473043143379e-02 -6.001134230075093334e-02 -3.933943516101416626e-02 2.733591736636470371e-02 -3.884408275235508995e-02 -3.552697743890111393e-01 2.676718613766677912e-02 -9.793692964236966336e-02 -1.839729698504804778e-01 -4.127221566862258190e-02 6.654169936174356148e-02 -9.248652332646156715e-02 2.953735484023417568e-01 1.640638857613607726e-02 -2.998427964137454493e-01 3.972822921914084121e-02 1.147490197258512895e-01 6.693752649269216377e-03 -3.941491111705777706e-02 7.730960024314617596e-02 5.405740939032839532e-02 2.076538339816202602e-02 3.572073762145815123e-02 4.039059984248700302e-02 -2.811763647730125548e-01 5.844861398669724123e-02 -3.424599651092559427e-02 1.894424211417016293e-02 5.146756033460365282e-02 9.414133926078625814e-02 -1.369476883283725355e-02 3.121671334206766596e-02 -1.038982846174116154e-01 -1.177381916337110340e-01 -2.996863904158220474e-02 -2.215157349914783635e-01 -1.230433278895221895e-02 -4.448065586265302351e-01 -3.025997056077896485e-01 -2.406608358521480483e-03
-3.821899751148669783e-02 1.023600665395981227e-02 -6.915074817195137058e-01 7.459304741609017186e-02 -5.017588505797821070e-03 6.766757927650769722e-02 -3.447260635760493463e-02 3.178126316048226346e-02 -1.660134421723835907e-01 -2.094210190223458681e-02 1.375178752391805481e-01 -1.243157870049371033e-01 -9.522460584338496292e-02 -6.834435218890258512e-02 -6.166587688294079828e-02 -2.318370136198422832e-02 4.127450933995348292e-02 -2.432701917919550816e-01 3.161012231163377872e-02 -2.675782142619964957e-02 1.676302965211570045e-02 4.357646674521162972e-02 2.480442594256892716e-02 -4.898155746308280323e-03 1.304678186046826505e-01 -1.067370914666186145e-02 -1.179550986132834288e-02 4.329673044434741852e-02 2.235535109484010265e-03 -4.901433002725999466e-02 -1.397933497389864700e-02 -8.792684417307027045e-02 -1.630430843910164740e-01 -2.142934982155801360e-01 5.442978219779496390e-02 -4.515097616170891254e-02 -6.047002690246213591e-02 2.364925410108522918e-01 7.179852809446793382e-02 -1.930716039245282010e-03 2.842313359687985153e-01 2.250940688121027058e-02 -1.461902400470894703e-01 1.004463308269806926e-01 5.652712083246991259e-02 4.090719495933243383e-02 -2.463075780543676763e-01 -2.057142466678948400e-01 -6.002653626896317131e-03 6.559185645157253330e-02 2.759237787320347191e-01 -1.385846201132957334e-03 -2.810295297253497318e-02 -4.491347192322399373e-02 -1.495483814134672407e-01 -9.482434100405118249e-02 9.534388587172205887e-02 -4.113411623573325071e-02 -1.837255815420425764e-01 -2.362300171665190351e-01 7.608549346108367528e-02 -2.161932950049356289e-02 2.536176631210776411e-01 5.717249725885659856e-02 -1.909095438085500751e-01 -9.581877787011847114e-03 2.552794012584782557e-01 1.243571622604365962e-01 -3.058961583671935824e-01 -5.450702082846161332e-03 -7.945023495574761452e-02 2.200082909511392321e-02 2.872552234432013477e-02 -4.889616910626582574e-02 5.805801306380355964e-01 -1.445183035818043693e-01 9.399760038485378832e-02 -1.483010693065427987e-01 -9.875749818545267664e-03 -6.433948736806324731e-02 -1.514277323601355141e-01 1.898111351439238023e-02 1.538461334234409450e-01 -1.620845497922206446e-01 5.849118143323731589e-01 -1.047805895965602495e-02 7.939071590017583724e-02 -8.769303871094032143e-02 4.610232600936790825e-02 -1.191694304615378008e-01 2.905997152143003914e-01 1.231970164788412925e-01 -1.418521882756681174e-01 -1.549387021433974998e-01 -2.833102244731180996e-01 4.474840342023372192e-02 7.334891306671839639e-02 4.943193653571441130e-03 -2.299375376730110332e-01 -3.766143695981358924e-02 -1.316752887883137213e-01 -1.565855129784763933e-01 -1.541235202879752582e-02 2.138666781773683190e-01 -1.254486815021575892e-02 5.546332517220109448e-01 -8.219534609018960825e-02 -2.199498264320200180e-02 5.583923120072686874e-01 -8.694981648485717446e-03 5.698940384556396704e-02 6.907409946363223668e-03 1.055628283871214712e-01 -9.450303426087496017e-02 -4.997398047912962604e-02 -3.726099070732535185e-02 -1.474820469948379675e-01 -1.701322494878469982e-01 2.144488505129795147e-03 -1.801850390450849757e-02 -1.002135656184598295e-01 -9.474762735353853271e-02 -2.210160414784868507e-02 -1.330592244254104883e-01 4.750876889562345717e-02 -2.058002160156593638e-02 -1.739586483348457835e-01 -1.155110898879723458e-01 -3.083526399051885747e-01 -1.273284982460680115e-01 -1.217418615983615650e-02 2.241492826742766745e-02 1.451832098455560771e-01 -1.190603764959653234e-02 2.618696605297336430e-02 9.490067616579578313e-02 1.381564771972089989e-01 2.742828408307698695e-02 -5.322846183456351327e-02 3.233593948684366191e-03 -4.154531700459294236e-02 1.668496595138905603e-03 -1.076696725252790539e-02 1.300417598989356827e-01 -1.039009509095835254e-01 2.125194331792437663e-01 8.239286748962917906e-02 -6.229348427119907328e-02 -1.872322796216127280e-02 -5.916174462680228591e-02 -9.649042936018871475e-02 -7.696257635553298282e-02 -6.642248906219300197e-02 -1.184783970627848598e-01 -2.423418575675915718e-02 -8.150475030263218401e-02 -9.979745868596318070e-02 -3.616855898283072301e-01 -2.218757911149444109e-02 8.467493251384426711e-02 2.429772407267245804e-01 7.315142329807694521e-02 -1.074854114941267355e-02 -7.387422958726423163e-03 -9.134733725489652123e-02 -4.441769160971394126e-02 3.171181028615310815e-02 2.198860489586185185e-02 -9.952000581061518081e-02 2.887498691206077245e-03 -6.935881349428435483e-02 2.230214190544450165e-02 4.855900301717074319e-01 -1.036692161937755180e-01 -6.977679204218681375e-02 -1.092533079516299493e-01 -2.703503054300920860e-02 6.839744886764037579e-02 5.029828898891864492e-02 -2.998114743568531734e-02 -4.374674027029414741e-02 -2.948629572049199510e-02 4.742400225719932416e-02 7.687233302353439074e-03 4.530042172415404966e-02 8.527818142469058282e-02 -2.152324525976845870e-01 1.165654230667760582e-02 -7.326353711755981268e-03 4.898938028928512822e-01 -8.540322220183604873e-02 2.995669583371145597e-02 -2.637135481047941932e-01 -1.356312992340742707e-01 1.391096945881973579e-01 1.094261592458203314e-01 -1.666573323841440482e-02 -1.760536997258743963e-01 1.496368500606440610e-01 7.813537821002641826e-02 4.034956777174071585e-02 -1.144404529226021872e-01 -1.806105739185520087e-01 -1.250458311993010163e-01 1.209834364245954419e-01 1.358334180446992001e-01 -6.893530883621426519e-02 -4.434883047673288808e-02 6.954183167475163144e-03 -2.379070308972625059e-02 2.640129732905059923e-01 -1.045965596429378058e-01 -4.930274528222367697e-02 6.988137257833258731e-02 -8.553213181928198683e-02 -2.191321152154220367e-02 -6.933482440650964862e-02 -4.572107140312250406e-01 1.570173200361500709e-01 4.251578852499909161e-02 8.767886567386570795e-02 -2.996951243089059358e-01 1.010960812721907603e-01 -9.075846638585607917e-02 -2.164396176501359390e-02 -8.846845552842197424e-02 6.911508117146751562e-02 -7.824820997631751207e-02 3.745770589538386930e-01 5.295122926294151128e-02 -2.208171152621800082e-01 7.833304657019319293e-04 1.087503459507040311e-02 -3.441369000541122380e-02 1.816996403130333171e-01 -7.028499792595110929e-02 9.858109408221533282e-03 6.228524753984081980e-02 1.871325210294829677e-01 -5.252010872946567994e-03 1.840663494816899282e-01 4.850852219399851561e-01 -1.454405425795075590e-01 -6.136824209735633473e-02 3.504887019574332019e-02 -1.322389966057325450e-01 1.334820453320002820e-01 -3.881227574256827795e-02 -2.576118826492844738e-01 -1.462312613376103576e-01 -5.930794630444925497e-01 1.230862227792055980e-02 -4.929671084329640546e-02 -4.836552444250605265e-01 -1.294266371279051593e-02 5.607922080755767952e-02
3.595402965204122503e-01 7.489126494908454612e-02 1.449698518570731454e-01 -4.898849470637605535e-02 -9.182260116690313390e-02 -5.271324866500191192e-02 -1.582095082085775706e-01 4.380963165674085780e-02 3.068245511615624310e-01 -5.326479623875456093e-02 4.183136889462605451e-02 1.211776647768349341e-01 -4.124950125106348342e-02 -8.046657359166019263e-02 -4.480925689858994421e-02 -2.400760523631215171e-02 -1.034419463960533497e-01 2.033211295537913285e-02 3.145134793416955177e-02 -4.763748982301966271e-03 3.416012421382640940e-01 -1.065781008138134284e-01 -3.696434949969580608e-03 1.787241896715365680e-02 -3.087624256143953541e-02 -6.920704766477847603e-02 1.593793819105023268e-01 -9.953336450476348019e-02 -5.613448655498330664e-02 1.110627436103421746e-02 -2.365874357138296469e-02 4.972063669023708485e-03 -3.411299222148216764e-02 -2.503425118412305403e-02 2.661965675137197701e-02 -4.039731328916833404e-03 -2.854418212488869094e-02 -1.243952857265089029e-02 4.269353161563646526e-01 -3.126018206233377537e-03 -2.462806389660054940e-02 1.459715607950582339e-03 3.226093904437352111e-02 -8.175275135890240630e-02 1.240634374758137724e-02 -3.682004029081940161e-02 2.434937584213721917e-01 1.923154311278695711e-02 5.365128992682536430e-02 1.138097855925756657e-01 -1.070063365772318531e-01 1.020092304462074696e-03 -4.112857777247608954e-02 1.289878068989035731e-01 2.466635591627584223e-01 1.561692438275287254e-01 -4.949746500868643963e-03 1.036769542269933182e-02 2.111934602966318020e-01 3.511359319749617069e-02 -2.750816336960665853e-01 1.517555732640626376e-01 3.742780359748756891e-02 -4.183055766640312624e-03 -1.585336475862642314e-01 1.335325899642976315e-02 -1.281951834655900013e-01 -8.869620381018854249e-02 9.662066862921278587e-02 -1.969877435064052579e-02 9.258490729239661141e-03 -1.014940815380926398e-01 5.278029218504642212e-02 -4.213671549353466272e-02 -9.896429767281032797e-02 3.327825820882997221e-02 -1.056565606840704774e-01 -3.441529787899458986e-02 1.169055004679233623e-01 -8.885251884726608207e-02 1.023749772579293643e-01 1.097883906325517883e-01 4.887440400676280883e-02 1.885701486132954074e-01 4.352528460354074258e-01 -9.148868049427123783e-02 -9.000271471176089777e-02 -7.554534923706532346e-02 3.373777805654823436e-02 4.132365004715147366e-02 9.143760615092763958e-03 -1.665384622540722614e-01 3.500760932071309700e-02 -8.586878696704774994e-02 3.925633679839624079e-01 5.353352699145991211e-02 -6.920432803279184808e-02 4.295013537500482620e-02 -1.092494973416756610e-01 2.502117343698832819e-02 6.059648107047683335e-02 -3.886129444194944549e-01 -1.235792805546750139e-01 5.606159704048457870e-02 -2.371890204648377867e-02 1.858929912042358136e-03 8.783663606619640518e-02 -3.324640255920834758e-02 -3.416546411459148863e-02 6.262443343140708385e-02 8.214880510704543337e-02 9.876758176817232449e-02 -6.639830241750119266e-02 3.132030014788200756e-02 -6.768735546970128247e-02 -5.921738360662745504e-02 2.198598626471645612e-01 5.097967542374658330e-03 4.778577039908351795e-03 -3.321792230661261419e-02 8.394428627910138774e-02 -1.394069859259451372e-01 1.987210893107297857e-02 2.209745505560408718e-01 -2.460175429180205126e-02 3.978254425872865263e-02 3.339475927720477189e-01 1.234622115519973529e-01 -3.179106250744797441e-02 -1.053466141497323844e-01 -1.628985026954365978e-02 -1.412384571526666827e-02 -2.844668286400993673e-01 1.452066681275682447e-01 -1.874957192167748740e-02 -4.845019884004875960e-02 -9.877961608542636107e-02 -5.411699953578601174e-02 5.246824137443519692e-02 -1.113391803925435214e-01 3.758119046867874902e-02 -4.522740580062153959e-02 -8.825584413816349449e-02 -8.130141543639847479e-02 2.381754253277512112e-01 -9.209806259556216346e-02 3.317345200978118885e-02 -5.096933715603303716e-02 1.252039305901272818e-02 -9.908752108132707487e-03 2.161334356437515647e-01 1.773699367872436927e-01 8.811466094432246488e-02 1.753681260521134933e-01 -1.207813557268562904e-01 1.640790041601112789e-02 -6.612625577679547006e-02 6.528904776765230566e-02 -1.004801299787464255e-02 -9.550348995274121622e-02 -8.796026688351236966e-02 -1.492556427280753162e-01 -1.769962049094848944e-02 2.290809454292174613e-02 -6.115789155165742702e-02 7.842330232587900116e-03 -9.928916883231683754e-02 5.588256761804892385e-03 -2.637479755316941149e-02 6.922636922069642929e-02 -4.936032516760403138e-02 6.175515255976141843e-02 -1.876118154455947984e-01 -8.558410178427595938e-02 7.224420153573735820e-03 1.047079508806236792e-01 -2.491861662227767490e-02 2.305213180871166362e-02 -6.743868120793253262e-02 9.556738982942224181e-02 -7.942526640854659370e-02 7.012828689841735241e-02 -3.283161963540664474e-01 -6.327818694384559906e-02 7.384506409449302644e-02 1.246394366327875647e-01 3.236131766490647488e-01 -4.747630552058557107e-02 -3.955044263981647573e-02 -2.973818827444881796e-01 -4.012117586795346108e-02 -6.047156260067099859e-02 -1.070851815291079950e-01 1.408903505002724321e-01 -2.087771737928943994e-01 -9.099406388640689236e-02 4.036194757335487965e-02 1.901025921512995709e-01 -2.128379468620567871e-01 -5.389614981172654445e-02 -1.570934898579396527e-02 1.370524686954003590e-01 -3.049265891292028468e-05 -4.102508990995671484e-02 1.881748181336959438e-02 2.574740168548376052e-03 -2.194263024312374522e-01 1.472951739534184012e-01 -5.165727807521804105e-02 2.833983694137110626e-02 -7.828804013433501852e-02 -6.668497486396885018e-04 5.913671231719605514e-02 -6.867096619670347291e-02 -2.424196436744388908e-02 -1.448130999260690277e-01 1.065848602025028019e-03 7.024433426419705861e-02 -1.144202612157606790e-02 -1.772679726055149257e-02 1.741618640805161003e-02 1.367135559198281169e-01 -5.007149547967562619e-03 -3.187977006869138069e-02 7.631773904330403646e-02 -4.901152193671189095e-02 1.111090274493068131e-01 1.136867652727192035e-01 -2.453317848828284742e-01 -7.795827586827656919e-02 2.886826172514611044e-01 -9.109598801667485868e-02 5.760707859219685312e-02 -6.837960940222851530e-03 -8.508783171105341325e-02 -4.095820099753309795e-02 -2.677314241032727540e-02 -9.952725847736608455e-02 3.272966099417873309e-02 -4.098771731868235818e-02 2.868043332937308398e-01 -2.023318158785163690e-01 -1.335724398779141175e-01 3.923415441994661246e-02 2.434185777576503701e-02 1.055538521691922471e-01 -4.739969441042059251e-02 -4.898362917356546137e-02 -8.056765281077353513e-02 5.260401193114720986e-01 -7.194711737892790782e-02 1.212573752806732075e-01 -1.047482096521801243e-01 2.024944994669524712e-01 2.148464476431097281e-01 5.186139513762495767e-02
1.120246755816800971e-01 1.466956057696526712e-02 -1.638141403022642939e-01 -5.136757645337637623e-02 -1.003404426802441754e-02 1.976359327132828567e-02 -4.905904039911179043e-02 9.878763201802362448e-02 -4.118213607819341121e-02 2.686137968529488801e-02 -3.471601151603043167e-02 1.626700707569794513e-01 -3.249930922098170916e-02 7.710757580264603062e-02 2.721576965966372719e-03 3.837425659902347214e-02 8.415433801801848468e-02 -1.440248684323231637e-02 -4.581405632562332683e-04 1.242536581133071166e-02 1.291692242350480913e-01 1.390281299714887786e-02 -2.276567062556013495e-03 -2.306296430195119151e-02 9.543918694140433867e-02 9.278741592634875968e-02 1.458536858656554469e-01 1.251784804605153567e-02 -8.591943545113507608e-03 -5.885130849955374881e-03 3.320577072729597855e-03 -2.607121287398313052e-03 -1.868760822370532041e-03 -7.436010033820604492e-02 -3.958434206400357133e-03 1.035490966845783577e-03 2.759721384027971278e-02 -2.584568872536260886e-02 4.340075158633089486e-02 1.527929071231558440e-04 -6.922166719759113851e-02 1.178815051078992565e-01 4.580634351243209612e-02 4.895603439358644365e-02 -3.832363211213364595e-02 2.591742911117435669e-02 2.199841132430990498e-01 5.073973455044954693e-03 6.243213816476054362e-02 7.732064080561995567e-02 7.775954881242409800e-02 2.966108397257812349e-02 1.670326786149931367e-02 2.656281543004952121e-03 5.557911709335609796e-02 3.978012168220902006e-02 -6.002847274491561469e-02 5.796223491116479776e-02 6.126611093422915794e-02 -8.794446250062495918e-02 4.351739716826481807e-02 2.502636753085098545e-02 3.458469266777034097e-03 -2.741885192894698287e-02 -4.993757641823427101e-02 4.738279203718686466e-02 5.214481080314809641e-02 1.106742114811343769e-01 -1.680048817655828142e-01 5.510878586105973781e-02 5.334813464898533614e-02 3.878170193373073338e-02 9.636576002352145384e-03 2.574483858906477171e-02 7.823133780803055715e-02 -9.319359743538164348e-03 5.275386520602461105e-02 3.236386339999678535e-02 1.202523146850647401e-02 5.101601326357173803e-03 4.256603740217011073e-02 -1.871423249798604554e-02 -7.969083462220903982e-03 4.078241028985391675e-02 2.492179979533904188e-01 2.290614530677916039e-02 6.794753277453711993e-02 1.121704067570815366e-02 6.387896933825308599e-02 1.228305861268474269e-02 -8.536737146851362812e-02 -9.195485503607840616e-02 -4.624192632187172636e-02 6.016098495743660637e-03 -2.674848964508070095e-02 -6.670372417998176803e-03 1.579851077494318357e-01 -8.415320656755116702e-02 -4.129890780375418402e-02 2.929366352065451359e-02 -5.533929741526980722e-02 -1.297947537472731172e-01 2.629251810097109343e-02 -5.288581247249133505e-02 3.554621778804516880e-02 -3.500442198083954237e-02 3.741228712777485560e-02 -4.533554119175792034e-03 2.074304208550961648e-01 9.116287542474253713e-02 -3.053830210930348898e-01 6.315268268419398090e-02 -4.946884393538179131e-02 1.694427026296128624e-01 8.260155751554197276e-03 3.341972083291108037e-02 4.976876638823677507e-02 -8.539146540920963813e-02 -3.777656560648964866e-04 3.335542540682420037e-02 -5.371643679565842565e-03 -2.066775195153816302e-01 8.083192742606559733e-02 -1.384985902934478819e-01 -1.005726908019608790e-01 5.621575529822764317e-02 -1.408055805778090086e-01 4.450806942370894026e-02 3.636585494819907088e-02 -3.029673274610470216e-02 3.883643665151254726e-02 -3.788232831443560239e-02 -1.517917614914494340e-01 -2.658273948789974597e-02 -5.528818506078063411e-02 3.878914951870697514e-02 6.680958408040110763e-02 -2.476719138304115178e-02 7.458353743669587921e-02 5.900761870804496767e-02 1.505784505819995900e-01 -1.695266591189967254e-02 3.367150493660922561e-02 7.298242576398432380e-02 9.539515488743778582e-02 6.787055293131848133e-02 1.979841228569807158e-03 7.255758555769402374e-02 -1.274648277876258388e-02 2.158175342187610563e-02 6.819450849707332785e-02 7.331027087075536741e-02 9.674942406135274287e-02 9.486949081132721798e-03 -5.557373326651802309e-02 9.384151736909408792e-02 8.392131595760682350e-02 6.305810429345692913e-02 -6.392310965227455954e-02 5.066060575592192666e-02 8.167731480062187521e-02 2.435774008765449403e-02 5.982037725874439493e-03 3.677562325541554322e-02 -1.551988705162241772e-02 4.838843189464752531e-02 1.232402884535454823e-01 5.691950740649966145e-02 1.066334860090315841e-02 3.341756155317187477e-02 -1.792207834760106006e-02 2.108526496281042106e-02 -2.195188493788847450e-01 3.344633409023085001e-03 4.155058437968340949e-03 4.019440022100344984e-02 -2.613300570576865310e-04 1.824072925782616386e-02 -1.734659681479732178e-03 -2.166475051195583534e-03 5.451025811335425547e-02 6.474393980984810559e-02 1.449261397612946201e-01 4.610352412958298313e-02 7.508681163365552025e-02 4.565498516151714897e-02 1.152095239033630314e-01 7.664640288026819404e-02 6.949728424645797153e-02 1.340401033601185295e-02 1.336810404053894244e-02 6.372127220832994599e-02 -1.521742562334833099e-02 -2.210766064000729489e-02 -1.743735686538122331e-01 5.962260978637567987e-02 -1.372993095920314321e-01 2.085105595903400666e-01 3.299001785969647021e-02 8.700988947482840574e-02 3.663008989952631217e-02 2.637451470668148237e-02 -2.070869361026622668e-02 4.871323906654140279e-02 -4.257420676218309774e-02 -5.152177044705771869e-02 1.315810643066047947e-01 3.978446976879235208e-02 2.414171674186650629e-02 3.450060777057305673e-03 1.085751579418415547e-01 -5.171022248076499739e-02 2.785412681654400244e-02 -7.410590405466196962e-02 3.375068649598271520e-02 -1.313983483944517784e-02 5.567350982409019489e-02 1.062198708576269218e-01 6.164514160117910702e-02 4.909149298034282127e-02 2.812666826417715635e-02 3.228618667572926704e-01 -4.282669296165825951e-02 -6.389080002120120505e-02 -2.296397434159936496e-02 6.760588386892289747e-02 -2.666268991699172718e-03 5.211331305168033501e-02 4.326261707783370103e-02 -2.548888880295099857e-02 -1.156827932751482574e-01 4.514805605455828041e-02 -7.008793591882527506e-03 1.473571654443407014e-02 -3.552628879825074637e-02 6.039756586454395754e-02 3.216228791044690311e-02 3.173541365620833471e-02 -7.462539028887749115e-02 3.149029987102879014e-02 -2.171025166002688370e-02 1.149569912126863214e-01 7.006767482786151191e-02 -3.936810071234110586e-02 1.852445526323001981e-03 -9.165669080303734395e-02 -1.756956129110188525e-03 2.437805609648014543e-02 -2.323715616098265824e-01 -3.384489490442764703e-01 -1.466245918215428878e-01 -6.146426887142736328e-02 8.252835983923796637e-02 1.463923137991716417e-01 -5.825399713625677156e-02 9.946110691767668516e-03
