-2.978257137529543089e-02 -2.442150366228049846e-02 6.398067223194198183e-02 -3.759814071185119122e-02 -3.237411065568157609e-02 -2.934351007033206456e-03 6.318944968472776924e-02 -1.775340230105486306e-02 -2.280001741808066265e-02 -1.466536577936627082e-02 1.167351498954820668e-02 -2.927871753482648096e-02 1.247048956828747390e-02 8.820450068394187094e-04 -2.824744874979597149e-03 -2.821943505217330839e-02 6.271240416297452214e-02 1.190033979943204423e-02 5.348117939006122312e-03 2.602380903264011475e-02 -2.409443020826685516e-02 3.769181263656306343e-03 4.459025473944850521e-02 -1.512389911865525891e-02 4.888992567905437944e-04 6.144366040496967302e-02 -3.714941000647532798e-02 -1.390745205824329284e-02 -8.881653581760616881e-03 -5.177867196671524612e-03 2.792891084269957455e-02 -2.862937970295947529e-02 -2.126130061769809787e-02 -5.019840395828814583e-02 -6.855644260985171989e-03 -1.257006533082641797e-03 -2.645715342755421487e-02 1.306689704333519227e-02 -5.519585719457140854e-02 -7.612483186714556760e-03 -1.128183186592295918e-03 -6.467026778426390038e-03 2.359850798469222133e-02 3.265687554286152150e-02 -1.521981279885510630e-02 2.015208015000941738e-02 -1.666653494686314019e-02 -1.152045183421800817e-02 -2.149922888971209783e-02 -4.787169283960098463e-03 3.098568030566887892e-03 -1.787387913103701681e-02 5.037005080995593520e-02 -5.569903944349836357e-03 -1.564251152999060132e-02 3.906585566573095303e-02 -2.125723515537843514e-02 8.691246606327621138e-02 -4.313479579311320540e-03 1.568759124862291812e-02 6.839598757462860001e-02 -2.712724020401455910e-02 6.412142625201727730e-02 7.516064198937395455e-03 -1.644566628148565147e-03 4.041729589092266789e-02 3.450065609285705298e-02 2.175622082523825333e-03 8.604292405909894081e-02 1.459059073787718304e-03 1.297622705305259520e-02 -4.343535698955043600e-02 -5.529252291786436457e-02 3.346649306012403069e-02 -2.802547766917817818e-02 2.206262813939861844e-01 2.357938562216864431e-02 -1.164226520937290503e-02 1.288338894188802430e-01 -3.932225870502585943e-03 -3.365303323733460222e-02 -1.136097522154362084e-02 -3.373856633098581970e-02 2.015862015526238837e-02 -2.087362481141624357e-02 -1.006228082812939129e-02 6.265566202309864885e-02 -5.958274449527052319e-01 -3.352460452270886876e-02 1.789472413615300281e-02 2.410093242124954765e-02 2.408371896508670548e-02 -2.999447202788481717e-02 1.878950896585781204e-03 -1.761278219829096048e-02 -2.570793134736338876e-03 -2.029352276076354378e-04 -2.554151696382152975e-02 -3.667305547631065366e-02 2.099483557527526134e-01 9.878893915222404509e-03 -1.529231421152123759e-02 -5.595740977249652817e-03 -3.169804404847870183e-02 -1.093713239814253675e-02 -2.381376947784294776e-02 -1.129002574899784783e-01 -2.184827138186310955e-02 1.052191127975112689e-02 7.184770662447542179e-03 -6.172270818721261459e-02 -2.161706291070836228e-02 -1.785058431704485138e-02 -3.438050457454126796e-02 -3.717354983960037551e-02 -1.369711165670138737e-02 -8.631291779036664308e-03 2.079366254490463278e-02 -1.876802564936315768e-02 2.366849434231558559e-03 -6.057388660516393672e-03 -2.051724083727141101e-03 -4.033330907431058321e-02 8.409567667754223874e-02 -2.083114789263098079e-03 1.130579571720098479e-02 2.117881099483432880e-02 -1.781012902605980846e-03 -7.246494017647487663e-03 -2.880549617619374350e-02 -1.803762736635039152e-02 9.692458590464146651e-02 -2.084204522815142832e-02 -1.950640735972391116e-03 -9.252697585252184220e-02 -2.386003599777161005e-02 -8.808880259880415634e-03 8.192314497146091501e-02 2.006792203711110778e-02 -9.908414326997579125e-03 -4.197249628063894414e-03 6.797160086749516605e-02 4.641673292317459454e-02 -2.777437319871982335e-02 -5.446633456975068477e-05 1.159999061586249325e-01 -1.054916998634802296e-02 -1.297216325148789831e-02 -1.882645635541786017e-02 1.652576606501353351e-02 -1.951781391129868773e-02 1.334584113787740944e-01 1.458733489995952259e-01 2.236074708698948255e-01 1.689568438258686259e-02 1.240269491121359473e-02 -2.601518481969487470e-02 -1.976754014026164269e-02 9.332684905965871192e-02 -1.035874620549499109e-02 1.724828757851069524e-02 1.759162077058516460e-01 6.275055160823474198e-03 3.328370772050041719e-03 -9.492002032353983459e-03 -6.930637517224325778e-03 1.513557500761737382e-02 3.488859016708666105e-02 -8.836944357208151302e-03 -1.545230624639251996e-02 -3.221573980899549664e-03 -2.728090617797959347e-02 1.428282757601836810e-02 -2.065840436627026239e-02 -2.093163654518926872e-02 6.223170519347416552e-02 1.390114032263253504e-03 -1.055756793568090072e-03 -2.764704119918300410e-02 2.616181940155630839e-02 -1.513608549992554939e-02 1.565482437157853304e-02 2.766457891303197511e-02 5.426767691581309283e-02 -2.674409212834305202e-02 -1.572128752459554107e-02 7.381251898327893801e-02 -1.908356622013321216e-03 -1.985983663736414634e-02 -8.023944540548288290e-03 1.368284026222355287e-01 9.077026782480407049e-03 -2.056790667062347033e-02 -2.424512691194087230e-02 -1.936830548034243048e-03 -1.776454862834002044e-02 5.670270600555456925e-02 -6.959315072389228064e-03 -4.095325762379952925e-03 -1.442607729943745816e-02 -3.126483858027673431e-03 -5.601687017832941880e-03 5.266990757494967833e-03 -1.374346854652493122e-02 6.960831080504717439e-02 1.093989548138863399e-01 9.974171810892005011e-03 -1.502587965610195642e-02 3.054791250348478163e-02 6.509390807423515168e-02 5.398038527964674899e-02 1.094681236197601014e-02 1.069739350956650931e-01 1.159001280971371471e-02 -4.401081870761503478e-01 -1.825023789943513303e-02 -5.331184570360763056e-03 -3.956073669394311737e-03 3.639323191882612440e-02 -1.923494729323807217e-01 3.637129174882674371e-02 1.004986575133601061e-02 -1.502577951401806548e-02 -1.045405506647090373e-02 -1.940141611409057151e-02 -1.557592795102743198e-02 2.964149346914217095e-02 2.528636461256251848e-03 -2.357842727149035700e-01 1.278744547440415977e-03 -1.102282388707191349e-02 1.144861512574766541e-03 -4.896600688329723339e-02 5.323702607969357792e-02 -3.220297174423532305e-02 -3.466782051795912895e-03 1.383531236384105863e-02 -1.723804165929699456e-02 -5.850314227604919842e-03 5.245329110984670203e-03 3.470323225779701343e-03 4.206279301109091921e-03 -1.627905072516250967e-02 -1.668676490720717980e-03 9.933543501896536024e-03 -4.030521100296645398e-02 -1.477367279237895223e-02 2.205418420281394717e-02 -2.303820269554573627e-02 -2.375363000968699900e-02 -2.398441178132199817e-03 -1.096393310782034676e-02 9.895152861225905983e-02 6.555571044267987334e-03 4.136780605179800341e-02 -5.235691640856898754e-01
6.397255977400546911e-03 1.149815721303237663e-02 2.711720177603754028e-02 2.844825249405536285e-02 3.585728707000276211e-02 1.987534481556133947e-04 3.453991784109335800e-02 1.152737530144402889e-02 1.536940487912982593e-02 6.260422515888578246e-03 2.359446119576787820e-02 1.310883202354872802e-02 2.488820187483725688e-02 1.574590723834314032e-02 1.070963292281027802e-02 4.703910379868010694e-03 2.186635281466069863e-02 9.445124522339002834e-03 1.731770073483377900e-02 1.657245962787685933e-02 1.624675306818836040e-02 1.198188093601792320e-02 4.496812443643787016e-02 5.807648247680528321e-03 -3.415218587655062445e-03 4.151106867539578610e-02 1.168034127631684474e-02 1.694245739595482900e-02 1.872914029555507176e-03 1.590040486001186720e-02 2.346284209137354526e-02 1.360898647823314926e-02 8.957211639147873161e-03 3.773242092900611078e-02 1.815062953638642979e-02 8.691883651599053434e-03 5.211381018995607517e-02 6.152135015859340299e-03 5.666656488105923511e-02 5.616970688981053408e-03 2.891596615292426828e-02 2.435882302937567023e-02 1.704963916236502952e-02 2.322812726400949948e-02 1.757473466280075683e-02 4.027188356468799912e-02 6.549801658881712618e-02 2.961054617940861097e-02 3.469843369817884188e-02 1.274758225866931029e-02 1.564754743024953515e-02 7.282330556395542540e-03 3.145575074637509128e-02 3.779046153716150366e-03 2.043801847728144924e-02 2.633572589110480880e-02 1.344227079983119355e-02 1.462290151141038552e-01 6.341507450966762764e-03 1.188104564255590828e-01 3.045778155384372063e-02 1.593714999112320202e-02 3.299208794007289086e-02 1.442322733119382784e-02 -2.616006473933906156e-03 7.862455271951786229e-02 2.066788723964233312e-02 1.775327096310235636e-02 1.800864173074401969e-02 1.816357693566743661e-02 2.939915255861571403e-02 1.715942107056612695e-02 2.799198933791564523e-02 1.738519785610101107e-02 -1.810298401596152351e-01 -1.832112984791970656e-01 2.416808117726747251e-02 3.689533360958653641e-02 1.553720750636120506e-03 1.025220864895358582e-02 5.736906218884036714e-03 6.752744734161910713e-03 1.295299944979146772e-02 3.849210538709443852e-02 9.502672051340919565e-03 1.254168394813217312e-02 2.170692325580819704e-02 1.004359675764799759e-01 1.864724114454680698e-02 1.650444772616992822e-02 2.404650798196853595e-02 2.552426094971205206e-02 1.387806350617932540e-02 1.070332833936737428e-02 6.918143200744617839e-03 1.159709486891447039e-02 1.022471653023892570e-02 3.693560085765368317e-02 1.594972075555323859e-02 -7.878046457191549556e-02 2.543851490021784706e-02 1.247476980783490327e-02 2.008466822157668058e-02 3.313974020366351053e-02 1.386477205284084545e-02 6.260208960981935265e-03 -1.280063885524653500e-01 1.524557529643708574e-02 3.108438395779912142e-02 -1.513414916142266121e-02 1.894076879122023188e-02 1.244812102765354388e-02 5.255457138720230452e-03 9.940708573764805989e-03 7.213168435747210720e-03 1.806608159338177200e-02 3.490301322458195903e-03 8.990484326317177421e-02 1.019569102223520998e-02 5.880731612359025619e-03 7.075175101856402173e-03 1.370206828561439799e-02 1.975482008714347926e-02 4.067038971498387195e-02 1.832660581550239060e-02 5.777386764950200038e-02 3.711448984530842099e-02 1.969342142519628358e-02 1.237588433381176314e-02 4.093231544030298368e-03 3.495785986117063565e-02 4.403271783678135848e-02 1.822978080298254949e-02 -1.185458802997381607e-03 3.987908773133416046e-02 2.298221973430385895e-02 1.450166519842520201e-02 6.818968161969869712e-02 1.120839766555094784e-02 1.360476922000006077e-02 1.483027759739899767e-02 -2.491545960491035536e-02 3.317155910431566351e-02 1.627358440494007519e-02 1.390438076857051196e-02 3.035115162284231227e-02 8.873284908990525591e-03 1.802799657564032806e-02 1.036650972383623692e-02 1.357565931691794882e-02 2.204184986299161791e-02 8.561450408198396922e-02 3.589463457754407671e-02 1.080581388563642276e-01 3.170698215790249824e-02 1.597246501695824550e-02 5.223087571458956933e-03 8.096299452495752183e-03 1.949580313877661564e-01 1.145836911626825494e-02 8.716253713144254955e-02 1.329388957550792505e-01 2.428828466675580014e-02 1.326868287874010885e-02 4.345552913383544068e-03 9.384925922015008304e-03 1.133632807994957789e-02 3.959624146889668961e-02 1.724568805745712793e-02 1.407680888542236185e-02 2.303443501095860449e-02 1.089315098620174255e-02 1.481673617721898824e-02 7.814550894363137337e-03 8.823927617661668846e-03 3.666554410607997944e-02 1.097138635152979970e-02 2.811834281797496397e-03 3.249605614955884680e-02 1.948945188138473741e-02 1.386715128600029753e-02 3.226362342164899172e-02 2.958419048527288764e-02 1.611746107048739676e-02 1.146612860703186652e-02 1.034078523238057649e-02 1.061625398468415832e-01 3.592993475148589799e-02 1.431038658006798629e-02 5.336945395325975137e-03 4.855897524841706892e-02 6.219340219470206182e-03 2.795789091449234383e-03 1.422261826117349540e-02 6.017182805005097564e-03 9.037647683018687830e-03 2.387640474488166020e-02 1.831291994170308052e-02 5.872880933761547278e-04 1.104097327766531966e-01 -3.090381414453190201e-03 7.096481204980863849e-03 1.296013415750869348e-02 1.676452521242253677e-02 -4.860447567412888581e-02 5.337211065123877163e-02 3.251709617837299920e-02 1.297279301499526701e-02 2.136565585860016048e-02 5.283256950082779874e-02 4.970107101193150384e-02 1.757148661062765682e-02 3.873744727449487946e-02 9.476874994096783078e-02 -2.928812314405174755e-01 9.577635469654448286e-03 3.622505210233180947e-03 2.042744628839111495e-02 2.864405489990466680e-02 -1.716872745082877738e-01 6.696792305071017082e-02 1.461894595842727976e-02 1.195883157812132648e-02 9.344933665005709933e-03 1.464007194493507739e-02 1.884869488082561648e-02 3.128685558451187176e-02 1.049434749087668761e-02 7.077265515307948340e-02 3.070581640752048300e-02 4.299703337813468376e-03 2.270032065346096195e-02 1.285615816076777496e-01 -1.322713700549752597e-02 6.708708431196017119e-03 1.160624118250663285e-02 4.324019316473332736e-02 1.318360962012059961e-02 1.002143214037123919e-02 1.481009325873099830e-02 -6.773212025711772798e-03 2.258830435343980522e-02 1.603113013500513315e-02 1.312958613014832132e-02 2.927712469803421882e-02 1.567656507602501609e-02 1.543948400823647342e-03 -3.006079717799956669e-03 1.837205857270822126e-02 5.797937019823526036e-03 1.013407077888633760e-02 1.627331986841031031e-02 3.293963228656437287e-02 2.760068056343292081e-02 1.113477332351789362e-01 -1.117902909378377524e-01
-1.960832905171243021e-02 -1.499602982273626900e-02 5.689246211671901421e-02 4.644260883756253823e-03 1.118130934985143848e-01 -4.009882712407728672e-02 -4.606486625955755754e-01 -1.664578890325001809e-02 -6.062328912095419665e-03 -6.030500982416621414e-03 -4.177988189689171850e-02 -9.554570629147050506e-03 -9.329430108090994156e-03 1.650456401609011687e-03 -7.478461398741078833e-04 -1.486916251574945530e-02 -4.493098751476496955e-01 -3.004631096751256281e-01 -8.533400394350739576e-03 -2.119568333764856177e-02 -9.407074034636500603e-02 -9.345630206892932210e-03 -3.090329361167800104e-01 1.324100733426252646e-02 -3.882271757323543099e-02 -2.431384180275684634e-02 -4.830864254935111901e-02 -1.422955154957942538e-02 -3.884730168843153475e-02 1.907088355008810631e-05 -2.723585332477704846e-01 -1.877650390384281651e-02 -1.908679565150928764e-02 -5.120290493674175755e-03 2.298427761833451641e-02 -7.879777164757469088e-03 4.608860296667782047e-02 -1.763672993409189527e-03 -3.418514499210690838e-01 -8.500864019064149901e-03 2.903230489238010567e-02 -1.047598344373888539e-02 -2.817663560321877637e-03 -7.060609271538842435e-02 -1.642567121996939272e-02 5.504362824176602109e-02 -2.047817690903317930e-02 -3.895015608953002542e-03 -6.885007928717169420e-03 4.001264506683579678e-03 -1.824946011931962830e-03 -1.307181161984412310e-02 1.239603419830881056e-02 -2.220833956133062143e-02 -4.868516126905434761e-03 -4.912360409432299790e-01 -1.868393606389922440e-02 2.526306905074434672e-01 4.230035891442369619e-03 -6.814279493423670842e-02 -3.712896524476913540e-01 -2.549749813098346751e-02 4.507887208068798307e-02 1.212512277341303360e-02 -4.554110975056502308e-02 2.544468481994061407e-02 -9.621798252620412939e-02 5.410294337052652669e-03 -8.155934369227938255e-03 -2.356060433019832763e-03 -3.854972825293174338e-02 7.867277046212148295e-02 -1.003468117173521995e-01 -2.001318356149413835e-01 -4.171267637844655041e-01 -3.857605609676612590e-01 6.585470268941604616e-03 -1.807074183986201454e-02 -3.035043419300925693e-01 2.975072941081254637e-03 -1.544926397295774516e-02 -3.145818153339681542e-03 -2.419736685824346381e-02 4.337853795738806639e-02 8.633605208830856612e-04 -5.710746195011676130e-03 -2.873164070581767926e-01 2.652514158640760789e-01 -2.158158879982876449e-02 -1.087186629668410592e-01 -7.365135747557534363e-02 -7.191027895668031245e-02 -2.293846930995669872e-02 2.106933748091774795e-03 6.699299584406061270e-02 -4.264199172392824089e-02 -1.285688760913692406e-02 -7.340244559340181052e-03 6.055317727123851745e-02 -3.312829158558156656e-02 -7.060313723809846613e-03 -1.353720739028503421e-02 1.279365542145600651e-02 -5.245164792970062606e-02 4.824729555233689578e-03 -1.019148665035971534e-02 3.091554335074840343e-01 -1.213262742572213289e-02 -2.228027961920118344e-02 -3.483188941932119365e-02 -1.006863589103706713e-01 5.002527430578191520e-02 -1.694570521038728933e-02 -5.710915301165728208e-03 -2.518670185785217008e-02 -2.410723675102577172e-03 -7.305210896882650094e-03 9.807881060189750644e-02 -1.122726256031857800e-02 -2.774094537593173662e-02 -3.419167431405417332e-03 9.291542171805977288e-03 -2.487805326082380766e-02 5.572971171257595779e-02 -6.717597234246706905e-02 -2.857451188124374153e-01 -1.687161961666563958e-02 3.160558395749563055e-04 -4.224982506245855522e-03 1.464682628919528789e-03 -4.159078670621207952e-02 5.961887731663290807e-02 -1.469115429680474191e-02 -3.926459751459462910e-02 -1.336834489378981583e-01 -5.416660185507833625e-02 3.033011896163200893e-03 9.656653938236835211e-02 -2.300756682981109635e-01 -1.577948241541273335e-03 -4.021043703363184722e-03 -2.291541857199387577e-01 -3.737157236006291572e-01 -2.911487411138302325e-02 1.881886847852252270e-02 -9.799568901662746023e-02 -3.061450734600079508e-04 -1.708728931899622383e-02 -1.299693655290153245e-02 -2.767059622770138075e-02 -5.177591029243002602e-03 -4.604015475958221637e-02 3.499256985675501530e-02 4.541448186483452998e-02 -6.134863530181850627e-02 2.396630830033422924e-03 -1.695072448574666199e-02 -2.313270464285605010e-02 -4.554078228009751372e-01 -3.023010724286805898e-03 -3.227639927189718261e-02 -9.518774443042704592e-02 -1.449396141792880580e-02 2.349423344849113984e-02 -4.131391963428995145e-02 -2.975115226519106822e-03 1.742539612048964875e-02 -7.445573507033496907e-02 -2.107277410245138316e-02 -7.238828064086104581e-03 -1.840564050885025449e-02 -1.431063731066823698e-02 2.139677535643748699e-02 -1.637535006570948332e-02 -4.443100928646808064e-03 -4.038018982606116913e-01 6.510925085275933756e-03 -2.492462930666692125e-02 -1.191717792951748831e-02 -3.603080974059979513e-01 -2.380862666318078469e-01 -6.715801789592799886e-02 2.602079355720467863e-02 -3.707254123875027285e-01 -2.350693271628228817e-02 -1.072621072970536375e-02 -1.717019957360248483e-01 1.082937445209894954e-02 -1.969250828545301979e-02 -1.801446904532783833e-01 -9.121626853396531953e-02 -8.278678260285122700e-03 -2.690766956008174005e-02 -5.914864801594929902e-03 -4.821988992406762813e-03 -2.007309083910275779e-02 7.146726903493089145e-02 -9.242273020383022161e-03 -4.110819856547319462e-02 -1.345100798878503742e-02 -4.100789129178127740e-02 -5.337044928800854576e-04 -4.559496626124510000e-04 -1.729509489863752594e-02 8.481612668636465124e-02 -1.138615270722469069e-01 -5.353247967159250470e-02 -2.954234586234386062e-02 -4.681470160730543534e-02 4.603074240847231449e-03 6.040194013143982549e-02 1.391620551531533648e-02 -3.784061283893610517e-01 1.318172511382530989e-04 2.784969760824864034e-03 -1.796236727114228562e-02 -2.893509139430609778e-02 -1.012513224930291014e-03 -4.430052607492528799e-02 -5.676715359900941227e-02 -9.877574238245040439e-02 4.790291322030563147e-03 -1.785841985629049375e-02 1.274576327990498831e-03 -8.339652453635108126e-03 -3.479032829347285249e-02 -3.580734763123086251e-02 6.250240015784778655e-04 1.486639142104931310e-01 -1.761476725229251319e-02 -8.162878117722203661e-04 -6.944494920975725905e-02 -5.839158451843730335e-02 -7.256983982567218050e-02 -1.239563750547630246e-02 1.563655545643014011e-02 -7.079600225752927245e-02 -7.768476406739312223e-03 -2.176413714801633814e-02 -4.231490167071066261e-02 -4.160265415238870862e-02 -3.607161764377592866e-02 -1.230614952313099399e-02 -1.027112683595850749e-02 -3.060040147229510787e-01 -2.094882951923399128e-02 -2.767108649205075876e-02 -1.013833498840894659e-01 -2.002437304480116781e-02 -2.042381939852169759e-02 -1.699554341832089019e-02 4.189052145471801325e-02 -3.757624674122957420e-01 -1.458711390281047619e-02 -7.594262125634772265e-02 3.314025989868961686e-01
-3.045976774848144566e-02 -2.466322557480100583e-02 1.187285832422375204e-02 -5.084511923890343982e-02 -1.813743856486076667e-01 -7.800907902110242043e-02 -1.343845911160791110e-03 -3.561519697535180801e-02 -1.379116068205136769e-01 -2.457737086609318791e-02 -1.706399058959832959e-02 -6.589301244471874874e-02 -2.279450923719736344e-02 -1.456532171557778886e-02 -3.654131211265528728e-02 -3.823901376955086973e-02 -3.551859972906547258e-02 -6.549586106533351881e-02 -1.643051210531634720e-02 -6.803273780459628828e-02 -6.033483704133122544e-03 -2.173828557724537605e-02 2.620001568263566685e-02 4.608515022769269637e-03 -7.768435146986851780e-02 -5.767008426698766455e-02 -1.268445383932230441e-01 -6.927028186185310576e-02 -8.264934008144957100e-02 -2.003399742959013907e-02 3.029993270762254554e-02 -2.381464799935408688e-02 -2.687404265649746479e-02 -1.921377760176564697e-01 -2.472159077162405239e-01 -1.107845821772736848e-02 -2.467993094701537993e-01 -4.351110793098368623e-02 -1.493337377927779486e-01 -4.336810786273380403e-02 9.422375604631551271e-02 -1.792110122986608628e-02 -1.270896307581964313e-01 1.274720505004352591e-02 -2.054772685512469554e-02 1.287982972676348370e-01 -2.322939356757620366e-01 -1.473155157382009528e-01 -1.910569048400507508e-01 -1.923934087001589327e-02 -4.266728288498712780e-03 -3.231084976451956831e-02 -3.444131530688934219e-03 -6.966260761735824925e-02 -5.010770737793128482e-02 2.135655006050981783e-02 -4.775484462585324191e-02 -2.476345245283523289e-01 -2.216330941794170117e-02 -4.563336459629384056e-01 5.339180184028286674e-02 -4.346525559473753825e-02 -1.840628382475532985e-03 7.721227795762708110e-03 -8.418330207856887515e-02 -3.153397422140590267e-01 -2.968489089161960304e-02 -6.550537380188724626e-03 -2.538911394785778666e-02 -2.523206697344717586e-01 -5.167302955178754847e-02 -3.680171975084360891e-01 -7.219922210650400740e-02 -4.019148840188239286e-02 1.098941985880106803e-01 6.736770594013223590e-02 -4.876033912674221371e-02 -3.554376471127108222e-02 1.163738208755444037e-01 -1.575419512186757021e-02 -5.426085184865536010e-02 -1.051016100942855080e-01 -1.464314413638827597e-02 1.039727359669848500e-01 -5.693197038687477368e-03 -2.340734596331683209e-02 5.382100043333214873e-02 -2.830023459189464075e-01 -1.952789346233204174e-02 -6.198269611035850390e-02 8.244114684410835600e-03 -3.606746356385162351e-03 -2.222487153255802567e-02 -2.485357215518272170e-02 -2.806413674535252478e-01 -1.672753856857951693e-02 -3.394968909472068780e-02 -1.169104768775334202e-01 -1.468588526126428095e-01 2.904892662263277026e-01 -2.399900249997088605e-02 -8.660946098401675619e-02 -1.748438212337274228e-02 -7.095812032947562686e-02 -1.755568660942339460e-02 -2.788257790632449676e-02 8.533437819335271124e-02 -6.442286798561223937e-02 -3.228690892769427861e-02 -2.276235200747254439e-01 3.137759544336136876e-03 -3.087681442527243081e-01 -6.624171112831598110e-03 -6.476505176471269998e-02 -2.609367492806600672e-02 -1.093572756300389137e-01 -1.072066288739008041e-02 -1.845363378759747042e-01 -6.226262921807230316e-02 -8.335907252410058865e-02 -1.473235561202542419e-02 -1.347673302613344205e-02 -3.251765047635326450e-02 -3.649171546887100548e-02 -8.940509276049819765e-02 1.010236185823697522e-02 -2.569477728065954203e-01 -1.094241092337959638e-02 -3.181674168675036052e-02 -4.833762404126620837e-02 -7.827367790195596808e-02 -3.739554847540116356e-02 -3.870862393346182623e-02 -6.930274043160017383e-02 -2.450593958817781914e-01 -1.711599371294201810e-01 -1.077508786932589308e-01 -2.779224253874545275e-02 6.790896775778429428e-02 -4.207293475422847068e-02 -3.706045322672040648e-02 -6.091841027833912181e-02 6.031307169629502446e-02 -2.473736186478641547e-02 -1.425513567372982578e-02 -1.198991349781510229e-01 -1.137264961608885072e-01 -6.793661733393292768e-02 -3.355804596525847894e-02 -4.360294205094163850e-02 -1.237004915155679868e-01 -1.836904080204475875e-01 -3.067312146096397643e-02 1.445361190318147568e-02 -2.050910085206581260e-02 -2.162179398939665861e-02 -2.220620457870164932e-02 -2.179135553476706927e-02 7.471907596654923933e-02 -7.836940195650801688e-03 -3.337679191297350245e-01 -1.786816475962182682e-01 -4.854510418211408634e-02 3.683539150617987784e-02 -7.712945472763997612e-02 -2.642755357295784382e-02 -1.080299596403392660e-02 -2.003713267004158805e-01 -1.007010860581242506e-01 -5.229620321051162840e-02 -2.665642787523918658e-02 -4.786122972172092427e-02 4.664650420588495328e-02 -7.092057220721811883e-02 -1.745647495804146521e-01 9.700192386327462224e-02 -2.286609014783036464e-02 -5.128113555706420579e-02 -1.391474129575573093e-01 3.550719847394215312e-02 -1.266022932091486197e-01 1.533320224076419915e-02 7.096049081539479442e-02 1.479545240310212173e-01 -2.947107721888564402e-02 -3.556209104555375228e-02 -3.682617597411467769e-01 -1.745948388387282557e-01 -3.423359203235568776e-02 -3.744605939018262886e-01 -2.068396997613518393e-04 -4.770054678589055047e-02 -6.973435151650890507e-02 -7.908786384759866617e-02 -2.422671587869629564e-02 -5.614437352791840086e-02 -1.049600787703422163e-03 -1.263267911088210294e-01 -5.901822558350787451e-02 -2.763521609502568865e-01 -7.173532753838805787e-02 -4.474805377914712473e-02 -3.796978846824481529e-02 -5.642304694082093258e-02 1.977036034393561681e-01 8.743744011683562967e-02 -3.536387338630595650e-02 -4.449271932142419284e-02 6.093537211693944924e-03 -3.331733624674080435e-02 1.212135294193612128e-01 -3.225871414941155341e-02 6.207016241182126276e-02 -2.516635345885558928e-01 -1.507691029257290372e-01 -2.814366896971459003e-02 -7.944017334811875886e-02 -1.767560758723621048e-02 -6.562020023000822606e-04 -3.697460065019981257e-01 -3.084799960800388430e-01 -1.787036426218451338e-02 -6.168706916101136112e-02 -1.097594116761509142e-01 -8.061548224012403396e-02 -4.226243183181634805e-02 -3.948827212542738163e-02 -2.231946839380575393e-02 -8.282943687010979605e-02 -3.452682567779025158e-02 -4.730585597532599440e-02 -4.239635155665866240e-02 -1.781652044898534848e-01 -8.264479584413852997e-02 -4.248430465930561756e-02 -2.407030649166711639e-02 -2.395766859698929552e-01 -5.156481521536387252e-02 -7.250015187798926342e-02 -2.301966751975581191e-02 -3.247529365704501236e-01 -5.587480404297219538e-03 -2.736278339690285250e-02 -1.883435247965168508e-02 -4.818494699081019017e-02 -8.238134191978362109e-02 -4.009298465849492343e-02 -2.891381792338248991e-01 -4.541188916132029435e-02 -4.532243751198346965e-02 -5.489932007008795772e-02 -6.795106137752948694e-02 7.422772098632732241e-02 -2.397077902381671843e-01 -3.475576961942263843e-01 2.676081593854247598e-01
-4.310594322566957577e-03 -1.150206574527153774e-02 2.268625387545592648e-02 4.687142079466625165e-03 7.875748146526294693e-03 -1.311922859315254632e-02 -3.388332095732504712e-02 -8.585630806547561722e-03 -5.989113380315814984e-04 -6.206123350284564397e-03 1.572570448312009608e-02 -1.253342615136256340e-02 1.340454105459646696e-02 6.849989033687888321e-03 1.212400310865858859e-02 -4.095994394095087664e-03 2.057961698756988894e-02 -2.413917101753115715e-03 5.988144393951675033e-03 2.366051753308471770e-02 4.964669187234363977e-03 1.008343653084351962e-02 2.974343113090632817e-02 2.055925831381023167e-03 -1.330432429164709815e-02 4.258257035791373352e-02 4.424042917186171188e-03 -9.775863063911923584e-03 -1.608338535543804571e-02 2.980254579315643956e-03 -3.186124631029523587e-03 -1.191910109978931015e-02 -7.082011298910157078e-03 2.490907596551870593e-02 3.895769902719208293e-03 4.318434698820925073e-03 -2.965750070011505257e-02 1.646916975498526059e-02 3.655138146771683139e-02 4.132257126396151649e-03 1.724952250499470902e-02 2.633126652581395995e-03 1.075090947743421316e-02 2.380242139627698414e-02 6.719726645974237293e-03 2.013895292241109011e-02 3.306784434893129260e-02 1.163787923087596099e-02 1.607738965275984019e-02 5.586007402641156132e-03 -2.754329912180651131e-03 2.066288532132952503e-04 -1.058945142802013642e-02 -1.195509422620915328e-02 7.073057617263233364e-03 1.642494429110682649e-02 -6.104722237800911701e-03 1.924770612680457016e-01 2.289580257344134978e-03 5.028778318173850875e-02 -3.916192384976489860e-02 -8.264749824527366576e-03 5.177533721743474843e-02 3.877822096281261562e-03 -1.591465259529881507e-02 3.425562894700116129e-02 1.978141108223191794e-02 9.640830036965541278e-03 4.196428517379911793e-02 7.521522599901723019e-03 1.841598788376964946e-02 -1.517132806638862939e-03 4.398552437282297889e-02 3.326399996505940287e-02 -4.429040859962559556e-02 -7.063133358308332221e-02 2.152831036784891641e-02 4.164207925800983423e-02 -6.460754256675907067e-03 -3.285088901191187891e-03 -4.849114250453867569e-03 -1.003034715296319788e-02 -9.577152494294822321e-03 2.334802586370050143e-02 2.957713842095294101e-05 -7.033310994156192347e-03 1.343500177642759780e-02 9.378220712524536207e-02 -8.067012954032117336e-03 1.811403292705138224e-02 1.653298321861209827e-02 2.565016909829953909e-02 -6.280047191816558703e-03 1.092861161778873637e-02 3.557291941174917788e-02 1.608651506590452751e-02 8.571879855268544485e-03 1.989771310293860038e-03 1.804299259653942625e-02 -1.924398359331501440e-01 8.967556060991603920e-03 -2.955045694871736867e-03 9.085648108151076624e-03 3.303705261587749908e-02 6.618317973905077757e-04 -2.363766420505851711e-03 -8.562383890744047765e-02 -1.027554024980504611e-02 1.045281920960690163e-02 -2.687598374158873399e-03 2.126094772980194336e-02 1.477311243306343638e-03 5.348228259688276968e-03 1.923745860342913373e-03 -6.296131589754400647e-03 -1.695023509559483860e-02 2.627241806546527694e-03 6.063667049367336276e-02 -1.080940336008215201e-02 -1.219432337288065167e-02 1.040967643615847964e-03 3.722427557812881763e-03 -2.194013850197589714e-03 1.239134070577400763e-02 1.680983377414556335e-02 8.146540384995211784e-03 2.126916835435946080e-03 5.696965694510825601e-03 2.561486127617517219e-03 2.321853323526819508e-03 2.481703890917229260e-02 5.606255416423604199e-02 -4.581231880496841082e-03 -1.624353026137223543e-02 1.503465792754075415e-02 2.059568553716850658e-02 -2.072303151442796403e-03 8.898053091091762123e-02 1.960383149493620872e-02 1.159735136739638295e-02 6.401533665088617910e-03 1.847156135035209201e-01 -1.415733495427526530e-02 -1.629904631559803488e-02 6.343579050739407699e-03 -4.110016109463987544e-03 -6.013370099788938918e-03 -1.077126843275443002e-02 1.071831521304907097e-03 2.006251714477757381e-02 -9.770412565227109061e-03 7.890944859164705782e-02 5.230202096236406112e-02 2.022275002667790061e-02 2.540211246232695202e-02 4.349608029056225775e-03 -3.870859569554462119e-03 -9.559555604973435025e-03 1.453609043603666107e-01 -5.926839133715628566e-03 1.892597292474688594e-02 1.705727319363177785e-01 6.255855261634297830e-03 9.760429647471360534e-03 -7.209348729890815294e-03 -3.480042632986654876e-04 2.777850237147333999e-03 2.290799849442926375e-02 7.574620369772619433e-04 -9.516931175299031542e-03 2.463907469121226143e-02 -8.515476551147075149e-03 2.375181259967048403e-03 -1.869776065134822612e-02 2.635946126707457496e-02 -4.302155632206415559e-02 6.349393035868003930e-03 -9.060098204768727084e-03 7.608066673217544346e-03 5.327168225123475598e-03 3.779548954148188172e-02 7.186018542893987671e-02 8.796911856894804385e-03 -2.411422948380557638e-02 -1.264487638043645945e-02 -1.522171712401475425e-02 8.703884175277118440e-02 1.495022873070532901e-02 -2.055764541729375450e-02 -4.078920672107244627e-02 1.309749751351347094e-02 1.447662786426488941e-02 -9.459178170073466105e-03 1.242247851651542834e-03 3.728116883731747138e-03 -5.553543324990920654e-03 2.063070434220250562e-02 -3.758188868398682804e-03 -1.604392391105138177e-02 4.515307522596852946e-02 -1.819748465357253278e-02 -2.427666164440358230e-03 3.070952545748395750e-03 -1.775186125271269264e-03 5.446762809728208921e-02 1.501655870410778136e-03 1.995366213214428558e-02 -2.224528317487370517e-03 1.236763746201417595e-02 4.507805868475087130e-02 3.933672094677894554e-02 1.058855042934432958e-02 -5.092380927779293492e-02 1.337047583423657190e-02 4.736183255004981080e-02 -6.522799509473318699e-03 -1.579292298107295295e-02 4.475107931782672591e-03 2.148480530986809911e-02 5.546143488280813258e-03 5.214394009006463604e-02 1.068025006847454252e-02 -8.906341100666136795e-03 1.036317944775991712e-04 -1.658801183021142711e-02 1.091745727429732291e-02 1.172553791014614710e-02 6.810860279673578745e-03 5.644633573503955032e-02 2.271846680263047216e-02 3.507867472282058530e-03 2.963066059755131362e-02 1.078085466050935221e-01 -1.455954060266466225e-02 1.302917553197273587e-03 6.986411808591500711e-03 2.468283143117072989e-02 -1.953223838196778937e-03 -1.461196834155664183e-02 1.019907447411527550e-02 5.600900581558541230e-02 1.411987897519220193e-02 -2.197127655707107469e-02 2.309678759652036058e-03 -2.456893083400484359e-02 -1.672935266048935013e-02 -6.278770547248480396e-03 5.056668530819272839e-02 -4.712665008180491437e-03 -5.107200706233654998e-03 -1.167008021712610984e-02 1.080989248047021199e-02 -5.221899629331599318e-02 1.005056930302801466e-02 4.913983263517698874e-02 3.146983060942060706e-01
-5.007913778288878431e-02 -4.469201416089033790e-02 -2.231966957014856756e-02 -9.290846024098601760e-03 -5.238307283168435521e-04 -3.993716472267954537e-02 3.196690626649582867e-02 -4.818507826560061713e-02 -5.394818854438690470e-02 1.461998128232777812e-02 -4.557466324602871266e-02 -2.588387589920243884e-02 -4.479714255080825694e-04 6.371820690946512940e-03 1.054410332342335839e-02 -3.514891649959856618e-02 -2.278700054480277404e-02 -1.087662809585322465e-01 3.479590725631989678e-03 -3.818625612148200676e-02 -8.094833897366551789e-02 1.588259048277307003e-02 -9.177710616086978690e-02 -1.724464237944063269e-02 -4.069321765787011630e-02 -4.541467492231629488e-02 -7.836706510888344357e-02 -2.342511609081252694e-02 -3.430790357114707478e-02 -4.369588519135303960e-03 -4.414005737792820599e-02 -3.981664120047808536e-02 -4.704047040486632192e-02 2.330033831421815180e-02 1.649178793294903134e-03 -4.873308556716269245e-03 -1.273916122487040725e-01 4.187891218287788028e-03 8.530858457719045496e-02 -2.526164265631725137e-02 8.803235088111311182e-03 -3.326992515154371605e-04 -7.741393016656342163e-02 -2.591854342034798434e-02 -3.173217354857021250e-03 6.705523165409252306e-02 -2.347645425086012649e-01 -6.590582101820420535e-02 -7.178413356201775175e-02 2.053471306235253591e-02 9.165886803133307947e-03 -3.714292127243006003e-02 2.253564038110510148e-02 -3.940096618690160091e-02 -4.555626763357278550e-03 2.636374455902935898e-02 -3.990572184011366430e-02 5.608178514538547654e-02 1.499802918839933732e-02 -5.562617116395680850e-02 5.568338200391674542e-02 -6.241579781972404761e-02 6.991784243232102014e-02 7.569567189050605167e-03 -5.680078968601008638e-02 -4.946283385442499375e-02 -9.883728985453310578e-02 1.136673313597819264e-02 1.340911041931360237e-01 -9.994733933559089845e-02 -4.613904038822633918e-02 -3.192128666495947648e-02 -5.532034718732830453e-02 -6.964489872409333759e-02 1.130931259647205422e-02 1.736728542103020967e-01 5.201859303059417489e-03 -6.987008262546762216e-02 1.523540436904211315e-01 6.760334959761005701e-03 -6.886938127134444032e-02 -5.118454234126201124e-02 -4.075571691171780975e-02 5.173108034794708654e-02 -1.038202106309309841e-02 2.376534557978295104e-03 3.327197813673484633e-02 -2.300013654713534417e-01 -5.344491123600908500e-02 -9.229511965453214561e-02 -3.686175224711987775e-02 -3.497176606546936045e-02 -3.899335786757912592e-02 -1.751528256939728634e-02 1.455004739420219864e-02 -3.969892762298465883e-02 -1.348740606779810260e-02 -3.738015676520941438e-02 -5.399674375923469577e-02 -3.111852769486731993e-02 -2.190102500121941104e-02 -6.459885812459152665e-02 9.486241770669152917e-03 -3.090172520194684608e-02 1.507905076694477167e-02 -5.138438387423362869e-02 -2.363252757976060936e-01 -2.980756475904815586e-02 -2.961633015971064722e-02 -1.178512463190357767e-01 -1.961927230646047862e-02 -6.756825893733543753e-02 -2.765832748115223168e-03 -5.293424036449179138e-02 -5.533230924766139452e-02 -5.069118213966240100e-02 7.992652011127247824e-03 -7.653092292362518971e-03 -5.602663240808080508e-02 -5.179539713192821138e-02 8.714793545284264115e-03 -2.453667577870187987e-04 -4.248705971518205310e-02 8.446752283301423025e-02 2.611488337467711765e-02 -6.488941363391743933e-02 -9.452249261743785047e-02 1.109885077788961378e-03 8.698969834537175448e-05 -8.798534008590949348e-03 -1.391969211179323873e-02 -1.073852744855916018e-03 -5.445362804540083285e-02 -5.724366216521988709e-02 -1.220675016078750924e-01 -4.839624248327905470e-02 -5.654844533519769872e-02 1.282342142347484394e-03 -2.096333413291349632e-02 -2.987691833373626402e-03 5.969148716860826201e-04 -1.814084410986877283e-01 6.277621438218020621e-03 -3.785645253379116282e-02 3.848627530351810943e-03 -2.671646382766773228e-02 -4.999026555653064002e-02 -5.894790125895550681e-02 -1.908592897339946373e-02 -4.230645820685955544e-02 -5.681299561909321227e-02 1.468695485141457147e-01 -6.344821166192533834e-02 -1.629102610191527079e-01 2.935911565682901292e-02 -1.286395469382611498e-02 -5.654152455707294606e-02 -4.625675126834782186e-02 -3.805786387904230295e-01 -3.741102705111613250e-03 -1.030322373527351870e-01 -1.214974057992577461e-01 -3.895956783136864804e-02 8.220432567794042425e-03 -6.180912646592729570e-02 1.193870574327950650e-02 8.882607451676816437e-03 -1.281491066941396473e-01 -3.844563402415288045e-02 -3.364091545996148597e-02 -5.186278308586670435e-04 -5.255596690077971034e-02 1.494532879628505083e-02 -2.811772939968475854e-02 4.653477948615768883e-03 7.798814717056451462e-02 1.562283619213154090e-02 -5.098302767578832134e-02 -6.886573949168349473e-02 4.334270930917509534e-02 -7.394368220609164044e-02 -3.629867847693884347e-02 4.621773199137311355e-02 3.380318485537826823e-02 -6.005156027172475763e-02 -3.314461512929842840e-02 -5.559167814649958184e-02 -7.801729908165798422e-02 -3.577950507965960841e-02 1.646230636065358910e-01 7.756348961175180134e-02 -2.439622890376872896e-02 -6.088181363668948576e-02 -6.118503616360732034e-02 3.310103731085763112e-03 -5.629826395755467561e-02 -1.336705623905890677e-02 -4.540978474055565317e-02 -6.092092505672685315e-02 -1.359995033684696930e-01 -4.281863842708628215e-02 -2.841809890778084977e-02 -1.268714561218323156e-02 -2.891791106344442086e-02 -6.949457427409018451e-02 -6.615089854408127967e-02 -7.224998188426941248e-02 -3.322797809381695250e-02 -1.874782955342140303e-02 2.543688150041636953e-02 -7.311028585897899612e-02 1.647263399333264572e-02 4.791063079597599611e-02 -1.011141663354361286e-01 9.463152383676853158e-03 -6.251810209992617051e-02 -3.346624686674014304e-02 -1.045764898258907548e-04 -3.729401170022018236e-02 -6.124992454452745511e-02 -1.053265792867782713e-01 1.400816835611608767e-02 -5.706654901426663068e-02 -4.630697871203291044e-02 -5.971541862417070051e-02 -3.684525042601377587e-02 5.211406347242118764e-02 -1.006740076171028231e-02 -9.810771895936332143e-02 -1.277977461359078347e-03 -5.246368462859254348e-04 -5.450803440419324519e-02 -6.428177580183321027e-02 -1.171176315333168627e-01 -4.807525980971587981e-02 5.863147088923607170e-03 8.279284724865527967e-02 -2.971633914936869583e-02 -4.043419152719338744e-02 -4.398989559046545539e-02 -1.449509131383552585e-01 -2.596100250532522649e-02 -3.004315388926673269e-02 2.029672886160165807e-02 -3.172088062031007405e-02 -4.872624998279436598e-02 -4.263806050384623403e-02 4.675051481270191267e-02 -3.324229592045387094e-02 -6.253655975363019148e-02 -3.583823340880051833e-02 -7.593929179624922705e-03 4.911941409834801736e-02 -9.427251664817054566e-02 -4.563927280426471889e-02 -1.706451799385989287e-01
1.462583671688545348e-02 9.909254315623675785e-03 2.566346337908529535e-02 5.556089542890219057e-02 -2.135951222577535738e-02 -3.730826983745458986e-02 -1.754280444102515601e-03 7.373068231222293031e-03 -1.228237452164697256e-02 3.912301526074323660e-02 5.668191138626302999e-02 -1.845183747386506742e-02 2.748036028186664689e-02 2.914421143529736385e-02 2.160014924259126556e-02 1.066590520038043256e-02 -2.979256165770947581e-02 3.489944998856296752e-03 2.784164761730645310e-02 3.388580726993470349e-02 -4.189423631487414895e-02 2.939559435947575183e-02 3.050413241176262724e-02 4.194886706588914216e-03 -3.487180828405658101e-02 2.446326404034988508e-02 2.727033631746984127e-02 -1.291001362398105402e-02 -4.315220231667851736e-02 3.013094248026260483e-02 3.476510026494077088e-02 5.729044218548133560e-03 5.595243656096011466e-03 -9.512504211598226539e-03 -4.540099947097966590e-03 1.936191335797542504e-02 -1.167893607336296588e-02 9.549766863461877850e-03 -7.150511758163535792e-02 8.406115351893309008e-04 3.161308043748503604e-02 2.458579172208088387e-02 -6.960901164398714501e-03 4.157276525693209129e-02 4.244415589884981133e-02 4.976631329740138776e-02 2.473398169591836671e-01 -1.333030960889398236e-02 -1.047579319577384913e-02 2.996261400287804355e-02 1.657230273493533884e-02 1.567522590979765137e-02 5.357610418280111392e-02 -1.270929288134068670e-02 2.736060707141966739e-03 -1.697743177317269717e-02 1.380794604058562490e-02 1.543117084226831581e-01 2.510194125937130483e-02 -8.209787712908607482e-02 4.139032862988396844e-03 -9.143329711199188470e-03 6.148964220459155611e-02 2.291639031926973047e-02 -3.520442892199013990e-02 7.538372356626864106e-03 3.703167397919326920e-02 2.455655005037331653e-02 1.409896366476859342e-01 -1.334542863512976942e-02 1.632561064837570117e-02 -3.047311231673513476e-02 5.736894849335729546e-03 8.978637510846371184e-02 -1.046192810025381448e-01 -3.140507168761466072e-01 2.849805363581109710e-02 -2.928154160062341679e-02 1.026366936682678865e-01 1.295406922953762363e-02 9.734281027980901460e-03 -2.895913768838926164e-02 6.438866198323194359e-03 4.654733141201716773e-02 1.237655065233943079e-02 2.577986479408427706e-02 -3.419310467680902743e-02 -3.035779052534629541e-01 1.120778060357218234e-02 3.758646472832750246e-02 2.442945957487978326e-02 4.301163224519116701e-02 5.882480648129480467e-03 1.513586777245901245e-02 1.787450656834070747e-03 2.813784700150374907e-02 2.024674550397433104e-02 -3.361635586300693729e-02 3.871302201373864882e-02 2.987477423969592261e-01 2.811031767437208173e-02 -9.305004517257745716e-03 3.511217254659739634e-02 -2.564585789965359228e-02 1.025906133721966353e-02 1.498922827252441130e-02 -3.423755158723083142e-02 -1.015695877328237975e-02 2.866489626723604453e-02 4.719007593299303499e-02 -3.726664566300274400e-02 4.734347098208890880e-02 2.538559552892160828e-02 -1.004451943728678839e-02 7.932677268106667900e-03 -1.872925864488516473e-02 2.267324851196359306e-02 1.248747280734401228e-02 -1.952098737715993529e-02 -3.213697619586593918e-02 1.613649009298363801e-02 2.718025609627757605e-02 1.247357538654847008e-03 6.732975301169596971e-02 9.500873466209440454e-02 -5.267036958696416638e-02 -2.700648443470245186e-02 1.687943963881484780e-02 3.521317655070161506e-02 3.208057732966707737e-02 -4.114281311540702452e-02 -5.531498938332380516e-02 -1.619434152665147559e-03 -3.079087206622230233e-02 1.394786182588912335e-02 -4.801084572771510510e-03 -8.335493521167037720e-03 -6.037909395898515691e-02 2.825675876182277488e-02 3.413587013523919356e-02 1.418502201611896059e-02 3.312277376863627300e-03 -1.968468126127626699e-02 7.163014197403702425e-03 1.958927349463588860e-02 1.043336272440104628e-01 2.363152084792883960e-03 -1.048434911140940645e-02 2.777569774438494454e-02 2.369166767982928273e-02 -1.892612504788699496e-02 4.211640477285048811e-02 4.578162115145485017e-02 1.355257628688047167e-01 7.180471805938584695e-02 3.063085431628076102e-02 8.384929798129731743e-03 -7.805360881854737573e-04 -8.472365844915673294e-02 1.307349767292137997e-02 -5.415180074352551887e-02 2.174973564387222905e-02 -2.435606867932355035e-02 3.515545753655249100e-02 -2.643331318281457593e-02 1.636790643348512778e-02 1.519614708049856454e-02 2.366338268058191738e-02 -1.125212207013057304e-02 -2.457167872452410348e-03 3.438114502345072931e-02 1.152830282557919424e-02 3.033834066720073053e-02 -1.457068813100652858e-02 2.388372943299642628e-02 1.197103780780612615e-03 2.585031693537350253e-02 -2.136895764117684171e-02 -1.155912227860698971e-02 -2.333098925471043666e-02 7.097227098576552873e-02 8.582149040824238462e-02 4.316790887878216298e-02 -3.217481240407123882e-02 1.195615985993010374e-02 1.460636101577592397e-02 9.701364342776960109e-03 -2.870771370267521244e-02 9.309687989876412259e-03 7.775231330867447832e-02 7.096996719399393952e-04 2.702864561599543219e-02 -2.159049507287300745e-02 2.955494147433509328e-03 2.060249756020801626e-02 -5.248040483467168033e-03 1.728646121318979517e-02 -1.596150269952368791e-02 -3.193432164243990151e-02 -1.809987575162279663e-02 -4.032717885723341444e-02 3.857896026494669287e-03 1.443870093070009561e-02 -1.946821126077860620e-02 6.589249934040904144e-02 5.329237311493097845e-02 4.761505724515565502e-02 -5.046715729546736619e-03 1.994794310341645519e-02 3.906440155380299512e-02 -1.357687522052586533e-02 3.564269699200392494e-02 6.603576093923411994e-02 -4.294854475228196411e-02 -2.903171664949478203e-01 9.815267711017150454e-03 -3.527117295108530420e-02 2.348517916717998699e-02 4.389921304498038690e-02 -3.237311554235272615e-01 3.359498715688675791e-04 3.976238584620342409e-02 -7.679818653960894699e-05 -2.035827772204712449e-02 -6.474204033938690296e-03 -2.454462334300771056e-02 7.016510071344912725e-02 1.883345011677881736e-02 -1.870656037563046825e-01 3.010552562573234545e-02 3.262582494307116054e-02 2.699538817442966032e-02 -5.094721047593777502e-02 9.555573273519467337e-02 3.090045664119942664e-03 1.064322778997400624e-02 1.538193099180814628e-02 -3.751999361640252252e-03 -2.360818580145579784e-02 2.151665136539005624e-02 -5.667431280720593156e-03 2.806904071259370276e-02 2.160241517618468124e-02 2.658321583017269826e-02 5.172528941422103489e-03 -1.586994143463680423e-02 1.819550495193995865e-02 8.049505722946254105e-02 -1.814351225388262032e-02 -5.044239928302947373e-03 1.074986348684304691e-02 4.740292909942071115e-02 6.291713399609495661e-02 -3.442555632472706073e-02 7.170107947953655025e-02 -1.572811298482085784e-01
-5.723765666034873537e-03 1.033924226820538347e-03 -1.464376129734946963e-02 1.207676005806777994e-03 -1.463420219435569714e-02 7.075353893761563394e-04 -3.487940758609724828e-02 4.524191026626658667e-03 -1.262444776224400989e-04 1.431601583052130025e-03 1.602392901959305907e-02 -3.517830613846900829e-03 4.006733359206562234e-03 -5.778536167556128610e-03 -3.324259154611849780e-03 3.651898290277239088e-03 -3.254921422431538564e-02 -6.612121268718057499e-02 6.253556970839607015e-03 -8.401331100712131073e-03 -1.205419632864435228e-03 -9.922383252751527938e-03 -3.126613765757937924e-02 1.002684369858161889e-03 -6.304745703917720608e-03 -2.229357175845994229e-02 1.231703280405225392e-02 -3.926940987452275621e-03 -3.126131564174279218e-03 -3.547441701139833394e-03 -4.570845149639451988e-02 1.158834842669544812e-02 5.077470079039541999e-03 -3.062719362004419354e-02 -1.406816716045087255e-02 6.158605022555760258e-05 -2.180634710374306298e-02 3.078433940958805008e-03 -9.444650149278224771e-02 3.768460784536804397e-03 -3.614086685946679006e-02 2.371417828252143922e-02 1.661074577765418855e-03 -2.130978439006992256e-02 1.410271777468507896e-02 -3.090950229913240130e-02 5.667761700909047795e-02 -6.842629880358797392e-03 -2.376384086757120720e-02 -9.504159117989716826e-03 1.425861247279303079e-02 -4.241711044685672486e-04 -9.007417252064428559e-03 -9.414412899755230865e-04 2.146169506044671299e-02 1.420981303904262326e-02 5.517213356401162901e-03 -6.493631946400563182e-02 -5.848911932293343260e-03 -9.614212760716750461e-02 -4.883381546913700966e-02 -1.049018469276955488e-02 1.061662403991177686e-02 -9.005736042844113970e-03 -1.043937322213395365e-02 -8.991623810250205795e-02 2.986102016849967455e-02 -5.997599230753121631e-03 1.350028608839967115e-01 -3.153598707766768448e-03 2.052640619919851670e-03 -1.135476690397467653e-01 -2.752708184585617515e-02 -3.034424888576760238e-02 9.034888175258315446e-02 -3.186706594573261719e-02 -6.500296304542513628e-03 2.686722775487758452e-02 3.778301940931005215e-02 2.775354883257798340e-03 7.081645868422752239e-03 3.040331590750350657e-02 9.652926754351058222e-04 -2.357847466742968648e-02 1.704015072659561050e-02 -2.782924764038127025e-03 -3.566106137101662799e-03 8.866359797115357100e-02 1.481372148606126650e-03 -1.827286617039680433e-03 -9.587900905598878767e-03 -4.379161360102722176e-04 8.073129706591835458e-03 4.419462915487835583e-03 1.095144591108918042e-02 4.092260171749890693e-03 -5.241927889813657176e-03 -2.371661260726287950e-03 9.443232392463892302e-03 -2.721414842041680604e-01 1.546149601272833567e-02 1.472636218534996606e-02 -7.095698617674968574e-03 3.288590281712457097e-02 6.907163387848893644e-03 1.857130305935309877e-03 -9.372694846571721916e-02 2.748541898947787047e-03 1.138540227423704603e-03 -7.530458877233955038e-03 -3.115886340162626542e-02 -2.512214095403438874e-01 1.106208573975065758e-02 1.176832442542986032e-03 2.902470588159458947e-03 3.218584966102684686e-02 5.582322824616813874e-03 -5.720934984888901426e-02 -1.616561195960287793e-03 -1.995741132771966866e-02 1.149044094875666978e-02 -3.306683892406852773e-03 7.421832288365629721e-03 -2.636886442798280425e-02 -4.423404626996567390e-02 -7.261897995414369478e-02 -9.692318522064964290e-03 1.203930159670944453e-02 3.626506649388564450e-03 1.944077150428304146e-03 2.680213530743085631e-02 -1.991024558978027603e-01 -3.795159790523560447e-03 -1.259004223106706399e-02 -7.534457457911704348e-02 -4.519666343274326981e-02 -2.936034013264777857e-03 -7.928278948740730137e-02 -8.548048611288766585e-02 -3.171964420051796938e-03 3.240450494358455835e-03 1.843730732069434053e-01 -7.081840764391567067e-02 3.596559056064502474e-03 7.105631937430339357e-03 -2.784363007890109376e-01 -8.610365461432301689e-04 -1.689238295700938369e-03 4.373898537025744490e-04 5.550451774057314422e-03 1.405542257178137890e-02 -6.205925989296358532e-03 -2.898456369514135211e-02 -8.203238756807569587e-02 8.659197012686621056e-04 5.784070776936234629e-03 -2.713639915614358532e-03 1.921438162581501786e-03 2.729922936918512816e-02 5.757224485657934897e-03 -5.038566527654688570e-02 -1.823120227992165721e-01 -3.678731053577490289e-03 -1.524972541047494613e-02 -1.366742835751429651e-03 -3.869277266188944544e-03 1.096372172963057390e-02 -1.269682913236482025e-01 1.558933754067256747e-02 2.146677749039180121e-03 1.250604666447197033e-02 5.796129412160817319e-03 -7.999602995723106152e-03 1.293180126440282920e-02 -7.140251310011667962e-02 -4.995315189853078569e-02 -1.594870915811569560e-03 -8.402531599638734042e-03 5.076555376473910162e-03 -2.778629808386220978e-02 -9.467552875659893119e-02 4.216258998130076319e-02 -2.010236158940160306e-02 -5.655534605707817492e-02 -2.025121528420880355e-03 1.195159827146111131e-02 -1.558383654163966736e-01 -7.731843015453857340e-03 -1.871142693836937458e-03 -1.347474812821688461e-01 -1.271685402963043110e-01 1.201981851499351293e-02 6.835265240836382178e-03 4.636126840913085655e-03 5.016018563851270054e-03 -2.627317555586836193e-03 -3.302917328465642538e-02 9.689943417889078717e-03 -3.694070491576798183e-03 -5.296871685371153798e-02 -1.183539508643850595e-02 1.061443801482425328e-02 3.512647570398105736e-03 1.591464207769296404e-04 1.786371742895259337e-02 -4.257258993864506194e-03 1.413481604371515793e-02 1.452125079878025318e-02 -1.516294224875363271e-02 -2.437249007128522091e-02 -3.389234542600603334e-02 -8.316308089934269787e-03 -2.939933454149920924e-02 -5.790260279684294326e-02 2.040351164349949176e-01 5.813523579846074929e-03 -7.807098309457867480e-03 -7.290642716333192372e-03 -1.858173515528122044e-02 2.547667304832427759e-01 -8.757578090176641739e-02 -6.733161816281638297e-03 1.082899471766346142e-02 8.860224293243833607e-03 1.706175135292344741e-02 -4.954743972136812190e-03 -1.912557523850993632e-02 -1.680907787193019467e-03 2.267571679710355947e-01 1.334959497130153855e-02 9.061078187245968918e-03 2.364946140218132653e-02 3.321816322867065553e-03 1.510477194644764022e-02 4.747300116023433353e-03 5.261296537468586505e-03 -5.723072065055936387e-04 5.470590082545602299e-03 1.306092880787494605e-03 5.275326236388871472e-03 -6.264401045392885281e-02 5.121020929470572339e-04 8.347899995705568982e-03 -1.116115786059213022e-02 -4.518404277866366892e-02 1.648796136498255696e-02 -5.578612926764810881e-03 -1.803871700608041806e-01 7.926555515610694824e-03 6.715188620308717993e-03 -3.584249687781577206e-03 -8.059262252522947367e-02 -3.862342899351642322e-02 -2.732158901249215344e-02 -3.970413930067929337e-02 2.674152044110922333e-01
-4.498050624063994196e-02 -1.762910015171675893e-02 -1.906604610842228820e-02 -2.765944924033996929e-02 -6.391989159511085594e-03 2.548426733765912777e-02 -8.972739899419258924e-02 -4.973754794425449405e-02 -3.060881886709630392e-02 -7.499474960680580990e-03 2.703469964152642457e-02 -1.897229194052323445e-02 7.055375191940311749e-03 1.962729384626758430e-02 1.137721685641779334e-02 -1.449009827602096116e-02 4.749148369348082238e-02 9.452933773076058850e-04 1.062824263694581162e-02 2.748413713570790201e-02 6.321927006623792589e-02 -1.172471657209171216e-02 -1.268930644618330994e-01 2.017767328996689438e-02 1.180234865622160206e-02 1.015266603619432127e-02 -3.974718378299551408e-02 -7.470332375551302397e-03 2.014426119189726902e-02 1.897178780740775214e-02 -6.636627366258526783e-02 -2.637436937966283756e-02 -7.220115194449894247e-02 2.757128068694437648e-02 -2.096762826745854347e-02 5.803649296624130774e-03 -8.534085099904298310e-02 2.529119547584772823e-02 -5.138928157938808805e-02 -1.006043016120621199e-02 3.687785627892450208e-02 -1.301283329432983797e-02 -1.388807922457463255e-02 3.876492887120183001e-02 -2.396752580527686596e-02 7.039418898964663884e-02 2.568807918923881051e-01 -1.869784663436340269e-02 -1.938146248424559709e-02 -3.408258204039571644e-03 -9.470639932239755324e-03 -4.445701923447003406e-02 -1.306992871260071430e-02 -4.394500272198331552e-03 -9.606076090863334069e-03 -2.500991396461194755e-02 -4.717146213108770053e-02 4.487169215649757237e-01 1.423274123199320430e-02 7.672343186940913662e-02 -4.999956590819783220e-02 -4.441041039357254000e-02 1.951881665152429557e-01 1.411678600410454579e-02 2.849977434701416595e-02 2.187904642935468713e-01 7.231603463694090406e-02 -8.646393235820599640e-03 -1.015395316123356845e-02 1.344500312517577130e-02 -1.513897380691494460e-02 -9.236667488400493453e-02 2.147003530073190655e-02 -1.588042704923094128e-01 -3.087409304655525100e-01 -6.293659702843603654e-01 2.256837028029117301e-02 4.536411535435212750e-02 6.517732361934341911e-02 1.872823936210253875e-03 -6.727510420584764672e-02 -5.951214262365014246e-02 -3.286406341507995543e-02 6.649168174037665968e-02 -8.119024081263965034e-03 -3.377546369576691233e-03 2.557484686342818489e-02 4.116348740011590429e-02 -5.480676363450055766e-02 9.445405591352394603e-02 3.688652495377407053e-02 2.449553397617359324e-02 -3.131516293750384594e-02 2.599985607687674630e-02 -2.525969579336153487e-02 -4.102808454355135435e-03 5.509961506333513337e-02 -3.771472452308267248e-02 -6.618285930578901577e-02 4.508074518253929464e-02 9.303854433614372130e-03 -7.329341126738077306e-02 -3.693650706329927851e-03 3.527111045718548527e-02 1.339170065802535586e-02 -4.757913881588402005e-02 -4.555233167957449258e-01 1.199270525818447487e-02 3.007807937742833226e-02 -1.864327183598716350e-03 7.507276987090884257e-02 7.148523729292731443e-02 5.101346441770432394e-03 -4.659654979314461348e-02 -6.250304472028384017e-02 -5.422390492628036129e-02 -6.394725892752904997e-03 1.090831889251995118e-01 -7.118045441303439899e-03 3.754582497131675467e-02 -2.083724388463356440e-03 1.955703776655227585e-02 -3.919916013799115695e-02 -6.678863140550907185e-02 -4.405673245697383500e-02 -1.272665039736656060e-02 2.598548231612916176e-02 -1.986862706701824494e-02 5.216099229670738240e-03 -7.788131610473604180e-03 7.097844614388268414e-02 7.825440549720005801e-02 -2.978729840875263268e-02 3.497604240567477041e-02 3.013462772812128612e-02 -9.734009620792689887e-02 -3.727079268903567971e-02 6.133492167471674833e-02 -1.018333684961503782e-01 -6.289943040556971940e-03 1.012115195125733863e-02 -3.447066201504231930e-01 -2.753700245402831981e-02 -1.973462914954334305e-02 1.891835503001546709e-02 -1.959344410977624518e-02 -4.012475162046443694e-02 -2.645874703920642057e-02 -1.096963559443803540e-02 4.283559797247536369e-03 -3.870413207393002403e-02 6.538758007081948986e-02 -3.800704986938788742e-03 9.364912597755074841e-02 -7.599443332617333846e-02 1.097207906965112778e-02 -4.602658902422353260e-02 -4.063104860612196806e-02 -4.114568824246267464e-01 2.442477393183374503e-03 1.820375341730077756e-01 1.159532695096261862e-01 2.367355095716447769e-02 2.499418703250744916e-02 1.615779472993669752e-02 3.109182267598160042e-03 6.145069655558057370e-02 -7.530744556773021070e-02 -1.409288908508877711e-02 -2.989638914444944437e-02 1.990665544364377329e-02 -4.446929021998431708e-02 4.195603355692512776e-02 8.789759837215518554e-03 -4.656836989044774860e-02 -5.273893542243576760e-02 5.754543913903440756e-03 1.207328092700107706e-02 -5.095693207701792321e-02 -4.081605182511589824e-02 4.411537858777785787e-02 1.405603518559484510e-01 5.816926887979194383e-02 -3.669353176444253850e-02 -6.510739804965413879e-02 -2.318974300507147326e-02 1.224171801075156496e-01 -1.365331158552343140e-02 9.114869478059154165e-03 1.283661138090221587e-01 2.514937231411085161e-01 -4.730024839452102656e-03 7.791592826684849010e-03 -3.258585516846858321e-02 -3.821645272307246013e-03 -1.190713274770341563e-02 -2.809160837103602537e-02 -2.392884139851176109e-02 2.963132260622569798e-03 1.025951374206918315e-01 2.379998414757659650e-02 -1.874588565109380767e-02 6.619379924874050497e-03 -9.737617554460700070e-03 -1.253174966784441624e-01 1.136615202011247994e-01 6.421807869848231154e-02 -6.329755678388874866e-03 3.159996999337635198e-02 -6.768660175624501008e-02 -7.814061288766645241e-02 6.992687319433674858e-03 1.023552225492946471e-01 1.102754672213092646e-01 -1.591726854823830584e-01 -2.948286934313557733e-02 2.310818748028578215e-02 1.883280603536069062e-02 3.829406701448078570e-02 -5.151453106909636981e-01 1.603283345788403952e-02 1.709769218131866261e-02 -8.126362926466661196e-02 -2.224726314859704762e-02 -4.884069637961788862e-02 1.133769722287433952e-02 -1.495829114308672714e-01 -3.734484064440605783e-03 1.549850212242036840e-01 1.802358588269068959e-02 -4.089859621069050731e-03 1.534457101789067808e-02 1.057728318782725219e-01 -1.299532036705705051e-01 -3.623067116234333918e-02 1.764686231488832302e-02 5.013362814592583344e-02 -1.790592529638003298e-03 -1.020274050667036719e-02 2.682701518113217443e-02 2.672677063036144052e-02 3.227170930215990385e-02 -2.250673926470719843e-02 7.064273002426801201e-03 -4.785062947333067890e-02 1.211837212739252413e-02 -5.045434750255487627e-02 4.393036815993674182e-02 -9.879430786952953132e-04 -1.504418617370451884e-02 -1.097719349397545917e-02 -7.811040112506427435e-02 8.498631065555642405e-02 5.797978818253661515e-03 9.709809000726447870e-02 -9.083399759159208053e-02
1.171242863718681285e-03 1.017866323408325203e-02 2.582639490253790110e-03 3.519999366518446887e-02 1.727644051597790331e-02 1.309374067624535266e-02 3.764642365628935016e-03 4.526073678400734275e-03 9.448908202121200639e-03 -7.776132034979284062e-03 -1.312633526339260920e-02 1.412677860939298528e-02 -1.984319876984633885e-02 -4.827756920246647002e-03 -4.508895590913213069e-03 7.945096496183853135e-03 3.355801809357526061e-02 2.536022636437873946e-03 -2.202202910800599329e-03 -1.914978676379339509e-02 4.409338837853359061e-02 -8.183286138175351054e-03 2.347094662908223023e-02 -9.998186851891324028e-03 1.402520875780896917e-02 -2.683021455391506813e-02 -8.850521013770396364e-03 1.600486686260447350e-02 1.091083790397286667e-02 -6.191317835171903858e-03 1.875909380007210678e-02 9.751404131375603079e-03 9.386505755363388007e-03 1.486308822713710946e-03 3.184117589763759554e-02 -8.790797332091688718e-03 3.466492863607345543e-02 -8.954851612407960931e-03 -3.763221912275484249e-02 5.747139562263568427e-05 9.404256901636752833e-03 -8.879214533585946117e-03 8.377748745638890007e-03 -1.773707649510227607e-02 -1.099468401114673567e-02 -1.515980487342852810e-02 3.531196273050159207e-02 2.267232544162633284e-02 2.747476238725270539e-02 -4.778968024336793623e-03 -2.286802148600333966e-03 1.026153139469824019e-02 3.266203891282605087e-03 6.384114028625207868e-03 -1.429276490489108861e-02 1.778156888458087490e-02 1.364163399423621963e-02 -8.137790480506935237e-03 -2.062241124616069881e-03 -2.731527416980791129e-02 1.296452708218623307e-03 5.726727565613922051e-03 -4.269683989345647579e-02 -1.496169879317722079e-02 1.272011232474169924e-02 -2.388895560461318582e-02 -2.621177119889312943e-02 -1.433070346480568545e-02 3.264274516928367814e-02 2.094096003692629340e-02 -2.112727027171760683e-02 4.291242485349085201e-02 1.958475068114788609e-02 4.424852801634231864e-02 1.444347820461890086e-02 9.801454713167370020e-03 -2.399431734563621174e-02 2.387418417491398923e-02 -5.501240539834983262e-02 6.746129529558300220e-04 1.185156930240515577e-02 1.453931803788430406e-02 1.486927062720073446e-02 -1.700601686310809421e-02 -9.776529538247010279e-03 -5.521584822621914551e-03 -1.428706205337324691e-03 3.640103910267869503e-02 1.545710302550199790e-02 -2.114954593477001016e-02 -1.105807809770816517e-02 -1.220093515541222084e-02 2.046411813529258952e-02 -1.016473994589468452e-02 2.443679828445174951e-02 -2.648115740179791521e-03 -1.240588203109482986e-02 1.646308961290443226e-02 2.881676493401375688e-02 -1.127821178805180624e-01 -1.124829154473841117e-02 7.568854525683591135e-03 -9.738611910053152076e-03 1.511467475660762880e-02 -7.308853220705588925e-03 2.471714317815404058e-03 3.135321396216467216e-02 9.517230266366831157e-03 -9.765323721798587278e-03 -5.654846505777887111e-02 2.065068671614213314e-02 1.589800379511940864e-02 -1.149987905300466594e-02 1.131957360512641023e-02 1.020366905261772122e-02 1.671500679437971579e-02 -2.375977811865619474e-03 2.087290266362369640e-02 2.438318068493126878e-02 1.073328608755705522e-02 -3.148194108066766465e-03 -1.628687580093154258e-02 1.641788096256449614e-02 -3.674764522087931116e-03 -7.151556133325762642e-03 -1.352685726890207746e-02 1.502016806609453824e-02 -5.481825819468885176e-03 -7.112216577884723778e-03 -4.615432402450718626e-03 1.878951333935957591e-02 -2.178196471134976123e-02 4.365251844268233129e-03 7.193861408608128415e-03 -5.773505679441933228e-03 -9.964258706068122515e-03 1.423677963847110733e-02 2.309877970511106313e-02 -2.465677174558099025e-02 -7.233892180475568097e-03 -4.603618861094701045e-03 1.026665700769494316e-01 9.684535698121414168e-03 1.445210123037673523e-02 -1.047944230406011243e-02 -1.847174486997524567e-01 1.932009005557318304e-02 1.506790568694808125e-02 -5.947199313444755629e-03 -1.119052803344822503e-02 1.300614710068212672e-02 7.540672216767070613e-02 -2.952973847104420693e-03 -2.553149043497556989e-02 1.459332458794347599e-03 -1.494581360134423879e-02 4.989717114047141806e-03 3.182234173667713387e-03 2.376640161021901371e-02 -8.967829168745354573e-03 -1.147624310731278248e-03 1.087464139269323296e-02 -7.488935995007120266e-04 -1.228158456655005504e-02 1.266122082622780920e-02 -6.063483199873453446e-03 -1.001630484441238568e-02 -2.873718708048503961e-02 7.691538641326642334e-03 8.636184228643664640e-03 -7.399639598798136465e-03 6.470396664057025300e-03 -1.026724544692250544e-02 9.004333165927053129e-03 2.045201727970297548e-02 1.635708207149803167e-02 -8.695632544580559481e-03 6.740209871680839099e-03 2.328555429381451783e-02 1.043429218720504439e-02 -2.687279094120183232e-02 -1.078431926081487545e-02 -1.259579899606204541e-02 1.287169519339972229e-02 6.668568709830235107e-03 1.622499409318446315e-02 -5.691006700230932455e-03 1.523323549753169415e-02 1.162646231895936126e-02 6.443541280315936981e-02 -9.080563332608718174e-02 -1.201885859404471131e-02 1.589677022717220917e-02 8.020550990374929190e-03 -6.478987906570556760e-03 8.064124531537835219e-03 -1.050407831316365996e-02 1.503744245625654279e-02 7.431207641602705430e-03 -2.012300682231884380e-02 1.171971107312906081e-02 4.145847812658146970e-04 -4.980202306248348275e-03 6.725392285558215270e-03 -1.990518277655350943e-02 3.750142433191350124e-03 -1.415105767722297549e-02 8.131564001272181125e-03 -1.453518000919314448e-02 -1.508844386245308117e-02 -8.113734846154106251e-04 -2.034635157672713343e-03 4.573162416115251171e-03 2.402372283341165583e-04 7.985454623252216666e-02 1.703318498610342444e-02 1.060093996245007122e-02 -7.973613508317064710e-03 -2.021887105211500613e-02 6.067771384077348500e-03 -1.171646407464226221e-02 -1.074084995978884065e-02 1.121026300230669112e-02 1.874727535255731395e-02 6.960956109116281897e-03 1.752058432608759320e-02 5.620943072144950377e-03 -3.410366944849124032e-03 1.551976867247782110e-01 -4.424622257998354034e-03 -2.532612957462829998e-03 -9.464317525959588251e-03 1.406731247449539979e-01 -1.686459629579792124e-03 6.031949536933106475e-03 -1.039882928981328497e-03 2.268623090726302680e-02 -7.891281952266914184e-04 1.188393334497307545e-02 -1.614021665334769472e-03 3.880433479812422926e-02 -4.618050302000814393e-03 9.169490480183719802e-03 -6.882602064923271437e-03 -1.903852070952112823e-03 8.463348383542705286e-03 5.506199071061808163e-03 -9.598994287532414127e-03 4.607992775055008879e-03 4.751530186633103406e-03 5.832533570153947263e-04 1.483165427420400639e-02 4.638337586976863029e-04 1.099611226048510283e-02 6.161816351412783069e-03 5.828172720783955651e-02
-1.327829534661381476e-02 1.674267910131459203e-02 4.626796390226195488e-02 -1.725628540760815524e-02 -3.447036512087596483e-02 -6.279626697513291875e-03 2.658918374598798900e-02 -1.893439097949687483e-02 8.350131786266246775e-04 -3.013733188922088687e-03 4.092394139260294161e-02 4.849033424107096653e-03 1.162490073256670746e-02 -2.169279019551839400e-03 1.725272444459032689e-02 -4.383797231109790200e-03 1.508454420476319502e-01 5.196967648471680773e-02 1.167500357597313007e-02 3.978874719065470661e-02 -1.273318146376228518e-02 -3.876826051046649863e-03 8.685294268314325272e-02 3.478940686909222368e-02 -1.350342858003359021e-02 9.916588940858428458e-02 -5.044961697868371314e-02 2.891542105339724774e-03 -5.761812768159043155e-03 1.129290462164930613e-02 5.712842782569144823e-02 -8.535360306021191543e-04 -1.681803194546773253e-02 -1.408369676727915139e-02 2.390572251967955711e-02 1.362218714983284319e-02 -7.074167414307326596e-02 7.279105270077022849e-02 3.084051292685164800e-02 1.121553739063544265e-03 1.276204787560957510e-01 1.419883176614289769e-02 -1.703676686130711423e-02 5.855091349759896507e-02 1.810855042603934720e-02 1.256386277647311700e-01 1.262126234769889166e-01 -2.315611537825726721e-02 -2.278948098228330416e-02 -5.637401560174448711e-03 -1.046122845666229125e-03 -9.767961703573349239e-03 7.995528794360451386e-02 1.820816684365426236e-02 3.839026209504547982e-02 6.216254093429875172e-02 -1.996221982267927172e-02 2.224805350297633377e-01 6.792969659387156252e-03 1.269343903959585795e-01 -3.188813863738703801e-03 -7.761642014740903180e-04 3.739725589704118169e-02 1.192449594806111596e-02 -1.227431752354938080e-02 1.181127559970458485e-01 6.493016085182440333e-02 5.968646949579111717e-03 8.558455550200794182e-02 -4.949533482110576171e-03 5.804631888719038318e-02 4.690695332850285462e-03 1.837517558926999445e-02 7.803461821055029946e-02 -9.363292368133417642e-02 -3.740873295295663592e-01 7.121272234385590816e-02 1.489547946305465505e-02 8.590160881792342773e-02 4.128484893600493054e-03 -6.903963877153494744e-03 3.576340986852511068e-03 -1.238740717038740668e-04 1.151419428960627350e-01 2.101546218604376931e-02 9.924699128131158829e-03 6.388780790677592303e-02 1.205290342547844923e-01 -5.277561324067249005e-04 5.289285938010299115e-02 5.166157049407769236e-02 3.936571603801958252e-02 -2.658802102977676340e-03 1.938719529906550790e-02 -5.267192828076150586e-03 2.081538359798517854e-02 1.959247162375354900e-02 -3.665544044567268372e-02 1.200103348837970076e-02 2.999246449363715539e-02 2.940709789320300471e-02 -2.827632958751256573e-02 -5.419491371303857691e-03 -2.356026501704153696e-03 7.142884379300047486e-03 -1.391263330706007592e-02 5.503123386982974874e-02 1.634434755453734872e-02 3.733629829380709364e-02 4.237469966465246679e-02 2.910266673515191430e-02 4.837302027958029216e-02 1.284714098155169924e-02 3.509330441525485619e-03 -1.121458649964332359e-02 2.257321330511308233e-02 7.707587006220320384e-03 6.454460040619483530e-02 1.531999370758871338e-03 -1.939038610971218976e-02 5.231781318382883877e-03 1.148974805619535841e-02 4.376363140970359819e-03 -9.622693640335163237e-03 -6.545057671508229535e-02 7.995948525077699320e-02 -3.215850216355433527e-02 2.076693757747028000e-03 1.140993681997028338e-02 3.699566533477519157e-03 2.075334453396852213e-02 2.355483320720909435e-01 -5.248570964973542623e-04 -1.721184663991182084e-02 2.489586571320097363e-02 -2.633541977707553466e-02 6.784581634729580125e-03 8.643076530041275685e-02 -3.258641446486022081e-02 2.346205968434396383e-02 -1.183401114441610643e-03 -1.263166834438523567e-01 4.391056742045167105e-02 7.021274830633221151e-03 6.155418785772491519e-03 -1.042881409642494039e-01 1.837424188908142950e-02 2.912115855706839430e-03 2.756247119798621928e-02 4.112177471009309526e-02 8.557153055578513648e-03 1.306546494989793521e-02 1.126363627202244533e-01 7.037175325954694860e-02 -1.800328339105334088e-02 1.036306147834719672e-02 -1.536045509111379388e-02 -1.004551542611849778e-02 5.201016163852529434e-02 1.027213447558191807e-02 8.838887964367020400e-02 -8.859519997526180135e-02 4.074739406668557995e-02 6.366407896568675173e-02 5.497813848948851154e-03 1.724254061756592613e-03 1.148620318857573007e-02 -4.669499344462833129e-02 7.920706339026896414e-03 6.894508677977394424e-03 5.401251394368921516e-02 -4.482012730845645783e-03 3.575378120272837412e-02 2.056634510927355525e-02 2.459142739800150232e-02 3.385414816473334559e-02 -2.282995718204286744e-03 -1.162480446642331910e-02 -3.788818775872050681e-02 7.626060352316672841e-02 1.379030611566183472e-02 8.938984772676784873e-02 4.324197211587639533e-02 4.834053190328242017e-02 -2.574667773004933949e-02 -1.086439187608227155e-03 9.833415839480290355e-02 -9.827144350556708124e-03 6.545943848282624947e-03 1.007100404592571052e-01 -7.282643092010576691e-02 2.093451634723441507e-02 -6.776696986974309594e-04 -4.272196868513817095e-03 1.416209416759537341e-02 4.308008225163311063e-03 8.576918788456093512e-02 -5.036008377676675111e-04 -3.689491873704669848e-03 3.733574761772824602e-02 -1.603368399556057144e-02 2.014894848407796854e-03 1.088807456448973032e-02 7.537575613192266412e-03 -1.835647230159671572e-01 5.567856016009340575e-02 3.194826477488331429e-02 -1.208311598336201656e-03 5.565976249777686985e-02 -5.284257821808573813e-02 1.255820140455299327e-01 4.544972632637894056e-02 -3.013331720557057766e-02 2.561510806810680940e-02 -5.210182113105736867e-01 6.774088814742280744e-03 -1.727979687124754811e-03 1.286971975061174285e-02 4.750735356836368467e-02 7.929646127792842891e-02 5.225806818988310704e-02 8.976536994412424170e-03 -2.941320603181720589e-02 7.884027535280108481e-03 -1.827663923808529878e-02 2.292749417865269299e-02 -1.511904238909175975e-02 1.355355758897027613e-02 1.629918156559236053e-02 5.985732708634620980e-02 5.524809285313007044e-03 5.208395900919689236e-02 -1.847848886324017503e-01 1.488055189176415716e-01 3.245044558196239545e-03 4.776403629574819606e-03 3.005372515162489655e-02 8.312609928064816286e-03 1.725728762262093013e-02 2.680347315164510053e-02 6.124928429430775284e-02 3.452788010858558881e-02 6.238594458810974540e-03 -3.498402921819711991e-03 5.286409425344501534e-02 1.763736428453790278e-02 -1.841267923575900731e-02 -4.058357640735544419e-02 3.027764497915474973e-02 -1.136330450015226971e-02 6.213960238091563969e-03 -4.142973378619820013e-02 -1.941151687508763102e-02 -1.347521349930501725e-02 1.365042931590546849e-01 -4.658406907951839759e-01
3.114240367156760267e-02 3.788779961895887699e-02 2.856222040477681204e-02 6.220721554240313950e-02 5.901133349754571211e-02 -7.640646362329622798e-02 1.384927096644158750e-01 2.962259550323238441e-02 1.723672148002287907e-02 1.539648098846947873e-02 4.917560137753582833e-02 2.816247115980375845e-02 1.849980541328976810e-02 2.783321684612281161e-02 2.969272346933768750e-02 2.021399207935445017e-02 1.164813218288497307e-03 -3.832220840052896760e-02 1.521992724355384491e-02 -1.722071500826579185e-02 -3.038104967062493778e-01 3.073064473207109265e-02 1.200689096005567585e-01 1.309994000628622937e-02 -8.229397342710412233e-02 -5.620166215453637794e-03 5.951184138583892613e-02 3.788613847946577240e-02 -6.457911014256566273e-02 1.090258506673662600e-02 1.431241837086525137e-01 6.175673324197879233e-02 4.762181718741561459e-02 -8.443185537737457613e-02 1.100406845749665047e-01 1.272253444025900522e-02 1.216635969726784644e-01 2.406154431420830242e-02 1.190083539313060712e-01 -7.396073729262713121e-03 -3.530175044522859684e-02 1.403922488679138630e-02 2.238780779374616517e-02 -9.457127290740515932e-03 2.601277196020904126e-02 3.293369753483654794e-02 1.184421026213564460e-01 1.574979764946540794e-02 3.000561805059181672e-02 2.700708862688375525e-02 8.593849568931674968e-03 3.085568067002633294e-02 7.604797763395737542e-02 -1.504697989838441573e-02 9.934114937647805718e-03 1.138895961433674386e-01 4.512233433436458468e-02 2.656679731068968264e-01 1.338889879988061464e-02 9.894270074402382320e-02 1.571953546296721294e-01 3.565534824946072628e-02 3.080832111210172336e-02 -2.097556580050537970e-03 -6.819147332632174985e-02 9.016889799563737595e-02 3.677368775602573442e-02 9.640433750119516533e-04 3.117179675949581785e-01 3.109045377467083496e-02 3.894850884669862588e-03 1.548977892256157667e-02 -9.598353960532736429e-02 1.612549683359753017e-01 -3.577837898611019862e-01 -2.154130883910700123e-01 2.431853373892147244e-02 -2.395032095403844541e-01 8.632000709915535475e-02 1.762046459537158771e-02 3.843991576144114436e-02 3.242314009234282396e-02 6.047821023620162523e-02 -3.141871786935670346e-03 2.295984597517499240e-02 2.811327116239275767e-02 3.568024771095043568e-02 -2.865995963665643118e-02 5.638712479384021953e-02 7.302249768457722001e-02 -1.388939193075381046e-03 3.264233595172659052e-03 5.935294280014161150e-02 2.419136443040448281e-02 1.391146362360483890e-01 2.079018923935927604e-02 3.079075391293289998e-02 1.841751227182619050e-02 1.033230659072468249e-01 7.318095381255068643e-02 2.083960400830079523e-02 3.750790173126386517e-02 3.413510861887836950e-02 -1.175225355928653515e-01 1.558161779072340242e-02 3.539525987653407285e-02 3.188381754321040207e-01 1.155875791808236470e-02 3.006070654860709679e-02 8.229771034536335905e-02 -1.630217851228162040e-01 7.995603033335565990e-02 7.223349283170763316e-03 2.234870702526578490e-02 4.377645623306587047e-02 3.313173652679898135e-02 1.585785055950713479e-02 -2.548667839283634828e-01 4.987544102012161744e-03 -7.005675659872855066e-02 2.524750863303178508e-02 3.246947181775867303e-02 5.098466346161394103e-02 8.952158700637988242e-02 1.285930076032980318e-01 3.473890495281640317e-02 3.219241374265319200e-02 1.602602027574801663e-02 2.497264709765455171e-02 2.355376872750107251e-02 -2.539471123634561844e-01 1.201843017482493448e-01 3.972149739230480814e-02 -7.808784571980058320e-02 2.454144417271850870e-03 8.569674865131717001e-02 1.562893341308611850e-02 1.720058776946657708e-01 9.882727120042504587e-03 1.941996450048848882e-02 2.047482180713554659e-02 -8.893124345296701816e-02 1.692528695868826261e-01 6.055004914334834870e-02 3.082131465532550810e-02 1.027546979625274404e-03 1.513210923872155070e-02 4.244435134583917496e-02 4.744121613507855210e-03 2.137595090883780830e-02 1.918816352007781528e-02 2.469210942407668308e-01 5.197524233584212283e-02 -7.549784326096521669e-02 5.988924200890941019e-02 2.169017509487356984e-02 3.871378534199199084e-02 4.341585966113906125e-02 -9.884388127765883492e-02 3.205536827560246521e-02 6.630410725364578942e-03 4.058721823121836381e-01 -1.077580636621212201e-02 4.627873504970685808e-02 -3.053486821225355474e-02 3.276896592567830370e-03 -7.386664479859055520e-03 -2.505160378797316109e-02 -5.294186534549940107e-03 1.947772886375783927e-02 -2.816472522140072484e-03 4.556167355262639995e-02 1.370215098634772373e-02 3.109098415098140999e-03 1.271950414866674650e-01 1.558049684581184480e-01 3.928665480498747670e-02 -3.156412322960015782e-02 2.679272613200056261e-02 1.649420676235621441e-01 -6.604477575078701590e-02 -5.386363868036313923e-02 1.457162297338087005e-02 1.323772945688044822e-01 4.801453944663449519e-02 5.699939668337812571e-02 7.955922478398996800e-02 3.448968071543949410e-02 4.700209314497936358e-02 -3.407427836117962738e-01 2.184914255246266090e-01 4.794002322856229931e-03 -3.144214872596094116e-03 4.346238450476304360e-02 1.699396732915003233e-02 1.317533836176822647e-02 5.654370839116504982e-02 1.652635834301577344e-02 -2.879898747141824283e-02 7.789769248959337034e-02 -7.557069002636755684e-02 1.392211141000500828e-02 3.474758384032559239e-02 4.061250008478314161e-02 -1.729421721489625766e-02 3.819725427901724413e-03 3.090960842267435546e-02 1.010313731096916176e-03 -7.528923558727514641e-03 4.020279303711623425e-02 1.380529210121456823e-02 5.278852401590461429e-02 1.778658822670093065e-01 8.039408543515040584e-02 -2.185484391116306602e-01 5.284182380331547968e-02 -6.685690613957383233e-02 1.470084738230229525e-02 4.302183272133367278e-03 -1.590866154377028330e-03 3.381666683652911898e-02 3.061386131623058948e-02 4.087314414953248376e-02 2.264539547290017607e-02 2.875317097736778890e-02 -6.266376463308403512e-03 1.642063617114624674e-01 2.687203062193162934e-02 -3.849147441428629191e-01 -4.727544290292477747e-03 1.318016392735785886e-02 -6.594560717804781071e-03 2.278899807378035811e-02 1.498861160567975526e-01 2.646156392079426767e-02 2.908065639856638809e-02 -7.081135268508791103e-02 -4.475545763547422165e-04 -1.485667930913983290e-02 1.600705390561840344e-02 2.886576752596308262e-02 3.383741693348400748e-02 4.960999919847882550e-02 1.940551215727458548e-02 4.558411269449089143e-02 5.585697300847605046e-02 4.457940025217670132e-02 3.742150359352509059e-01 -1.223707925084900616e-02 3.263324469062103134e-02 1.337332190398013811e-04 1.181469947340465232e-01 1.883844631060427599e-01 1.510396989320699976e-02 1.410238382208074126e-01 -2.335355465749686943e-01
-6.666960415010035439e-03 -2.333699728192211234e-02 3.066814671379040555e-02 -6.037091818767346268e-02 -9.185443571721570166e-02 -2.759341450605732205e-03 1.951304174950422854e-01 -1.549472153594616021e-02 -3.646501419325694215e-02 -9.100201496088313260e-03 5.220764306734620476e-03 -1.534046747946041581e-02 -2.897252382638148757e-02 -9.501456885020083398e-03 -1.753421192114939381e-02 -1.425830925371921604e-02 4.466078436153765076e-03 -1.051235572576258472e-02 -7.373782551720504952e-03 -7.638916322783911514e-03 -4.630541387390849778e-02 -5.414473805763873535e-03 -4.151677280296505596e-02 -3.617855366508706400e-02 1.235806415953960178e-03 -1.861474003631160418e-02 -2.375663262531023043e-03 -2.328253957818047712e-02 2.172801772300076567e-03 -2.351198056539476056e-02 -8.168399891744286545e-02 -1.026853334649348477e-02 -2.635502553362548475e-02 6.555993203984208928e-02 -1.246925862020488579e-01 -3.509202636352778959e-03 -1.554715452018170796e-01 -1.426031251122881170e-02 2.479102506814252413e-02 -8.159540759095612605e-03 1.687250734853139311e-02 -1.744176659157994913e-02 -2.502815629368565758e-03 1.585974992502700229e-02 -3.754163705749387347e-02 3.954944363498957144e-02 -1.024162216728734393e-01 1.880738840823992925e-02 5.656617158712672414e-03 -9.790469186401895216e-03 -1.335695440894071537e-02 -2.003069302219017897e-02 -3.073953531019993964e-03 -1.042029696417949396e-02 -1.786137225442801721e-02 3.345402618383813004e-02 -1.748440386949402098e-02 1.275634695639179805e-01 -8.731521675647873487e-03 -4.288152265233687727e-02 8.288727221224825858e-02 -9.551066072035343602e-04 6.678885846348640853e-02 -6.526160027643196360e-03 -1.239658900331260319e-03 -4.050998067108701334e-02 -4.666968516293892866e-02 -9.320340385038873923e-03 -3.171270470868552405e-01 -9.164242917217393578e-03 -2.084941502171416480e-02 -1.040541223711620861e-01 -1.088091127893204973e-01 -1.016050471543070571e-01 2.431260339627608902e-01 9.127790259972909381e-02 9.329425835405131054e-03 -1.456884871131843527e-02 1.118641575657673554e-01 -3.894101905211730299e-03 -3.372490639453867844e-02 -4.190194097992294003e-02 5.144546616420627924e-03 3.508780470564141357e-02 -5.424429740668763877e-03 -2.466388124041667129e-02 4.850536485873487708e-02 -1.136104963793510281e-01 -2.121745514008386430e-02 -2.524857446880112571e-02 1.480834292608249406e-02 7.157708571181548712e-03 -1.558835288558790486e-02 -2.206226117922970020e-02 -1.373945500201423642e-01 -3.008873695178108931e-02 -2.225767750011745788e-02 9.740513469623889378e-03 -7.401992241143348639e-02 -1.797068008798042293e-01 -2.649625730393410233e-02 -4.040846792494073164e-02 -1.133219500597306036e-02 -3.411393771611982706e-02 -1.236250616634200147e-02 -1.149644781933652389e-03 4.434926496807008872e-02 -1.997891384654920666e-02 -3.056973569361507576e-02 -5.571423778556025552e-02 -2.942386394987962089e-02 -1.312645367174588018e-01 -1.795786507136356083e-02 -3.631406087958866102e-02 -2.223659228628413129e-02 -5.280672657016206861e-02 -1.384338912301156729e-02 -1.877586463270547457e-01 -1.599250945752995210e-03 -5.142742687438362804e-03 -9.273753154365618409e-03 -1.088953962238938498e-02 -2.569250113502968141e-02 -4.999408816169637754e-02 -2.506427587628124593e-02 -1.751899231817322794e-02 1.408303877549754897e-02 -1.996937607887010191e-02 -2.181047628557094761e-02 -7.154588014477458215e-03 -1.513470109012304658e-02 1.502872181007200714e-01 -8.101234340570799553e-03 1.298281176326199823e-03 -2.541833451387530765e-02 2.813406274297584192e-02 -3.156452235797164302e-02 -1.385994643267751125e-01 1.328102799511658993e-01 -1.968500950129186550e-02 -1.851778223970862447e-02 -1.701508964235126653e-01 6.938064991130644954e-02 6.858360517910219896e-04 -5.417131070222148785e-03 -1.702096811386672459e-01 -3.362149077054367441e-02 -2.966890355479346458e-02 -4.334653321594443554e-02 -1.586943173379022978e-02 -3.744536235355715170e-02 -1.713185896122742524e-01 7.148370621592997631e-02 1.284582439532098996e-01 -9.338960810943167101e-02 -1.820066925988099785e-02 -4.356429527892777438e-03 6.151114553764736384e-03 8.101418256550080299e-02 5.697502617538273244e-04 -3.527614194603460179e-02 -6.493667664313955423e-02 6.040834842589934590e-03 1.342611791581144361e-02 -2.204157025418915661e-03 -1.003773668159976297e-02 4.570867729075433865e-03 -2.184526234916158577e-03 -3.474082831636549767e-02 -1.559792361450707335e-02 -5.704410230650214242e-02 -3.419980625411472158e-02 7.625506317655528395e-03 -1.757356397294017325e-02 -2.976807136171663593e-02 6.080984064853015014e-02 -6.857600676394212495e-03 4.358471425332857523e-03 3.364672360500367814e-03 2.918825430536440418e-02 3.845521167095626580e-02 -9.492189572170008083e-02 1.150398864495620101e-02 5.913722005557179445e-02 -2.406635402099990828e-02 -1.644678514981730635e-02 -1.304873155089742720e-01 9.310474971843313297e-03 -8.437582120837294059e-03 -2.696296742856665873e-02 1.268629102360429028e-01 -3.224764623271424786e-04 -9.486280677066655925e-03 -4.602614478170305445e-02 -1.480734500373850557e-02 -1.919487140369223466e-02 8.146024888566376354e-02 -2.897071672882068141e-02 1.297017322828355503e-02 -6.844561296192905320e-02 -8.499343931396003207e-03 -9.428654586032330157e-03 -1.868311137471377267e-02 -1.662468386403842535e-02 1.080938174862326046e-01 9.810131207879278781e-02 -4.545185313010177697e-02 -2.244302390850174203e-02 1.847522573061230293e-03 -3.516051425436822475e-02 2.928372865213562173e-02 -1.982497549217101390e-02 -1.974847656551945510e-02 -3.079546545878042441e-02 -3.016469755284556520e-01 -2.863788848570447340e-02 -5.652175785678829022e-03 -2.519434553949219391e-02 1.214377752541651902e-02 -1.097214119604446834e-02 -1.005493531398332779e-01 -6.283142632461032571e-03 -3.049626656191204571e-02 -3.156112479398526238e-02 -2.760610136404619344e-02 -7.034684176690445510e-03 -6.235220847649402404e-02 -1.036643834896533271e-02 2.416085166161942299e-01 -5.697302926500039111e-02 -6.606670624979307273e-03 -5.771485785176432015e-02 1.024692902602565847e-01 -4.294776820548511231e-02 -3.087811923467166653e-02 -7.933137106965868282e-03 -7.681349370701215373e-02 -1.370486376627214932e-02 -3.384789179983091478e-02 -8.245541055046269954e-03 4.151568692009980494e-02 -3.326563000101053977e-03 -2.336406076827785006e-02 -3.057935116986792989e-03 -4.068625455479938507e-02 -2.096640191082540378e-02 -1.482532625306714341e-02 -5.531920465033406814e-02 -2.792614587887093727e-02 -3.707118900107547656e-03 -3.902567123980547198e-03 -3.574582543432278537e-07 -2.430950683006953897e-02 3.800315014323391027e-02 -3.889546946697269164e-02 -4.465920195727760000e-01
3.187560902421943121e-02 2.920497613485287941e-02 -4.133829353298246190e-02 1.970161124252328352e-02 6.069104577135382705e-02 4.096995934258872846e-02 1.752750010349901286e-02 2.480448591784106815e-02 1.201321297301129708e-02 4.242997795667133830e-03 -4.038127659417852866e-04 5.999185387537226549e-02 6.103192059810485896e-03 -4.696160036270797568e-03 -2.642943623895395010e-03 1.625696324234906023e-02 5.176890142517685117e-02 1.119078465426761107e-02 -7.630359785553351287e-03 -6.196029465442786342e-03 5.203501081363202246e-02 3.244769881647811501e-04 6.616556323049813115e-02 1.861351660564076679e-02 3.219182243929425563e-02 -2.395885324767368582e-02 1.044343855218106409e-02 5.188316954784919638e-02 4.126104353613147674e-02 -1.631313356261241982e-03 2.198224928949044782e-02 3.709323512252123839e-02 3.407558735728551808e-02 -6.151331012435642259e-03 1.718150174737215902e-02 5.557757233088234453e-03 9.745793922536591380e-02 -5.892686895727390975e-03 -1.352979733602818584e-02 1.741658563925343149e-03 -5.147636135654266171e-02 1.824752501325673263e-03 -5.359268635205601835e-05 -1.522160334689031877e-02 7.480947190311300517e-03 -8.919567364605938964e-03 -9.424727936199764344e-02 1.855422601874230984e-02 1.683532064049534510e-02 1.857760098392886687e-03 -3.023326873370185100e-04 2.977800229406555102e-02 -5.688684421953719983e-02 5.242427651807928662e-02 1.816408324796975338e-02 5.828084500471776563e-02 3.377818105119682890e-02 -3.977131376463052814e-02 1.546026955726982838e-04 -9.496946522881553193e-03 8.618602994562027386e-02 3.088903220366138666e-02 -2.386208491435570442e-02 2.743477525523655650e-04 3.536350206428680309e-02 1.013538365915272934e-03 1.058225581921381879e-02 -6.457231085207646402e-03 8.928211535210879221e-03 1.339439037243241384e-02 -6.635962008023840730e-03 1.733799784654731571e-02 5.581515289783588185e-02 4.411465747737762164e-03 -1.032067159368167814e-01 6.328058899674160812e-03 -3.274740618763852945e-02 5.207164025404174834e-02 8.659791619892736117e-03 1.041916663367336605e-02 3.519516610590901762e-02 2.573115121652731763e-02 3.268948353507435817e-02 -9.019291637609365073e-03 1.223179218580132573e-02 2.233162966996510550e-03 -2.644999786242602582e-02 3.226553402952472283e-01 2.960046663869795106e-02 2.465733724741116521e-04 -1.588953591105116830e-02 -1.403885638637274343e-02 3.572262945574661286e-02 2.051868507942163251e-04 5.531162142735668308e-02 -1.247806989473038836e-03 4.925085756886382615e-04 2.137758583452862085e-02 7.857324164661122143e-03 -3.730551928621531760e-02 4.437594803416398080e-03 3.066243980903860314e-02 -2.267491147887507096e-04 3.282162919840080767e-02 1.670990649043725337e-02 2.669431893433144715e-02 1.573112000848114478e-01 6.634120966255831198e-02 -1.492860163909727521e-03 8.498493361535328083e-02 4.062141755009046618e-02 3.114435881882811341e-02 1.328483449678314818e-02 4.426843963532285653e-02 3.629818938471644774e-02 3.838341015731477207e-02 1.252050332856293260e-02 7.221774607942835211e-02 6.035790386662288898e-02 4.372756423451752694e-02 1.892075194835873136e-02 -3.793717681283381542e-03 3.196522109867799138e-02 3.353369992459936944e-02 7.191918882837695925e-02 3.642122470341106061e-02 2.381843538981196634e-02 -2.697334439508226270e-03 5.455633363009210028e-03 -4.153346393294545837e-03 6.408489454779729699e-02 2.287872280695960742e-02 3.832347031597265613e-02 4.635317994635205358e-02 -1.165374937979550725e-02 7.204702938038683169e-02 2.870286921951872502e-02 3.462597101712225345e-02 9.024799649572290069e-03 -2.899904347814473860e-03 1.698493496123118854e-02 -9.858947055290043227e-02 2.198635235129401885e-02 3.733139573404151840e-02 8.172365160695822112e-03 -1.224488771607235571e-01 3.394420887581069829e-02 4.982379702422207873e-02 1.577498611435473874e-02 9.070107805985911688e-04 1.550222570140840500e-02 -5.073497022222415477e-03 -1.004261141874893543e-01 -3.641152135836700499e-02 6.406821742787148499e-02 -1.766752824001844961e-03 3.153573507677576160e-02 3.927514481349068942e-02 -2.728179727140974536e-02 8.133360040523708590e-03 -5.528863743672110184e-03 2.592791080276218296e-01 -1.701873131903332975e-02 -9.651915793658878695e-03 2.884685233842999505e-02 2.997510982079098271e-03 -2.010469852216894681e-03 7.576872978067968056e-02 8.236652279460009510e-03 1.332514505094249679e-02 -7.393688913389817596e-03 3.283938146585945600e-02 -8.792015358807067638e-03 5.891739111466651885e-02 2.457142556139843559e-02 6.105566171822576771e-02 -5.085209001357969549e-03 2.356875985733013559e-02 1.776241624202379646e-02 1.496435870603883209e-02 4.211345004597965430e-02 6.589780469676214205e-05 7.250108232807299380e-03 3.515887793743616846e-02 3.122906867934511013e-02 3.734715089591549020e-02 -7.110724277793320502e-02 2.798210369396221531e-02 2.829397035966945903e-02 -5.398306854669893129e-02 -8.259924288436108417e-03 -3.469686991752560321e-03 6.404053851528224151e-02 2.855455231566827318e-02 1.068063031369062901e-02 5.448724237550379296e-02 -7.632280874709357343e-02 2.167871304644782351e-02 3.625311458794063663e-02 -5.901230814782841387e-03 4.017492266771111736e-02 8.093841333138092689e-03 6.593067111904594296e-03 4.588023531282584000e-02 3.754121943705265169e-02 -5.992906235863465492e-02 4.603621536409465906e-03 2.517647933837400404e-02 -2.174874518243272506e-02 3.157330183646090555e-02 -6.923850112369778209e-02 -1.457087645348172783e-02 1.267999598342382239e-01 3.194806777920241453e-02 4.737130104456746538e-02 3.323480052307070665e-02 3.550173130382113657e-02 1.529950059273211963e-03 -1.218211858863285472e-02 -1.886038955250657692e-02 -4.639739523488970417e-03 -4.029066434605938461e-03 2.920413399678899527e-02 2.052042208967322021e-02 1.440374593138827285e-02 1.147499622927840822e-02 2.232702183688167405e-02 3.964938478277875086e-03 8.065175234705701524e-02 -1.064268054852760166e-02 4.489231115949259519e-03 1.907873118650793565e-02 2.185847986392503717e-01 -1.727049288102107524e-03 3.532629718696060628e-02 8.201647154379534607e-03 -4.262010231954804773e-02 3.971655888772612081e-03 6.499346851993489937e-02 -4.995952220855366666e-03 1.543059592454241319e-02 5.327986073909572740e-03 2.709680330308558704e-02 -1.294662626273882129e-02 3.045934069018029280e-02 3.173262224710095974e-02 2.659045666565569566e-02 -1.287137993722003385e-03 4.320939340076732603e-03 3.272804109435582809e-02 -4.115848836983512088e-03 6.484918068310213668e-02 1.214443674517019373e-01 2.133928730438827692e-02 -7.655243027544455375e-03 2.270934170339332925e-01
8.303697179568997333e-03 7.707480820252941150e-03 -1.214486701698077632e-02 2.389151604196363896e-02 1.333254801968746309e-02 1.791859156242488552e-02 5.893617483496238138e-03 2.380451842249833253e-03 1.833920075903281224e-02 -8.039402808513861076e-03 -1.370688479077081245e-02 1.383964816275249504e-02 -1.603438265930334436e-02 -1.082130764363764194e-02 -1.023750662659052291e-02 5.676829897429891240e-03 3.233600530156032632e-02 -1.809171995585314319e-04 -1.069723742014146335e-02 -1.176540650345953357e-02 4.969316990701322378e-02 -3.519332214303385817e-03 2.852121866698157857e-02 -6.187953162283542016e-03 1.880310388005678249e-02 -3.252532889256305043e-02 -4.692184703090630273e-03 1.240288118390745105e-02 2.333819497760880948e-02 -9.365622389607990497e-03 1.852854871495560746e-02 1.767295092984576960e-02 1.425052528442347782e-02 1.500323824580462352e-02 3.109443014994229051e-02 -8.836388389697915138e-03 4.503705192557564546e-02 -6.371704612537088495e-03 -4.086786444483653247e-02 5.602206588141382150e-03 -2.138639441580777057e-03 -3.725645432539412358e-03 2.080226824142154124e-02 -1.876057805356185632e-02 -5.855813142993119592e-03 -1.671812363387534944e-02 5.317415515354076416e-02 2.159519378864576539e-02 3.398086651029595673e-02 -9.680290609676552114e-04 -7.662573792762063241e-03 1.201130938988927838e-02 -2.641212506257108270e-03 1.069285814027722860e-02 -1.293417630103738114e-02 2.462092420256507472e-02 1.624677474616118347e-02 3.352583611266449909e-02 -3.816862913810229168e-03 1.068859113627112535e-02 1.760288304975252723e-04 7.913637371003151219e-03 -4.938907203401295132e-02 -2.335774100215411847e-02 1.573426490838152753e-02 2.697896071435356910e-02 -2.548364976274512805e-02 -1.054665382380091422e-02 2.413816982873338152e-02 2.317436097533348213e-02 -1.731940277690086419e-02 3.156413628424540457e-02 4.368169857212318014e-02 6.176170701094305798e-02 2.654003749020775182e-02 -2.819683934645028991e-02 -2.369433870273619444e-02 3.144676455763365658e-02 -4.748460556805677441e-03 -4.896407970543592732e-03 1.252884546966427128e-02 1.522023870853607234e-02 1.602462850282813933e-02 -2.241308319666647855e-02 -7.445203090592242973e-03 -9.307503155638425715e-03 6.272791750941092946e-03 8.020064623909507751e-02 1.337088774090236173e-02 -1.208091621570591724e-02 -8.423601763052977753e-03 -9.439747784742952980e-03 1.079154263020554692e-02 -1.127728470908478595e-02 2.436275064627973358e-02 -9.778213865361751883e-03 -1.670788479833277759e-02 3.145908638662666540e-02 3.434411784526410910e-02 -8.507408139831559857e-02 -1.606761702023216942e-02 1.420849928787686935e-02 -7.848480771679754511e-03 2.658573035732090042e-02 -4.689988990226295028e-03 3.885690019011372141e-03 1.106525691312063020e-01 1.631635516321860990e-02 -9.445214925597791508e-03 -3.263632074270932798e-02 3.657080429340509031e-02 1.156677257497721115e-02 -1.164631250882907677e-02 1.052874776900174052e-02 6.653866489680060857e-03 2.636363180149723512e-02 -8.276618218128559828e-03 3.392208432606763635e-02 2.250568734420324915e-02 1.042620961567637325e-02 -5.289711339389066222e-03 -1.842124325054976530e-02 1.287408076838955119e-02 1.053254785262556191e-02 1.684540182004234596e-03 -2.124697904303636791e-03 3.538787259462413542e-02 -9.282410663622519403e-03 -3.434925528532732902e-03 4.510530752044353449e-03 3.455946546005716352e-02 -2.127259613758629084e-02 1.197707220308063397e-02 1.744666889796966242e-02 1.504749633199418957e-02 -7.511531147712668813e-04 2.115439360675590297e-02 -1.232188536431085002e-02 -2.858867804565519075e-02 -8.047011633413623383e-03 -4.568149906594181318e-03 7.001756030653077945e-02 4.024523314120132152e-03 1.910629436938929282e-02 -5.556480218756285581e-03 -2.004199755848557474e-01 1.656349041798690219e-02 1.352706711503395484e-02 -5.970338435455767312e-03 -1.526625130233469178e-02 1.211723481015939720e-02 5.502754372974746205e-02 -1.376971733187556252e-02 2.872310505207790673e-02 1.057090636878423376e-02 -1.573732949439494294e-02 4.557712860153516343e-03 1.434859733461555167e-02 4.081469747782397878e-02 -1.190485610295383308e-02 2.112634654991423638e-02 7.207963334690805843e-03 4.435936335814782798e-03 -1.632697975064588761e-02 1.284173160660709648e-02 -7.805436861167715928e-03 -8.808423926809878096e-03 6.401792628958820905e-04 1.272289166319810240e-02 6.192747839634961567e-03 -3.194647916420276582e-03 3.778534993465610618e-03 -2.088876716239407641e-02 1.543102683310069133e-02 3.160684190259337861e-02 1.521818166260398980e-02 -1.119606223524910807e-02 1.476533048429209960e-02 3.284858157691099290e-02 5.825089263234774781e-04 -1.966469363849128807e-02 -1.333669418945145936e-02 -2.146482429266350841e-02 9.822912895782211912e-03 3.142097435521372818e-03 1.721856295214059182e-02 1.097044034741012641e-02 2.429710500182562585e-02 1.066751579429418492e-02 9.340329860908876819e-03 -5.006172012101915703e-02 -6.966357643278172328e-03 1.874765154405372281e-02 8.977091848841819294e-03 5.430300294509987245e-04 8.527862094509411350e-03 -1.954750827641811572e-02 1.796221167282386483e-02 2.097433217975294695e-02 2.645782639105714157e-04 1.259645195171144559e-02 -1.533909445343671412e-03 -1.324776885312934846e-02 1.096042097644699814e-02 -9.992716715312769532e-03 -1.002052152920797704e-02 -1.236158032186352763e-02 9.880572578318902108e-03 -1.932196927722168792e-02 -2.110736491984257363e-03 -2.722980568644111851e-02 -3.860754706773319653e-03 2.813728779857959175e-03 6.973578565227503065e-03 5.535728720271265724e-02 1.265375707486111022e-02 1.186291157708848319e-02 -7.514862832496726694e-03 -2.371057587021587962e-02 5.211504109757731165e-03 1.196063863163423190e-02 -1.070182142405694259e-02 9.966305121910589218e-03 1.839536605159414195e-02 4.526913419817096482e-03 1.980845148080527876e-02 2.519604961967117016e-02 -1.116446310774878332e-02 1.563094971922907583e-01 -8.971359307200246075e-03 -5.745067172604314057e-03 -6.047346707247051173e-03 1.803965202025791803e-01 1.305319043682279245e-02 1.098526625443861302e-02 -2.579163575233652146e-03 2.111259420406440268e-02 2.749108551546294854e-03 2.227892580280294021e-02 -1.213613348555079782e-02 5.018890355079695664e-02 -8.684983584433725659e-03 1.631091615673415859e-02 -9.976079972428109066e-03 2.426038020076301885e-03 1.226643692397820160e-02 1.042908798458581747e-02 6.058736081955407200e-03 7.510157278699053363e-03 8.290492270717540399e-03 -2.310386373891692990e-03 2.625471082159026165e-02 -1.197344416516460570e-03 2.595365426960777322e-02 2.054701829793415327e-02 3.611114525142548881e-02
