-1.515017942284562456e-02 -7.607083960770730062e-03 3.515552179277773442e-02 -5.422518893214475083e-02 9.582266614472929878e-03 9.657525642687393719e-02 9.857617678995049537e-02 -1.316645442210778172e-01 -6.998500637436879702e-03 -1.361460476631577432e-01 -1.263872948380150851e-01 -1.070515673642935400e-01 2.468097963584049009e-02 1.976503009488984886e-02 -3.305733435542269061e-01 -1.619202497867657520e-01 1.049767891680080181e-02 3.715734965361127459e-03 -2.630548698128749030e-01 -1.230611787818269298e-01 -1.771093801954290448e-02 -1.318338520827049276e-01 -9.018779152472300442e-02 5.346941998744097341e-02 5.259729790506677792e-03 7.621801993409972609e-02 -5.979210664625555366e-02 -4.778315726323337925e-02 -3.312105763496203843e-03 -6.831036010700486383e-02 4.081377190471778549e-02 8.008423117435692351e-02 -1.194766626419897781e-01 -5.873202748583504496e-02 4.506691688293143483e-02 7.534534011112922758e-02 -2.451987281106026914e-02 7.314580560817246502e-02 7.078178883891382556e-02 -7.588592675204464295e-03 4.007792207913124516e-01 8.691335525009875884e-02 -1.437187988419078299e-01 -2.107857795790910316e-01 3.096485654755341821e-02 -1.832596348707303813e-01 -1.239564640856847394e-01 1.230566597641299664e-01 -3.292692773194515476e-01 2.009416705354354071e-02 -1.552557547966449125e-01 -3.893267948991795124e-02 -3.213242892244615179e-02 -1.671295563866389555e-01 6.017426139371769706e-02 -1.113397890268456314e-01 -3.388140685951355167e-03 2.362860869846309664e-01 -1.210577793420177656e-01 -1.208005757168482269e-01 -6.962469335430628015e-02 -1.234941473198213286e-03 -1.680557915959652038e-01 1.224513112179855152e-02 1.087458013401643685e-02 7.943776281502849812e-02 1.575624029345483734e-01 -2.528783232249167123e-01 3.441179578916807313e-02 -8.094233397048268552e-02 -5.717725475007899572e-02 -2.500600474950375740e-01 -1.281275926204757387e-01 -2.171995630121575094e-01 -1.962331332769490788e-01 -1.112894361398345522e-01 4.498011389613566779e-02 -1.047536022821567506e-03 -1.164103187913307358e-01 2.075343388553489623e-03 -2.047964008668003710e-01 -2.273511355288579394e-01 1.372622316290704192e-01 -8.515428308447528169e-03 -6.856876936254731325e-02 2.333449083195937301e-01 -1.792620539583165140e-01 2.211137411973667644e-01 1.236335039956747150e-01 1.260604381097501017e-02 7.688726988730082076e-03 -1.416438168279550713e-01 4.364368954154532187e-02 -1.180502316266298923e-01 -1.888180926246476599e-01 -4.963453661812976953e-02 -1.046312915950680864e-02 -1.125261414496003670e-01 -6.489642137636498012e-03 2.287654761280753096e-02 -3.099131663349411481e-01 -1.206673162768668629e-02 3.004955103622716436e-02 -4.511926294799867981e-02 4.056572328855588272e-01 2.052339933934676022e-02 1.468804203159774537e-02 8.807906995256518934e-02 4.082587258827333893e-02 -1.469357602181428635e-01 -1.435778275263448200e-01 6.033106518614288899e-02 2.619172448287679367e-02 1.039959438435612282e-01 2.292703273212946258e-01 -7.295645051416189963e-02 -9.180016509842039291e-03 4.443574681078479686e-03 -1.280660671521162697e-01 -2.135029141104063943e-01 6.770344160191205975e-03 -7.457418134700935508e-02 1.457748591382956593e-01 -1.095588241334499897e-02 -1.527437370041103415e-01 1.551854740024339596e-01 -1.812689730932166843e-01 5.399548748736889697e-02 -8.874822467497628375e-02 -1.564609424015386274e-01 1.159877361908099869e-01 -2.102631001731841975e-01 -2.204222271164463232e-02 7.991448962288391633e-02 3.745082811397536932e-02 9.688954253006137884e-02 -1.087253118406077274e-01 1.859827992941950059e-01 1.704036878991040949e-01 -1.682963098183204720e-01 -7.653201777688982410e-02 -1.672090457372621408e-01 -6.897724418016049075e-02 -7.926854308046056563e-02 -7.045056819182196617e-02 -1.805856303710718647e-01 -1.611800017373598293e-01 -1.968231196004694705e-01 -3.336732936698026675e-02 -1.837887319212564152e-01 -3.170846564545951735e-02 -1.648717717644603287e-01 -2.115535192556544652e-01 -2.171205204007995437e-01 1.008687553143663429e-01 -2.795827581439166987e-01 7.624659036904316012e-02 -6.130241276114782763e-03 -1.241189496665530689e-01 -3.876691678066486457e-02 -1.545480116336410414e-02 -9.760285386533740226e-02 -5.300617812636603671e-02 -2.042950852706880704e-01 -1.338444021039517269e-02 -3.918088335607830541e-02 3.314410712856961927e-02 8.381403648181685873e-02 6.573940550107745806e-02 -3.028822830617353135e-01 6.574100130492180338e-02 -1.344994674753586562e-02 1.449454413746507075e-01 -1.204772262744603223e-01 -2.654402406590928853e-01 8.212617332076142806e-02 9.805609347719028424e-02 -1.495298896969601658e-02 -1.132813290275106188e-01 -1.683679200508938004e-02 1.120125454932786174e-02 -2.759579448556792047e-01 -1.480215809989088860e-01 -8.574514231231544770e-02 -9.929595988502792903e-02 -1.518318500118700787e-01 -4.781316378963288566e-02 -2.834720477437709368e-03 -7.260078306493800149e-02 -1.875042336914898022e-01 -2.854983491215373759e-02 -6.888366192010540734e-02 -9.296508347776455405e-02 1.195232922772436895e-01 -5.319093408833544707e-03 -4.265955999089184308e-04 3.836863775921871972e-02 -1.572354082087800420e-01 1.663411394962440587e-02 -1.106786465457205715e-01 -9.399642709966028742e-02 -2.504181586004343776e-02 -2.284471757687291452e-02 -1.800754740382345953e-02 -6.478602719095501172e-02 2.498226378947136506e-01 -6.245356823358203663e-02 -9.207973192549558095e-02 -1.123904677682577707e-01 5.907485458206462869e-02 4.484469154666110291e-01 -1.277175894740356643e-01 -1.449983799031540621e-01 -4.427532126722159150e-02 2.056960387373269750e-01 2.217912348465633354e-03 -2.612308513172165170e-01 4.511664099163900654e-02 -5.978120705136878710e-02 -1.733457044364843658e-01 -1.259968876989988884e-01 -1.548130989184574036e-01 3.199350946058993755e-02 -1.852064007832268100e-01 2.530170079375931858e-02 7.952839392378509287e-02 6.638326908591683610e-03 -1.286795807065351481e-02 -9.934220995322846914e-02 -3.265767054952577464e-01 1.126703197177609944e-01 -6.579530880677444959e-02 1.162473868695335921e-01 -2.230298305929537539e-01 -3.151499940092859497e-01 6.384621265641880761e-02 1.024846997777816293e-01 -6.282097567048675057e-02 -4.391031103942323599e-02 -1.702501519355942017e-01 3.897811122916873539e-02 -1.790315504564204130e-01 6.654372949630966982e-02 -1.364306857510857451e-01 5.577691974719597295e-02 -3.747612211696991352e-02 -1.263723673877883147e-01 -1.221731102255576296e-01 -3.232501200057623369e-02 -2.436798361507135635e-01 -2.596021626381292413e-01 -4.531655694799761880e-02 -1.279856823310696889e-01 -2.990798301245927715e-01 -4.548063951315660658e-01 1.324989809785747652e-01
1.439091197319157869e-02 -2.848176783631137937e-02 2.044340526485975001e-02 -5.023680932540720151e-02 8.382065718251912115e-03 5.891726251070849435e-02 -2.808586334462454329e-02 5.515143639343610734e-04 1.071077673136008532e-02 -2.421041959026856705e-02 6.328959532367189889e-02 1.888737004894577159e-02 3.662963593865806774e-03 3.101937539612140485e-03 -6.693881571726920110e-02 3.816263561268279370e-02 1.672409908139451794e-03 -1.179972447728995857e-02 -6.485464508453216148e-02 2.865630730011086216e-02 -1.822592855012739738e-02 -1.087055784279226944e-02 -2.414745930701734863e-02 -9.168665987350390137e-03 4.435635937725336542e-02 -5.259065712825062265e-03 -2.848703105880896758e-02 8.691495053614212499e-03 2.555247541139893039e-02 2.720195925575183069e-02 1.116460147102144723e-02 -1.399458919031410821e-02 2.088833959703818507e-02 3.818970632572361856e-02 -1.302488728922242267e-02 -7.647869132853091223e-02 -1.289330990013473101e-02 -1.977704220381777678e-02 -2.082078807060611103e-02 1.320124493618318740e-02 -2.322377368252952767e-01 -1.479366482560867113e-01 2.026676043694919903e-03 -2.719624479341582399e-02 -5.335708184533521220e-02 2.677469585828983484e-05 4.739519788500536762e-03 -2.926145670610435720e-02 9.606027691231652788e-02 4.394947054615958026e-02 -1.682589579287732950e-01 -3.543273617374311825e-03 6.985698248917879272e-02 4.947107310029773275e-02 -4.555700593008764343e-02 -3.368967267032028229e-02 -1.266626898633415876e-01 -1.413497744655256572e-02 -4.391887713804859539e-02 -5.080763238245239802e-03 3.142915578421769107e-02 8.398125217635029130e-03 3.004840374878057357e-02 8.777385345853707180e-03 5.236772208445683238e-03 -3.311255101325834282e-02 -4.241184137305404082e-04 -3.102178590978417125e-02 -2.298494505900341989e-02 -1.011917890287551830e-01 -1.597672607310404030e-02 -1.162100060927499963e-02 -1.701394697706808401e-01 -2.338758724541996001e-02 -7.618470184547500301e-02 -5.548895158028685493e-02 -5.862551443693258049e-03 4.798311141790932710e-02 5.100050252422911462e-02 -7.652688941484841849e-03 2.589880385338414956e-02 4.944095988543072140e-02 5.778721109675093170e-02 -8.930906161396539103e-03 -6.951274678749183589e-02 -3.655746011608235757e-01 -4.255899928303617796e-02 -6.526449538456835509e-02 1.283375968440210631e-02 2.718857959842750638e-02 2.663275959174141172e-02 -1.889778764912112829e-01 -3.617670833841304251e-02 -4.321077327228615397e-04 -1.387705274524509425e-01 3.107877085075095094e-02 -7.364611661056856551e-02 -2.615709019216600276e-02 5.225403777574567227e-03 -4.885964973898385133e-04 7.596915561119420984e-03 9.833094848941095756e-02 5.257759438218639197e-03 -2.488575607139118309e-02 2.751724059646624976e-02 -2.352710861320071300e-03 1.527232342085988121e-03 -1.138856851237271366e-03 6.470341533313674065e-02 6.163332143561332625e-03 1.642481539137928548e-02 -4.943463931812268342e-02 4.465693243136638346e-02 -3.686261783799665848e-02 7.671668161233977101e-02 -3.968358167137900697e-03 -1.019666250273076717e-02 -7.673606040053239721e-03 3.015184860730606847e-02 3.673280008737630359e-02 1.024015073586109076e-02 3.816810581859314978e-03 -5.957332193471561593e-02 8.276669771562234629e-03 2.587101575711162407e-02 -2.251038277783629776e-02 9.902259069407361863e-03 -7.337578149187162779e-02 2.006054852897408772e-02 -3.068717233459774055e-02 2.708943890747273625e-02 -1.353021972302334390e-02 2.010412320219842272e-02 -5.291884262656782606e-02 3.099585311432953919e-02 -2.018531234494108650e-02 -5.338765474492737639e-02 -2.808339976929808204e-02 2.536011736113990417e-02 1.377516141618013827e-02 1.000040070591094558e-02 5.515008314491113423e-02 3.281052248916686148e-02 -7.210021785245729169e-03 3.468352226637037850e-02 -2.956828540227539326e-02 6.636894538785029218e-02 2.840659495386813060e-02 4.661366660835715436e-02 5.192441400072862756e-03 -4.544310062493846225e-02 -5.517327937368654740e-03 4.758363983143042153e-02 1.457876386238651095e-02 -4.273606344358849701e-02 -2.091869925143884437e-02 2.728214933201151063e-02 -3.487279652727504672e-04 2.931930379721562588e-04 2.610656137237423249e-02 9.080751088917463076e-02 -6.526987625006373805e-02 -2.912801595813602901e-02 -2.028194660919900583e-02 -7.291119726250966382e-02 8.135662479856659024e-02 -2.476062611693192680e-02 -2.085161820491789400e-02 -1.948469726108864857e-03 9.730231308322963291e-02 7.087792547313692681e-02 -2.223348164759307230e-02 2.120891913585472646e-02 1.546397362448010022e-02 3.391445582112757873e-02 -3.015428571866332272e-02 -1.341726754795930475e-02 7.630361222014561684e-03 6.119352394201016399e-02 3.204428970564539292e-02 1.891911978329353233e-02 3.086419302655258462e-03 -9.360157385065795421e-02 -6.134898389201014907e-02 2.419117589646045327e-02 1.498145926125018200e-02 -8.329916558875062257e-03 5.035787328645703435e-03 2.459323863140632296e-02 4.601717115095879662e-02 1.393637557928420825e-02 2.099878137645300180e-02 9.560983791917880559e-03 -3.610023749162030032e-02 -3.744094553849063728e-03 -3.337078150471554233e-02 -1.097655674452938622e-02 2.766348594499318247e-02 -1.166157950348951575e-02 -1.662529118364944325e-02 2.576702361466993302e-02 -1.679193052770460923e-02 -6.047521416663144411e-02 -2.160039325954573458e-02 5.777512772936625740e-02 3.345019873348484968e-03 -9.612715297946643894e-03 -1.146040875855945662e-01 -2.084134989614001149e-02 4.457495772658397887e-03 -2.819345875559626721e-02 -5.340274138954873018e-02 -1.095570663265174952e-02 -1.308274852493806518e-02 -6.599958826421571320e-03 -3.099006368449027000e-03 1.099389559319004644e-01 -8.820814086109025898e-03 5.356737552890542681e-02 5.511958533965562179e-02 3.200101574429306539e-02 6.465545052491040653e-03 -1.692603164956466358e-02 6.176853164336038732e-02 -2.168826254825257510e-02 3.645641670012812752e-02 5.675913642817018677e-03 -1.515154626230961338e-02 -2.934498569544146881e-02 -3.947602133297461319e-02 -6.266657868975836210e-02 -7.385636782290283010e-03 3.111837480921090041e-02 2.955775397914832056e-02 3.573328118458497099e-02 1.215366602407809589e-02 1.755905403162365264e-02 1.688972463290243711e-02 5.543273490504149054e-03 -3.849340824135618483e-02 1.762458690206824066e-02 4.197461794078153480e-03 -7.483196215270584463e-03 -8.722101686994319925e-02 -1.776296353037901989e-03 -1.520471715793134289e-02 -4.603090411535137568e-04 1.826204247556071844e-02 1.558078833793821727e-02 -2.945050906711687341e-03 -2.089224556491123819e-01 -3.077931625587796913e-02 2.025545557729381205e-02 1.329515309058662033e-02 -1.742612007343399914e-03 5.199044412418670630e-02
-3.186974752171111390e-03 -2.720341604725894785e-02 -6.340711080069724032e-03 -2.959352480775086225e-02 4.018229433667547257e-02 2.294277717975242575e-02 5.175922375724909680e-02 1.440363201220984379e-02 3.172731961565552344e-02 4.431176754304864268e-02 -1.357539930791443195e-01 -2.106432098737374622e-02 -1.227295913992672814e-02 -2.187988281859883435e-02 1.023247030100288106e-02 -3.585670309694224955e-02 7.906405833356343338e-02 7.767336125190477114e-02 -1.127438881658663211e-01 -2.470491798467464722e-02 2.108116194459967035e-02 -4.840563658208001108e-02 1.337345748469483120e-01 3.558035380487894334e-02 -7.449571990677548994e-02 5.655617846258567671e-02 2.633530569077201927e-02 -3.311854245864331164e-02 -3.129262951488000211e-02 7.014793461649196371e-02 1.071091729509058982e-01 5.265986067190091963e-02 -1.241989936491217326e-02 -1.332514278151539569e-02 -6.096495864949214201e-03 -2.680099678781698580e-02 -1.916788469532989961e-03 7.121998514771149535e-02 2.129481193393121738e-02 2.862404599164847588e-02 1.533874635706154732e-01 -2.674892694080986399e-01 -2.967141432525203723e-02 -6.068334040935416396e-02 3.834973888398043873e-02 -9.959720731325246920e-03 -2.583944908698832324e-02 -1.762558950965107674e-01 -1.292113998569370537e-01 -4.035803706592716589e-02 -1.481632675948000299e-01 -1.292606183826677801e-02 -1.905935913606077517e-02 -6.921465812373026050e-02 -1.927387755278547540e-02 9.607044531354523575e-02 1.868585025269113575e-02 7.931959547763700602e-02 5.837036254614314662e-02 3.445933347676840425e-02 1.579603296675534049e-02 7.059644629560833662e-02 -3.179023121372586552e-02 2.603236181645935191e-02 -2.599099545151644514e-02 4.572743342711173276e-02 -3.351981492591528389e-02 -1.415366936384181151e-01 5.989806624779932948e-02 -1.047979322478116565e-01 -6.155267062501320469e-02 -6.773279290712666545e-02 -3.318166487478867860e-02 -4.365671079872178451e-02 -1.198999992924134061e-01 -1.920448882050726676e-03 4.136139249226192249e-02 -8.822668178373962999e-02 8.707860040969607474e-03 4.457679280196564370e-02 3.947786724396654817e-02 -6.966491791770281720e-04 -5.211759123585897602e-02 -2.700838291425577964e-02 -5.271984409881107919e-02 -4.095205135635633931e-01 3.413503267106712813e-02 -2.701399458265193454e-01 -7.810598626609928374e-02 -1.814728626985815871e-02 4.676788783091402613e-02 -2.376032320698170386e-01 1.960314388248775991e-02 -7.407111448410708121e-02 7.033451244998520369e-02 4.237203261608639415e-03 -9.041852477859836645e-02 -1.787882401428465481e-02 4.312022352992970348e-02 1.718584028800653266e-02 -1.178285487951181709e-01 3.977409938174442799e-02 3.578292121352659103e-03 -1.649559964071943552e-02 -1.796649757433150044e-02 3.033574938826318155e-03 -2.782791798550512952e-02 4.967326973478285168e-02 5.018433935001376939e-02 -5.300364309066866314e-02 -3.223019107283043444e-02 -7.758515690176805146e-02 1.356342770636936174e-03 9.746543811574269467e-02 4.564914093591507932e-02 -2.220442580741905855e-02 -1.448466431834334878e-01 2.081453724162972072e-02 -9.157465178222351856e-03 -3.427614684880669893e-02 8.198283487367867203e-03 -3.118666297628710365e-02 -3.011506565534259952e-02 -2.783678485948810899e-02 -1.325256664012333663e-02 2.823335436847309102e-02 -6.435617264195518661e-02 -2.558713771359799605e-02 -5.640044542350586970e-02 -7.725469504377312918e-03 -2.030324540605150246e-02 -1.466625066799361887e-01 3.126797241387400256e-02 3.040691891131547253e-02 -4.811234034855435548e-02 -4.177915972956074142e-03 8.623128512513922664e-03 2.634415008019382887e-01 -3.275403880931844480e-02 2.643792756230243374e-02 -3.603206074041108431e-02 -5.232290876173135465e-03 2.397294217245278178e-02 -2.569750053999257655e-02 -7.257581020868042465e-02 -3.072395644433617568e-02 1.467773456196080732e-02 3.131095698866249305e-02 1.042898370435295929e-01 -8.557815895018251739e-02 2.160811979086691825e-03 -6.038545393199079570e-02 -1.658653623700136470e-01 -4.921189959344091092e-02 -5.137528155436486832e-02 -1.266055231450680940e-01 7.825609070690274505e-02 -4.769232540311135055e-02 -1.150328609826076903e-02 -2.360120727213821379e-02 1.151205414960049939e-01 -2.565327255169275525e-02 -3.222877782807193059e-02 -1.018594704476191298e-01 -3.729366170096692912e-02 -4.088278805902099966e-02 -1.195930498361127796e-02 -2.393023961177769953e-03 8.712748911118267658e-02 -1.567014964964027202e-01 3.124134835197549601e-02 2.216989692217796043e-02 5.321669713094008547e-02 -2.432855774535297444e-02 -4.292102875451773297e-02 4.157426471924789702e-02 -1.712099450652165671e-03 1.230976121077489820e-02 -1.912677813612065694e-02 1.460408840153295043e-02 8.825367660672971126e-02 7.833544443097553711e-02 -8.395807381994761787e-02 4.727139336596534319e-02 1.560164370304614398e-02 8.728954675138669503e-03 -5.754898553488786705e-02 6.460377856819875253e-03 1.790203816116126556e-01 -5.855439827865246971e-02 4.709997251798485329e-02 -2.210422696416652552e-02 -9.400513174072351250e-03 -4.292131427079191701e-03 -2.190354543837884013e-02 1.352893880355516068e-02 2.146329746125517912e-02 -1.458792566015063540e-02 2.569958336870085611e-02 -3.731410907113810044e-02 -9.631861247940022921e-03 1.236458122532854524e-02 -2.727449194867556659e-02 -2.726363032761314545e-02 -3.980709900726753236e-02 -4.012776088931588672e-03 -9.140663813414910341e-03 -4.097329569148513290e-02 -2.379829002920762215e-02 1.010784421939285027e-01 -1.427856675200804559e-01 5.747274170100740570e-02 7.191930717263517181e-02 -7.880171232520090385e-02 3.225918080523639681e-02 4.752179979207681038e-02 -1.436421388921730047e-01 7.616151934052856586e-03 1.414108406343860501e-02 7.524088726171235253e-02 -4.049465574118741619e-03 -6.065100845166122162e-02 -1.485690772921565046e-02 -1.722994218597396088e-03 5.343645523861672436e-02 6.567299650201101346e-02 3.183128531720522819e-02 1.466797836441703640e-02 -9.916708424681566769e-02 -4.882965032657357596e-02 1.326491265205743432e-02 -1.797853436684680728e-02 6.947668023603792431e-02 -1.611906422530274413e-02 -4.133786509393518743e-02 5.077121549793323085e-02 4.282983307190239147e-02 3.110395227436690488e-02 8.143958564450600596e-03 -3.654430305995096107e-02 -1.596135285510673907e-01 1.581508334945361249e-02 -5.839270095030223151e-02 -5.683683587405981286e-02 3.010489483988612602e-02 1.463857506902687365e-02 -7.446215004144851601e-02 -1.056350908135627285e-02 -4.905494487366821726e-02 -1.175339703155893617e-01 8.204100767182719023e-02 -6.595062184291484997e-02 -1.098031443688407723e-02 -5.007745462399480763e-02 -9.084001682579280479e-02 4.324026108022675091e-02
4.774766907013754114e-02 -4.058690496111197477e-02 -1.377102747152937276e-02 -6.778092272664991598e-03 2.137112807034830322e-02 -2.326964340647473192e-02 3.522043188510490253e-02 2.397867221905598811e-02 -3.509737632828447383e-03 1.977822142270722200e-02 -2.869666079651092550e-02 -1.718150334418058409e-02 2.349763745027165160e-02 -4.092952989060427704e-02 1.083606806215492435e-02 -3.297766080938782651e-02 5.966181658468188050e-03 9.994884226808624719e-03 -1.054183696054329378e-01 -3.147528044388291785e-02 1.356767219022505210e-02 3.488093080500719728e-02 -7.338602922277930041e-02 2.771483109856541331e-03 -4.091732806993050170e-02 1.767782187630205504e-02 -1.994880281944260564e-02 -3.427023969947166210e-02 -3.093778495769945389e-02 -6.626400320112374454e-02 3.091913122832199573e-02 2.084058106256608117e-02 -2.983003981518713571e-02 -5.078359684114117090e-02 5.132136030301623006e-03 -2.603068765355071902e-03 -6.877138063488490161e-03 -6.733673044972537762e-03 9.537178363570252351e-03 1.033317844815877153e-03 -1.043265037600496908e-01 3.762914284721113195e-02 -2.345290861369868363e-02 -1.031469709373648846e-02 4.171840772708080430e-02 -4.944704098231219452e-02 3.333607882895050188e-03 2.754272488669030038e-03 -9.898362735063362394e-02 -2.274287142257025093e-02 -1.261999564305671950e-01 -3.761605956238474324e-02 -8.632107442523719032e-02 -4.729508953975824354e-02 4.892428467054462521e-02 -1.150583782450249892e-02 2.653596645292692624e-02 5.161835156311839201e-02 -8.001036344321427185e-02 1.285508124192748583e-02 -1.399934486843739008e-02 3.020925206959138368e-02 -3.561507966687191273e-02 1.538130247120004894e-02 1.166513346886436341e-02 5.305553591112376066e-02 -2.133053042367320448e-02 -1.145921525018624987e-01 2.030827890629694626e-02 -3.480098372766589343e-02 4.809538141047029446e-03 -9.657851251678112314e-02 -3.719829361864279878e-03 -1.000008265362285625e-01 6.740012230340243493e-02 -1.098048056990715178e-02 2.278174045507900744e-02 6.041358151786584835e-02 -1.843685406171578778e-02 -5.800607988123745312e-03 1.078937507544833543e-02 -2.545365350459654133e-02 -2.049198434336408359e-01 -9.394946355128308210e-03 7.849847445446617167e-02 3.889232697414021084e-02 -4.097400564460408623e-02 -9.130048815300381704e-02 -4.181923195517071867e-02 -2.490734108527610860e-02 -2.953778118453891013e-03 -6.112172085300664019e-03 -3.447053169578311840e-04 -1.722720490093619661e-02 6.741094661853905268e-02 -2.435971247605372980e-02 4.286533382634768324e-02 -7.284579131053717585e-03 8.589316066072836056e-03 1.717861505949009465e-02 -4.663786222645118634e-02 -1.011701663254753053e-01 1.134407049475640418e-03 8.149579861522862926e-04 2.887157498469207148e-02 -1.182548760025907940e-02 -1.315936211434023256e-02 2.617593599187379230e-02 -4.933208267616119580e-02 -4.539770801628553731e-02 -4.773100100941260471e-02 5.428892458945469568e-02 2.646290798233602581e-02 5.024747354182493991e-02 9.859332726882587272e-02 -3.556906312417049566e-03 -8.600292982232191075e-02 6.123644583514277831e-03 -2.186571833799027739e-02 -2.190635067988721402e-02 1.400374367687185449e-02 -2.113129863716851214e-02 3.499792759473354525e-02 -1.758618285297601502e-02 -1.757007434541798391e-02 1.794719431560632197e-02 -2.532392298557098465e-02 9.237143773099727728e-02 -4.865234546195053300e-02 5.494020771123540522e-03 -2.891392229863806815e-03 -8.176945285564150845e-02 -1.112374915945721007e-02 9.382582085696514543e-03 4.291610634352015924e-02 4.707347731841350288e-03 -1.324089727853450943e-02 -8.713359914744955859e-02 -1.076688292845943140e-01 -2.096927450073587593e-02 -2.206717636157407361e-02 -2.267137376039748964e-02 -6.520888360215139345e-02 7.878294426442680742e-03 -7.628655424498163862e-02 -8.075375893351931234e-02 -7.573650519982376948e-03 -4.995796700337633289e-02 -4.891317052941110410e-02 -3.516120302994641539e-02 -1.897064669505214851e-02 -6.495841768103476077e-02 2.341342506718704919e-02 -6.351891361208496234e-02 5.636145451217504376e-02 -1.021340307399041525e-01 1.997020436972423915e-02 -4.332920977459226580e-02 -2.751579029473543488e-03 -3.288546649247229420e-02 -4.300214987346271701e-03 9.092293630729688519e-03 -2.109883885349799881e-03 -3.159366894711415456e-03 -2.772445862973300576e-02 -1.579676486002625987e-02 1.986087440723099441e-04 -2.211252754494189270e-03 -6.655792700901590891e-03 -9.127413319406935122e-02 1.423783301110004007e-01 1.799772937555852576e-02 2.637097232091216437e-02 -4.903783991105340606e-02 2.599046389193859427e-02 3.688442918845683677e-02 3.665760167933690503e-03 4.278339882357099638e-02 -2.373872118305160941e-02 -7.973563190633593464e-03 1.104804874530145725e-02 4.232276141910323169e-02 -3.711186911000784877e-02 6.448931290186389609e-02 -3.331777579747723789e-02 -2.043930886206834704e-02 -4.654514964402994143e-02 4.366170735082126192e-03 -1.296041815756955248e-02 -7.873294793656714086e-02 2.094973527790465820e-02 -3.799689451756322472e-02 -4.355929573049643899e-02 -5.782721617073831484e-03 -9.933921704890163670e-03 2.194070591798050196e-02 -2.446576853318576175e-03 -8.634058864441013573e-03 1.844991249833270730e-02 -6.374154202201573992e-04 -3.809721701785767634e-02 3.880400357793976213e-02 6.987603812435251235e-03 7.708350130109922933e-03 -1.720579150387446798e-02 1.216713563385941888e-02 -3.473318148969964814e-03 2.405713777481259530e-02 -1.075120695647667837e-02 3.396287462389038087e-02 6.509600030113224522e-02 -1.577540391743469453e-02 -1.181372863148768756e-02 4.395615435620441741e-02 5.823203900716204112e-02 -4.738052537450587916e-03 2.290454869497462239e-03 -5.820920953166378552e-03 -2.489994275445626612e-02 7.192152751007620075e-03 -4.902344408890558364e-02 -7.241735212458574877e-02 -1.858979660264787476e-02 -4.084658154500699079e-02 2.882748072792336302e-02 -4.800457182231448322e-02 2.101968175519795118e-02 1.727761343938459190e-02 4.838527698036945018e-02 2.181924409674215748e-02 3.262050558562441804e-02 -4.182604627600157443e-02 -3.322731670500073120e-02 -5.468057513949288462e-02 -3.931865664002322930e-02 9.230373403420456813e-03 8.251119290742750956e-04 4.846493560543753236e-03 8.562457378198691862e-03 1.886415054078843107e-02 -2.111335116729504482e-02 -2.155393695261118361e-02 -8.215724196075359712e-03 -8.884990344057845657e-02 -7.379254895910042356e-03 4.580572367883150448e-02 -3.439966314117820501e-02 -3.760164911792811954e-02 -5.079503895804592800e-02 -1.123182530154763492e-01 -1.677483272553119756e-02 -3.204060525390342584e-02 -1.076004081329838373e-02 -2.901007020557950372e-02 -1.146060144294585026e-01 -4.639084049140493327e-02
-4.295969802711913088e-02 -3.797536631467423457e-02 3.260190319699085570e-02 -7.260744970193404313e-02 -2.056990012966194992e-02 2.200877495728876393e-02 8.118378273887810748e-02 -4.083978875805151232e-02 1.155383054548920173e-02 -8.230730767240961032e-02 1.107809576788098237e-02 -2.951201819508465080e-02 -3.528110207891752090e-03 1.800545049991661081e-02 -4.528723372861993834e-02 6.727374044689205836e-03 -2.606589016634547687e-02 -1.323033736706468941e-02 -2.326091035334329482e-02 -2.921861405755449281e-02 -2.003828489930646606e-02 2.827123449045803108e-02 -5.122128031412966076e-02 1.955219124335198181e-03 -3.870321227801977459e-02 -1.579133277601210694e-02 -9.386405577731708749e-02 2.023399726430941820e-02 1.853213617450128955e-02 -1.810062193278736201e-02 1.331161875064489596e-02 -1.085631699289299826e-02 -1.704917116546547304e-02 -7.046072206648464065e-02 -2.716025846681897893e-02 -4.607333424580072057e-02 7.766054012140443698e-03 -1.110623201701679136e-02 2.241667949382857017e-02 -9.290730917091555990e-03 9.310051886822126978e-04 8.133405646746093287e-02 -3.149463149740711759e-02 -6.027830852860911748e-02 1.803564742351251773e-03 -3.318515147480068095e-02 -4.388469775603957151e-02 1.382910572944970329e-01 -2.784153444098825050e-02 -4.742415316924024349e-02 1.394057226040970252e-02 1.341292691758327708e-02 -4.802925707526038701e-02 3.411101015288710292e-02 -1.140691325743264277e-03 9.096670462973600879e-02 -1.176362684035021575e-02 -8.259173817676605106e-03 -8.904667128597580639e-02 -2.522568709377952939e-02 -5.536162967128516882e-02 -1.517181205898066043e-02 -2.294770320495158333e-02 -6.077716008317492029e-03 2.134219489477475265e-02 3.146271229557206367e-02 -1.775559532679140892e-02 -1.871884206777787649e-02 -1.999058476753802840e-02 -1.184529458980061560e-02 -4.755671374942308655e-02 -1.507029403292976973e-02 5.413983490351290812e-02 -4.957380966852503734e-02 -4.094675494556850037e-02 -4.421568924314004528e-02 -2.616553110507791394e-02 5.993823159466245970e-02 -2.351426932917935475e-02 1.328002506182371541e-02 -1.328478749078717408e-02 -2.595346737926730249e-02 -1.928237223438786577e-02 -1.220469070525532183e-02 -5.314550350747371255e-02 4.964374466503258115e-02 -7.818408957289399441e-02 9.443648356091756402e-02 1.288431513793875105e-01 3.207245399078953452e-02 2.735350211718527366e-03 -7.631641620236139130e-04 3.570486674900867630e-02 -2.513020529191465832e-02 7.941525633130231895e-03 -5.966041227371959854e-02 4.012960914685523295e-02 -4.155814939254340312e-02 -5.156836534639539817e-03 -5.491556729584937471e-03 -1.158097872820364541e-02 7.560464633597802075e-03 1.386328236642192166e-02 -4.015750573453433225e-02 3.665397354562872217e-02 -5.626474692191225230e-02 -2.411376724273820230e-02 -8.987167595356377594e-04 7.417764242645061463e-03 -2.588822461355475262e-03 -7.905600829220867792e-03 8.167441991560275838e-02 2.764090046681520058e-02 4.310391423108603237e-02 4.259617658567845661e-02 -7.652560821500879740e-02 -1.980962940028059473e-03 2.785016637859158428e-02 -7.255332730317635113e-03 -1.333377885865090311e-02 5.270196564012025880e-03 -2.244043896903990046e-02 -2.251490699259937542e-02 -2.322302910111878269e-03 -1.794771578957678887e-02 -3.637142310520226351e-02 -8.313652227135582412e-03 5.062850168711772320e-02 1.230763605131819996e-02 -5.598276868031208664e-02 -1.311107766047853781e-03 -3.835678237666399065e-02 -1.314119590312747346e-03 2.946170119403846224e-02 3.323618846006157895e-02 -4.591417242518926883e-02 -6.779055141216644431e-02 4.342228270091109954e-02 -1.280430945455967862e-01 -4.942681307002416702e-02 1.391933355013155044e-02 -7.073145830151865085e-03 1.373801628176609920e-03 -2.096574026798792359e-02 -1.191455039156173734e-02 -3.116388715875235711e-03 -6.632686753393396417e-02 -1.042573732970852526e-02 6.319923361046166088e-02 -2.798683187893165683e-02 -7.956915151242979767e-02 -9.915265859877240087e-03 7.705884227959537702e-02 -2.611662966628189309e-02 5.828645838072488844e-02 -2.022356219332286514e-02 -1.058025071326332799e-02 2.697052088051221305e-02 -4.240803564901233363e-02 2.350726335552738577e-02 3.538010953398793706e-02 7.896808185773590907e-03 -3.200222510215562643e-02 -3.515317925946239569e-02 -8.719207004313309084e-02 -9.263327601220410282e-03 7.336060271709724315e-03 -4.246302155769002967e-02 2.352493707148227767e-02 -2.558065524430623225e-02 -1.375934370870527876e-02 -2.514047345473001058e-02 -2.739006840334797660e-02 -1.469435618147476967e-02 -1.677844170365282161e-02 1.130993434208141246e-02 2.014318868520131867e-02 3.021305121803908277e-03 -7.360136076662773807e-02 -3.158915657626348156e-02 -2.627900326273704262e-02 -8.211281865832371907e-02 -7.688746168275006898e-02 1.020697839583307488e-02 -9.168372211701895924e-02 -5.518357878194330574e-02 -6.838914872203241679e-02 1.580311077694719624e-03 4.708901497408322229e-02 4.289924886006849999e-03 2.601493119919754868e-04 -1.597213787892079115e-02 -1.421486326652895114e-02 -5.476883742155603391e-02 2.460390692016785688e-02 6.714074146003964558e-03 2.516084343943493160e-02 -6.280501885482968338e-02 -2.516861277660136995e-02 -2.686837024014826145e-02 -2.295270228397492535e-02 1.407975774921124169e-02 -3.278681216037886148e-02 2.415652821263011840e-02 2.843555939526213119e-03 4.547224313494157601e-03 1.123911433188736451e-02 -4.497843564322683008e-02 -4.975572391955495472e-02 4.287780859544603612e-03 6.125136094334306114e-02 -3.185526151981459692e-02 -4.837539069725420825e-03 3.106508009091882294e-02 6.425249159402163235e-02 3.654175676694396829e-02 -5.423194411551130606e-02 -6.549251638975277928e-03 1.996665612961778889e-03 4.315583222946988567e-02 -1.911240754274442025e-02 -3.489234336543537568e-02 -2.918665605421045302e-03 -2.118275406977284184e-02 -2.449052414513172918e-02 4.890148819620571824e-02 -1.761276490251427462e-02 -1.314013797525216687e-02 1.828404557916828502e-02 -6.448503752077101858e-02 3.168902299818969048e-03 8.286127541594738577e-03 8.588734367525746594e-03 -5.291348455438268927e-02 -5.446635995185257484e-02 -4.081563697197331669e-02 -1.776842833263783325e-02 -3.783297520947676018e-02 1.553844352686142849e-04 -2.893375761013905825e-02 -2.042386061691722418e-02 -6.403501381549846216e-02 -3.407626961392939274e-02 -1.646848083474441570e-03 2.202391698557838035e-02 -3.197909736047656500e-03 -2.828630919762746554e-02 -1.544856769086859483e-02 -6.278681313619741133e-02 -1.782219204549786301e-02 1.374817372465696012e-02 6.123728304507465407e-03 -1.876348746334144738e-02 -8.290339962104488480e-02 -3.178876899620042273e-02 1.416382201377560345e-02
-8.622543940087212810e-02 -5.799774181008453267e-02 -2.133256555379169084e-02 -2.215549599763467353e-02 -4.568728206783976425e-02 -5.883113555473992035e-02 -1.074049014036725265e-02 -2.352041668054814100e-02 -2.471355345014711324e-02 -1.250224390427229493e-01 -1.723402297217506429e-02 -1.889724494998972631e-02 -4.596112470236404096e-02 4.324937073716946662e-02 -1.517906116117692661e-02 3.258895222543625042e-02 -5.737479262811269465e-02 -4.816054587920261254e-02 -2.898922728228590928e-02 -2.628228650286234050e-02 -3.514782980016372543e-02 -4.809334735818736849e-03 -4.751473642018848656e-03 -4.814895155246679687e-03 -5.869186654803916492e-02 -2.920308632484927905e-02 -2.393092495381926241e-02 4.054878066602636555e-02 2.897833870916037557e-02 5.635569290519620855e-02 -3.793265067720162642e-02 2.504784317175373642e-02 5.358551569820201900e-03 -4.736055185736480488e-02 -8.628406290956301683e-02 5.826181440181044807e-02 1.636048652146200946e-02 5.211758784678994019e-03 6.262376251028272224e-04 -3.491729969990666621e-02 -5.525572332459829233e-02 -2.751213394119674145e-03 -2.132364900223296042e-02 -8.878598424196083860e-02 -6.113571704904248449e-02 -6.791860251909649648e-02 -2.799266189971149135e-02 6.008053096670665227e-02 -7.255225984227310632e-02 4.584151113496346547e-02 6.873171700015577590e-02 1.066325122505355251e-02 1.776699926394678056e-03 4.669721774976216128e-02 -5.164920066784192687e-02 1.770863272355115980e-01 4.929331401446589156e-02 -3.141913826728309767e-02 -2.499092456314491173e-01 -1.298706125049045590e-02 -7.224892496989815394e-02 -5.280683189543327466e-02 -1.527570622396567891e-03 -3.634364956044276035e-02 3.141678033371474860e-02 5.022043196255476100e-02 -1.283619815940688184e-02 1.782846432354793370e-02 -1.913156811232918919e-02 1.132300496788064825e-01 -2.881018807438608456e-02 1.255986551724317182e-02 -7.781058844495872956e-03 -9.927046796974936527e-02 -6.600374483997267783e-02 -3.756378255515050585e-02 -3.551884734472735006e-02 9.334814550105237363e-02 -2.946259816326369727e-02 2.162390742292500875e-02 2.267962217141379633e-02 3.646927122588620573e-03 -1.022531134024177862e-01 3.615645595454419943e-03 2.166174372974586509e-02 1.292643792699909588e-01 -1.447734247308564148e-01 1.143797965809082995e-01 5.016726187086067990e-03 3.223418600693022523e-02 1.978768787686943989e-02 -6.756537375571280979e-02 1.650475992645817139e-02 -3.598065018003998583e-02 8.537055960406407518e-02 -6.989525512163652365e-02 -1.922054984601437658e-02 -2.796458541437661302e-02 -2.770551349479098355e-02 -3.089927252324024820e-02 -1.026989486547652541e-02 -6.450044721240989765e-02 -1.921744474346677792e-02 -5.975045469337345039e-02 -2.889049740099862776e-02 -3.396593474340665192e-02 -2.880465365715933340e-02 -1.060335085362297015e-02 -3.175475732571824555e-02 3.605175473173014618e-03 1.944525443936361703e-02 1.258584447308244703e-01 1.491477751206517037e-02 -8.699422779609042311e-03 -1.010954595852785048e-01 -2.582338104338628704e-02 8.528119276922586228e-03 2.298959054601157088e-03 1.752653781429674984e-02 1.558125135025060365e-02 -2.984903734989083346e-02 -1.850618603650094895e-02 1.535766381358985924e-02 -1.769395269049874042e-02 -1.731649416705556208e-02 -4.086752297534887446e-02 -8.899431640152338438e-03 -4.370736635050719715e-02 2.846438487359690891e-02 -9.962501564108411367e-03 -1.251911112426703707e-02 -1.196878292950733814e-02 -4.466743702930042748e-02 -9.705812889490629883e-03 1.121967898999585295e-02 1.206496170776472435e-03 -3.722564591871548034e-02 -8.735579609136141788e-02 -2.109579270587929323e-01 -1.166056816476623674e-02 7.846167936831699441e-02 -2.577906448421964092e-03 2.988520045743455270e-02 -2.081256888689918608e-03 4.720256764117368442e-02 1.276735442915202107e-02 -9.754702498284048562e-02 1.922246403428818848e-02 -4.352875659584696383e-02 9.999393145073342745e-03 -2.488196005508520534e-02 2.619509587834233100e-02 -1.367670522779312198e-02 9.453932287028898873e-03 -3.433113388768066683e-06 2.275555338869861971e-02 -7.215855655314061534e-02 1.603711788060002003e-02 -5.091823588851056293e-02 1.768925584944211829e-02 -5.273859006557760076e-02 -8.913747461995875920e-02 -4.470078302288868488e-02 2.189839840973654278e-02 -1.901333567446083714e-02 5.106973110815875988e-02 -1.383486259129385401e-02 -1.655765299613770267e-02 -3.830444748504176298e-03 -6.292839733100860991e-03 -2.164596018362206775e-02 -8.462049476786839830e-02 -2.165740223626970787e-02 1.952649608866096481e-02 1.932016461690666889e-02 2.524306286364616167e-02 1.310423862021466591e-03 -2.934736587143282199e-02 -6.241091926690231495e-02 -2.198917191223781487e-02 -5.536828562490130057e-02 -7.489725338231492668e-02 1.060920234685164016e-03 -3.882737993072359062e-02 -3.952794669806834749e-02 -2.280261805558120303e-02 -2.368313815484814067e-02 7.317365189002919372e-03 -4.033738305207199004e-02 4.108327250251084251e-02 -2.686648596835801775e-02 -5.606705851472008201e-02 -2.755598780303371645e-02 -4.185376907507312033e-02 1.284111778280470559e-02 -2.423190763162532887e-02 6.475783248364800661e-03 -6.009602442703916581e-02 -4.457948777388744815e-02 6.429096888554844749e-03 1.548224973488961966e-02 -2.643147844116940093e-02 3.159279167736134958e-03 3.793450736092992409e-02 4.572552037432385530e-02 -8.586372326914594455e-03 4.710335153042788381e-02 -1.330120561001165401e-02 -1.803398649926550579e-02 -6.513855570873589018e-02 2.980702752009458181e-03 8.772682432416979703e-02 -2.553548334620522886e-02 8.095590195756266483e-02 -9.851782481535013847e-02 -3.232024121767741037e-02 6.716083598874894589e-02 -4.211249067886447400e-02 3.662044824211183047e-02 7.594221058165759319e-02 4.087713343943849553e-02 6.175324330991486393e-02 -2.969500985213586325e-02 -2.060856096474698688e-03 -4.380472978102372544e-02 -2.974999300840185448e-02 -5.659528748162829387e-02 -2.880748115434997661e-02 1.040921361374559651e-01 -6.058819125553113749e-02 -3.976062701589643672e-02 4.299150585666659981e-03 -5.343570510032436688e-02 -2.022886959570428800e-02 -6.767302199951914787e-02 -2.386470892262868015e-02 -3.190874984752425925e-02 -3.788904732721903174e-02 -2.691223527842196567e-02 -2.030921644343300012e-02 -7.662333581673567290e-04 -3.902096857453533907e-02 -1.002810985102478708e-01 2.783465524820782477e-03 8.710712244661479239e-03 -4.181558248412600709e-02 -9.116332104688342625e-03 -8.740944326431675584e-03 1.357643941003653862e-02 -2.242865583379383132e-02 1.688294803430222812e-01 4.957154580766102991e-02 -1.573996032811945944e-02 -4.936348341667624873e-02 -4.311176263246465495e-02 -2.992523874690583216e-02
1.864051185361056268e-02 -1.134903163768117423e-02 -1.280352220655614666e-03 5.509911505296420306e-03 1.739422876851568801e-03 -2.478809549524285671e-02 9.148419964578127783e-02 1.336919398144452951e-02 -1.311045015927178592e-02 6.249058055212731999e-02 -1.481201452761111460e-02 -1.828958267347124619e-02 -2.890863124184150229e-02 -2.679310598795319603e-02 3.294583538392308053e-02 -2.233797045279444643e-02 8.036818856332457461e-03 9.643804343498445578e-03 -8.036189348288728593e-03 -3.970549253082285290e-02 6.692931613094232554e-03 7.201811266980950865e-02 -6.732377738953498891e-02 -2.140382808411837173e-03 -5.476334951402236223e-02 2.384470566152390933e-02 -5.164607227622364412e-03 -8.711894999977555162e-03 -4.836283121768818367e-03 -8.450247532324937916e-02 1.059819778406394589e-02 2.896285719611429652e-02 -2.448598158260086033e-02 -1.839814423748757297e-02 -4.373859840942329047e-02 6.365397830115837596e-02 -2.630984557635287352e-02 2.494808178112955382e-02 6.158105415203872675e-03 -1.633461400264133931e-02 -8.766424488798468806e-02 -9.313913746759138954e-03 -3.188435953642745208e-02 2.986603158528789229e-02 4.669144573681761022e-03 -3.230432406765128966e-02 -1.370690264489645045e-02 6.649165378621140800e-03 -2.176832369173636872e-02 -5.057918920565581886e-03 -2.970420244806968105e-02 1.715368236899356483e-02 -4.808780236453494977e-02 -4.392539554416904218e-02 -3.321282051519899858e-02 -1.258153785499148934e-02 8.297940714606330537e-02 6.245287509050703907e-03 2.468978101512806292e-02 -7.025605500433448024e-03 -2.566190957502417075e-02 2.087235200192299328e-02 -5.166527976626365815e-02 -5.500075611106584710e-03 3.212768882803656439e-02 6.901665228632702931e-02 -3.491797570121843441e-03 -2.908978621739663484e-02 -6.261331358872350428e-03 2.268720004560810868e-02 2.623088736516027142e-02 -4.232916168057475337e-02 3.663076384146790598e-02 -8.447926089358452628e-02 6.996751283387139808e-02 -4.959570866882542090e-02 1.760187396039079866e-03 6.709420211187588912e-02 -1.270494310362687770e-02 -1.192545015005252833e-02 -1.765370654387844035e-04 -4.476202369573482887e-02 -1.675451838593144949e-01 -9.528040994145572928e-03 1.201120373437031819e-01 2.318715373629573126e-02 4.630870356051802229e-03 -1.476440334280891276e-01 -4.673685677711252734e-02 -2.098611906830384274e-02 2.739310977494767083e-02 -1.698020345941290699e-01 -2.304235409481578123e-02 -4.351925770674738153e-02 8.845593698381168379e-02 -3.195172673372530942e-02 -2.043647860095163925e-03 -3.819937869645838313e-02 -6.817352097076970208e-03 -2.943286797094685214e-03 -1.574306864455232149e-03 -1.131056896734675410e-01 -2.223338295634118278e-02 -7.538927314626740414e-03 7.178746617329118118e-02 5.539447502055028227e-02 8.131388071144756563e-03 1.667724200057706455e-02 -3.561095015809644104e-02 -6.336995562210677099e-03 -2.663258221973802825e-02 6.125752119384637873e-02 2.537137431342037161e-02 6.839322227860228365e-02 1.105186007123984959e-01 -2.772421294721534243e-03 -2.796450753068554368e-02 -1.862666424572868157e-02 -2.993294708215527705e-02 -4.130393549472501091e-02 -1.643768510028582874e-02 -4.930169097872685521e-03 8.385632887707436534e-02 6.863865303023823292e-03 -3.032652413119898971e-02 7.331320770364198325e-02 -5.811430386847766735e-03 1.911798155589044049e-02 -1.012830479975151445e-02 -3.976661157407147124e-02 2.728584049730278099e-02 -3.696342488408511928e-02 -3.923691270502108197e-02 -4.428825075861595600e-03 7.488813941218656900e-02 1.386087283748912297e-02 -5.261525501905726238e-02 -1.450872646033685154e-02 -6.508636642498925873e-02 -1.874799505774400743e-02 1.331523840509335130e-03 -3.428991898129817029e-02 -2.268597942822118615e-02 -1.454721955200259306e-02 -5.886302800180762129e-02 -5.497639753181241679e-02 7.619402500372691144e-03 -2.856982667213398344e-02 -2.738756944181507114e-02 -3.116049852324754427e-02 -5.116005070274795390e-03 -2.616377077532778747e-02 4.201029649734385613e-02 -5.891446823701666780e-02 3.742099082869430882e-02 -2.433563615117194379e-02 8.009586743159482700e-03 -4.615607880648497224e-02 -1.738427841652900527e-02 1.408366421605808079e-03 -1.268802745016705397e-02 2.378366910160266759e-02 -7.437286410802314458e-03 -2.152845205810112808e-02 1.307390423041651824e-02 -2.980522296819726447e-04 -3.236087835771654653e-02 2.635940616124737845e-02 -1.339532915986171163e-02 -3.025591933260126168e-02 7.743134258144261650e-02 -2.993091445087141603e-02 -5.083687248547499350e-03 -3.242636816661772364e-02 1.775417467554853135e-02 2.081427383040639761e-02 6.879446553561714695e-03 1.071106475147014757e-02 -2.151169685268400269e-03 1.968833642141076552e-03 1.557822600282751397e-03 5.391059636052764059e-02 7.052665195108873131e-03 9.043401353257571329e-02 9.952166015812237074e-03 -3.789056825563824615e-02 -5.407286307945213030e-04 3.416653682590440472e-02 -6.132768186650818312e-03 -8.523629366487119052e-02 -1.277437965529335711e-03 -2.599555221204850886e-02 -2.076088013956488287e-02 4.997526135092594107e-02 -2.930463432680509989e-02 -1.896617190559846469e-02 3.154292915400243400e-03 -2.829472021347163857e-02 3.764550647262263940e-03 -3.341990551346230715e-02 -1.817442840509671600e-02 -5.600117422042961285e-03 1.434506359717065832e-02 -5.747666815865100538e-03 -3.859352058666521215e-03 -2.347467226860819670e-02 -2.244826859019537907e-03 7.238471560005439731e-02 -2.972672718390367147e-02 1.304901228841208460e-02 2.282114418374140211e-02 6.083434824055414247e-02 4.683425348579092415e-03 6.070418097582646472e-02 1.528274575225751220e-01 7.542341957686773957e-02 -3.677927056214435469e-02 -4.620566805925241036e-03 2.800641750470604999e-02 8.942650181650226016e-02 -4.315978581720253393e-02 -4.449754983213748821e-02 3.202793902640402313e-03 -1.859770290466066650e-02 2.222982458191471652e-02 -7.486247376598125641e-03 -9.462671053093211007e-03 6.230081137487676786e-03 5.905622996084213677e-02 -2.905753372142444446e-02 2.429055787574589328e-02 4.139002171032035889e-03 -1.849563747256641535e-02 -5.408296863221021683e-02 -4.769152972983467520e-02 -1.566891744800744807e-02 -1.520154315798732426e-02 2.052736992188559581e-02 -1.596801842057337523e-02 -3.722763810341695682e-03 2.308846455424394539e-02 -1.029105908323219021e-02 -7.140755227990058622e-03 -9.255668222759975711e-04 -7.849443999123805610e-03 -4.231635421326115920e-02 -2.861964316269775127e-02 -1.755865500435064772e-02 -5.745470088597777469e-02 -4.114682478416797906e-02 1.830164067777131920e-01 -6.457835749940321612e-02 -2.110227212066349486e-02 -6.074278900728466435e-02 -5.692880681448439333e-03 -8.416430855628143776e-03
-3.289407887168956796e-02 -4.878330306551009049e-02 -3.748246027106268835e-02 -2.720168771554393877e-02 -9.119187628095756781e-03 -1.964879732074537380e-03 4.472630570616024231e-02 -1.524123608194497860e-02 2.687639519301050425e-02 -1.171180675721077147e-01 -6.567588630533786713e-03 -1.384082355031903029e-02 -1.552575542851883546e-02 9.715021594919506787e-03 5.405958908538773715e-04 8.837447228544364000e-03 -1.664897272518450072e-02 -8.230075020744775580e-03 -3.109065673117482331e-02 -5.091422756638196850e-02 -2.418380502733898443e-02 7.833475954861094173e-03 -2.308340710819793695e-02 1.845964617414152381e-02 7.045280009032253363e-03 -1.505508685225949612e-02 -2.392194596457174888e-02 -4.833872904201155264e-03 -1.042878267837527365e-02 7.187913174008765671e-02 2.707117849230944104e-02 5.930952265947129348e-02 -4.579607826235541218e-03 -8.443105584185446599e-02 -2.498032174817170492e-02 5.868984987500186490e-02 4.699720031328143144e-02 3.006584618378174700e-02 2.625393234109581891e-02 -7.309029793165476747e-03 3.594282261705023657e-02 -6.728041618839750160e-02 -4.486925519136453211e-02 -1.017360230742984512e-01 -4.038209929882445592e-02 -3.126046666025929233e-02 -1.000644550582333557e-02 8.412070735730084459e-02 -5.373943498574229594e-02 5.421051467640830568e-02 4.903289608454024229e-02 3.398827045629836813e-02 -3.800648410950973992e-03 1.980445266573407567e-02 -6.583330212622983540e-03 1.398662554744545261e-01 -3.612987189975270554e-03 -8.708044920037136608e-03 -2.218115170660752422e-01 -9.283928682339567112e-03 -2.085454878382115781e-02 -6.672306669175305689e-03 -2.797551131825038243e-02 -1.372582439974152739e-02 -2.882384088658523219e-03 2.455488011957663447e-02 3.678146971829445583e-02 -1.067858424481300805e-02 -3.132323206788074736e-03 6.757768889107905463e-02 3.350749828543439675e-03 1.628259312104211182e-02 6.269418487567382861e-03 -7.589209956673560742e-02 -7.619970054891009315e-02 -2.925651044985531565e-02 -1.100566901909865889e-05 5.201946319279365794e-02 -4.866266308662760276e-02 2.861583096750862365e-02 4.253171756888835670e-02 -4.377479313410884837e-02 -4.122023240151689166e-02 2.190672773098776074e-02 2.800255810473204973e-02 -8.090557167748134784e-03 -1.343100822149851659e-01 5.480005270288781233e-02 3.706344817525610708e-02 9.320140814990958813e-04 6.502947248432029530e-03 -1.051658456420047905e-01 3.049904116264897172e-02 -3.824643696343971166e-02 6.163542613264870462e-02 -2.104308299008365510e-02 -2.408262083485248825e-02 -1.968131554194604491e-02 4.901691971799242327e-03 3.596018178438133064e-03 2.121425776734992691e-02 -3.366179280284122000e-02 8.859871623794809276e-03 -1.830651463264626813e-02 -2.029035746692287728e-02 -4.188067214039727787e-02 -4.555728129761976719e-02 -1.514334357489162917e-02 -3.519045273641974864e-02 -2.201160503461351003e-02 1.268055006829782103e-02 7.846595401560965688e-02 -2.729408991208889801e-02 1.585140819110037250e-02 -5.061828545221507686e-02 -4.301976739190358640e-02 2.667597604271288586e-02 2.139943108126610150e-02 1.046639892191678078e-02 -1.213249274959351393e-02 -3.426513777223617451e-03 -1.962082525019364764e-03 1.994482842817219687e-02 -1.711585198111505515e-02 -2.089671135400132315e-02 -3.112251932466549020e-02 -1.212960628308686452e-03 2.423110519830345456e-03 -9.118032692275391399e-03 1.592128910064839623e-03 -5.273648128153306941e-02 -1.792887297747361788e-02 -3.081562039406706560e-02 1.823140632132416727e-02 -2.629546169104356179e-02 3.362984517186142722e-03 -2.142018703590742659e-02 1.093491476362871062e-04 -2.193402764702461483e-01 -1.160585673747544823e-02 7.239134313060738291e-02 -3.737878493978529990e-03 4.864853765622281778e-02 -1.148639919905106686e-02 3.422718518951809591e-02 1.882379342688136892e-02 -8.209102542789201151e-02 1.295583382630328614e-02 1.493476903277662395e-02 -7.894268135657800389e-03 -4.140146899883004328e-02 3.230824672334513259e-02 5.609456101743083567e-02 -2.460811390308160693e-02 -7.580747650503886744e-04 3.895746669386546124e-02 1.170544587085928755e-02 2.997689297074823938e-03 -5.285428297826475635e-02 -1.269661906787158435e-02 8.491968469729731586e-03 -3.809475712890782184e-02 -2.133467164232813115e-02 1.566067271329411523e-02 -3.913945756388070157e-02 -4.361553666729174258e-03 3.334415685994404632e-02 5.615041256976186293e-03 2.497208145500073168e-02 3.397838168444480139e-02 1.805640898677450534e-02 -2.796829490164403666e-03 -1.826543047090210814e-02 2.916845407345841894e-03 1.673253627315949843e-01 3.371201885649653673e-02 2.678518868376006043e-02 -8.548050838301100157e-03 -9.010319026610844051e-02 -1.581264125727975534e-02 -1.062783476662727995e-02 -3.609701300482281994e-02 -3.016761135396315088e-02 -2.096644941738956547e-02 -1.037521760439933521e-01 -2.415449687156512315e-02 -3.910551868696791195e-02 5.289009501078631610e-03 5.293080019535936764e-02 4.314826665450717004e-03 1.152865851019906421e-02 -5.100587783147126492e-02 -1.612788304910161424e-02 -3.918241649723282205e-02 4.479282162050860633e-02 1.068472290635596143e-02 4.064784716031451250e-02 -2.955664996931529551e-02 -2.330605447743337982e-03 -7.750657670115694911e-03 -4.379293819482495131e-03 1.678516031920052878e-03 -1.329557710120627713e-02 3.458772034744579671e-02 1.212304141728988253e-02 -2.048885161659870849e-02 4.908438768941123659e-02 -1.124683666243018153e-02 -2.316818810342968424e-02 -4.369023245399045359e-03 -1.323353333917759445e-01 9.364622899869239070e-02 -1.348222780319488674e-02 3.439056199341940928e-02 5.889890051189652399e-03 -4.160031066569833125e-02 7.795351285590107482e-02 -1.486770905291905261e-02 -2.219573146890668812e-04 5.749631526353204958e-02 -1.858142341127549599e-02 -5.751726558036480974e-02 -1.427270809934812201e-02 -4.984239840305960782e-03 -2.255475385973533531e-02 -4.096472599114990565e-02 -2.513939245228037980e-02 -1.777125175080918051e-02 4.699457053851350402e-02 -2.068449742595785540e-02 8.748522742629688542e-03 2.726147235978352429e-02 9.540771652398614272e-03 -7.484306522682529668e-03 -5.058494691046146879e-02 -2.097157786625938186e-02 -1.806450370289366600e-02 -3.852339118859698930e-02 3.415858116969612557e-02 -1.142461291189953744e-02 -3.704678040563126606e-02 -4.324217259258066048e-02 -4.081225186128137339e-02 -8.088564313325876439e-04 2.426474701093423933e-02 7.669896837352422475e-03 -2.153171912695240123e-02 -4.651269485017057851e-04 -2.255028749654813466e-02 -3.509156251981104813e-02 4.519000744870074748e-02 2.586240761684412484e-02 -1.890275302659926923e-02 -8.251947712362178722e-02 -4.182650397215134652e-02 -3.461319677821204227e-02
2.791144712228988203e-02 1.181282691034165992e-02 -9.023508498505724076e-03 4.343858517736569336e-02 -1.759106039361317889e-02 -6.675192435590816820e-02 -1.368544903822195014e-01 2.171035479516503566e-02 6.161954750881142723e-03 2.287158141074396162e-02 1.500892568077882893e-03 2.537116189599747731e-02 1.627625078319564975e-02 -1.900140632889414649e-02 2.861106518993999578e-02 2.063059839161721434e-02 -1.416212413503275744e-02 -1.480021787104551095e-02 3.183288956478231430e-02 1.613115597161946663e-03 4.927501193987068526e-03 -2.104467643628975260e-02 -2.502744665448252900e-02 -4.794286913937219341e-03 5.811724860456270354e-03 -1.364155799617785972e-03 -1.880279420411358482e-02 2.162066429135319975e-02 1.390061257696021367e-02 -4.043461041347184287e-03 -4.804943775773484055e-02 -5.227779910700277449e-02 1.248277926470122909e-02 -3.366559045304058986e-03 1.267910750146999770e-03 1.966966423563234687e-02 2.096601564407819460e-02 -2.228587803873309514e-02 -3.040987759461159443e-02 8.073643875288605623e-03 -1.393154907354867134e-01 3.823694515687701273e-02 -1.351082943674149391e-02 -3.892728636978223800e-02 -2.015328991715480828e-02 -4.464132020237417120e-02 1.941401761473722509e-02 4.543907073472289691e-03 1.054354005319088974e-02 -4.367809417244680054e-02 3.655793690512488398e-02 2.579544956708267750e-02 4.685059483821201604e-02 5.225693124154078689e-02 1.503361024195038614e-02 -5.878527865145980608e-02 -7.560435556418723668e-02 2.506931473115621423e-02 1.192700561599613351e-01 -3.286878966222751830e-02 -3.765626585978222324e-03 -3.688923932372247753e-03 1.063168346248921647e-02 -3.310145346017653780e-03 -5.101866995424385320e-03 -3.897779359577068642e-02 4.036354600909581453e-02 1.813613916987602548e-02 -1.365113119149099531e-02 9.518779128054280503e-02 1.452151598409550000e-02 2.338737653011024528e-02 5.027609062661200084e-02 4.996989344649711146e-02 3.947542595252461622e-02 1.135305707098919516e-02 -1.584612642566583449e-02 -1.610992051228958555e-02 -4.580135968764650900e-04 1.669309898104275047e-02 -7.455302534224988488e-03 8.778371966778827223e-03 3.512905809294793874e-02 1.261728501347920105e-02 -5.820149752514505032e-02 2.952942512683805198e-02 6.731234524992234236e-02 -7.789203447949263892e-02 3.585954269281280572e-03 2.700331680458403771e-02 -8.268705288000140555e-03 6.253934417030959647e-02 -1.238871405392459601e-02 5.093190873500678083e-03 -6.596533294205599030e-02 -1.661670590713313625e-03 2.302834326975877928e-03 1.777150655980838569e-03 7.968027596765916987e-03 -4.643580423265368518e-03 1.742579147163265951e-02 -5.207745875632118632e-02 1.817376594039573495e-02 3.242503119160612679e-02 9.680101494962343664e-03 6.427640908045635084e-05 -5.028668085776130670e-02 -1.396546414969912411e-03 -4.782365153953173353e-02 3.135659057789444426e-02 -6.814497088615385084e-03 -7.102890923956584057e-02 -8.575560644556426415e-02 -5.071389079085164564e-02 -4.928913394327898156e-02 3.393954681488368236e-02 3.598429144749256542e-02 3.257376290380309836e-03 8.167450193954277696e-03 8.375381497198058217e-03 1.764370740484167907e-02 7.366535680203211041e-03 1.791318586603348438e-03 -2.522008153754308132e-02 1.056130308874164009e-02 8.980579962365906402e-03 2.155688722968254409e-02 -1.456866925749023267e-01 3.318690052793649148e-02 1.437356925407437015e-02 -1.264427155970048594e-02 1.315259911761143194e-02 1.971776740564513616e-02 3.490219316575457660e-05 -2.685016237454333071e-02 -2.463652540116448297e-02 1.689523640048789729e-02 -3.297983924458210148e-02 6.644443597665404544e-02 2.211726128905596930e-02 4.916331896743413379e-04 1.970464541963540608e-02 1.990463895843666217e-02 5.310855777654663497e-03 2.060897698616769025e-02 -2.764741045204527001e-02 -2.864082307290420973e-03 5.981325284301871117e-04 -4.529780454206797091e-02 7.028442987413028274e-03 2.744726167494900698e-02 2.227946856392364061e-02 -1.040162433452140010e-02 -2.863685606390776323e-02 -3.671407263265841214e-02 3.436585225979754687e-02 1.322458151891559019e-02 2.728459230658922610e-02 2.002961073777378975e-02 1.933000809502598977e-02 -2.730583237499701124e-02 2.691715755901536236e-02 1.073832472911032815e-02 1.433857852045601448e-02 2.509362732236119359e-02 -2.665467422524636404e-04 4.243796706151228143e-02 -2.873105339838495295e-02 -3.707225835062721853e-02 7.793167520483032691e-03 -1.125309217619325092e-01 2.269552202609020214e-02 1.584678834810352918e-02 1.167154387601740222e-02 6.352755363338200012e-02 -2.284324507767645368e-02 6.957603524060813546e-03 -1.501549719443484240e-02 5.927506729034357977e-03 6.709916719944479697e-03 -7.528231211036386095e-03 -2.220227653577137861e-02 -2.037900927161831466e-02 -1.034769718927073916e-02 4.175728318011872990e-03 2.143649232932061735e-02 -3.108662278688186301e-02 -1.946245651069230392e-02 2.728498654661101058e-02 1.499925820193850554e-02 1.437141713743993361e-02 3.726303413502414855e-03 1.587705139721097211e-02 6.608349653000807414e-03 2.223059985537906985e-02 7.287523037136112505e-03 -3.252883324762960437e-02 1.936701390499010952e-02 -1.313047852360508215e-02 8.272155517710442010e-03 1.625651433488960532e-02 4.542264215157841047e-03 9.243356111278508425e-03 -4.523862517568603449e-03 6.242196644342047802e-03 -1.055202152052862885e-02 2.731008272979842336e-03 3.009332409699691686e-03 7.748933146915571238e-04 -9.820102943711604346e-03 -9.036977510968757787e-02 -2.342432757637681606e-02 -2.637059853096129086e-02 -2.895690010444110923e-02 -5.455520464666413494e-02 -7.088817798801137077e-03 6.959146402979873858e-02 -9.890068389804742427e-03 -7.596635795090217642e-03 -1.067717894289516439e-01 -8.882455073088980219e-03 -5.863194486333956137e-03 2.935459632420634249e-02 1.311487316733110815e-02 -1.042248521715491254e-02 -8.285403097400473316e-02 1.625926416888648016e-02 -7.839245403439215956e-03 5.950135504955975964e-03 -3.659520192092909074e-02 -2.678701858582849607e-02 2.784945149501017510e-03 -2.569761391107830070e-02 2.001996793019148596e-02 3.270840416911127702e-02 -1.733483582381114413e-02 -9.199229021371246526e-03 2.746818866523906277e-02 1.873987935088618217e-02 -2.223700526538599509e-02 -6.145370169110929079e-03 1.392372613722827127e-02 3.764502393869185309e-02 2.735678620031690989e-02 -4.718460735225239039e-03 2.996937423313415002e-03 8.558509377086766928e-03 1.382537186126488356e-02 -5.870450950702716351e-03 3.647489541476420932e-02 -1.414457739058722352e-01 -4.364603326735330517e-03 2.051067918453434134e-03 2.632630643363780693e-02 5.605675479523988293e-03 2.494400952126788959e-02
-3.301869096367919254e-01 8.542877944839041837e-02 8.414902371208737852e-02 -2.718803511666439965e-01 -1.808208600725457194e-01 8.594710551381830321e-02 2.073107064804846633e-01 -1.378509780974969401e-01 -2.067166565372659526e-01 -5.826500388230795302e-01 -1.123933828489228209e-01 -9.314529963764096865e-02 -3.037395020077129359e-01 2.644875481604212486e-01 -1.602321111931466480e-01 -5.791072611619427907e-02 -2.036443956078748674e-01 -2.004568107508659103e-01 -1.104379151567288081e-01 -1.003165754866849474e-01 -1.813686979944889588e-01 -1.008862500453704819e-01 -7.477146897933666103e-02 -1.973739287056069935e-01 -3.028212356325074919e-02 -1.626915211611350554e-01 -4.130916864106693454e-01 -1.699716576465699902e-01 -1.440136844183839693e-01 -8.971399626390387516e-02 -1.717796192688871293e-01 -7.039342246480236910e-03 -1.426806764317792298e-01 -1.937278960837423014e-01 -8.302415137417230862e-02 -8.934800371079361370e-02 -2.301342298362279437e-01 4.889088983265012928e-02 -1.246008443703053026e-01 -1.841540195844632577e-01 1.651431495656950077e-01 5.331322506238028724e-01 -1.587716293906967224e-01 -4.529421406014018658e-01 4.109417299962001696e-02 -1.274601655411690959e-01 -1.841580801846434134e-01 3.051713516732549869e-01 -1.157800326060076934e-01 -3.567652780821995440e-01 -1.641268253627875262e-01 1.656074021759390514e-03 7.265400319485164349e-02 -1.216545511702992188e-01 -2.398025474369314403e-01 -4.089603049397686485e-01 -1.979868066845508479e-01 -3.099241054247942051e-01 -4.016413372929479864e-01 -1.077741455304802587e-01 -1.537874953362615982e-01 -2.178861964632440307e-01 -8.734857732651585271e-02 -2.215924787634194759e-01 -2.402811607606452904e-01 9.597926144308628615e-02 -3.361550559569728702e-01 2.998824012196690814e-02 -5.722705766814836087e-02 2.153021112629018297e-01 -1.271515628171759615e-01 1.776408742779542749e-01 -4.305873694680898561e-02 1.447989971295868782e-02 -3.226123820133237063e-01 -1.782143604688624927e-01 -1.687262352145942335e-01 -1.079835232157620867e-01 -2.005862716767007892e-01 -1.764286084401362475e-01 -7.658854596771361711e-01 -1.917224541646005975e-01 -2.238264574430292031e-01 4.866147293255823625e-02 -2.815001136084405164e-01 -2.430674842551111547e-01 -5.270803505974375192e-01 2.414491284138965688e-01 -1.535647368848070959e-01 3.707285124816419447e-02 -1.793089139244211927e-01 -1.609813532710309761e-02 -1.541956403290610234e-01 -1.856026715174751707e-01 -2.990672494939619619e-02 -1.657890298804428897e-01 -3.843962009469446134e-02 -1.180051047974963185e-01 -2.377086813011248800e-01 -1.691534109156228871e-01 -1.059691369607115019e-01 4.459656478121629686e-01 -2.447830623165344888e-01 -2.400506333496333078e-01 -5.780023101228393134e-02 -2.438155322473241071e-01 -1.310037501990105879e-01 -1.748494752932587826e-01 1.519475005351763885e-01 -7.149827823019991313e-02 -1.460003455447251852e-01 4.198105663174707403e-02 -6.414400809005943449e-02 1.091267242907704160e-01 4.458220808077132530e-02 -3.018309287102070027e-01 2.622423043649579552e-02 -1.606810415564064731e-01 -9.077947965547328302e-02 -9.473113735985233541e-02 -2.193186084774297606e-01 -1.401994932142890810e-02 -7.341459307939812717e-02 -6.906246036298438473e-02 -1.119563366545295452e-01 -2.192263125499898935e-01 -8.571828238913967168e-02 -1.043147280148730427e-01 -1.888613637316858829e-01 -4.295870891333497532e-02 -8.755062581769309030e-03 -3.778243846301078124e-01 6.096722877136905722e-02 -7.829421008435781537e-02 -2.090961266161278642e-01 -3.546204943648567087e-01 -8.039211802251144956e-02 4.189669778267654521e-01 1.802885454471969406e-01 -9.323971924411721124e-02 -9.514860635688122958e-02 -3.136417932104550166e-02 -2.257897717875451821e-02 -1.128364400592540145e-02 8.147011368329114267e-02 7.553765216441157837e-02 -1.780357811370882892e-01 -3.017462451394000225e-02 3.259560064428484311e-02 -7.134826737294255872e-02 -3.551420722003144625e-01 2.105232506074216081e-01 -1.741245438652596345e-01 -1.775274359560040094e-01 -4.133126337097677017e-02 1.219039210187522759e-01 -2.605997653647659784e-01 3.631418936683231818e-02 -1.426827522335447629e-01 -1.031840068323180148e-01 -1.356238247093417837e-01 -1.249982274569258894e-01 -1.709593184380316100e-01 3.869820338932918741e-02 -3.448374682215226139e-01 -2.510573003303743778e-01 -2.228088266019902230e-01 -3.059437364115414892e-01 1.487098177434733326e-01 -2.827312790557524602e-01 3.621956707257596442e-01 -3.024966668262243363e-01 -2.628047346705524867e-01 -1.617976283580019325e-01 -4.075781911555411141e-01 -2.575452798454500591e-01 -4.996863337429934687e-02 -2.749752786993970299e-01 -2.036861247428478350e-01 -2.798457250728697554e-01 -2.591755831126372756e-01 -3.291894620021747486e-01 -2.189219085518612773e-01 -1.486466723917689303e-01 -9.870439041249724765e-02 -1.502640720523082951e-01 -2.701951208671664606e-01 -4.240202312413213215e-02 -2.802600991149777898e-01 -2.369773023675454948e-01 -2.021975467557989570e-01 -1.609445349368829048e-01 -1.464081603989446922e-01 -3.250679466242838989e-01 -2.192355022661909292e-01 -2.645235713832450597e-01 -1.250127898513670177e-01 -3.034380951246649638e-01 -1.829118194984856449e-01 -1.389059369388446910e-04 -1.693013575312930508e-01 -2.141246364091167198e-01 -2.009097982567897567e-01 1.193846951261298139e-01 -1.372007954034041022e-01 -3.398423906996078103e-01 -9.274820947618381273e-02 -9.209262892634050013e-02 -1.434624270644078159e-01 -5.058994879865685856e-02 1.068782261794125610e-01 -1.218700595713913398e-01 -6.877690681137173245e-02 -6.522889515971992680e-02 3.336801847324223358e-01 -3.354974135941039826e-02 -6.247037609509663580e-01 -1.000494435104366531e-01 -1.097156625439838357e-01 -1.821611005492444757e-01 -1.597652066460690801e-01 -2.192363150704488006e-01 1.500663177559983553e-02 -1.589929483840701874e-01 4.062664784753730607e-02 -9.945928529791805625e-03 -2.298281974167385444e-01 -3.354149711768513592e-02 -4.488903978268549838e-02 -6.514528234225714920e-01 -1.132143250395362816e-01 -5.891107424378282109e-02 5.012342702865277277e-02 -5.005224276766531699e-02 -1.322626299345973644e-01 -1.519207149392984291e-01 -1.444439294159180487e-01 -1.180340557963273501e-01 -2.483591300680451919e-01 -2.463214588874087230e-01 4.175472520574708551e-02 -2.611244681179651292e-02 -3.575014147446596846e-01 -6.470977516887801984e-02 -2.244995352813994594e-01 -3.489001368139963422e-01 -6.467618074298268904e-02 -1.263972783523418242e-01 -2.636399567299916868e-01 -5.810796747162161324e-02 -6.414473052489135831e-03 2.184992479927311618e-02 -1.071325087087128536e-01 7.424189155272765961e-02 7.365071029908970557e-02 5.754142039422897870e-02
3.380245388512984062e-02 -8.091652978985978961e-02 1.857618933255624633e-02 -3.739602170203556021e-05 -1.134322279366152021e-02 -2.043743798749316290e-02 -4.079585543340416565e-02 -1.068106402568539184e-02 -4.954281968806452212e-03 -4.255644642307372660e-02 2.931400446282908870e-02 -2.221349832351128626e-03 1.096365673656198025e-02 -2.766408649640204540e-02 1.569204588112903254e-02 1.818964944385115592e-02 1.564345334557864673e-03 -2.015375963595459794e-04 -2.689026617350638929e-02 -6.284576229143197523e-03 -1.334425209138969705e-02 1.027492179249552343e-03 2.992682927375709540e-02 -8.502787282884229428e-03 -1.344642541757712362e-02 1.970971292760463969e-02 3.004245927199675550e-03 -9.701785968179912206e-03 -3.876183449180203508e-03 4.146748134673241756e-03 -5.087080659685105921e-02 6.723251237155786729e-03 -8.572960352076761971e-04 1.147383093151305676e-02 -1.796578234341761988e-03 2.097085773967680492e-02 1.065693357531633315e-02 3.095044505186442599e-02 -5.742783432848262443e-04 -9.881853419775703251e-03 -3.569724560391777934e-02 -1.147644185558458346e-01 -4.642268192717762497e-03 -7.874889827495804018e-02 -1.575517189490447528e-02 -4.837888644891746859e-02 5.480319972537225654e-04 -6.723327274239551676e-02 -4.297602517746589024e-02 6.566090335759561247e-02 -3.878656821207626670e-02 -5.668149556669924150e-02 -2.228343234357073321e-02 1.278006413208147667e-02 3.578432503248554775e-02 -5.263283226074221693e-02 8.354452868361865112e-03 2.836174699412190997e-02 3.448037407143814820e-02 -7.368621371007995705e-03 2.318900205712108933e-02 -2.516118295676422062e-03 1.529074111691876812e-02 -6.709803029652627870e-03 6.416839972941458005e-03 -7.848782063578658291e-03 4.874357155798157704e-02 -9.385643314069630483e-02 -1.165342048780357125e-02 -4.527604454775956654e-03 -1.474111808071684911e-02 -3.280483287662428436e-03 1.033575190338046623e-01 -3.069624308545162994e-02 -5.798808077104425363e-02 -2.325641676266943306e-02 -3.740074306589809012e-03 -1.239514559365823563e-03 -2.324804140382776343e-02 7.153177892181202327e-03 -5.625684129367652941e-02 2.147881972243991834e-03 9.133748667246457953e-02 -2.130167540852142410e-02 7.009470270229506417e-02 -1.651940475373381567e-01 7.630788122788195738e-03 -2.304554391374871170e-01 -1.003739905239217772e-01 5.716531803400828025e-03 2.374446008136666883e-02 -6.390375391373080693e-02 1.429590448441459341e-02 -3.851746273832015038e-02 1.321044884573901491e-02 1.895908291518274766e-02 -4.515075053499271324e-02 -3.246740539520714258e-02 -6.320786984670217871e-03 4.026442685994307234e-03 1.804163376152310636e-02 -1.032536933088792075e-01 5.003565976153949088e-03 4.542735412154209201e-03 5.334899347154029720e-02 4.350006310773894824e-02 -3.007969684452127881e-02 2.811043996210475446e-02 1.905276470394896490e-02 -3.365467303644666727e-03 -1.291573073964978960e-02 -2.020202869762181830e-02 -3.307269075047115925e-02 -1.271570682943923454e-02 6.013748525366086973e-04 3.404624660219820326e-02 3.039362223798548410e-02 -4.401940957408139767e-03 -7.921588363696340862e-04 1.839456340626054870e-03 1.504137486749506161e-02 -2.589825751260056708e-02 -1.296802382381354903e-02 -1.365506235654474418e-02 6.668380575044283685e-03 2.810531545352121935e-02 1.658598772711497929e-02 -1.103655102183511150e-01 -2.623238823882059062e-02 -3.074305936477003329e-02 -6.429717592843776919e-02 -3.202734912362242142e-02 8.482134129378510190e-03 2.979468683684884101e-02 -2.592576190386718799e-02 -1.290824591406887099e-03 -2.352299543491286407e-02 9.268960840402808155e-02 1.496996215811866870e-01 9.056143843086884165e-03 -1.104785128646361241e-02 2.333315645144576692e-02 -5.086980360712644450e-02 -1.662383774416548166e-02 5.920297395258128023e-03 -6.006564637409839841e-02 -1.344587635655631122e-02 -9.026455980420386438e-03 1.737411589125625877e-02 -9.797725994969242597e-03 2.937105669507473690e-02 -4.424355763076788864e-03 -1.329511107200593775e-02 -1.936484153949906070e-02 1.262902595293451981e-02 -3.414179802777236872e-02 3.850439304719479455e-03 2.425755781628420593e-02 -3.658506080725490266e-03 -2.293239439862603674e-02 3.536734767362526705e-02 -2.844790168543968097e-03 3.286261524698391029e-03 1.372760647431089422e-03 2.579673472536659490e-02 -3.519161749893703374e-03 3.079260328093030852e-02 1.565691682620454911e-02 1.358496251234035321e-02 -8.968065661587094894e-02 -2.065014352928437324e-01 4.251170477239548523e-02 3.761338202172256895e-02 -2.555472077029717713e-03 -2.141771460216540177e-02 3.808561255520452691e-03 1.410721863964108438e-02 -2.564607946845980438e-02 3.849555090444060218e-02 1.407776378354222251e-02 -7.801797234942346899e-03 7.546479512347463448e-02 3.634817973713087846e-02 2.455774899797554672e-02 2.572300826993586392e-02 -2.264241208752549271e-03 6.099546211706115273e-02 1.567784152701218875e-02 1.032082031156624918e-01 2.297367589267344801e-02 3.632742263005593435e-03 2.704313837562980632e-02 4.186594120518305484e-03 4.650725168036630441e-02 9.298802163754810168e-03 3.708244748222291887e-02 -7.843975319908306001e-03 -6.567322857339658905e-03 3.959313608646832698e-04 -2.531217856896116059e-02 -4.998907222710288062e-03 8.963028651459061663e-03 -4.104185715339738610e-02 -3.994882072990636745e-02 -1.295343877750967411e-02 3.264799039219188487e-02 1.544713194196992980e-03 7.931419913387365017e-02 -1.255940129049261042e-02 5.773004756480944709e-03 -3.165772681624406948e-01 8.720409273799238636e-02 -4.511193952428829701e-02 -7.756709116022140332e-03 5.355058514612882209e-02 6.011502672688782446e-03 -8.976444409312574202e-02 -4.012433176096062357e-03 -7.419420703080048529e-02 -4.623976153935341338e-02 -8.289772034051004143e-03 -1.579254392925909245e-02 3.783153143346661140e-02 -9.807143202002170657e-02 -6.730558873135828596e-03 2.153130487317703179e-02 -1.532633220584451658e-02 -1.339440188689820441e-02 3.399949767649627658e-03 -1.816314632037899224e-02 -9.403028009954163269e-02 -1.590977835620484282e-02 4.384674865208428723e-02 4.222622045147831488e-02 -2.591462140146055804e-02 5.147155530444117583e-02 3.961653139128475803e-02 -1.000008571739896372e-02 -1.156539030094333974e-02 2.757315014849463439e-02 -1.147052781386853348e-01 3.387917524314966455e-02 7.954679527623044477e-02 -2.543804082856140555e-02 -5.353355766881225802e-03 8.907690551685933491e-04 -3.197000704226031845e-03 9.680371050066432018e-03 8.353214314947049468e-02 1.136898056894391530e-02 3.777130349398084147e-02 -2.219728695597549678e-02 1.363065018126606402e-02 -1.242216382530456908e-01 -1.144344790993596678e-04 2.519578629032314526e-02
-6.752885803142026980e-03 -7.769644542709651380e-02 2.087215500363837420e-02 -7.629060937178551438e-02 8.917609061728131239e-03 1.196116758801864660e-01 5.047245738045329222e-02 3.529111985034961985e-02 2.848821280358045799e-02 -1.431510862341639836e-02 -1.726256586669678850e-01 -1.777286254127530968e-02 -5.432712879312940474e-02 -7.017480136453335682e-02 1.944817098034299502e-02 -8.004090169823176171e-02 4.051177890904944512e-02 5.243121822387344921e-02 -1.027161285270929980e-01 -9.783960959576889702e-03 3.201559621558621588e-02 -1.172079352720253320e-01 4.226364543225939741e-02 1.925430522973314504e-03 2.710290731103326411e-02 6.387473289534059684e-02 -3.452079727764496841e-02 -4.516998024543070200e-02 -3.044726227569643368e-02 -6.573958282272432396e-02 9.337558222883077241e-02 2.716300439723640797e-02 -2.892290737002457812e-02 1.760658562878238131e-02 3.854634494727585819e-02 1.653110896125395760e-02 -5.468686248426873897e-02 6.365829502648762128e-02 4.693717650744064565e-03 1.020195689967042831e-02 2.668072214190462046e-02 -1.823485574191397451e-01 -1.501149106727838779e-02 -4.231241408737562715e-02 1.562394004923222529e-02 -5.847193273284432505e-04 -1.816672388378139102e-02 -5.640292333573865280e-02 -1.872727069612546424e-01 -8.185944426707002231e-02 -2.067688319624783888e-01 -6.912615774115758727e-02 -5.127825622683396950e-02 -3.803406627022279385e-02 -3.175325818063190475e-02 1.076160016031316446e-01 -8.703935250193092776e-02 6.897433082968264240e-02 -5.436935400760015830e-02 1.602377632569254237e-02 -4.822142345382215631e-03 4.216174747740353973e-02 -4.787468273941264396e-02 1.472228220854386767e-02 2.913210002387772724e-02 3.721168858675204943e-02 -7.366742099044430725e-02 -2.184980780946149115e-01 3.171936209486546365e-02 -1.782034993915249110e-01 -2.214909674439622354e-03 -8.526813940364702527e-02 6.721620418426639543e-02 -3.875086611165037137e-02 -2.244920085677074295e-01 -4.822739056950623728e-04 -7.248216749455637991e-05 -1.299580812124874751e-01 5.155710560012823421e-03 4.100616937936556877e-02 1.328244562966264253e-01 1.379641516696998235e-02 -9.372019302035586308e-02 -2.658967130690097214e-02 3.372526826337304828e-02 -3.527363666831907496e-01 2.750048879491697948e-03 -2.632983235782975218e-01 -6.656945891658634651e-02 -2.770886753118259951e-02 3.677477374911973518e-02 -2.835230994218137512e-01 -3.012446236014959533e-02 -7.404430696914580945e-02 2.168785508825976996e-02 -6.838585144753189793e-03 -4.910698331718677673e-02 -7.485713941295179565e-03 1.693019227732403195e-02 -9.897496452665941608e-03 -1.547949966351440665e-01 5.044291535440520273e-03 -1.427082202021517920e-02 -6.641037793926680977e-02 9.543245513502544852e-02 3.311486501268107088e-03 -2.994886833515302688e-02 2.628230553425931967e-02 1.539763546795778204e-01 -6.201325256410476078e-02 -3.418593741248173584e-02 -1.425907214233534948e-01 1.611325006054268802e-02 4.267916442150002099e-02 1.706727080611277758e-01 -6.000239791136954826e-02 -1.593361709672523052e-01 9.469232994520892024e-03 -6.899557964499174190e-02 -8.144508712627471225e-02 -6.471930695940688628e-03 -2.533108114123940047e-02 2.375695167045688283e-02 -3.312759332104977389e-02 -2.404497566940311942e-02 5.335477270669525783e-03 -8.089666289170577285e-02 -6.746575321613329512e-02 -4.079271456641170995e-02 3.208881099444409538e-03 -3.253203136298053744e-02 -1.954616728826215066e-01 1.907126948345485781e-02 -3.228687581625502585e-03 -5.932381329395094299e-02 2.277152026551456081e-03 7.835061686046397578e-03 2.407309150338200754e-01 8.889539093222062482e-02 4.266448347841824557e-02 -3.014949678848581963e-02 -6.661662199763365710e-02 -9.793512232943410445e-02 3.838525052068493364e-03 -7.411584501221456234e-02 -3.698178938193059234e-02 3.850117400105970006e-02 1.351264868694303581e-02 1.367213809627752796e-01 -5.706633402405533045e-02 -5.209374717054212484e-02 -9.656284008779142392e-02 -1.161790760735180311e-01 -6.740217509297823095e-02 -6.644973843637222433e-02 -1.501980984262037688e-01 9.885217315465173737e-02 -1.612290009448455637e-03 -1.404579462800343605e-02 -8.690863391421286069e-03 3.477900198825823602e-02 -3.939917238619080470e-02 -7.930963030000505454e-02 -8.372163734946148905e-02 -1.181435049253125175e-01 -3.413155390234306336e-02 -3.628898343500691626e-02 3.041020103118959039e-02 5.885257092717130489e-02 -3.367558615402980737e-01 1.390577127659376466e-01 -2.529590458855592808e-03 6.519704569544139405e-02 -3.864990393589186335e-02 1.579054325065136766e-01 5.079708992321396721e-02 3.166654437461637311e-03 -1.316641610624243175e-02 -5.503884282028437616e-03 2.310242827217036388e-02 4.275871048768046384e-02 1.543394179075175954e-01 -1.240656379743121651e-01 4.146461290051400156e-02 3.929643918855225265e-02 4.816181734456807112e-03 -1.000332738352702894e-01 3.816056323319404892e-02 1.249105005968200593e-01 -7.972267490437863480e-02 3.450822918587079235e-02 1.592225949301103935e-02 -3.824682499122637139e-03 -4.222451897205643789e-02 -3.950084082723086948e-02 -1.063307807361569234e-02 3.215020645652357650e-02 -1.040977076751904359e-02 -6.686890553229760635e-03 -1.024236553411282669e-02 -1.056432072006312575e-02 3.781676156540670925e-03 -1.111097097859062161e-01 -4.154020009966411658e-02 -3.609964053976325721e-02 3.337421083591744081e-02 3.418143086508967921e-02 -4.959986136538831886e-02 -1.713499326795138097e-02 9.894910268209833326e-02 -1.050635158923918233e-01 7.383723978299078228e-02 1.828210053852085543e-02 -1.227168316538685411e-01 9.145872783348744928e-02 1.503650107266896740e-01 -1.433329609396909177e-01 3.946091237037836069e-02 -7.385059869721483095e-02 5.353513643839288849e-02 1.224630796810828072e-02 -9.003052747186253077e-03 -4.601229301604481403e-02 -5.966116788704162177e-02 6.647996037123393709e-02 1.347463567308054000e-01 9.482980283368584035e-03 3.635031958002190450e-02 -1.281785152333040634e-01 -1.802303876680804440e-01 -2.511885909073486786e-02 -1.814452662513223527e-02 8.892377105094136092e-02 2.228790518440542170e-02 -4.899433106170664881e-02 5.497414033224812258e-02 5.207485852458374614e-02 2.303553691717768331e-02 2.830398446835429363e-03 -1.416193933807027502e-02 1.652219801957618972e-01 2.207227793212246381e-02 -7.458455082435407058e-02 -1.289071658670078724e-01 -1.951502126498067587e-03 -3.857887400350928919e-02 -3.246777631873765807e-02 -4.758513615838282085e-03 -5.074008017539415310e-04 -1.347905813318119872e-01 5.728404705904339284e-02 -7.215505333567041879e-02 -2.968200830657952843e-02 -8.302573752447738042e-02 -1.634506456206149538e-01 2.793930906571378756e-02
4.972255784466209083e-02 -2.009213518877800420e-02 1.117881575176785970e-02 3.224973184299866763e-02 -1.783119584545404118e-02 -8.029888633183435154e-02 -2.801747200152596498e-02 5.792721848632349790e-02 -1.429820535725320578e-02 3.693097785994729071e-02 -4.178429120859126350e-02 3.680171534023223001e-02 3.664254619016397291e-02 -1.439322640800368147e-02 -1.483670203511767982e-02 1.119818301913372109e-02 -2.497782995249617569e-02 -2.856984823928946163e-02 -5.351207165096415891e-02 8.501148869593893459e-03 1.022057931897551574e-03 2.995672317944611529e-02 -2.325489413197382241e-02 -5.746288774768461630e-04 -7.001538198715347161e-02 3.004895614250028754e-02 3.869511855856030969e-02 -3.710824931939394299e-03 5.065707202600902223e-03 1.579056050520866172e-02 -4.144770589306449177e-02 -4.978190195035153698e-02 1.891127164946606459e-02 1.182397724735299686e-02 4.967290984804373540e-03 3.043800542315865804e-02 -4.872134535260232158e-03 -1.450858502186031483e-02 -8.123638112394536252e-04 -1.532781419159894498e-03 -5.145211839570101864e-02 -1.215484620207060301e-01 1.989141717830119824e-02 -4.577429528760072058e-02 4.547028134201867855e-02 8.537482351642306302e-03 2.122730794242549263e-02 3.566077500969320330e-02 -1.394642007354030266e-01 2.133601216132968020e-02 -6.439439594365257979e-02 -4.269870497757040362e-02 -2.731412241652984418e-03 -9.958723836139873539e-03 8.345204346331518142e-02 -1.030882357071521011e-01 -2.040245721351668234e-02 3.689481546700218439e-02 2.880316550766739286e-02 1.064652298941562956e-02 -1.661939191240834404e-02 -1.170113890936050512e-02 1.749373072561387008e-02 2.121029744109625883e-03 1.004428661740236657e-02 -3.955645839321365181e-02 -1.353371731006540457e-02 -7.744918604274646234e-02 -1.252393493141931193e-02 -5.585312801173922259e-02 2.538888103928254453e-02 -2.369334440229261748e-03 6.241538713185895010e-02 1.725029900827352788e-02 8.681925782996892382e-02 -4.848262101407731055e-03 -8.234154199660384185e-03 3.075919255235351479e-02 2.143776821647500747e-02 -1.953863079539206512e-03 2.075806895021239593e-02 1.700323192422133201e-02 -1.127732899808295795e-03 -1.641768550083512468e-02 2.343227819618271673e-02 -8.689283140648730586e-02 1.081770208051700648e-02 -7.536944273995485610e-02 -1.459406898568249740e-02 -1.199530265961501604e-03 1.477535108176309363e-02 -2.653770746122289040e-02 -9.779578004701756921e-03 2.182949227344858911e-02 4.123035433503230429e-02 -1.573530241117342132e-02 1.153595692910158038e-02 1.212175848589052557e-02 -1.182021406040760850e-02 1.501400637807558634e-02 -1.645345157029886457e-02 -1.447677368844957901e-01 -1.613509149261493523e-03 3.262470901154067987e-02 -9.117409241292197264e-02 2.681269456897506301e-02 1.166418234786792667e-03 1.821441255297646944e-02 -3.630816884537292621e-02 2.872962853516713294e-02 2.252160486499581518e-02 2.254980230445833428e-02 -2.546971098922252291e-02 -4.690240617592951466e-02 -5.637828679236495805e-02 4.331339671208977310e-02 9.202904912310625948e-03 1.437222040945832597e-03 -1.130121567852865154e-02 8.164330897256637937e-03 3.498082517455237961e-02 -1.076853905680837629e-02 1.414006536795965781e-02 1.443921054480410120e-03 2.132025097107920902e-02 -3.308303376168400967e-03 -1.180549864121715163e-02 -1.115977877918810333e-03 1.074028987504741135e-02 1.406141024693797342e-02 1.155802113724915640e-02 -4.594972495704908316e-02 4.472374019235323545e-02 -2.523080619770776394e-03 9.979868942156432110e-03 -5.571620409419575717e-03 1.557937846095023768e-02 -6.438366940143044892e-02 -1.021846301881581230e-02 2.246607558808922517e-02 9.354331723278076771e-03 2.125785922177252790e-02 -2.165792263714277216e-02 5.081656139197325561e-02 1.010488248392606321e-02 -2.329504444403311669e-02 3.969684945738071596e-02 2.991157104609789077e-02 -4.911336837270800088e-02 2.938128968600760629e-02 4.530011195823120673e-02 2.100063474341259517e-03 -1.221989570879125908e-01 -5.516238100754989986e-03 7.694634656922527682e-02 -2.522213670897249446e-02 -3.336147473091009147e-02 2.410656311981118193e-03 2.009960442467656483e-02 6.395435268036236097e-03 -7.768552640062895143e-02 6.427696225021699294e-02 2.773097048764049111e-02 3.322000692849979425e-02 3.268444400787184900e-02 4.313925209412862449e-02 1.430265640392031599e-02 -2.740724230476189807e-02 -1.104083404780110793e-02 -8.040929561588791574e-02 -1.885047662050059469e-01 4.019278728144348029e-02 1.606992525573157707e-02 1.311416359876859360e-02 -1.589548057725215513e-01 -6.973279704363444936e-03 -2.049930604488661712e-02 1.081038443613779876e-02 1.609035512137049762e-02 5.225133244539114513e-02 -2.676602456183169512e-02 6.729891345826446991e-02 -1.426650044614265200e-02 7.023334352900817423e-02 9.439854766722149601e-05 2.937848808189235869e-02 -1.570174345822972217e-02 -1.659573877096731306e-02 -1.758494562685773005e-02 3.808311216048665404e-02 3.030855877763478597e-04 1.237093711863878134e-02 1.443865868251490922e-02 1.978973142728189180e-02 6.623374660481677612e-03 4.243764202702750982e-02 -2.632166071197557244e-02 2.310299948839724185e-02 1.429174159257361925e-03 4.928204150569171632e-02 1.210195445715893381e-02 3.218880412667374930e-02 2.559288938197739824e-02 5.340371325881760819e-03 1.576420476672990914e-02 2.198789143437482687e-04 -4.989804885389930583e-02 -2.114935612176964755e-02 1.471108990302671601e-02 -1.659443953405196834e-02 -1.203007962436965506e-01 3.042828810461357253e-02 -2.545808970283218800e-02 2.490708176528963480e-02 -1.576424356498913326e-01 3.844556524797170666e-02 -1.099384745834075180e-02 2.709413351643943924e-02 -2.151728502113694694e-02 5.791322721874939128e-02 -2.019568516285990753e-03 5.645394751947899886e-02 5.143898081264561967e-03 -6.491511493944106259e-02 2.346265157224036724e-02 -5.089036823379168573e-02 -9.370502768057507523e-03 2.151532661797750379e-02 4.731783513672630642e-02 2.285149016744416478e-02 2.469097089932991134e-03 3.744508405383926292e-02 9.857390351748649901e-04 5.283373133367334079e-02 6.728329691120457645e-03 -8.386793956709425249e-03 -1.564030644590384822e-02 7.504816018763037222e-02 1.437716672202750054e-02 2.947070064036961395e-02 -1.090811962227530990e-01 5.226643434505130748e-02 -4.632485551918560929e-02 -4.974755743506863170e-02 -1.054036143880821355e-02 6.546439933720982207e-02 1.512537074452748043e-02 -7.014176849273739012e-04 -4.119446519572499826e-02 -1.084797027924812307e-02 -1.962803730847539618e-01 1.139781987919012175e-02 1.992114062357743312e-02 -1.660229304988079455e-02 -1.223107750798020643e-02 1.349748238041363971e-02
-5.962281172603772078e-02 -2.451411534795872038e-02 -8.398712063703132891e-02 -2.879407837852566640e-02 -3.849977100630029569e-02 -9.661561862472491102e-02 -1.801892305738029831e-01 -1.327463014493650804e-02 -3.813341865018812088e-02 -6.933621230448309795e-03 -1.017839896127382265e-01 -1.949286599148901010e-03 -1.559829771626050632e-02 -1.132538648903785999e-01 -3.229700168842467717e-02 -5.284992194683463956e-02 -3.773100696027709838e-02 -3.861716227322495310e-02 6.022737955801790374e-03 -4.758245534739555943e-02 -6.455570657497025633e-02 9.865784024119469975e-02 -6.968606508144917222e-02 -5.406991172079607388e-02 -1.492405190638544377e-01 3.360410713391710769e-02 5.939320537641190612e-02 -1.569053980313980801e-02 -4.518417616066929682e-02 -5.043153942165024689e-02 -8.771786580236110020e-02 -2.248844654047650604e-02 -8.186569009756995002e-03 -2.942862979601281251e-02 -1.131341100168914843e-01 -7.371864560152330270e-02 -2.743303708287390952e-02 -8.425417609719025591e-02 -5.774134265524888399e-02 -2.673790571971718794e-02 -6.743840946733738184e-02 -3.422771299619870727e-02 -4.185776013873043766e-02 2.235854105835822364e-02 2.073850140913325452e-02 -2.180703044599969012e-02 2.085198249115801251e-03 -7.894186271607506189e-02 1.293538611725013852e-02 -9.102308505120294824e-02 -9.863517590160564286e-02 -5.836168120977619500e-02 -1.063435356428340112e-01 -1.121276384590957492e-01 -5.716144844395467522e-02 -7.199333004493921329e-02 -1.849809843763921269e-01 -1.056963544655876996e-01 -7.976077038687355569e-02 -3.214478689158780517e-02 -1.014816304111746254e-01 -4.985776937397938535e-02 -5.009826863912918843e-02 -3.322087035532182708e-02 2.556585775059333834e-02 -2.446197764131477492e-02 -4.252820332270845771e-02 -1.428062164768585940e-01 -1.948397546913195263e-02 -9.182458708475714493e-02 1.926655551588964815e-02 -4.364810690251033631e-02 1.024774511940608653e-02 2.351256380306035801e-02 2.188922874874456997e-02 -1.857179774217764673e-02 -2.679904931344483099e-02 -3.812276885062212267e-02 -4.798241339018444185e-02 -5.387747223327470775e-02 -1.479124628704350519e-01 -4.564303174312031586e-02 -2.281124379568044980e-01 1.090107836801334270e-03 8.626341865772808523e-03 -6.095314763243874639e-02 -2.386160123476110603e-02 -4.452749751374259629e-02 -1.116659039562458711e-01 -8.127480205988600603e-02 9.436089766078381222e-03 4.696008137315633990e-02 -7.406317075595171551e-02 -1.660228048591072883e-02 -6.880018468415297073e-02 -1.130762601036801734e-01 3.130252761186144705e-02 1.760421281360952106e-02 -7.799040940773227515e-02 -3.347128819681997880e-02 -1.529490688465799941e-01 9.526410762085024686e-02 -2.196580157907063527e-02 -7.571505440403263065e-02 -9.536465648081839108e-02 4.831010936552919584e-03 -2.746490253981664909e-02 -3.257713610325511239e-02 -2.023328047689455234e-01 -3.360384807628055692e-02 -2.981217325797760193e-02 -2.173780002414410148e-02 -1.980336393470481793e-01 -2.933111535909961945e-02 -8.663685645477417485e-02 -6.766927299687677810e-02 -1.523057334656191253e-01 -4.391386631529504286e-02 -7.588481349824857669e-02 -3.994984265261465606e-02 -4.287767413605456795e-02 -2.750781374802095669e-02 -1.115402358367649505e-01 -2.645963961625713567e-02 -3.773834953221551908e-02 -8.007403235273168052e-02 -9.783554691791356006e-02 -2.015485707287815453e-01 -4.671965606026926010e-02 2.795636612624494144e-02 6.343454660652608768e-02 -5.324798296098150197e-02 -1.274549003064935626e-01 2.832547140048214274e-03 2.058900854395046345e-02 4.174841723611476610e-03 1.518046753497048242e-02 -9.857809136194572996e-02 -1.935803111027070977e-01 -4.354960152308361837e-02 -5.644342138607858633e-02 -3.699697634528922169e-02 -2.853569933159710859e-02 4.266072597591410304e-02 -6.167653354630943385e-02 -1.204752316798627688e-02 -3.111235317414392035e-03 -3.440341103101568487e-02 -1.229654942477448054e-01 4.879837906444103868e-02 1.017488106197123217e-02 -1.083083482878962056e-01 -9.058489638604852456e-02 -2.947915117587172548e-02 -9.768546901715575992e-02 -1.010519369642924742e-01 -6.181367463307048393e-02 -9.989358383574961642e-02 -1.512752762152848318e-02 -4.543325770503157945e-02 -1.078173469118511862e-01 2.319394002790807832e-02 -7.898551283894468880e-03 1.111158189553244080e-01 -1.282195542089313751e-02 -7.414960289591930598e-02 -4.139600143448385339e-02 9.075619753615342487e-04 -6.611692652104758650e-02 -6.022200747572260121e-02 -1.027042118251648151e-01 -7.967845954372490547e-02 -4.347137827737596050e-02 -1.486179493897660242e-02 -2.268668342335813104e-01 -1.283573987225686552e-01 -3.633519939098433377e-02 -1.150150265666792793e-01 -3.042253493327778946e-02 -4.769471574627206362e-02 -6.078308314132770812e-02 2.556445784959992043e-02 6.546229233356956612e-02 -4.450401233338038658e-03 -5.370690309093693188e-02 -3.198236738715973942e-02 -4.486005286774034581e-03 -5.934000965840997149e-02 -1.197003957826871662e-01 2.374019490478928088e-02 -1.622036139224910037e-02 -4.565022400859197055e-02 -4.795205385166143204e-03 -8.035650169210690683e-03 -1.560156816693084557e-02 -3.053824819048454181e-02 -3.959192807089254723e-02 1.224161361157901327e-02 -2.115684902360527933e-02 3.408499731356293833e-02 1.773568191813127901e-02 -1.985100227187212851e-02 -3.561114738666395357e-02 -1.089696183393007028e-01 -4.328122785192002608e-02 -1.146050321490810348e-01 -4.112645560155198977e-03 -1.124801604904214908e-01 1.166924941841363667e-02 1.755058479746544886e-02 5.296822708999220086e-02 -3.690796647496324967e-02 -7.328725241711611660e-02 -5.420650986978233637e-02 -2.950257686419692216e-01 6.995811009963602556e-02 -4.876934251943913085e-02 -3.539012124743405596e-02 -3.868568001193067873e-02 -3.279053786704687057e-01 -4.437591476882408840e-03 -1.299369288195126315e-01 -3.527887929270157041e-02 -4.358356709652654731e-02 -5.726767746032343509e-02 -1.617797712124520171e-01 -4.613428764647183045e-02 -1.994032088351931770e-02 -5.507112346231365918e-02 -4.950079983430746844e-02 -4.645211814971381831e-02 -7.030758282254769703e-03 -9.372987476172098265e-02 -2.294134478480924343e-03 -7.759013552974731998e-02 -1.178788885280899201e-01 -8.278088568470455544e-02 -8.308487881989981561e-02 -7.339331357074709017e-02 4.357316133845939854e-02 -8.546519460036031135e-02 2.830846587271691403e-02 -3.311066779183159670e-02 -1.475123775601642206e-01 -4.542870855731369339e-02 -8.830632069445926158e-02 2.488166183985224614e-02 -9.730439388694363603e-03 -3.982438386441648770e-02 -8.580767270715608519e-02 -1.390293668724651988e-01 -1.316067289061098045e-01 -3.343069776849807301e-02 -3.467639910914788268e-03 -2.569260610903907963e-02 -7.584494263731743346e-02
7.953434987626246955e-03 4.831985188470809718e-03 -4.919743333215000156e-04 1.079408954718965447e-02 3.532361593632505053e-03 -4.999024013426098950e-02 -5.291392921262974558e-02 -1.068365217286341463e-02 1.295895908760229948e-02 2.742587847278464205e-02 -1.242160002795648747e-02 3.440947912592251523e-03 8.050465937264817545e-03 -1.249434147023323338e-02 2.349451399558873804e-02 2.257127975737838448e-03 -1.309002572649542451e-03 1.486853194700089821e-03 1.156551090424750433e-02 -9.275486535738487748e-03 3.501265539948695497e-03 3.108148871303658550e-02 -1.092922489824152410e-02 2.262463779310173312e-02 -1.520269618407870185e-02 -1.094048755963806900e-02 -2.216713720241166724e-02 1.094700933524158683e-02 7.126818394996731545e-03 1.351877472841937419e-02 -3.660209448050897457e-02 5.197842870591926935e-03 4.242929850108183819e-03 -2.130556064092898987e-03 -1.710788714279417450e-02 -1.314795934984544111e-03 2.240028733519187562e-02 -7.046380785051963198e-03 1.154392484160793840e-02 1.265649130776991607e-02 -8.704983129396810793e-02 3.780093511989427845e-03 -8.510836086723693253e-03 -2.139915280571908288e-02 -1.534112016274023944e-02 -4.268359069315082882e-02 1.028864874853421818e-02 -5.515397044534289805e-02 5.800970208951057583e-02 -3.427120316564130631e-02 4.236165485294455385e-02 -9.960245132246144106e-03 1.952105526483803935e-02 1.459838347924553165e-02 -2.194613881905588607e-02 -4.796219072391809390e-02 -3.535537242324060525e-02 -1.121913015481971164e-02 3.620123738085546244e-02 -3.892338226907093770e-03 -5.638096185018055123e-03 7.267986383154212068e-03 2.545788295678949424e-04 5.003886739091481517e-03 1.580138772606926728e-02 5.343406685730713729e-03 2.594027645851993899e-02 9.623310042378672990e-03 -5.289373683387514971e-03 3.133277902542018489e-02 1.603493433768780115e-03 2.165359719991074780e-02 -6.795636016669041879e-03 -7.785417275960139494e-02 1.469117449674830697e-02 3.040548525377388418e-03 -1.648925633139970660e-03 -8.642831464242373835e-03 -1.749057663029773141e-02 2.515204353641689594e-02 -2.727211422940105379e-02 -2.490487839867610784e-02 4.942277570648244411e-02 1.642694385516053901e-02 3.069141453884917988e-03 -9.686677932255395584e-02 2.430403780733981361e-02 -1.329076572095055642e-01 -2.221844858836674597e-02 6.487959815072733873e-03 1.958673278587880207e-02 1.329331890910950137e-02 2.374718417421495427e-03 1.228064651695250781e-03 -2.010234886036796689e-02 -1.271900439100844687e-02 -4.543171597181800900e-03 1.553969219636865866e-03 1.831054470897441194e-02 4.971866753999547826e-03 3.113639838979455343e-02 -2.127248445877230262e-02 7.185831787092128616e-03 2.389079236107485155e-02 -7.924549089418123429e-03 -8.022616648027026563e-04 -2.929106038833679398e-02 2.417681838998012034e-02 -1.077703531445934823e-02 -3.596950130112069356e-03 -1.379865892422743427e-02 1.865058290827347615e-02 -2.854521599366944065e-02 3.019282892034118966e-04 -3.018929793552438748e-02 -2.742654994234391182e-04 8.248464620456714275e-03 2.005366315789434972e-02 6.522957639240076037e-03 -7.688444777073454419e-04 7.201725270639633934e-03 4.563367463390981434e-03 8.685487025447742203e-04 -2.401437010149131898e-02 -3.938573114385412501e-03 -1.612281116436796100e-03 8.133663783486958648e-03 -4.292826727101759637e-02 5.778267449110405241e-03 -1.082058918289808885e-04 -1.559541992487547060e-02 3.201185914589877585e-02 2.897038568356319344e-02 1.689782383790424530e-02 -6.191478471850905829e-03 -1.449290906696472023e-02 2.591122198550187099e-03 5.234771552223868238e-03 8.625495518636953213e-03 -3.638972310274056748e-03 1.534102803176876431e-02 1.342754444917637624e-02 1.000855520286931047e-02 -9.546117814855616807e-03 -1.293945226570812146e-03 -3.023715191189844248e-02 -5.792179037532385133e-04 -1.064919990444095077e-02 -2.021084316963176267e-02 -3.688912247609036493e-03 -4.698122401894928683e-03 1.882454901445963780e-02 2.722311797832696612e-02 -1.955104353091731417e-02 2.702517479178081529e-03 2.584090329173540854e-02 1.666450882868168032e-02 2.539544319670588961e-03 -4.650903996480737837e-03 -1.502109199979860532e-03 -1.864560249640593789e-02 8.530979784990297757e-03 6.600395679992287525e-03 5.299869774836367398e-03 -5.567208532381212388e-04 -5.236635532482171104e-03 2.997863289144302862e-02 -1.910417744431608042e-02 1.188685361973860002e-02 2.335809951209201485e-02 -1.430041492389579061e-01 1.361841975156391667e-02 -4.390654205437794291e-03 -3.502885249296554173e-03 2.539232579724296553e-03 -1.435168855500594184e-02 6.629786754103837894e-03 8.187774526772800820e-03 -1.334120188019338217e-04 1.944569402989717102e-02 1.420676616493335952e-02 -1.462363776931231360e-02 -2.659265970818466482e-02 -8.697121128080751232e-03 2.325016132642788308e-03 -7.225746521654128653e-03 -7.283937361967035215e-03 -3.331452409381538589e-03 -9.369718124283788960e-03 -1.098482677941447008e-02 1.408521728674253827e-02 -1.154503378841640476e-02 -2.342654922360063244e-02 -2.337010197523505407e-03 2.608076752006427759e-02 -4.362804248191456610e-03 4.557033019158840577e-03 1.326886006023396056e-02 2.441459031015270637e-03 -9.942458546497077998e-03 -3.337234215177487819e-04 9.537335790814576233e-03 -1.528454274913218600e-04 1.815223017806888916e-03 5.765665651238044073e-03 -5.357199702609703913e-03 -1.949459547952639427e-02 2.740496436223795618e-03 9.218001261665612761e-03 1.168062143688367895e-02 -1.382094232495296171e-01 2.973311144619111574e-03 -6.523558641065692332e-03 -1.511442185141557634e-02 -1.934495583382431824e-03 3.772189898606075065e-02 1.674854058384529082e-02 -3.862072497366360584e-03 -9.040159409461711801e-03 -3.377476998097962702e-02 -2.499490668523825232e-02 -3.118936385408219332e-03 2.966158243293209873e-02 1.346326715161503228e-02 -1.239114435044648931e-02 -3.811893138005081894e-02 1.221899642338672431e-02 2.300637132611083345e-05 1.465589629804968375e-03 9.508389089355711102e-03 -2.995621876675852793e-02 -1.644705844427684673e-03 -5.263781938676396523e-03 -8.866230709454841347e-03 3.152773239324467569e-03 2.180630694935472083e-02 3.499302586340829763e-03 -9.702352194801247207e-03 6.364259979110502459e-03 -8.901023858337089867e-03 -3.962574109198415545e-02 -2.076850745485034344e-02 1.774599017193252345e-02 1.340085339663499471e-02 1.531942456200017719e-02 -9.192969080556879363e-03 4.885047341952135878e-03 -6.046704232175398666e-03 -6.517829736687529713e-03 3.730324909593889932e-02 -1.079448813336569696e-01 5.045307301955848957e-03 -2.990506506469276220e-03 -1.194989514807350862e-02 1.011642728457700161e-02 1.458114299537177812e-02
